0	-0.663984539297
27	-0.145107845984
28	-0.52397017726
29	-0.0198206261162
30	-0.40934811414
31	-0.333235942959
32	-0.662100463046
33	-0.626956093212
34	-0.093499559073
35	-0.550624505021
36	-0.55062951361
37	-0.649268278104
38	-0.662099928958
39	-0.550642743454
40	-0.663984539297
41	-0.455113216596
42	-0.662102101587
43	-0.258268407771
44	-0.298110244101
45	-0.00725314877238
46	-0.449222676632
47	-0.12828545343
48	-0.32198589828
49	-0.293211626167
50	-0.604083782743
51	-0.876848397426
52	0.0955912320336
53	-0.357335288203
54	-0.0295808465477
55	-0.327053025078
56	0.0760401655245
57	-0.248631873468
58	-0.216844507066
59	0.0149958384097
60	-0.408601974623
61	-0.405524413831
62	-0.491700401799
63	-0.299640068561
64	-0.318917859989
65	0.0119671325706
66	0.0722064081487
67	0.26158540129
68	0.437709517384
69	0.195563500565
70	-0.728005475091
71	-0.622763712425
72	-0.727995700583
73	-0.156954930723
74	0.0291442680233
75	-0.336933147529
76	-0.122476798952
77	-0.492368988716
78	-0.309915613226
79	0.117810439315
80	-0.292940008512
81	-0.102311885913
82	-0.121038411575
83	0.0727500214636
84	-0.21721085668
85	-0.0247007448698
86	-0.0108822686283
87	-0.439797151187
88	-0.115900658116
89	0.00106427732745
90	-0.393119046766
91	0.112447386761
92	-0.547650788951
93	-0.524812826942
94	0.00335138346738
95	-0.422848582087
96	-0.0761803988712
97	0.118686972178
98	-0.00923446060324
99	-0.216275144331
100	-0.191215790895
101	0.00614138572915
102	-0.0138429042164
103	-0.0144680031413
104	-0.0253300425022
105	0.110434722266
106	-0.385587750595
107	-0.465379255656
108	-0.606288065944
109	-0.606629500756
110	-0.607381217463
111	-0.516824184567
112	0.016040628648
113	-0.42412473706
114	-0.223165182387
115	-0.0871183527782
116	-0.0659426630498
117	-0.00766019286272
118	-0.354782550206
119	-0.117384000391
120	0.0725462026842
121	0.0701766054041
122	-0.322510258454
123	-0.0202049921258
124	-0.400509749038
125	0.0183732859283
126	0.198476488598
127	-0.605872831969
128	-0.607210528582
129	-0.122362558941
130	-0.0259612246903
131	-0.330479080631
132	-0.378440092745
133	0.0116008710131
134	-0.500518693615
135	-0.515915585456
136	0.00810217564545
137	0.00698369821353
138	-0.00351117518037
139	-0.162326531798
140	0.124329509074
141	0.132812896705
142	0.00434132312364
143	-0.0172634969586
144	-0.00395983146589
145	-0.120118187089
146	-0.0206575353375
147	-0.0668598379667
148	-0.771302936293
149	0.00408148549883
150	-0.30827906748
151	-0.319418154633
152	0.000449829105789
153	-0.132054208297
154	0.0200498484134
155	-0.439553796241
156	-0.95943917426
157	0.0146162340558
158	0.0566637639403
159	-0.178318386986
160	-0.0260791516225
161	-0.2841463395
162	-0.348424083137
163	0.0203147915863
164	-0.555291919047
165	0.0458154030076
166	0.00561528925831
167	-0.42121177175
168	-0.220639579425
169	0.0182841235823
170	-0.107885374848
171	-0.27113032777
172	-0.283618994381
173	-0.0186090170621
174	-0.131733787455
175	-0.0383785558557
176	0.0136976495073
177	0.638941855594
178	-0.00463038229222
179	-0.687589842964
180	0.00408660629266
181	-0.552665373473
182	-0.0174975601768
183	0.00512583378249
184	-0.123165869179
185	0.62743403336
186	-0.0100004789813
187	-0.0359385239989
188	0.00339977221352
189	-0.0347676893484
190	-0.196644410559
191	-0.149073364605
192	-0.464910343818
193	0.00495790813168
194	-0.307343882378
195	-0.299519197886
196	-0.227761920158
197	-0.244591136855
198	-0.0145097589661
199	-0.00472992643812
200	0.0100902573722
201	-0.0289938914124
202	-0.0150531168744
203	-0.132838195155
204	-0.494643801933
205	-0.688667761766
206	-0.0407398422593
207	-0.609004007821
208	-0.602625101208
209	-0.602639174482
210	-0.901918343771
211	-0.00528039345917
212	-0.206865229554
213	-0.00370837165709
214	-0.0607615735278
215	0.00874647728856
216	-0.520259616818
217	-0.355451045518
218	0.0123637843468
219	-0.325437174654
220	-0.318795437164
221	0.00869389174996
222	-0.173577863705
223	0.0130401089642
224	-0.0200619955586
225	-0.0262686168314
226	-0.0106342219973
227	-0.118913686709
228	-0.30471861503
229	-0.000398317364928
230	-0.139593989599
231	0.031846029277
232	-0.0187785753192
233	0.536565614331
234	-0.0336561205689
235	-0.348685563609
236	0.133802164629
237	0.010338250792
238	-0.386050298837
239	-0.0604900200088
240	-0.00324795925859
241	-0.297435858305
242	-0.00803854331992
243	-0.0214322451134
244	-0.0605054019468
245	-0.0188329777154
246	-0.161316902022
247	0.0019840086639
248	-0.000684805489521
249	0.0135562716121
250	0.226881628658
251	0.0639364122677
252	-0.0104977544587
253	-0.393171308306
254	-0.217409835982
255	-0.0239996051642
256	-0.143366191162
257	0.0131517881849
258	-0.221769749133
259	0.00346956216451
260	-0.372394852091
261	-0.372831293351
262	0.00168343842054
263	-0.439024147839
264	-0.437604307755
265	-0.677503985947
266	0.0169681669978
267	-0.0122248885848
268	-0.0320789611576
269	-0.00645762831586
270	-0.28485473921
271	-0.295820019284
272	-0.0194157701404
273	0.0167916480473
274	-0.31655143825
275	0.00374370471
276	0.00946345428702
277	-0.615872142173
278	-0.312037447177
279	-0.630537690152
280	-0.630699287836
281	-0.00892528894568
282	-0.350994162661
283	-0.165437472699
284	-0.0170352916469
285	0.10023151299
286	-0.0192369130546
287	-0.492233909229
288	-0.526557143349
289	0.293312313697
290	0.290181067803
291	0.0225356889694
292	-0.240077212268
293	-0.00892027418898
294	-0.226520587649
295	-0.0622729333742
296	-0.06217876654
297	-0.0115057162156
298	0.266534629923
299	-0.0239521363168
300	-0.0174720949749
301	-0.165125310687
302	-0.00813267193224
303	-0.0857675747506
304	0.0209603403215
305	-0.0349264158504
306	0.00354321722154
307	0.041626003445
308	-0.00991434042009
309	-0.282683019033
310	-0.218297061253
311	0.229216095798
312	0.245023378419
313	-0.00293922078592
314	0.0121421610002
315	0.0732042747107
316	0.691611376477
317	0.725482922932
318	0.00263955843765
319	-0.00647082580883
320	0.297623187042
321	-0.0800742007774
322	-0.0510439887015
323	-0.0218663536146
324	-0.108153008393
325	-0.0199505147776
326	-0.0212074486125
327	-0.161040276615
328	-0.0600942584355
329	-0.0611455519864
330	0.00614378529452
331	0.0181854519871
332	-0.00870437447229
333	0.0189618744905
334	-0.0762664710279
335	-0.47441780558
336	0.00069105830158
337	-0.496462037264
338	-0.0190158797244
339	0.0020126360101
340	-0.589768840672
341	-0.0211432967635
342	-0.107137364203
343	-0.114010735096
344	-0.121392163435
345	-0.0308896316543
346	0.0154992393963
347	-0.493409045174
348	-0.493401813874
349	-0.0167355169028
350	0.0130886944721
351	-0.0201020981707
352	-0.022615765451
353	-0.0337030472825
354	-0.0834951353419
355	-0.0440860284751
356	-0.00951706698381
357	0.184568094123
358	-0.0554246397748
359	-0.0082701695893
360	-0.18220443633
361	0.102563137566
362	-0.0851400386271
363	-0.0544437428625
364	-0.0120960234624
365	-0.219156086347
366	0.0198996563495
367	-0.303255618004
368	-0.294180132478
369	-0.0546832777778
370	-0.0613837899784
371	0.00144479779093
372	-0.0141560676647
373	-0.0255189143537
374	-0.0252552192626
375	-0.10872172744
376	0.0125275364109
377	0.0230281997872
378	-0.320823294461
379	0.196958501616
380	-0.02607927246
381	-0.00457793470152
382	0.055767301624
383	-0.0701804416526
384	0.019071428904
385	-0.00100098532037
386	-0.0236164958327
387	-0.0180543368819
388	-0.026402230151
389	-0.0094317790469
390	-0.0244336628311
391	0.0233719860926
392	0.0653225625732
393	0.00968702260367
394	-0.280335374294
395	-0.374423054411
396	-0.0127499172665
397	-0.0170315946852
398	-0.112477887452
399	-0.578175441852
400	-0.0220238052525
401	-0.00379882766459
402	-0.019871182435
403	-0.0245731436177
404	-0.486426735519
405	0.00624054280509
406	0.0922188408147
407	0.0923730255975
408	0.00275499723403
409	-0.321602034092
410	0.000820066602505
411	-0.00425325856983
412	-0.000395396759661
413	0.00925864409727
414	-0.0659682411357
415	0.00423639197003
416	0.00596320462897
417	-0.215414742786
418	-0.111325480759
419	-0.106918105493
420	0.00891270649827
421	-0.00529113257149
422	0.0165029939201
423	-0.00696793681272
424	0.1022598839
425	-0.0199488070587
426	-0.103978188413
427	-0.348160169958
428	-0.20881893425
429	0.00533782059646
430	-0.186323866377
431	0.00481562154597
432	-0.00321682924999
433	0.0543704389113
434	0.19330164706
435	0.0111142499082
436	-0.123386545176
437	0.372064702035
438	-0.0233218979746
439	-0.00179161683244
440	-0.00628753156369
441	-0.161209420941
442	-0.170921530446
443	-0.0157192232921
444	-0.0297497409995
445	-0.0251909559978
446	0.00227425486469
447	-0.101647088825
448	-0.0238998160784
449	-0.043584211154
450	0.00617897788768
451	-0.381613373501
452	0.0212660722521
453	-0.143900821564
454	-0.00265397967628
455	0.00757805297182
456	0.128186837622
457	0.106953779087
458	-0.00717064927301
459	-0.00470457607809
460	-0.00267452182922
461	0.00394868979929
462	0.00999324658223
463	-0.0197652653841
464	-0.115561682816
465	-0.0105478925392
466	0.108587861317
467	0.0070883421878
468	0.0155352956531
469	0.0196016998489
470	0.0103322224402
471	-0.062401612983
472	-0.0222996668433
473	0.130275635956
474	-0.00288736916269
475	-0.026754751899
476	0.011664218246
477	-0.142765222622
478	-0.00572431319815
479	-0.536823911289
480	-0.0745077710475
481	0.020073299507
482	-0.394656792929
483	-0.25304893765
484	-0.00667386086215
485	-0.197073064005
486	0.0040502721326
487	0.00870995456571
488	0.0152479145872
489	-0.108518214739
490	0.0222369669867
491	0.0235701051604
492	0.000718180162005
493	-0.0936434374742
494	0.0158055747359
495	-0.105439535879
496	-0.126412583875
497	-0.646537226794
498	-0.00335354691417
499	0.0172045287909
500	0.00990790042477
501	-0.0251761871196
502	-0.103115684719
503	-0.0170724692694
504	-0.00741137071635
505	-0.234019773849
506	-0.00899377891533
507	0.00390026398237
508	-0.0180687071116
509	-0.00128792712998
510	-0.0105809430938
511	-0.214939877525
512	0.00773844325295
513	-0.111417660708
514	-0.0569049866258
515	0.0183646224732
516	-0.0234107335597
517	0.0100955026745
518	-0.00894248064102
519	0.0411761665104
520	-0.225785589715
521	-0.282876613727
522	-0.295678866758
523	-1.019775472
524	-0.00835535718654
525	-0.0161641787046
526	-0.0561610445806
527	-0.00654806259289
528	-0.0313811192565
529	-0.0256251697229
530	-0.0629170339492
531	0.00100959186195
532	0.259782443567
533	-0.122270319233
534	0.112178969164
535	0.0212520534625
536	0.00678872680909
537	0.00493468374583
538	0.000839048560044
539	-0.0355158883261
540	-0.0243252924281
541	0.0240511466775
542	-0.0782735982168
543	0.0100960381829
544	-0.129216396333
545	-0.0106843965238
546	-0.0611195033373
547	-0.00401095528803
548	-0.0146090488141
549	-0.00338764714172
550	-0.00296801241564
551	-0.115729818883
552	0.011630320751
553	0.0197129451485
554	0.0184476747772
555	-0.024707029269
556	-0.171897669356
557	0.00613265809935
558	0.225951805034
559	-0.0103464755677
560	-0.0136627050651
561	-0.00705620242024
562	0.0157223001911
563	0.0133462484402
564	-0.336150969189
565	0.00258168816849
566	0.0158157665751
567	-0.0268673470872
568	-0.0171673725492
569	0.0186840261323
570	-0.0100951660099
571	0.0119248869844
572	0.273635734756
573	0.079895283998
574	-0.0233645055632
575	-0.0132286713578
576	-0.0244511912242
577	0.00838044197268
578	0.0518740031359
579	-0.00811212419457
580	0.275082268525
581	-0.273722085118
582	-0.0129483508081
583	-0.0249634922284
584	-0.0235984708904
585	0.0331443199641
586	0.00763461915125
587	-0.013545278054
588	-0.0115799796924
589	0.020958618087
590	0.13806316073
591	0.15253877883
592	-0.00825199690577
593	-0.161752124256
594	0.0131379423861
595	0.00941751984953
596	0.00427156680347
597	-0.0110684845424
598	-0.0228797571633
599	-0.171385454646
600	0.0102356668518
601	-0.384875936786
602	-0.274835233707
603	0.00973962712063
604	0.107658133613
605	0.000410663005259
606	0.174296790572
607	-0.0106755092158
608	-0.100156956537
609	0.0233681524608
610	0.00331971415389
611	0.0108013158314
612	-0.0235608918122
613	0.0113797167522
614	-0.0174768233327
615	-0.00671521120424
616	0.0510881581545
617	-0.0069092628167
618	-0.221230881434
619	-0.240230039748
620	0.0218224605917
621	0.0159092932957
622	-0.773663997727
623	-0.690492745612
624	-0.359799261693
625	-0.57054765131
626	-0.360163514941
627	0.0231097519841
628	0.0118381096083
629	0.00719100434089
630	0.0212826425689
631	0.09695711808
632	-0.0130813899459
633	0.00677710791484
634	-0.0174174527102
635	0.0937294179367
636	0.00962130869186
637	-0.0160596216095
638	-0.00437875470848
639	-0.0213612530405
640	-0.00454995750751
641	-0.0191259186114
642	0.00982053039047
643	0.0161556255466
644	-0.00152097096819
645	0.0893933120269
646	0.0117417654321
647	-0.0645952026111
648	0.0144293427649
649	-0.0276018907521
650	0.0111503866151
651	-0.105782385932
652	-0.109401717418
653	-0.0969414295018
654	-0.0166319661351
655	0.0105627221314
656	0.00343510900637
657	0.00114937220922
658	0.00470924127348
659	0.0203296221885
660	0.0140095324738
661	0.00608889609497
662	0.0192044719992
663	0.0176794769486
664	-0.00919271770531
665	-0.0924612435913
666	-0.0912881343241
667	0.00374112629844
668	0.0203108890106
669	-0.0860093617243
670	0.0146006134616
671	-0.0439913708836
672	-0.00555369023354
673	-0.000441357666971
674	-0.00457490391369
675	-5.36238626502e-05
676	-0.121205923836
677	-0.0225774790548
678	0.0810401455354
679	-0.0117711186859
680	-0.011411496646
681	0.0824597738422
682	0.012388276306
683	0.000395273949913
684	0.105371720656
685	-0.0400537820626
686	0.0189737280371
687	0.156391265448
688	0.0169299508572
689	0.0151936038742
690	-0.00904894028555
691	0.0208329335633
692	0.0116549742971
693	0.0977582451947
694	-0.0194495135742
695	-0.00512804326327
696	-0.0650228852647
697	-0.0251967146188
698	0.00418647508785
699	-0.168008429706
700	-1.26224120984
701	-0.022039182969
702	-0.0216794593765
703	0.00718745063564
704	-0.283099658142
705	-0.0179004474824
706	0.0175264931023
707	-0.175225221406
708	0.00539309510719
709	0.0157034998083
710	0.0194750437276
711	0.00761646820326
712	-0.0229338477067
713	-0.00985123007917
714	0.0179128562689
715	0.156331119061
716	-0.191219966114
717	0.0116893124026
718	0.00347627545578
719	-0.00742252777878
720	0.00398902898587
721	-0.231986870846
722	-0.00898895098226
723	-0.0242195932623
724	-0.0563524113352
725	0.019936346819
726	-0.0110027577827
727	-0.17953455853
728	-0.00679733490696
729	-0.0503914544832
730	-0.0136068114392
731	-0.231588748644
732	-0.00214153086943
733	0.0942593606199
734	-0.0120113622769
735	0.303418283617
736	0.00251606355915
737	-0.025114594953
738	-0.0253215495982
739	0.0119209798006
740	0.0125468444381
741	0.0786395535703
742	0.0187278523878
743	-0.0174761469158
744	0.019697042279
745	0.00863613499599
746	0.00738172744513
747	-0.0230201827439
748	0.011959439126
749	0.000341040588772
750	0.00158090679983
751	0.00209796516661
752	-0.0224197239933
753	-0.0104854814179
754	0.0205875224712
755	0.098140568154
756	0.0462225271742
757	0.0233046275996
758	-0.0218203439567
759	0.00716530929447
760	-0.104542009614
761	0.0157441653292
762	0.17183521873
763	0.0380960152498
764	-0.0132131708831
765	0.0139176066175
766	0.00852547378792
767	-0.0206293551073
768	-0.0125172503077
769	-0.203760124476
770	-0.0238295563454
771	0.230437299737
772	0.507792689966
773	-0.0087032443177
774	-0.00767178575754
775	-0.0229879784965
776	0.29106248235
777	-0.0013344781877
778	0.0161631336832
779	0.00129383383036
780	0.0211649279797
781	-0.00684092079943
782	0.0191753236373
783	0.00375380465931
784	-0.00213981510033
785	0.0975005840212
786	0.0161900842945
787	0.014340925521
788	-0.187037048793
789	-0.010349557079
790	-0.0135913991696
791	-0.00863602451096
792	-0.0219740877592
793	-0.127665928672
794	-0.00376952871422
795	-0.0163963860438
796	0.00245253264182
797	-0.332720364448
798	0.0182649015008
799	-0.0254850655918
800	-0.266303257499
801	-0.262292590172
802	-0.00883472634991
803	-0.0158505166478
804	0.0191530179366
805	-0.0200546371989
806	0.094500127993
807	-0.0170703169033
808	-0.024803988018
809	0.0198813104321
810	-0.01605576559
811	-0.0224660110423
812	0.0134722860582
813	0.15264171838
814	-0.0250888005405
815	-0.111042211834
816	-0.000348193947913
817	-0.0808943413711
818	0.00405951277266
819	-0.0179119992687
820	0.00595484034176
821	0.0145976027297
822	0.022790212404
823	0.0608488391574
824	-0.104901055035
825	-0.0233111832189
826	0.0207839738753
827	-0.0719149626046
828	0.00685151570549
829	0.0167959337015
830	-0.0014482524324
831	-0.0335616537521
832	-0.0622312901846
833	0.00320943566863
834	-0.00618439666254
835	-0.0245771200075
836	0.0178136530707
837	0.0170406007973
838	-0.0171482908105
839	0.0200454557631
840	-0.0270869337179
841	-0.0162361478685
842	-0.611609238552
843	0.01020652102
844	-0.224681557691
845	0.0842714462238
846	-0.0144825220017
847	0.00244247416505
848	0.00376493624055
849	0.0181191016487
850	-0.0234228903137
851	-0.284565338248
852	-0.0486749780119
853	-0.04065420497
854	-0.0116576424602
855	-0.0384035763969
856	-0.0263568277299
857	0.0112292841406
858	0.0167745701558
859	-0.00682278720098
860	-0.0256276821415
861	-0.0055878219619
862	0.00523449598724
863	0.00319525828043
864	0.0738568651035
865	0.00485603286628
866	-0.0238888224569
867	-0.0175735846344
868	0.000625257950543
869	0.00480640942122
870	0.0202587151858
871	-0.176350696576
872	0.0153687340475
873	-0.00176428306076
874	-0.0457136713464
875	0.0219202386109
876	-0.000495383486866
877	0.00887137664702
878	-0.0147897995608
879	-0.0638664570826
880	-0.00145873032815
881	-0.0230667220254
882	-0.022009869861
883	-0.00752268366943
884	-0.0660285183178
885	-0.0817182985877
886	-0.0188854942823
887	0.00258062581454
888	0.0220454605947
889	-0.17527674812
890	0.00936678976753
891	-0.0173875722601
892	0.0431202324543
893	0.0624448291033
894	-0.00526674525043
895	0.234329151511
896	-0.4002994792
897	-0.336891582785
898	0.0138747079671
899	-0.0230854485176
900	0.110051147368
901	-0.00904959753225
902	0.000294348229279
903	0.00488140150867
904	0.00521587358108
905	0.0838178682058
906	-0.0125497991671
907	-0.00601996114322
908	-0.00877629649213
909	0.148029815037
910	-0.0139684240412
911	-0.0219234299
912	0.0164354446187
913	0.00956289141488
914	0.0156235440411
915	-0.170987637857
916	-0.100882069779
917	-0.00944000055369
918	-0.0771954954491
919	-0.00207120589013
920	-0.00980807793614
921	0.0097733632179
922	0.0201646812414
923	-0.105790472043
924	0.0804125842745
925	-0.00977538300212
926	0.00642841736601
927	-0.0698790286779
928	0.0117119334563
929	0.0208502070745
930	-0.0109080113678
931	0.0119826858464
932	0.0103820123156
933	-0.022816860342
934	-0.034849003213
935	0.0184027259144
936	-0.0238636900023
937	-0.0138015060951
938	0.00150427918563
939	-0.318186619461
940	0.00203351755845
941	0.0183590261331
942	-0.00638399509188
943	0.00768536188636
944	0.0178757112557
945	0.0158151557846
946	-0.00729963735283
947	0.0205866441377
948	-0.0379515428662
949	0.0372456478074
950	0.0206483207542
951	-0.00434245656442
952	-0.0105973058581
953	0.108374301968
954	-0.00779311750807
955	-0.0670746400995
956	-0.0531154878781
957	-0.000266444929986
958	0.0241773924445
959	-0.00479719274213
960	-0.192129648698
961	-0.00285740706139
962	-0.12923895567
963	0.0016624185748
964	0.00805578235897
965	-0.0106619557221
966	0.00311238119745
967	-0.00403053343457
968	-0.0241264247633
969	-0.0410918694199
970	-0.287560436395
971	0.00807526484933
972	-0.0173072324881
973	0.0228231949
974	-0.00706459507009
975	-0.0200916133178
976	-0.0162868119514
977	0.177812483458
978	0.0723338632984
979	0.00776440973687
980	-0.0396303281509
981	0.00648143033254
982	-0.108873065183
983	-0.0147126909335
984	-0.023371704623
985	0.061215342132
986	0.0389112991085
987	-0.0121023331191
988	0.0242974926361
989	-0.000572285814164
990	0.0171151334779
991	-0.0155405751769
992	-0.208978078778
993	0.00609990650958
994	-0.0213380321758
995	0.0129127990462
996	0.00908623063868
997	-0.0076405693714
998	-0.012142180324
999	-0.165663572694
1000	0.00436729931852
1001	-0.0111118134922
1002	-0.0136605729825
1003	-0.00297431267488
1004	-0.0187903350514
1005	-0.168409344014
1006	-0.20782862037
1007	-0.0109280716892
1008	-0.930803987898
1009	-0.00426077277608
1010	0.152939436813
1011	-0.0186936690569
1012	0.0122311895566
1013	0.00633229778139
1014	9.03040634105
1015	0.00976732979839
1016	0.0149198153991
1017	-0.0129781375629
1018	0.270839280013
1019	0.00303345021538
1020	0.00632219042617
1021	0.00192711106232
1022	0.422493467396
1023	0.40289448461
1024	0.00969808910918
1025	-0.012165608868
1026	-0.017462993749
1027	-0.0423332563149
1028	0.0160077427495
1029	-0.0179654083649
1030	0.0111427781131
1031	-0.0120512394802
1032	-0.0203634473803
1033	0.0143672490666
1034	-0.0224593035419
1035	-0.00427826861112
1036	0.00728925718205
1037	0.00958001965097
1038	0.0128827928597
1039	-0.0203880069343
1040	-0.082409229394
1041	-0.0737597974099
1042	-0.166678352174
1043	0.0191663927222
1044	-0.00420070872949
1045	0.00633462188141
1046	0.226208579425
1047	-0.00448929610978
1048	0.0275041875869
1049	0.00482749434149
1050	0.314195350097
1051	0.00807994904584
1052	0.0107561317815
1053	-0.0216566720738
1054	-0.0286903245827
1055	-0.0124378117081
1056	-0.0120198709401
1057	-0.00949126226044
1058	0.254231521206
1059	0.00451389132879
1060	-0.00804367395316
1061	0.0160887088043
1062	0.00858350972221
1063	0.0017342173592
1064	0.0858513504796
1065	-0.0208848811153
1066	-0.0127205517703
1067	-0.00446933584074
1068	-0.0059178725282
1069	-0.0032943895695
1070	0.0242235799836
1071	-1.0678363729
1072	0.0170616839289
1073	0.0292329222831
1074	-0.0101310030967
1075	-0.205592802282
1076	-0.0242451274338
1077	0.00947059060048
1078	-0.00140211311551
1079	-0.0190488289925
1080	0.0197512914656
1081	-0.0028995479853
1082	-0.0133217944886
1083	0.0260935711374
1084	-0.0209196437302
1085	0.21513102895
1086	0.00683877206232
1087	0.0405446087883
1088	-0.0209336954119
1089	0.011491800566
1090	0.0129549644235
1091	-0.212815994084
1092	-0.285606985453
1093	0.00517832904408
1094	0.0120212100347
1095	-0.0168931926964
1096	0.0139393200664
1097	0.000225220792044
1098	-0.00187847540532
1099	-0.0187564431908
1100	-0.166434844158
1101	-0.167939505283
1102	-0.6292699205
1103	0.00636351192563
1104	-0.000626982173095
1105	-0.140499055742
1106	0.00573239212228
1107	0.00838540796916
1108	-0.0186688250741
1109	0.0775135445364
1110	0.0887561778095
1111	-0.0195356551632
1112	-0.0206408850021
1113	-0.0663062449462
1114	0.0095182795222
1115	0.0180285666008
1116	-0.0223148493293
1117	-0.00129757958444
1118	-0.0034185403407
1119	0.0237071589613
1120	0.0227812727409
1121	-0.110290917843
1122	-0.109246621538
1123	0.0246899098024
1124	-0.72670907518
1125	-0.0198107913843
1126	0.00646060533046
1127	0.0191474855054
1128	-0.0290132515858
1129	0.0202537478823
1130	-0.226477777757
1131	-0.0114571678382
1132	-0.0157987181036
1133	-0.362187460242
1134	0.0225956511376
1135	0.0172970999785
1136	-0.00303977501806
1137	-0.00180504176594
1138	0.00163179913454
1139	0.111670129191
1140	-0.00315132845903
1141	-0.0254569661244
1142	-0.0249906321621
1143	-0.00199072595105
1144	-0.0205135095383
1145	0.00505143591499
1146	-0.00521182344103
1147	-0.00402987318338
1148	-0.0106361228546
1149	-0.0163741500853
1150	-0.00824997927028
1151	0.0180217363129
1152	-0.0233496776417
1153	0.00638956923185
1154	-0.00153761528745
1155	0.0193046809548
1156	-0.0231540525544
1157	-0.193900065022
1158	0.0130733596924
1159	-0.00576439983158
1160	-0.0221263653992
1161	0.0101062592104
1162	0.0110611633936
1163	0.0123772320994
1164	0.163279832495
1165	0.0151248547021
1166	0.0123190551747
1167	0.00687647823027
1168	-0.0925562509131
1169	-0.0107289040301
1170	-0.0139533423142
1171	-0.0101238695654
1172	-0.0560793522822
1173	-0.944227157039
1174	-0.0167355796777
1175	-0.0247867368406
1176	-0.134659132903
1177	-0.00182055226778
1178	-0.216724593636
1179	-0.00783442908557
1180	0.0180351771548
1181	0.0211442010749
1182	0.02387380427
1183	0.00382525156844
1184	0.0102308848782
1185	0.00209207237911
1186	0.0142149630419
1187	-0.249040855154
1188	-0.0202752643321
1189	-0.0288203604259
1190	-0.00679591685674
1191	-0.00454806862928
1192	0.00910234093084
1193	0.0162503632052
1194	-0.13368806453
1195	0.0111804214138
1196	0.0162498134542
1197	-0.000227128719453
1198	0.0154585155283
1199	-0.00374025311567
1200	0.078702675587
1201	0.0527960726736
1202	-0.00371716964951
1203	-0.000106008885266
1204	-0.0176079640931
1205	-0.00612842638713
1206	-0.147675457541
1207	0.0227479200992
1208	-0.00118869490976
1209	-0.0300291836353
1210	-0.011928280128
1211	0.0235861104413
1212	-0.0152537118937
1213	0.00145273505218
1214	-0.0134150833561
1215	-0.0205470865748
1216	-0.00458753091159
1217	0.00315117766921
1218	-0.00284620783362
1219	0.0209678145133
1220	-0.162356728482
1221	-0.132606872132
1222	-0.00210436683483
1223	-0.00918998476058
1224	0.0145071270227
1225	0.00322111889211
1226	-0.0244975124391
1227	0.00103126977301
1228	-0.265089313671
1229	-0.0143206192443
1230	-0.00402795991491
1231	-0.0121855563555
1232	-0.018625755849
1233	-0.0612281249469
1234	0.042748298126
1235	-0.00339347923243
1236	0.0031685429586
1237	-0.027008077872
1238	0.0179326049737
1239	-0.00202856020543
1240	0.00988360256405
1241	-0.00148287290669
1242	0.00296492872437
1243	-0.0176510929923
1244	0.0157878411097
1245	0.0138682433566
1246	-0.011779289278
1247	0.00486895419335
1248	0.196094694059
1249	0.0143431367832
1250	-0.0188398259521
1251	-0.0154869726032
1252	-0.142388727345
1253	-0.0090906601772
1254	-0.00332863578294
1255	-0.0192871216643
1256	0.00818416013237
1257	-0.138972238607
1258	-0.0207244566155
1259	0.00108130922076
1260	0.0152405683556
1261	0.00355087133184
1262	-0.125580345252
1263	-0.01218382286
1264	-0.00710411081243
1265	0.00465000601374
1266	-0.0104466957337
1267	-0.00677117125172
1268	0.0133574039507
1269	-0.0209534408267
1270	0.00694808688688
1271	-0.0107989341854
1272	-0.0119972250636
1273	0.0152803524812
1274	0.015879303864
1275	-0.0221727363537
1276	-0.0206441943412
1277	-0.00720412971044
1278	-0.0351980790645
1279	-0.00529843370308
1280	0.0781129541199
1281	-0.0629101340653
1282	0.0529849619613
1283	0.0233597007057
1284	0.0245718712524
1285	0.0122785201322
1286	0.0167756380666
1287	-0.165083089052
1288	0.0127118501655
1289	0.0331731011374
1290	-0.022658069679
1291	-0.0152750859092
1292	0.0303131783427
1293	-0.00139276165198
1294	0.0170555254678
1295	-0.0248504879011
1296	-0.00430596575307
1297	-0.0221255927173
1298	-0.0744858137701
1299	-0.0108739710003
1300	0.0115196108396
1301	0.0118079520285
1302	0.00966369024653
1303	-0.0039043967962
1304	-0.383266533447
1305	0.0118813424146
1306	-0.0655775940737
1307	-0.0197285984936
1308	0.285841002558
1309	-0.0182081886653
1310	0.0109750347109
1311	0.0071799321517
1312	0.000219126548176
1313	-0.0163196285834
1314	-0.0231727983906
1315	-0.0207555070133
1316	-0.023197542614
1317	-0.124133648049
1318	-0.0256664749854
1319	0.00358157531305
1320	-0.0250936774372
1321	0.0163454081715
1322	0.0111464790246
1323	-0.00476803906272
1324	0.0034499873494
1325	-0.0117169822732
1326	0.144371237824
1327	-0.00562880850603
1328	0.00554186107792
1329	0.0193363602921
1330	-0.0088685524272
1331	-0.106792194895
1332	0.00708324326251
1333	0.00143466402288
1334	0.115701231479
1335	0.0243526600407
1336	-0.0027778270081
1337	-0.00393283381413
1338	-0.113796071872
1339	-0.0160788053297
1340	-0.00220359164799
1341	-0.0116412489748
1342	0.0022712135575
1343	-0.01833474181
1344	0.103104558161
1345	0.00772009079733
1346	-0.0132372137483
1347	-0.0246163802255
1348	-0.0182283649454
1349	0.0111187706668
1350	0.0210760329043
1351	0.0224582608194
1352	-0.00536005971714
1353	-0.00287682484788
1354	0.00455293835145
1355	0.0213514918249
1356	0.00482188946716
1357	0.013764750835
1358	-0.020491171177
1359	0.00212115078652
1360	0.00814574257861
1361	-0.0130506276102
1362	-0.00869655343641
1363	-0.0216577794407
1364	0.0122780491072
1365	0.00209969148627
1366	-0.0191718326085
1367	0.0126079944224
1368	0.0223144747141
1369	-0.00140920447045
1370	0.0200521736589
1371	0.00466506515174
1372	-0.00741582480036
1373	-0.00195111918114
1374	0.0179956047253
1375	0.0183413441724
1376	-0.00364751857639
1377	-0.121417081294
1378	-0.0430512051441
1379	0.0168314689531
1380	0.0156917314684
1381	-0.00833450401239
1382	-0.00787207726712
1383	0.0221475015086
1384	0.00167415467573
1385	-0.0221175515126
1386	0.101251451481
1387	0.0179367581315
1388	0.0212663471281
1389	-0.018807983507
1390	0.0169615478252
1391	-0.0214944095586
1392	-0.00936515303038
1393	-0.00750738598017
1394	0.10781007902
1395	0.15705983456
1396	-0.00645353422635
1397	-0.00257768235491
1398	-0.0219437748313
1399	-0.00170639859977
1400	-0.100304193038
1401	-0.0173038143083
1402	-0.0222394060967
1403	0.019225696141
1404	-0.0134933304193
1405	-0.0330758555848
1406	-0.00543116179143
1407	-0.00621919145261
1408	0.0161538106174
1409	0.0160469104363
1410	-0.00301062327684
1411	-0.00291046440227
1412	0.0131553838683
1413	0.0205215786816
1414	-0.0163580403479
1415	-0.033505548952
1416	-0.0221879576395
1417	0.00758526052585
1418	0.0101700218502
1419	-0.0239165567732
1420	0.0191453708482
1421	0.00208344713326
1422	-0.0160525522669
1423	-0.024370970709
1424	-0.00719586178547
1425	0.157554097646
1426	0.0896122691746
1427	-0.0191905368327
1428	0.00935708875831
1429	-0.069553375074
1430	-0.0456343087472
1431	-0.00119059399698
1432	0.0697942899872
1433	0.0240541448242
1434	-0.00680011307771
1435	0.000899638371779
1436	-0.00430842081433
1437	0.368929325498
1438	-0.0164625545807
1439	-0.0307585899942
1440	0.0133619666797
1441	0.00507348161173
1442	-0.00207846227179
1443	0.200724650849
1444	0.0170526634765
1445	-0.00985091793813
1446	-0.0122530345738
1447	0.016590801874
1448	-0.0224009193809
1449	0.0158552202437
1450	0.147727326085
1451	-0.00921946769424
1452	-0.00978604573918
1453	0.016624502609
1454	-0.10783862466
1455	0.0245118283975
1456	0.0128723076279
1457	-0.381566864649
1458	-0.00808132320815
1459	-0.03416270045
1460	0.00271896763382
1461	-0.00231390585538
1462	-0.0204149423733
1463	-0.00956702857643
1464	0.000282654344465
1465	-0.0106610407497
1466	0.00248865697639
1467	-0.012047640913
1468	0.0715504971904
1469	-0.0195591127001
1470	0.00954751724815
1471	-0.0485767381648
1472	0.0226731598072
1473	0.0139898988677
1474	0.000828158634573
1475	-0.014965863438
1476	0.295887112197
1477	0.321827322355
1478	0.0165576199997
1479	0.00693005858148
1480	0.00358760985477
1481	-0.0447916791871
1482	0.0107427611974
1483	0.00490470374749
1484	0.0164107095183
1485	0.00267572119736
1486	0.0185976399225
1487	-0.0249340923454
1488	0.0128288004945
1489	-0.0118968372721
1490	0.0233336592102
1491	0.0153379293552
1492	0.00850183983601
1493	-0.059000139938
1494	-0.0209319985482
1495	-0.0250826927932
1496	-0.00544510809777
1497	-0.0240337933848
1498	0.0232822828053
1499	-0.0208850373874
1500	-0.00861952122347
1501	-0.0113920926948
1502	0.00145161891752
1503	0.0155623235918
1504	-0.0478381595184
1505	-0.00427707645145
1506	-0.0189736926491
1507	0.00491954942023
1508	0.00151453507178
1509	-0.0187522750476
1510	0.00954219507538
1511	-0.0167710567177
1512	-0.0448057007473
1513	0.0134086143265
1514	-0.0281683918254
1515	0.00524744765659
1516	0.0107301926807
1517	0.125053874677
1518	0.0180825566507
1519	-0.0097978232302
1520	-0.304183461312
1521	-0.00858493122728
1522	0.023782875965
1523	0.0193585221937
1524	-0.00714944051929
1525	-0.0093014517047
1526	0.0204194988504
1527	0.218260477174
1528	0.227962349921
1529	0.0202749507037
1530	0.0243317936313
1531	-0.0169371923413
1532	0.0206207249252
1533	0.00304496802815
1534	0.000471239858899
1535	-0.00859842044309
1536	0.0147246400024
1537	0.00931144001049
1538	-0.0244704293156
1539	0.0202724028973
1540	-0.00017039095707
1541	-0.0134958463163
1542	0.00467555211635
1543	-0.00932393970875
1544	-0.00811671713677
1545	-0.00653777147582
1546	0.0224066039204
1547	-0.0176799755132
1548	-0.216387463386
1549	-0.00249516140611
1550	-0.0225723445122
1551	0.00155854924932
1552	0.00125932592458
1553	0.00928613040293
1554	0.00381752862223
1555	-0.0261163486378
1556	-0.0199310002
1557	0.0143425973473
1558	0.0173717110463
1559	0.0114145987322
1560	-0.00616164536447
1561	-0.111011937742
1562	-0.00158328580931
1563	-5.19372832917e-05
1564	0.0200672561555
1565	-0.00388742438041
1566	0.0225431227614
1567	-0.0116301477499
1568	-0.0167162756065
1569	-0.0528708490907
1570	-0.0193043181847
1571	0.00149553682169
1572	-0.0463515421565
1573	0.0240603890347
1574	-0.00301454504073
1575	0.0158292028457
1576	0.0087857949769
1577	-0.00331211032902
1578	-0.129756724883
1579	-0.0293940319935
1580	0.0150317477027
1581	-0.0135817176749
1582	-0.0735482011847
1583	-0.0149720601237
1584	-0.00762768653918
1585	-0.0171412118672
1586	-0.0120076974449
1587	-0.024788015157
1588	0.0142052422712
1589	-0.237012640355
1590	-0.00857902801598
1591	-0.0114845753656
1592	-0.0205103640969
1593	-0.00920814224878
1594	-0.00196454534585
1595	0.0200497482895
1596	-0.00925618420008
1597	-0.131591413707
1598	-0.00541961474136
1599	-0.00197084080323
1600	0.00557714640049
1601	0.00811736218555
1602	-0.00989019998704
1603	-0.00591123033601
1604	0.145704520828
1605	0.0129868801516
1606	-0.0107299913776
1607	-0.0241317234939
1608	0.10280147201
1609	0.00451868066961
1610	-0.051643632566
1611	-0.00663848792521
1612	0.0125162920705
1613	-0.00590135489141
1614	0.0234227132243
1615	-0.0072002415547
1616	0.0198741617698
1617	-0.028491558785
1618	-0.00620309029602
1619	-0.00262667724785
1620	0.0905501114385
1621	0.110999011093
1622	0.0106013906458
1623	-0.0177523235347
1624	0.0205178225175
1625	0.0197345402184
1626	-0.00330945047249
1627	0.0182215478558
1628	-0.0334946438955
1629	0.0195007751601
1630	0.0268973409539
1631	0.0197609668479
1632	0.0232409010114
1633	-0.025357774729
1634	-0.0152833208007
1635	0.0229086562278
1636	-0.0119921445102
1637	0.00350703018233
1638	-0.00802357861817
1639	0.0225083888683
1640	0.00618850016385
1641	0.0151596897894
1642	-0.00464288421016
1643	-0.0120774897341
1644	0.0548246310754
1645	0.00287357246433
1646	0.0129592347172
1647	0.00754624459273
1648	0.01824093069
1649	0.00319889329016
1650	0.00251251771583
1651	-0.0039628907026
1652	-0.0103350955044
1653	0.0121538471139
1654	-0.0211300469485
1655	0.00712806030252
1656	-0.0166590947294
1657	-0.0235623822868
1658	3.54795906258e-05
1659	0.0111058872335
1660	0.000225102113453
1661	0.0196390637808
1662	0.0160906415773
1663	0.010331706209
1664	0.0105315904239
1665	0.0160920804626
1666	-0.00736024008185
1667	0.0134720950289
1668	0.0788483541934
1669	0.0245508649358
1670	-0.0165605654789
1671	-0.00519509402224
1672	-0.0482786449075
1673	-0.0390905697149
1674	-0.0207757645019
1675	0.0215887341387
1676	0.021649169519
1677	0.0202551527027
1678	-0.00387242555709
1679	-0.0167354319257
1680	0.00537620196168
1681	0.0186184824521
1682	-0.00888512886283
1683	-0.110157613867
1684	0.00954799626223
1685	0.0139032913262
1686	-0.00401517428594
1687	-0.0276616068042
1688	0.00897303260736
1689	0.00101535955197
1690	0.0189253991177
1691	-0.136975077687
1692	-0.0163074096722
1693	0.0109290246765
1694	0.0194894555765
1695	0.022777958945
1696	-0.0183465021358
1697	-0.0818703976927
1698	-0.014419435287
1699	0.00216033029503
1700	-0.0245458237721
1701	0.00782737104059
1702	-0.00140883842425
1703	0.0124988746277
1704	0.00601478260741
1705	0.019886442336
1706	-0.00802290419359
1707	-0.179244079343
1708	0.00329677355955
1709	-0.000693949430032
1710	-0.0119487862096
1711	-0.00617260739899
1712	0.0149547595921
1713	0.0309920272308
1714	-0.161702676486
1715	0.00762530441641
1716	-0.00507732767002
1717	0.0137944690982
1718	0.0115536101924
1719	0.148272464137
1720	0.0135428942514
1721	0.264597956176
1722	0.0117908898073
1723	-0.0214777452171
1724	0.0221614247505
1725	-0.00606507379645
1726	-0.016754574932
1727	-0.0227390439331
1728	0.0233505933779
1729	-0.00588150363257
1730	0.0112899467478
1731	-0.00877262980444
1732	-0.00530623081749
1733	-0.00738797778317
1734	0.0130948882189
1735	0.0248513590422
1736	0.0199930975065
1737	-0.0240245838299
1738	-0.0599198010557
1739	0.0714043923526
1740	0.0118624346074
1741	0.0160109323694
1742	0.00756907614815
1743	0.0173846587014
1744	0.00450444332442
1745	-8.41237644235e-06
1746	0.0182931924262
1747	0.349220522397
1748	-0.0162522323406
1749	-0.0601921587736
1750	0.00383390475181
1751	-0.0106644435746
1752	0.0222670635253
1753	0.0241357737624
1754	-0.0200705744189
1755	0.015682829301
1756	-0.00719044663898
1757	-0.00734271208507
1758	-0.00716078687036
1759	0.0185051721106
1760	-0.0380137663117
1761	-0.0532507051851
1762	0.0100859554446
1763	-0.0145198221331
1764	-0.0246734575259
1765	-0.169555640184
1766	0.00410226079735
1767	-0.0165177901735
1768	-0.0199564493443
1769	0.0219821995272
1770	-0.00286070618354
1771	0.0130158367663
1772	-0.0241283396074
1773	-0.0118274015365
1774	-0.00391939017946
1775	-0.0684281900016
1776	0.00536107464332
1777	0.0214480618305
1778	0.000702223192366
1779	0.0205222999866
1780	0.0356132847548
1781	0.0136980294968
1782	-0.0147589724301
1783	-0.00461185743372
1784	0.00213776485418
1785	-0.078298616229
1786	0.014211638141
1787	-0.0150526989015
1788	0.0218384450948
1789	-0.0179429446119
1790	0.00291645534606
1791	0.0216690605697
1792	0.00154752238359
1793	-0.00234168549747
1794	0.0139963048302
1795	0.155600440226
1796	0.00201329691262
1797	0.0155749771554
1798	-0.121843405242
1799	-0.0140627781709
1800	-0.0242538602328
1801	0.00637383133389
1802	0.0130819232697
1803	0.00481285480869
1804	-0.00871777434321
1805	0.0105329581684
1806	-0.0298616972813
1807	-0.0215618256984
1808	-0.0126034878678
1809	-0.0130506254969
1810	0.0937395894313
1811	0.0244854286149
1812	0.00783772924627
1813	0.109197956144
1814	0.0131823581608
1815	-0.0244738141481
1816	-0.0197446282585
1817	-0.0228905441025
1818	0.0211281799758
1819	0.0168870143631
1820	0.01292687473
1821	-0.00107201674523
1822	0.0226302540975
1823	0.00811371191604
1824	-0.0225842870224
1825	-0.00307110720627
1826	-0.171617524206
1827	-0.37128322801
1828	0.0236496251295
1829	-0.0313162232347
1830	-0.0160633814639
1831	-0.0206431198576
1832	-0.0569618541774
1833	-0.0233020357735
1834	0.00997926956767
1835	0.0137292766294
1836	0.00210926763054
1837	0.0190758533147
1838	-0.000824844960464
1839	0.00334657738542
1840	-0.0156978603903
1841	-0.0212657908585
1842	0.0184991184854
1843	0.0219782170492
1844	-0.0184425968531
1845	-0.0192283414266
1846	-0.0266266085919
1847	0.0120325491385
1848	-0.00590834712933
1849	0.0124952166799
1850	0.00711027255673
1851	-0.00205478325691
1852	-0.0241185320711
1853	0.0124180457548
1854	-0.0389515598047
1855	0.0209265143429
1856	-0.0160292667924
1857	-0.013936975581
1858	0.00501592695978
1859	-0.00209092302955
1860	0.0129860893346
1861	-0.0151798139347
1862	-0.00711646818959
1863	0.0111378517257
1864	0.00795463311947
1865	0.0451830123597
1866	0.00925852636705
1867	-0.0189175229892
1868	-0.000502028231559
1869	-0.0239501469808
1870	-0.014516815369
1871	0.0139965648493
1872	-0.004843834021
1873	-0.0379971974632
1874	-0.032074745254
1875	-0.0330039232858
1876	0.0163008212025
1877	-0.0152284323764
1878	-0.00182128345169
1879	0.0204951708575
1880	-0.000139516318321
1881	0.000260270905607
1882	-0.00244243556296
1883	-0.016647032136
1884	-0.0204467442983
1885	0.0105581259965
1886	-0.0153553165881
1887	0.0211702618536
1888	0.020126397434
1889	0.000230900033187
1890	-0.0118879315911
1891	0.0153069250563
1892	0.021868049331
1893	-0.025930054986
1894	0.000743394123861
1895	0.0052509967519
1896	-0.00762919134307
1897	-0.0194951205781
1898	-0.023685065196
1899	-0.0227117615856
1900	0.00229016600237
1901	-0.018230498947
1902	0.0159396106124
1903	0.000130584592049
1904	-0.0139597261012
1905	-0.00569406591072
1906	0.0872371192192
1907	0.00545651996043
1908	0.0092538221792
1909	-0.0724680123462
1910	-0.000738961631474
1911	0.00859645115521
1912	0.0205455281641
1913	0.0155951676031
1914	-0.0252287390217
1915	-0.0349108001119
1916	-0.019224408892
1917	0.00217141965965
1918	0.0231914648465
1919	-0.0141301453894
1920	-0.00639410193336
1921	-0.0109318917882
1922	-0.00396745101188
1923	-0.0193220543561
1924	-0.00950476791053
1925	-0.0134082550527
1926	-0.0213822433985
1927	-0.0261887739685
1928	-0.244369851482
1929	0.010576465963
1930	-0.0248819339087
1931	0.0165171684349
1932	-0.00324551526125
1933	0.01402719099
1934	-0.0154421922082
1935	0.0107376468537
1936	-0.0344271751429
1937	-0.0256873287573
1938	0.0214636846182
1939	-0.00104891984676
1940	0.00188722319457
1941	-0.0115542512263
1942	-0.0219229462676
1943	-0.0225245499521
1944	-0.0247067407845
1945	0.0112806749593
1946	-0.000349149435379
1947	-0.00631278691122
1948	-0.0116567163332
1949	0.0244279943451
1950	-0.0218211891477
1951	-0.01527934501
1952	-0.272757300093
1953	0.0081462663993
1954	0.0104215143193
1955	0.02343532897
1956	0.00328065735235
1957	-0.00757834347135
1958	0.104228822316
1959	-0.00754768777562
1960	-0.00304479346186
1961	0.0136453122478
1962	0.0172596884843
1963	-0.000430029150258
1964	-0.0187739464051
1965	0.0285119991625
1966	0.014719969589
1967	0.0150805436935
1968	-0.00347741171849
1969	0.0571285945661
1970	-0.00713738225834
1971	-0.0462246417094
1972	-0.00152381883845
1973	-0.00824380197992
1974	-0.0678469317537
1975	0.00981244098228
1976	-0.0144510949487
1977	0.00733503074292
1978	-0.022915037248
1979	0.158365057499
1980	0.0218633045541
1981	0.0223746502782
1982	-0.0083206092997
1983	-0.00226090527088
1984	-0.0192976262834
1985	0.018397467021
1986	-0.0056817789505
1987	0.00487103716496
1988	0.00254815489468
1989	-0.00560752623419
1990	-0.0247768299623
1991	0.0165997711632
1992	-0.0147363865457
1993	0.0239514524959
1994	-0.016966966714
1995	-0.0201466404878
1996	0.00671746463583
1997	-0.0214677691757
1998	-0.000184029725356
1999	0.0183142974402
2000	0.0239262623663
2001	-0.0226935502624
2002	0.0103639234807
2003	0.0206103568641
2004	-0.00224538060839
2005	-0.00305633554623
2006	-0.0714690161486
2007	-0.0621453199923
2008	0.00463859354487
2009	-0.00489001359327
2010	0.0225435756596
2011	-0.00563349962412
2012	-0.0171986025221
2013	-0.0110533822902
2014	0.0233501868478
2015	-0.0202010243052
2016	-0.0130091593232
2017	0.0079124552137
2018	0.0153543231034
2019	-0.0135417670448
2020	-0.236434948134
2021	-0.00310061352779
2022	-0.0090844158113
2023	-0.00475018701652
2024	0.0330954858521
2025	0.00342416050773
2026	-0.00264421793053
2027	-0.0183318709046
2028	-0.0632038234632
2029	0.00336186582776
2030	-0.00319118031571
2031	-0.000695715368659
2032	0.00726782009163
2033	0.0119759087095
2034	0.0113404320114
2035	0.00036459168203
2036	0.0052072316053
2037	0.00559285256409
2038	-0.0184145760976
2039	0.0115359670468
2040	0.0191003468527
2041	0.018709649267
2042	0.01183661277
2043	0.00923058147322
2044	0.00479124039618
2045	-0.0169116932861
2046	0.00787404485374
2047	-0.023314367687
2048	-0.0184427341788
2049	-0.0219410570112
2050	-0.0100262295534
2051	-0.0154183977586
2052	0.0161034027135
2053	0.00266647765274
2054	-0.0132909403433
2055	-0.00539703148326
2056	-0.0225784812982
2057	-0.0206511203207
2058	0.0129319600408
2059	0.0960005956837
2060	-0.00888023322383
2061	0.0203258622974
2062	0.0223197489991
2063	0.0121018560289
2064	-0.00259185773749
2065	0.0110068827512
2066	-0.00807113668503
2067	-0.0163604385015
2068	0.0657511463358
2069	-0.0025384835393
2070	-0.0419751933558
2071	0.00321890437738
2072	0.0147179450541
2073	0.0166896863729
2074	0.0239945100626
2075	0.0214418696955
2076	-0.0175770432662
2077	-0.00982218632732
2078	-0.0184606476456
2079	0.00568054228338
2080	0.01590189732
2081	-0.00421200261298
2082	0.0244579450243
2083	-0.236287453267
2084	0.00826980215498
2085	-0.00599761813852
2086	-0.018563019167
2087	-6.64212914338e-05
2088	0.0124726749323
2089	-0.0401328530775
2090	0.0139351768166
2091	0.0181686689463
2092	-0.0268340033126
2093	0.00567544852154
2094	0.0175389486545
2095	0.00478635900662
2096	0.0147248790247
2097	-0.0201464820893
2098	-0.0204472344122
2099	-0.103979944863
2100	-0.0162278090822
2101	0.0180141943675
2102	-0.0352601060439
2103	-0.0219161490652
2104	0.02172061084
2105	-0.0561110324017
2106	-0.0100943158682
2107	0.0165989227466
2108	0.000169884645035
2109	-0.0142112765799
2110	-0.00815735062187
2111	-0.000883498606315
2112	-0.0403443812849
2113	-0.116001832397
2114	0.00648131502823
2115	-0.0245421026086
2116	0.0241926180767
2117	-0.10330737683
2118	-0.0069646633838
2119	-0.000148343014277
2120	0.016740856197
2121	0.0137717419902
2122	0.00982923657697
2123	0.00117445686721
2124	-0.00715198049461
2125	0.0538000914671
2126	-0.0101345057988
2127	0.00199101120816
2128	-0.0233033693253
2129	0.00978543323233
2130	0.0150100823629
2131	-0.0120540147581
2132	-0.00279370521961
2133	0.0228641572351
2134	-0.0165234683661
2135	-0.00507057742191
2136	-0.150583800997
2137	0.00372049548675
2138	0.0226271687803
2139	-0.0142313056899
2140	-0.000359102574987
2141	0.0208875525739
2142	0.00570479824804
2143	-0.00643379118982
2144	-0.0179057317311
2145	-0.0137815755363
2146	0.00536967512186
2147	0.00958631457003
2148	0.00324021289843
2149	0.0128935830694
2150	-0.0239750868412
2151	0.0105795909051
2152	0.0208554065883
2153	0.003673161415
2154	-0.0043271741527
2155	-0.0248051166182
2156	0.0751587963863
2157	-0.00860097022106
2158	-0.0171405352482
2159	0.0190486593411
2160	0.0480458310744
2161	-0.015717935507
2162	0.0182820579563
2163	-0.0271552986843
2164	0.0125117012115
2165	0.0161031695146
2166	-0.00468255370478
2167	0.0134376495125
2168	-0.00892203046028
2169	-0.00200115802944
2170	-0.00691691783622
2171	0.0186436601728
2172	0.00715248011119
2173	0.0158109530306
2174	0.211217838764
2175	0.441854470079
2176	0.00470536501422
2177	0.00943973573086
2178	-0.0444522253365
2179	-0.0162388909015
2180	-0.0196470293324
2181	0.000437189118986
2182	-0.000837563450193
2183	0.00905463863584
2184	-0.0153748463632
2185	0.0125837175316
2186	0.0350683480171
2187	0.051109391876
2188	0.135186671614
2189	-0.0146522323345
2190	-0.0209907115132
2191	0.00821418861946
2192	0.0210726622212
2193	-0.0175940154566
2194	-0.00117284489541
2195	-0.0233022334235
2196	-0.00180485589387
2197	-0.0231650754928
2198	-0.00147507180368
2199	-0.00264625570789
2200	-0.0112270141662
2201	-0.015515656813
2202	0.0193605366532
2203	0.000184443736878
2204	-0.0012347574618
2205	-0.00145100281794
2206	0.0198147435407
2207	-0.0139257716526
2208	-0.0183161849538
2209	-0.0158480021738
2210	-0.0592865234745
2211	0.00343547424823
2212	-0.0169166186059
2213	-0.0229960417484
2214	-0.0214345601013
2215	0.00852056727923
2216	0.0165508528532
2217	-0.0117299612961
2218	-0.015420476521
2219	0.0118304967905
2220	0.00171750701825
2221	0.0138094411663
2222	-0.00857325835749
2223	0.0148366608177
2224	-0.0150761511933
2225	0.000422826542512
2226	0.00757840260767
2227	0.00339432354802
2228	-0.00544049485358
2229	-0.000494957205474
2230	0.0209708663616
2231	-0.014251444099
2232	0.0246130417837
2233	0.00707779179066
2234	-0.0188258733931
2235	-0.0130446247172
2236	-0.0120086529644
2237	-0.0176997175071
2238	-0.0213444383655
2239	-0.0197243174628
2240	-0.00521989689919
2241	-0.00771262922867
2242	-0.00465059897578
2243	-0.0223242959939
2244	0.0119297088447
2245	-0.00163866047327
2246	-0.0245212635029
2247	0.0277056066084
2248	0.00354678960694
2249	-0.0168091267206
2250	0.0214728561685
2251	-0.0232998890403
2252	-0.0129443435248
2253	-0.0158703334092
2254	-0.06998416166
2255	-0.0242475616855
2256	-0.0193070035368
2257	-0.0152252728897
2258	0.0149890733153
2259	0.00339459551162
2260	0.0196987963027
2261	-0.4409766213
2262	-0.00434495076247
2263	0.020810794946
2264	0.00904559024012
2265	-0.00328594977876
2266	-0.0119926157052
2267	-0.0121530531658
2268	0.0206576181574
2269	0.00223557275269
2270	-0.0147757624679
2271	0.0111906250405
2272	0.163889042585
2273	-0.0215271243338
2274	-0.0176416007147
2275	0.000618242352551
2276	-0.0166703643684
2277	0.0159136068645
2278	-0.00750287567587
2279	-0.00480707318428
2280	-0.0154184368648
2281	0.0386606240834
2282	0.0430884302321
2283	0.00168979181042
2284	0.0179327957845
2285	-0.00409069600691
2286	-0.00294255133415
2287	-0.0211833457515
2288	-0.00175338253125
2289	0.0127290156326
2290	-0.018504107518
2291	-0.0148939732682
2292	0.0205136406874
2293	0.0120983198738
2294	-0.0137387841229
2295	0.00233543022819
2296	0.0142646896615
2297	0.0240016993787
2298	0.00569011458871
2299	0.0189615274621
2300	0.0119637125683
2301	0.00771035047563
2302	0.004203127052
2303	0.00444600129505
2304	-0.0122882828892
2305	-0.011868025319
2306	-0.0578116223599
2307	-0.00186314733051
2308	0.0231961005461
2309	-0.00850106482173
2310	0.00503043980807
2311	-0.0198285955338
2312	0.00686939785987
2313	-0.0119751098002
2314	-0.00381585807062
2315	0.0195883746015
2316	-0.00499905284977
2317	-0.0131695215151
2318	-0.0165581887183
2319	-0.00787376332145
2320	-0.0188179683708
2321	0.00400270802808
2322	-0.0205178891793
2323	0.0181760365649
2324	-0.0214061055064
2325	-0.0233030209865
2326	0.0217174711988
2327	0.00427525326796
2328	0.0196637281698
2329	0.0211126545695
2330	-0.00723943501971
2331	-0.00905462416612
2332	-0.0103459207812
2333	-0.0238698450994
2334	-0.0663015323899
2335	-0.0273944411271
2336	-0.0112839943798
2337	0.0167834322214
2338	-0.000801236160677
2339	-0.0161885462352
2340	0.00467662671216
2341	0.0091267207373
2342	-0.0235054411139
2343	0.022764701879
2344	0.0136240274881
2345	0.0201643502313
2346	-0.0204300715582
2347	0.0022113202066
2348	-0.00502403832867
2349	0.0031643844541
2350	-0.00842869485991
2351	0.00669158751905
2352	0.00686645923048
2353	-0.0250059857493
2354	0.00659781263569
2355	0.0205621178541
2356	0.0215956400987
2357	0.165281863809
2358	0.0168374978252
2359	-0.00674353500147
2360	0.00777149628983
2361	-0.223814881102
2362	-0.086987432352
2363	0.0192350183428
2364	0.0241408820423
2365	-0.0190502624038
2366	0.0144335929057
2367	0.0162755029769
2368	0.0130179343769
2369	-0.00135776048867
2370	-0.0235192134618
2371	-0.00208611266179
2372	0.0218599787878
2373	-0.000656972438886
2374	0.00369919901918
2375	0.0805149045759
2376	-0.0229901041014
2377	-0.0174682100391
2378	0.0244290350741
2379	0.00157295859075
2380	0.0198099521271
2381	0.00841445726288
2382	-0.0105948094711
2383	-0.0251367377045
2384	0.023414169099
2385	0.0227392980469
2386	-0.00733563148351
2387	0.00426988357844
2388	0.00817320352189
2389	0.0102234301531
2390	0.00241675054027
2391	0.0170254880181
2392	-0.0237040714415
2393	-0.015251796462
2394	-0.00105713104251
2395	-0.0176415671503
2396	-0.00315047067356
2397	-0.0100651579067
2398	-0.0105879057208
2399	0.000285533599787
2400	0.015808787549
2401	-0.0104579941387
2402	-0.00510980136173
2403	-0.0117452067843
2404	-0.0162021888251
2405	0.0125430375352
2406	0.0202458744188
2407	-0.0121195283207
2408	-0.00998282397214
2409	0.0367815651931
2410	-0.000891284759663
2411	0.0109291361055
2412	-0.0140496796649
2413	0.00125092041402
2414	-0.0231477107484
2415	-0.0188569871684
2416	-0.0228065835257
2417	0.0232040471634
2418	0.0164966704324
2419	-0.00394216675077
2420	0.00858069682694
2421	-0.0116797073068
2422	-0.0170981309421
2423	0.00678280722581
2424	-0.00717841766821
2425	0.0129459976344
2426	0.0053666107627
2427	-0.0104448226507
2428	-0.0110070552066
2429	-0.018217781805
2430	0.0211480084505
2431	0.0109775139502
2432	-0.0185031189755
2433	-0.00735798385085
2434	-0.0840647249528
2435	0.0207618572279
2436	-0.0233816866612
2437	0.0163752325832
2438	0.0124164549071
2439	0.0159450261066
2440	0.00849517609706
2441	0.00119454477612
2442	-0.0186623988919
2443	-0.0223928124638
2444	-0.0478723256407
2445	-0.0100619770251
2446	-0.154164082266
2447	-0.0149008821942
2448	-0.00415917696145
2449	-0.00322961367648
2450	-0.0209307204988
2451	-0.0119997934943
2452	-0.0124349886109
2453	0.0125055789959
2454	0.0122893993361
2455	-0.0190008514268
2456	0.00325006919648
2457	0.0169983776121
2458	-0.00448956727766
2459	-0.0118539913142
2460	-0.0160085107831
2461	0.00639128056775
2462	-0.0185010238618
2463	-0.00435033191053
2464	-0.0137915128193
2465	-0.0062467345758
2466	0.0062388939764
2467	-0.00496813623813
2468	-0.239895136095
2469	-0.0146979547344
2470	-0.007051763833
2471	-0.00222123158894
2472	0.0121050516949
2473	-0.00048829746288
2474	-0.00368818513206
2475	0.00304734186957
2476	0.0114429064778
2477	-0.0236604749427
2478	-0.015678811598
2479	-0.00373154527837
2480	0.00717573740888
2481	-0.0122261209755
2482	-0.0193702360445
2483	0.0237340919832
2484	0.014795156381
2485	0.00455784219481
2486	-0.016818261507
2487	0.00965300758531
2488	-0.0178155385633
2489	-0.00819688093094
2490	0.0122905569413
2491	-0.019233482457
2492	0.0165283919285
2493	0.0150000469282
2494	0.00647996808178
2495	0.0194171998003
2496	-0.00355772222973
2497	-0.0539446588955
2498	0.00825999082116
2499	-0.00294120300773
2500	0.00134537100793
2501	-0.00989405997588
2502	0.0218891733242
2503	-0.0167302808144
2504	-0.0152615897593
2505	-0.0183429976009
2506	0.0067431082226
2507	0.003317362774
2508	0.0180134804855
2509	0.0234703794353
2510	-0.0189980392606
2511	0.00931135815652
2512	0.00231445033665
2513	-0.0105025936524
2514	-0.00168765964085
2515	0.157966370139
2516	-0.000217032757796
2517	-0.0253965656462
2518	-0.0123682996067
2519	0.00418540916961
2520	-0.00979481666518
2521	-0.0201865291418
2522	-0.0133071434745
2523	0.0311393935631
2524	-0.0224551431856
2525	0.0037934426785
2526	0.00548318272836
2527	-0.0222425504958
2528	-0.0183084410434
2529	0.0120540072179
2530	-0.00787060859882
2531	0.00742133486999
2532	0.00028009313158
2533	-0.00815671060421
2534	-0.0164068094118
2535	0.023980309178
2536	-0.00819684052377
2537	-0.0226586123722
2538	-0.0177010200436
2539	0.0184180596658
2540	-0.0122501580491
2541	-0.011924801969
2542	0.00438512127532
2543	-0.0135620784323
2544	-0.00903177848008
2545	0.0063782345199
2546	-0.0215213282872
2547	-0.01530590875
2548	0.0046297426331
2549	-0.0233379288198
2550	-0.00824150452663
2551	-0.00150271473523
2552	-0.0023808758244
2553	-0.00340848568956
2554	0.0051246930224
2555	0.00828131327824
2556	0.00922076028908
2557	0.0587894638107
2558	-0.0160651603284
2559	0.0238786353245
2560	0.0108525896906
2561	0.0150698265709
2562	-0.0181031783249
2563	-0.226858929711
2564	-0.020247631062
2565	-0.00502357972643
2566	0.0159030109178
2567	0.00903425071036
2568	-0.00192443374684
2569	-0.0161556826322
2570	0.00802315558015
2571	-0.0208523138781
2572	-0.0071257296571
2573	-0.020477865708
2574	0.0244919705135
2575	-0.0195791210475
2576	0.00293962794215
2577	-0.000271520002929
2578	0.0180980879106
2579	0.0137392968265
2580	0.00590140623786
2581	-0.0225517600216
2582	-0.0172156019086
2583	0.0137639499387
2584	0.063663146024
2585	0.0916714556208
2586	-0.00704615459753
2587	-0.00597070799359
2588	-0.00249793300174
2589	0.00511955926468
2590	-0.0240670669052
2591	0.0233969227631
2592	0.00267677998409
2593	0.0395817027706
2594	0.00331145696977
2595	-0.00960605760062
2596	-0.00477018401916
2597	-0.00101408187333
2598	-0.0247671331884
2599	-0.0191465491826
2600	-0.00779553815021
2601	-0.0179708742089
2602	0.000926079102085
2603	-0.00907968988085
2604	0.0207602633257
2605	0.0124753474953
2606	0.00561416764327
2607	0.0245448672589
2608	0.000163134931114
2609	-0.00123331133595
2610	0.0153046247867
2611	-0.0224964971992
2612	-0.00977461340555
2613	-0.0124650660276
2614	-0.00446459640794
2615	-0.0186539967157
2616	0.0154748635853
2617	-0.00418800063747
2618	-0.112677261289
2619	-0.0900891278999
2620	0.0146600808152
2621	0.0117424769771
2622	0.000500709617257
2623	0.0177629681588
2624	0.0229913375106
2625	-0.00126639083847
2626	-0.00517671514496
2627	-0.0226638985176
2628	0.0116414870426
2629	0.0120532029372
2630	0.00436417351123
2631	0.00453911411188
2632	-0.0020969898811
2633	0.00702487976314
2634	0.00856149700862
2635	-0.0152082385379
2636	0.00317048858962
2637	-0.0206774945509
2638	0.0219370188037
2639	0.00659904759
2640	0.0232363429575
2641	-0.0190137239138
2642	0.0179305093181
2643	-0.0207590739254
2644	0.00547049451575
2645	0.0121391973782
2646	-0.00222609779023
2647	0.0191592248923
2648	-0.0170736383282
2649	0.00130525419412
2650	-0.0013277853209
2651	-0.0118309282451
2652	-0.016693333154
2653	0.0131547014073
2654	0.112150022888
2655	0.00438587103437
2656	-0.0058654238338
2657	-0.0181937714167
2658	0.00611914701696
2659	-0.02198537077
2660	0.0102336824048
2661	-0.00421788091295
2662	0.00139828892326
2663	-0.0194343622706
2664	-0.00448761143525
2665	-0.020956176044
2666	-0.0092265974916
2667	-0.0185746048431
2668	0.00810167907944
2669	-0.0130609206942
2670	0.0194966159344
2671	-0.01687988297
2672	-0.0238160124922
2673	-0.00384392343238
2674	0.0138133082576
2675	0.0102412273152
2676	-0.000323184243953
2677	-0.0245230751983
2678	-0.0161701711093
2679	0.0473191478353
2680	-0.0208687067778
2681	0.000401805864329
2682	-0.0121006256243
2683	0.0019842003749
2684	0.0215192174065
2685	-0.0198873359189
2686	-0.0243799276346
2687	0.00307543003001
2688	-0.00915089115263
2689	-0.0184488732328
2690	0.00470546245016
2691	-0.0112488295801
2692	0.0120822213168
2693	-1.35767640371e-05
2694	-0.000909660888881
2695	-0.123916380629
2696	0.00461721250153
2697	-0.0240928826501
2698	0.0136930441
2699	-0.106683997778
2700	-0.00607457607122
2701	-0.00994480906959
2702	0.14063090898
2703	0.016534775996
2704	0.00301753154528
2705	-0.0160319370515
2706	0.0200252930498
2707	-0.0251779743344
2708	0.00911279492465
2709	-0.00844077666896
2710	-0.00862486867057
2711	-0.0109042554342
2712	0.0176385837532
2713	-1.71667086515e-05
2714	-0.0160876708082
2715	0.00778513983268
2716	-0.0221618737246
2717	-0.0188381186785
2718	0.0192500029577
2719	0.0139076231943
2720	0.0206213254766
2721	0.0186588340619
2722	0.171358300676
2723	0.0234404977805
2724	-0.0185948545737
2725	-0.0157605105976
2726	-0.0199970112331
2727	0.0169573137427
2728	-0.00744503241415
2729	-0.023480240408
2730	0.0116597692078
2731	0.0195013399257
2732	-0.00303164115382
2733	0.0195666444045
2734	-0.0166870067028
2735	-0.0197142494257
2736	-0.013883555592
2737	0.012709287061
2738	0.00435721987449
2739	0.00353017923019
2740	0.00193104755677
2741	0.00877289710062
2742	-0.0168332436337
2743	0.0181519501646
2744	0.0229147458106
2745	-0.00987817688388
2746	0.0196592568824
2747	-0.00514122862983
2748	0.0108322132671
2749	-0.0236567306074
2750	-0.00614353008549
2751	0.000177746123968
2752	0.0169539633608
2753	0.111489835591
2754	0.014039435628
2755	0.00818322674462
2756	-0.0263924154755
2757	0.0119517528609
2758	-0.0142839578844
2759	0.0231624494508
2760	0.0169623900376
2761	-0.00345142911
2762	0.00166675000759
2763	0.017519202834
2764	-0.0116675619609
2765	0.0046039958426
2766	-0.00229736167391
2767	-0.00716103361251
2768	0.0235731284042
2769	-0.0126103149736
2770	-0.0086510764907
2771	-0.00704733988492
2772	0.0095160996823
2773	0.00947336913749
2774	-0.0206312575592
2775	-0.0190930593098
2776	-0.0160343488752
2777	-0.0151120177123
2778	0.00723935823774
2779	0.0173202412361
2780	0.0239084793945
2781	-0.00926079175034
2782	0.0129207482607
2783	-0.0246752040109
2784	-0.00993340940912
2785	0.162548204762
2786	0.0109006269699
2787	0.0222490393547
2788	0.0228087786354
2789	0.0138697781607
2790	0.0163386571591
2791	-0.0135723196894
2792	0.00535069212689
2793	0.0225111702661
2794	0.0118089388885
2795	0.0231604192775
2796	-0.0167482221344
2797	-0.000632925006602
2798	-0.00390863687738
2799	-0.00511736139184
2800	0.0109908081038
2801	-0.321815013842
2802	-0.0210758315331
2803	0.0217148392574
2804	-0.0188997979973
2805	-0.0127965647801
2806	-0.0201700405425
2807	-0.00320758347847
2808	0.012765597932
2809	-0.0129017374731
2810	-0.0140520017496
2811	0.00722078699704
2812	0.0209169011209
2813	-0.00312903708356
2814	-0.0228654629061
2815	0.0122337120617
2816	0.00163127863927
2817	-0.0103842066593
2818	0.0178094768944
2819	-0.0154154597516
2820	0.0570128424364
2821	0.00836356535597
2822	0.00639273432312
2823	-0.00706339452469
2824	-0.0047623302449
2825	0.0129713498446
2826	0.0168690761067
2827	0.010171856491
2828	0.0080385755203
2829	-0.0252188921619
2830	-0.0106195296537
2831	0.00673806559455
2832	0.0069318633693
2833	0.0129066775473
2834	-0.0593161307437
2835	-0.0169464420426
2836	0.00828859993348
2837	0.00749425771819
2838	0.00903488824939
2839	0.0190906324352
2840	-0.00373352769625
2841	-0.00482180138159
2842	0.0219520221908
2843	0.0220500214671
2844	-0.0535965662176
2845	0.022518632704
2846	0.0222766096365
2847	-0.00786662214953
2848	0.0160012819088
2849	0.00907796753817
2850	-0.0119709446449
2851	0.00844600579856
2852	-0.0219456951855
2853	-0.00735616166783
2854	-0.00169019660006
2855	-0.0796460846133
2856	-0.0182038262053
2857	0.0132380425589
2858	0.0194140127577
2859	-0.0206804109491
2860	-0.00787913021761
2861	-0.102980607007
2862	-0.0100950322296
2863	0.00167145015009
2864	-0.0069660827436
2865	0.0204157323064
2866	0.0039257684643
2867	0.00320904948061
2868	0.0228646571959
2869	0.00391535925755
2870	-0.00683851339112
2871	0.00599122648115
2872	-0.0100953047339
2873	-0.00702337628837
2874	-0.000986442434265
2875	0.0064970174214
2876	0.0108754493188
2877	0.000553038282144
2878	-0.00191285136031
2879	-0.0111986367858
2880	-0.00146164370384
2881	-0.0127343849943
2882	-0.114053467953
2883	0.0238100975905
2884	0.0133311411625
2885	-0.0190572485344
2886	0.00717539389088
2887	-0.0107339622137
2888	-0.00148883384469
2889	-0.0250591811008
2890	0.00303492624123
2891	-0.00900648578319
2892	-0.0116004435603
2893	0.0172350581871
2894	0.0138720052919
2895	0.0271195217746
2896	0.0108309466649
2897	-0.00984337509104
2898	-0.0119027423479
2899	-0.0174680547681
2900	0.00214237195183
2901	0.00385712812459
2902	-0.00666172558609
2903	0.00127886262252
2904	0.0188788530469
2905	-0.00215929766459
2906	0.00466492303816
2907	-0.165662943454
2908	0.0225724650229
2909	0.015846475559
2910	-0.135087193159
2911	-0.140687676863
2912	0.0129157800453
2913	-0.00453491402754
2914	-0.0094894045365
2915	0.109713305357
2916	-0.00944654970718
2917	-0.0245191612954
2918	-0.0153384163822
2919	0.0101873404248
2920	0.00650442155622
2921	0.0104915711321
2922	-0.00459034137898
2923	-0.0207106298412
2924	-0.0109775664305
2925	-0.0246101190529
2926	-0.00353729408982
2927	0.00394898506877
2928	0.0125751373035
2929	-0.0142392338304
2930	0.0177142017707
2931	0.0131485490082
2932	0.00360212497896
2933	-0.00217668326351
2934	0.00664922576148
2935	-0.00977764914324
2936	-0.00248269119298
2937	0.00431793643142
2938	0.00366108754381
2939	0.0508698914957
2940	-0.00147454159914
2941	-0.0124134301059
2942	-0.0142474558352
2943	0.0024431315366
2944	0.0287642404596
2945	0.0169569127957
2946	0.00308974283449
2947	-0.00254002131141
2948	-0.0149828793851
2949	-0.0244949761961
2950	-0.0108653427436
2951	0.0165245376026
2952	0.00192091243473
2953	0.0205874678855
2954	0.014956139708
2955	-0.00178312757202
2956	0.0219641551115
2957	0.0228155742716
2958	-0.020312697624
2959	-0.0101843825783
2960	-0.0184946910979
2961	-0.00930738667179
2962	0.009003062675
2963	-0.00731478533126
2964	0.0423350940674
2965	-0.0227636915101
2966	0.0115650326128
2967	0.0180222426847
2968	-0.00777969244033
2969	0.00485099082081
2970	-0.00975930604904
2971	-0.0228662181647
2972	-0.0729891347823
2973	0.0163856618513
2974	0.00545390143252
2975	0.0171846183124
2976	-0.00133064298433
2977	0.020768233263
2978	0.00977106236038
2979	0.0192909008078
2980	0.013698303024
2981	-0.0239023185128
2982	-0.0242013810793
2983	0.0190928906837
2984	-0.0100623922548
2985	-0.0080408287452
2986	0.0158484578716
2987	-0.0219846437164
2988	-0.00293873730177
2989	-0.100652373941
2990	-0.0876672272712
2991	0.000901621454179
2992	-0.0791370331341
2993	0.00464845065707
2994	0.0226864827857
2995	0.00202614197541
2996	0.00214953030061
2997	-0.0124010278945
2998	-0.00406454496441
2999	-0.0164913001574
3000	0.0869406957954
3001	-0.025678349864
3002	-0.0176875470551
3003	0.0177034420199
3004	0.00835051447812
3005	0.223447436745
3006	0.0116692348457
3007	0.00527789511826
3008	-0.00467210918925
3009	0.020489443449
3010	-0.00685797724739
3011	-0.00716845198718
3012	-0.0103070875981
3013	-0.0144753604618
3014	0.0019101239292
3015	0.00613850184095
3016	0.0208941243652
3017	-0.139243571622
3018	-0.0190639031383
3019	-0.0204594370503
3020	-0.0204637829144
3021	0.00257049872175
3022	0.000853929331687
3023	-0.00977084224111
3024	-0.0217240788871
3025	0.0145424014986
3026	0.0025857291048
3027	-0.0159486171658
3028	-0.0191814682339
3029	-0.00331650993697
3030	-0.0103016387892
3031	0.0178712175956
3032	-0.0183922282228
3033	-0.0192822549767
3034	-0.105799877573
3035	0.022549070622
3036	-0.0208349160366
3037	0.000602245953444
3038	0.0010210358401
3039	-0.00487053038572
3040	0.00174478863507
3041	0.0228204027624
3042	-0.0141555194833
3043	0.0134361730355
3044	0.00503883749918
3045	0.0144304138973
3046	-0.055301440011
3047	-0.0233843512709
3048	0.0183382238459
3049	0.0158060014401
3050	-0.0150644460183
3051	0.193372687458
3052	0.0132121263613
3053	0.00786928183701
3054	-0.00463493666771
3055	0.00201643493626
3056	-0.00888101486535
3057	0.0108463347927
3058	0.0195987129998
3059	-0.00291535829775
3060	0.00439227523951
3061	-0.0240308356347
3062	0.000503662646474
3063	-0.0113192212779
3064	0.00357501230419
3065	0.00711307604001
3066	0.112025035697
3067	0.0189576160594
3068	-0.00428651895978
3069	-0.00403874155212
3070	0.0221860193201
3071	0.0204254288418
3072	-0.00115124337388
3073	-0.0165922914951
3074	-0.0139524740215
3075	0.0138682250876
3076	-0.0211654220266
3077	0.010097608676
3078	-0.041415737696
3079	-0.0144678482929
3080	-0.0224359055792
3081	-0.0064846516616
3082	0.0144542299989
3083	-0.0248456365558
3084	0.0190023910432
3085	-0.00615391106143
3086	0.00785348032595
3087	0.00968442320857
3088	0.0169132842786
3089	-0.0241238273256
3090	-0.0216397632966
3091	-1.78797090486e-07
3092	-0.00316977713168
3093	-0.00597358718513
3094	-0.0130702694732
3095	-0.0152908712901
3096	0.0202880301909
3097	-0.0115051535964
3098	-0.0165490049653
3099	-0.020234519495
3100	-0.265613348862
3101	-0.0087393478367
3102	0.0107477315383
3103	0.000497492242416
3104	0.0114123100351
3105	-0.00865877930423
3106	-0.0124994148803
3107	0.023926898875
3108	-0.142746963394
3109	0.011525377127
3110	0.0173933322515
3111	-0.00902665826816
3112	0.00840123559215
3113	-0.0216102018364
3114	-0.00138865818707
3115	0.0170973564022
3116	-0.000961892841895
3117	-0.00510542235236
3118	0.00467296039857
3119	-0.00365036263641
3120	-0.0237764472558
3121	0.004420770766
3122	-0.00630532374934
3123	-0.00874304506682
3124	-0.0108220389592
3125	0.0118987554022
3126	0.0324498071708
3127	-0.0034050784779
3128	0.0134911064555
3129	0.0109798050673
3130	-0.0216937515931
3131	-0.0154405238086
3132	-0.00788879189043
3133	-0.0252711408858
3134	-0.0170560421317
3135	0.0129062109432
3136	0.0194949809557
3137	0.0094149603785
3138	0.0169504302167
3139	-0.096647250872
3140	-0.00331326859844
3141	-0.0281913062985
3142	-0.0165655820229
3143	-0.0103913626123
3144	-0.0193321715058
3145	-0.0253789060451
3146	-0.00769594475081
3147	-0.0103140620225
3148	0.0239538220764
3149	0.129316103211
3150	-0.00367228805446
3151	0.0127674945347
3152	-0.0810862963329
3153	0.00941047896578
3154	-0.0181078175406
3155	0.016140524469
3156	0.00452511329362
3157	-0.00167059026648
3158	-0.107884796111
3159	-0.0115298923768
3160	0.0116127838041
3161	-0.0170724538125
3162	0.0217526430644
3163	-0.00337986566286
3164	-0.014113605059
3165	0.0137108324381
3166	-0.000641411664088
3167	-0.0129374095711
3168	0.0153789097959
3169	0.00954979627323
3170	0.0137755768023
3171	0.0116553756791
3172	0.00750432981069
3173	-0.0168942512379
3174	-0.0146245739803
3175	0.0240848800122
3176	0.0234251897493
3177	-0.00809194358188
3178	0.0213791739311
3179	-0.0918515449962
3180	-0.0241925545532
3181	0.0207309307008
3182	-0.00449917588699
3183	0.000161524952358
3184	-0.00216776327107
3185	0.0110386556656
3186	-0.00733226688904
3187	-0.00171020844629
3188	0.00204278627962
3189	0.0190682905964
3190	0.0231163641718
3191	0.162694630816
3192	-0.0105034109578
3193	0.00913192985034
3194	0.019045021612
3195	0.00770283612066
3196	-0.0159388512548
3197	-0.0047155117927
3198	-0.0210916033371
3199	-0.0169510795169
3200	-0.0144361045097
3201	-0.0192219205254
3202	0.0229463466603
3203	0.00197638604821
3204	-0.0213131809554
3205	-0.00701042868855
3206	0.0189411827924
3207	-0.0144220584605
3208	-0.0179066684931
3209	0.0185384519545
3210	-0.0195204173968
3211	0.00824733831122
3212	-0.000867788851799
3213	-0.0136672168928
3214	0.0227676688704
3215	0.0160952172948
3216	-0.0126887545187
3217	-0.00598402216655
3218	-0.00145059393176
3219	0.0135723127849
3220	0.0213790060201
3221	0.0425532709243
3222	-0.00803047829629
3223	0.022732500588
3224	0.00662311098562
3225	-0.00537280029112
3226	-0.16132017297
3227	0.00768781592709
3228	0.00607228694027
3229	-0.00896567273799
3230	-0.0117004194002
3231	-0.0228265819272
3232	0.00872909456537
3233	-0.0112563778094
3234	0.0141346586008
3235	0.00792011176674
3236	0.00501012115255
3237	0.0205461833618
3238	0.0724885968716
3239	0.0208726903928
3240	-0.00890048465989
3241	0.0140371298669
3242	-0.0230295584595
3243	-0.00813337684722
3244	-0.00436887644624
3245	0.00952244206298
3246	0.00394854626279
3247	-0.0126559491945
3248	-0.00573491066759
3249	-0.0163025628318
3250	-0.0246345764446
3251	-0.0185230379499
3252	-0.0104441508377
3253	0.0172670761935
3254	-0.0110169632274
3255	-0.00629925969298
3256	0.00125481185898
3257	0.0139401590166
3258	0.0243809288451
3259	-0.0445654213311
3260	-0.00144296168479
3261	0.00878581023364
3262	0.0117422069846
3263	0.0128974785896
3264	-0.00701643754459
3265	0.00705576900313
3266	0.0202827628521
3267	-0.00822631805816
3268	-0.00802493807012
3269	0.020864039047
3270	-0.00543921095742
3271	0.00574418330221
3272	0.0132689196631
3273	-0.0150087632506
3274	-0.00203639311756
3275	0.0119285223907
3276	0.0155258117158
3277	-0.0146257056031
3278	-0.0145103191051
3279	0.00785832117548
3280	0.0146222148732
3281	-0.00123702685323
3282	0.0105445429135
3283	-0.00213478874659
3284	0.00775238807811
3285	-0.0134762894641
3286	-0.0124212173022
3287	0.00606761618217
3288	-0.0217997023111
3289	0.00518464786849
3290	-0.0108428547481
3291	-0.0126670413067
3292	-0.0267436199923
3293	-0.021362116354
3294	0.00105690153312
3295	0.0011990265115
3296	-0.00314085359441
3297	-6.73053046062e-06
3298	0.00645796955911
3299	-0.0109877901105
3300	0.00940522779782
3301	-0.0121405338822
3302	-0.0035994056633
3303	0.00564580984922
3304	0.0236391666273
3305	-0.094809467325
3306	-0.01164640508
3307	-0.0215133426924
3308	0.0106315992728
3309	-0.00546866212724
3310	0.00129057998613
3311	-0.0122523559763
3312	0.00938253220123
3313	-0.158556880488
3314	0.0173601210453
3315	-0.000908057874827
3316	0.0233076247219
3317	-0.0233696008063
3318	0.00556469761688
3319	-0.0502099569817
3320	0.0199525593374
3321	-0.0137534278181
3322	-0.0105688993731
3323	-0.00028628871817
3324	0.0226881658234
3325	0.00914896865532
3326	-0.0070359682184
3327	0.00971216485509
3328	0.00900555813948
3329	0.00999620730824
3330	-0.0192170492221
3331	-0.00734739741586
3332	-0.0100181388714
3333	0.0207679119715
3334	-0.0178139452959
3335	-0.0210165909672
3336	0.0842866999531
3337	0.00985582395618
3338	-0.150153396079
3339	0.00819325058677
3340	-0.0144729027255
3341	-0.014418720767
3342	0.0238906415844
3343	-0.00448166621956
3344	-0.00526768084977
3345	0.0130158464619
3346	-0.0098780878459
3347	-0.0151998042872
3348	0.00866247758458
3349	-0.157152035916
3350	0.0154991675817
3351	-0.00765046715821
3352	0.000154665194173
3353	0.0129198310357
3354	0.00192761743609
3355	-0.0139302227115
3356	0.0189712011198
3357	-0.0604303848155
3358	-0.0169735458573
3359	-0.024801132154
3360	0.00579643953161
3361	-0.0165811639852
3362	-0.0253712327768
3363	-0.00196546883386
3364	-0.00357538910965
3365	-0.00157561425486
3366	-0.0238497543037
3367	-0.0122790619408
3368	-0.0142290255407
3369	0.0126511670709
3370	-0.00564997578166
3371	0.0113492500097
3372	0.0172709710215
3373	-0.0164542940054
3374	-0.0286179318191
3375	0.0168419546936
3376	0.00638440853801
3377	0.0163497344
3378	0.0154477825563
3379	0.00204126603926
3380	0.00393361418039
3381	0.0242895817838
3382	-0.000102611501501
3383	-0.0164836251397
3384	0.0168912604368
3385	-0.00672362011711
3386	0.00745575844212
3387	-0.0180461942176
3388	0.0195642149867
3389	-0.0100617814237
3390	0.0062288074863
3391	-0.0266867410892
3392	0.0193360828423
3393	-0.0249929448567
3394	-0.0118530160609
3395	0.0245712361149
3396	0.0897721828155
3397	-0.00479440078024
3398	0.00146171599794
3399	0.024683482192
3400	-0.00534578183367
3401	-0.00825178094776
3402	0.00339759657886
3403	-0.00831385114757
3404	-0.0885891203353
3405	-0.0140892053175
3406	-0.0412964921127
3407	-0.00480648330952
3408	0.0080726342402
3409	0.00888519281691
3410	0.0202298043876
3411	-0.0185007775769
3412	0.00735510615348
3413	-0.00765538233523
3414	0.0139562802233
3415	0.0219381900722
3416	0.0128104567209
3417	-0.000181987854341
3418	-0.0154646792921
3419	0.00347218130321
3420	-0.00418790695227
3421	-0.0220282481904
3422	-0.0167173588971
3423	-0.00748295023062
3424	0.00159041070858
3425	-0.00762496713123
3426	-0.0245541338178
3427	0.0093655210976
3428	-0.000927860332727
3429	0.0046587441645
3430	-0.024239889213
3431	0.0067093146745
3432	0.0040758903598
3433	-0.0214283898279
3434	0.0135676012693
3435	0.0144097547001
3436	0.0150224087825
3437	-0.00782675281006
3438	0.0107678241639
3439	0.00447505428573
3440	-0.0151913119659
3441	-0.0180466642519
3442	-0.016930608426
3443	0.0136999684918
3444	-0.00498581860744
3445	0.0165235672428
3446	-0.00403763211949
3447	0.0307724640969
3448	-0.0249127416166
3449	0.00879503332502
3450	0.0187524596262
3451	0.0114283207469
3452	-0.0181920261255
3453	0.0231010591083
3454	-0.0251276134142
3455	-0.0124495668647
3456	0.0185453773564
3457	-0.0144017871023
3458	0.0244023378952
3459	-0.0245465604961
3460	-0.0116982326005
3461	-0.00502800473289
3462	0.0216200531537
3463	-0.0232591693616
3464	-0.073652337224
3465	-0.00953312451111
3466	-0.00870461698856
3467	-0.00119225262942
3468	-0.0103656765114
3469	-0.0181764007215
3470	0.000407631204398
3471	-0.001364948149
3472	-0.0191407171134
3473	0.0120189750482
3474	-0.0179744826211
3475	-0.00270234930822
3476	-0.0192281137757
3477	-0.0215867880162
3478	-0.0179454031942
3479	-0.0124229771125
3480	-0.00274804349958
3481	0.00916475171091
3482	0.00942811976031
3483	0.0117368642724
3484	0.0178515422449
3485	0.0199376827021
3486	-0.0520386280868
3487	0.0140324339607
3488	-0.0110177275746
3489	-0.0210177721535
3490	0.00260286418122
3491	-0.014393691935
3492	0.00722076736509
3493	-0.00147955582098
3494	-0.0128866225352
3495	-0.00736115689325
3496	0.0129698157903
3497	-0.0211604712783
3498	-0.0221240614695
3499	-0.0163689924306
3500	-0.0198455530806
3501	-0.0126120797326
3502	0.0194251736639
3503	-0.0141379798821
3504	-0.0127374926305
3505	0.00607112162235
3506	-0.0183982645532
3507	-0.0922877816131
3508	0.0150745206551
3509	0.0147219373102
3510	-0.0198819643082
3511	0.0129817191848
3512	0.0203255581439
3513	-0.0213227468301
3514	0.01223823944
3515	0.0189313831445
3516	0.0155820210001
3517	0.0062354993973
3518	0.01903608453
3519	-0.00749692235877
3520	-0.0184669202543
3521	0.00958532507666
3522	-0.000350329689721
3523	0.0192511380521
3524	0.0197939222573
3525	0.00418024527808
3526	0.00151033702251
3527	0.0117940271448
3528	0.0103829390192
3529	-0.00760724629669
3530	0.100637935806
3531	-0.00795559976488
3532	-0.0102218418486
3533	0.0164917757557
3534	-0.00745785982585
3535	0.0657937522894
3536	-0.0187467017017
3537	0.0191712337873
3538	-0.00340932640823
3539	0.010491449628
3540	0.00864910534397
3541	-0.0225603309836
3542	-0.0202825524247
3543	-0.0176724450096
3544	0.0145607725163
3545	-0.0227671550923
3546	-0.00703473247338
3547	-0.0244103091043
3548	0.0199325903325
3549	0.0154590284993
3550	-0.00419215061994
3551	0.0232313089742
3552	0.0199092665017
3553	-0.00095296742181
3554	-0.00519475667759
3555	0.00321834372582
3556	0.00696855834406
3557	0.00418454089527
3558	-0.0239719243286
3559	0.00344339301122
3560	-0.00357493764705
3561	-0.00866425420404
3562	-0.0244757390178
3563	-0.00799482399574
3564	-0.0178543541967
3565	-0.00557288721194
3566	0.00173767505597
3567	0.0488150581746
3568	-0.0166560789705
3569	-0.02537590273
3570	0.0110609970295
3571	-0.0213415184836
3572	0.0125855068167
3573	-0.0119545479335
3574	0.00576599503448
3575	-0.00491195116622
3576	0.0318294607405
3577	-0.00911929297819
3578	0.00689060884493
3579	-0.0137910689354
3580	0.00734852613654
3581	-0.0154919734567
3582	0.00300135860812
3583	0.0148827833188
3584	3.43997243258e-05
3585	-0.0133014266489
3586	0.0110269712656
3587	-0.00577939815743
3588	0.0096802672753
3589	0.0157452319147
3590	0.0219713928598
3591	0.0171409017712
3592	0.0149796386831
3593	-0.00528908174576
3594	-0.0222052034899
3595	-0.0146527707087
3596	-0.00760251048139
3597	0.0189632082929
3598	-0.0249374002931
3599	0.0189330844019
3600	-0.0230402685986
3601	-0.0159941278948
3602	0.0229370178463
3603	0.0108389344953
3604	0.00218036964926
3605	0.0237747027009
3606	0.0199467606235
3607	0.00847102354572
3608	-0.00450979742798
3609	-0.01128462135
3610	-0.0242966701196
3611	-0.00542719660971
3612	-0.0223325814634
3613	0.0224593560815
3614	-0.00138283924985
3615	-0.0143752128688
3616	-0.00750744785066
3617	-0.00295141715401
3618	-0.0219416066313
3619	-0.0201673142178
3620	0.0094742962217
3621	-0.0158027057426
3622	-0.0086926789003
3623	-0.00359243234929
3624	-0.027629689743
3625	-0.00901029771172
3626	0.0083368499618
3627	0.023558417983
3628	0.011604868386
3629	0.0107644049643
3630	0.0105315692146
3631	0.0220040288128
3632	-0.023472831055
3633	0.0171789530364
3634	-0.00296398555104
3635	-0.00293588050319
3636	0.00936563315536
3637	0.0241819448826
3638	0.0218301532276
3639	0.00372520808902
3640	-0.0108839555474
3641	0.0148205242094
3642	0.0217458617708
3643	-0.0114864680328
3644	-0.00255905461641
3645	0.0155086630294
3646	0.0158765254089
3647	0.00956396241921
3648	-0.000513908023218
3649	-0.00214034165524
3650	0.0150309150002
3651	0.0205662630462
3652	-0.00856545976374
3653	-0.00717728645922
3654	0.0118078863126
3655	-0.0175598904057
3656	0.0208164974542
3657	-0.00698873948616
3658	0.0091954772111
3659	-0.0205615683053
3660	-0.0240154535845
3661	0.0228216503135
3662	-0.0122597829229
3663	-0.00639691062477
3664	0.0218829618316
3665	-0.00540068031141
3666	0.025535707942
3667	-0.0110828804411
3668	-0.000348385685352
3669	-0.0126110096973
3670	-0.0147722479699
3671	0.0226672340958
3672	0.00141905800894
3673	-0.0197471640455
3674	0.0204167414312
3675	-0.0131719897397
3676	0.0199251005766
3677	-0.0218195863474
3678	-0.0130035417398
3679	-0.0187057479052
3680	-0.00313005466492
3681	0.0101785400558
3682	-0.0162683202102
3683	-0.00899151841133
3684	0.0153117980495
3685	0.0184838607835
3686	0.0105829042068
3687	0.00902470970141
3688	0.0232387740482
3689	-0.00963519016181
3690	-0.0176619058766
3691	-0.0117323108603
3692	0.00633100252516
3693	0.0142436926657
3694	-0.00277887132921
3695	-0.00611169707353
3696	0.00217507735101
3697	0.00242961933362
3698	0.00256644970337
3699	0.0318309598964
3700	-0.00380423060615
3701	0.00535248487999
3702	-0.075814868185
3703	-0.0392275451017
3704	0.0141897559981
3705	0.0159453906405
3706	-0.00868392818386
3707	-0.0170998902672
3708	0.0537126071417
3709	-0.00951193962595
3710	0.391056349798
3711	-0.0193952125748
3712	-0.00228159169354
3713	-0.00547216677851
3714	-0.00856314641244
3715	0.00987473477119
3716	-0.0118030889704
3717	-0.00804522795379
3718	0.0100175574387
3719	-0.0214779824347
3720	-0.00707497301229
3721	-0.0222678211614
3722	-0.00229569370054
3723	0.000265462755476
3724	0.0198461908313
3725	-0.00889063393097
3726	-0.0135784978951
3727	-0.00104392620047
3728	-0.010341166461
3729	-0.00467564884713
3730	0.0311336972201
3731	0.0230944673754
3732	-0.0126806597496
3733	-0.0375575744017
3734	-0.00204827480216
3735	-0.0250661830392
3736	0.0913320575357
3737	-0.0178237513983
3738	0.0201268613651
3739	0.00854516152355
3740	0.00629078981188
3741	0.00482751268285
3742	0.00700553297564
3743	-0.018165035077
3744	-0.00628193927609
3745	-0.0135794441684
3746	0.0248203170043
3747	-0.00102391119617
3748	-0.0135205053939
3749	-0.0190359449396
3750	-0.0236436061326
3751	0.00548438409872
3752	-0.0203240720143
3753	-0.0551952062529
3754	-0.00852587691383
3755	-0.00494520567564
3756	-0.00230926282993
3757	0.0208952130047
3758	0.00480068403255
3759	0.0190558130317
3760	-0.00328980968703
3761	-0.025146282791
3762	-0.0174714271384
3763	0.0155976393963
3764	0.00948718251245
3765	-0.0376770521717
3766	-0.0245796253932
3767	-0.0177323093015
3768	0.0146874012515
3769	0.0170520725535
3770	-0.00672232063784
3771	0.00830720130364
3772	0.0142569112808
3773	-0.0228304592669
3774	-0.00705241881441
3775	-0.0172953407174
3776	-0.0212940025699
3777	-0.0155018396734
3778	-0.0052064562243
3779	0.00627444776885
3780	-4.21398403186e-05
3781	0.017387485313
3782	0.0206399301377
3783	-0.0240054771327
3784	0.00723266860339
3785	0.0146595531151
3786	-0.0206571020908
3787	-0.0244529810333
3788	0.0213903153918
3789	-0.0190045532537
3790	0.0164377873909
3791	-0.00642003381263
3792	-0.00632471735926
3793	-0.00775498964103
3794	-0.0200041739057
3795	0.0137166024164
3796	0.000341345653934
3797	0.005183012619
3798	0.00766326211812
3799	-0.0171142524664
3800	0.00461625578749
3801	-0.00492997826136
3802	-0.0226860033077
3803	-0.0138356484462
3804	-0.0215651086379
3805	0.0209191690144
3806	-0.0110927029998
3807	-0.0222843355997
3808	-0.0132926758598
3809	0.00908494397593
3810	-0.00596728174739
3811	-0.0211191537314
3812	0.00186490445205
3813	-0.0124031570133
3814	-0.0155756390531
3815	-0.0231673388295
3816	-0.0055560264592
3817	0.0127555901587
3818	0.00435896718463
3819	-0.0163722551528
3820	0.0115928080072
3821	0.000797916951613
3822	0.00230115091935
3823	0.00897424115079
3824	-0.0219698454482
3825	0.0104176145726
3826	-0.0213878955972
3827	0.0152624256724
3828	-0.0174678794263
3829	-0.0228188885244
3830	0.0228955800686
3831	-0.0253284231617
3832	-0.0276831587422
3833	0.018704459097
3834	0.00330161715157
3835	0.00155208970598
3836	-0.0228683735347
3837	0.0190921944718
3838	-0.00977378280577
3839	-0.0166933180514
3840	-0.0202383897383
3841	0.017156171309
3842	-0.0189486340673
3843	-0.0151965571426
3844	0.00885556547651
3845	0.0188006854364
3846	-0.0120351380245
3847	-0.000692947555884
3848	0.00146065833195
3849	-0.0195045037704
3850	0.0794353025384
3851	0.0168174147821
3852	0.010579052175
3853	0.0199767300637
3854	0.0138736135902
3855	0.0221372123622
3856	-0.0195538835049
3857	-0.00131169509014
3858	-0.0180137433798
3859	-0.00865689390676
3860	0.00721010092638
3861	-0.0994981168251
3862	0.00238039375635
3863	0.00280000261417
3864	0.00736500951712
3865	-0.0151757746695
3866	-0.0180384716983
3867	-0.0152838192351
3868	-0.0131928152768
3869	-0.0318480421116
3870	-0.0107761512081
3871	0.0167291736376
3872	-0.0163587179191
3873	0.212085352708
3874	0.00644578866142
3875	-0.0151666125029
3876	-0.0229087077152
3877	0.00705696305238
3878	-0.0146966449783
3879	0.00340236285332
3880	-0.0136541462611
3881	-0.00251682892325
3882	0.0159467930435
3883	-0.00163651871047
3884	-0.00277539438061
3885	-0.00287781987068
3886	-0.00719520243179
3887	0.0108434118311
3888	0.0239856786436
3889	-0.0162949604208
3890	-0.0186168436463
3891	0.00407111065427
3892	0.00738286277716
3893	-0.00204670352048
3894	-0.015485206051
3895	-0.00182379467119
3896	0.00105994251263
3897	-0.0245563229659
3898	-0.00596913240815
3899	0.00306168475109
3900	-0.0194510209441
3901	0.0134048026538
3902	0.013461952813
3903	-0.0679078078529
3904	0.00707216387312
3905	-0.021462796224
3906	-0.0208366123263
3907	-0.02440368628
3908	-0.0116292671035
3909	0.00466881129534
3910	-0.0199342515425
3911	0.0114491002107
3912	0.0128899881532
3913	-0.00957658751013
3914	0.000609410605903
3915	-0.0199548373484
3916	0.0165596881015
3917	0.00604692769607
3918	-0.00874099443971
3919	0.0186062649569
3920	-0.00771684518982
3921	0.0122250624611
3922	0.0118224584187
3923	-0.0181696506017
3924	0.012553255297
3925	0.0143454958514
3926	-0.00442055701602
3927	0.0198747065063
3928	-0.0210862383001
3929	-0.0100506502914
3930	0.0103835262532
3931	-0.0233720439715
3932	0.00644121163499
3933	0.0238515958765
3934	0.00811436992904
3935	-0.00434554865183
3936	-0.0202723229334
3937	0.0230669303881
3938	0.000676563060697
3939	-0.000222446466528
3940	-0.0224126889742
3941	0.0100530781171
3942	-0.00143851765447
3943	-0.00150015783304
3944	0.0126855559783
3945	-0.020721649334
3946	0.00901397170724
3947	0.0109794102879
3948	0.0171708364577
3949	-0.0239702300278
3950	-0.00808199480509
3951	-0.0072878744855
3952	-0.0067336989111
3953	-0.00189678191697
3954	0.0165246268811
3955	0.000153396572547
3956	0.00935945109352
3957	0.0105274891596
3958	-0.0027362371421
3959	0.0167508974604
3960	-0.0068674120679
3961	-0.000394734190628
3962	-0.0241587455209
3963	-0.0147397124116
3964	-0.00549710846905
3965	-0.00182321986769
3966	-0.0199653676751
3967	0.00350542603986
3968	-0.00824082372042
3969	-0.0461553808368
3970	0.0108873007528
3971	-0.0226095297096
3972	-0.0122251116383
3973	0.00786663644661
3974	-0.00932359039415
3975	0.00703391419269
3976	-0.0233657976976
3977	0.0155955214201
3978	-0.021788814259
3979	-0.0153547803327
3980	0.0129344135647
3981	0.003860556781
3982	0.020420644753
3983	0.00506095824806
3984	-0.00647594670222
3985	0.0064316193385
3986	0.0101298900989
3987	0.0221363680629
3988	0.0236133472237
3989	0.0200823437555
3990	-0.0165938602787
3991	0.0160526432317
3992	-0.00269299419334
3993	0.0209990668726
3994	-0.0176390457338
3995	0.0235373493207
3996	-0.006175167141
3997	0.0178476158772
3998	0.0214606270844
3999	0.000296871620554
4000	0.00114062570639
4001	0.0105534629104
4002	0.00581250199177
4003	-0.0195656187502
4004	0.00795476827259
4005	-0.0249381108073
4006	0.0201808076138
4007	0.0125825400991
4008	-0.0193100545691
4009	-0.0234903643826
4010	-0.00673448791584
4011	-0.0206903857167
4012	-0.00675443040484
4013	0.0130789741813
4014	0.00419876002756
4015	0.00202730290781
4016	-0.00941980139197
4017	0.0143419142407
4018	0.00261024088225
4019	0.00406299048442
4020	0.00646142457549
4021	0.00229689332086
4022	-0.0103699971139
4023	-0.0207318535752
4024	-0.00620729382448
4025	-0.009559170625
4026	0.00913757855693
4027	-0.00589934653164
4028	-0.0134525645614
4029	-0.00364411875668
4030	0.00219827287909
4031	0.018966539614
4032	-0.110626511718
4033	-0.0181327106311
4034	0.00243517465051
4035	0.000683269993892
4036	-0.0139768048927
4037	0.00047207029908
4038	0.00301013495652
4039	0.0184877390961
4040	-0.0157454732512
4041	0.0144645418887
4042	-0.00902842450351
4043	0.0223955811489
4044	0.0133200855584
4045	0.0229968371092
4046	0.0108334035951
4047	-0.00869832701726
4048	-0.0231865851674
4049	0.00351848980228
4050	-0.0059543174923
4051	0.0119427988099
4052	-0.0153533232852
4053	-0.018670367344
4054	0.0207895932982
4055	-0.008488482278
4056	-0.0107217273786
4057	0.0232611114787
4058	-0.0100635965742
4059	-0.00229396250595
4060	-0.0228320172894
4061	-0.00411532315725
4062	-0.021055503296
4063	0.0177126358053
4064	-0.0232730207504
4065	0.0070765364634
4066	0.000555269424478
4067	-0.0159487516241
4068	-0.00292260729673
4069	0.006601679367
4070	-0.0116383318853
4071	0.0174460618675
4072	-0.0265845019916
4073	0.0211431938522
4074	-0.0239593304128
4075	0.0100407722842
4076	0.0180275403136
4077	-0.0163055487827
4078	0.0193301586003
4079	-0.0249550120584
4080	-0.0177154964919
4081	-0.00792171514582
4082	0.00226857585103
4083	0.0187625687379
4084	-0.0198508613478
4085	0.00650209028283
4086	0.0152118117506
4087	-0.0230270956928
4088	-0.0172457438025
4089	0.00334750901517
4090	0.0223661871951
4091	0.000643135717688
4092	-0.0120624066281
4093	-0.0161321000326
4094	-0.00648063460278
4095	0.01470821445
4096	-0.0270166009914
4097	-0.0259932361966
4098	0.0228323665003
4099	-0.0115813333087
4100	0.012847568353
4101	0.0246920523652
4102	-0.0110419973289
4103	0.00243343936697
4104	0.000324848640823
4105	0.0172973684863
4106	-0.0125996436788
4107	-0.00742791026829
4108	-0.0219516282664
4109	0.00314109570434
4110	0.0237787975189
4111	0.000592163978637
4112	0.0122204611889
4113	-0.0159512897165
4114	-0.0112200367793
4115	-0.000848787082508
4116	-0.0170553185013
4117	-0.0223361501198
4118	-0.0128813175421
4119	0.00143755379213
4120	0.00776586234905
4121	0.0227245235191
4122	-0.0162808711562
4123	0.0232931609299
4124	-0.0240956210236
4125	-0.00737859471346
4126	0.00926331261759
4127	0.0240630247549
4128	0.0217696530153
4129	0.00197295404008
4130	0.0174150264952
4131	-0.0209251732723
4132	0.0105253624033
4133	-0.00698910207605
4134	-0.000503035548338
4135	-0.000684389229068
4136	0.0191177725303
4137	-0.00779160312837
4138	0.00227932180442
4139	-0.0140916705563
4140	-0.0190502115064
4141	0.0219254403559
4142	0.00361441433925
4143	0.0189577502993
4144	-0.0265576580986
4145	-0.02020568948
4146	-0.0136121809375
4147	0.0171978453282
4148	0.000991687174317
4149	-0.0251202264236
4150	-0.00627553537354
4151	-0.0246730734383
4152	-0.00511670983664
4153	-0.00142718612666
4154	-0.0196223776975
4155	-0.0102584690915
4156	-0.00412416559941
4157	0.0192968497114
4158	0.0115930186442
4159	0.0144539774871
4160	-0.00320572660847
4161	0.00677162750742
4162	0.0170090584078
4163	-0.0236248804658
4164	-0.0194767120927
4165	0.0105558744667
4166	-0.000462786758429
4167	0.0225989914352
4168	-0.0125278302133
4169	-0.011549041083
4170	0.0242259969394
4171	0.0133767016761
4172	-0.0100831570429
4173	-0.0172091287625
4174	-0.0211911109725
4175	0.00141878067097
4176	0.00282628308884
4177	0.0212889430026
4178	-0.00641907595916
4179	-0.0170828235638
4180	-0.0169460611284
4181	-0.0174284044516
4182	0.0177649735033
4183	-0.0143023385915
4184	0.00703080277498
4185	0.0117598631432
4186	-0.000596731971791
4187	-0.022920229585
4188	-0.00147311732367
4189	-0.000290962206471
4190	0.0211541757446
4191	-0.0233677779358
4192	0.0136815937386
4193	0.0241268101342
4194	0.00611617565783
4195	0.00479173796593
4196	-0.00501678464136
4197	-0.0073386741735
4198	0.0220421406344
4199	-0.0236009215101
4200	-0.0480453840714
4201	0.0200863751061
4202	0.0214290470553
4203	-0.00135943116095
4204	0.0197908075901
4205	-0.0174264983229
4206	-0.0134318984068
4207	-0.0200832460857
4208	-0.00350319214866
4209	0.0110505805582
4210	-0.014014202386
4211	0.00127416940659
4212	-0.0226108189232
4213	-0.00296118088876
4214	-0.0167642752598
4215	0.00445653709007
4216	0.0164462197467
4217	-0.00394338801082
4218	-0.0192130185811
4219	0.00320652063075
4220	0.0114279464064
4221	0.000162901415574
4222	-0.00899436013831
4223	0.00612910899951
4224	0.010822701974
4225	0.0211756230316
4226	-0.0116369304931
4227	-0.0238034485398
4228	0.0175696183896
4229	0.0110845863394
4230	-0.0119830396972
4231	0.0112569039973
4232	-0.000651785630514
4233	-0.0194023265361
4234	-0.00566796841095
4235	-0.0110372505932
4236	0.00596801886404
4237	0.00577895065677
4238	-0.0189951848156
4239	0.0126847701814
4240	0.0164489294942
4241	-0.0121825218226
4242	0.0174306446344
4243	-0.00792692297206
4244	-0.0174873348471
4245	0.010954455072
4246	-0.0240259939041
4247	-0.0138248366956
4248	-0.00266573598436
4249	-0.00821710351783
4250	-0.0165368369601
4251	0.0214152188548
4252	0.0034679684801
4253	-0.684898536941
4254	-0.188523640463
4255	-0.0805356913733
4256	0.00272314994143
4257	-0.593459473526
4258	-0.758219148034
4259	-0.00696080625364
4260	-0.0262197916185
4261	0.00159370260182
4262	-0.0153342095957
4263	-0.0185839388728
4264	-0.0224445899407
4265	-0.264745169152
4266	-0.280458633274
4267	-0.172078887835
4268	0.0134606771791
4269	-0.0228112709208
4270	-0.0356784968898
4271	0.0161090399962
4272	-0.206037266662
4273	0.0671587516621
4274	0.0657894424951
4275	0.0047073697804
4276	-0.00320155628061
4277	-0.0985280299519
4278	0.000413324937357
4279	-0.0129117390552
4280	0.450594793612
4281	-0.0111855575006
4282	0.157283917692
4283	0.0159089797589
4284	-0.0368166670447
4285	-0.0125814456381
4286	-0.0143570093876
4287	0.0234599434839
4288	0.00567827392034
4289	0.0101945654913
4290	-0.0195900987533
4291	0.0199404720257
4292	-0.0214679633548
4293	-0.0143265093576
4294	0.00175537928876
4295	0.163664083631
4296	0.0779740458407
4297	-0.0286033907156
4298	0.00260428929249
4299	0.0556551092308
4300	-0.00379088285348
4301	0.145374752664
4302	0.0435709753706
4303	-0.000533233093603
4304	-0.254277872851
4305	-0.204621094203
4306	-0.0165500486853
4307	0.0141719543869
4308	0.0941775014957
4309	0.0551725783399
4310	0.00488722508299
4311	-0.00666416081782
4312	-0.0171414637384
4313	0.00166287285663
4314	0.00624318019765
4315	-0.00371147622494
4316	0.0183397097174
4317	-0.0113124510926
4318	0.0190628402256
4319	-0.0145526243961
4320	-0.155116462358
4321	-0.117136405741
4322	-0.0211023260818
4323	0.0105635933018
4324	-1.12922952371e-05
4325	0.0134764530871
4326	0.0111569444943
4327	-0.0036465906685
4328	0.00901793694916
4329	-0.0438003365678
4330	-0.0686862512389
4331	0.0410946481229
4332	-0.0918861443375
4333	0.0077961197053
4334	-0.0228694078824
4335	-0.019312452287
4336	-0.0642874428444
4337	-0.0237180417754
4338	0.000797371004106
4339	0.000140495312873
4340	0.013320949833
4341	-0.00333560203025
4342	-0.18641643808
4343	-0.0114949422218
4344	-0.236136987568
4345	0.0052162103212
4346	-0.0218924488195
4347	0.000781779099299
4348	-0.0031285815578
4349	0.00668675035486
4350	-0.0180080188148
4351	0.113349393754
4352	0.00324085283444
4353	0.050121240295
4354	-0.0102928797321
4355	-0.0114249660307
4356	0.115473385614
4357	-0.00459615825854
4358	-0.0215348542575
4359	-0.0897153735755
4360	-0.0138847771364
4361	0.00732187165069
4362	0.0234059237275
4363	-0.205207695214
4364	-0.212709101781
4365	-0.0157234178272
4366	-0.0104557704031
4367	0.0393847310571
4368	-0.0124997265686
4369	-0.00196309141537
4370	-0.0115135143769
4371	0.00164050396189
4372	-0.149120191144
4373	-0.110740002981
4374	-0.000173618042343
4375	-0.438555261748
4376	-0.00879610473815
4377	0.0168615160289
4378	0.0027924403254
4379	-0.0171153983594
4380	0.097289150442
4381	-0.0160225017194
4382	0.00191211509642
4383	-0.314472169715
4384	-0.10322268895
4385	-0.00826132819049
4386	-0.0191350094912
4387	0.00918642514695
4388	-0.0196031388884
4389	0.0245698030559
4390	0.0161160579492
4391	-0.0127435280567
4392	0.0015480920706
4393	-0.00881743176595
4394	-0.0132633535251
4395	-0.0192609833682
4396	-0.0138432016251
4397	0.00943448222843
4398	-0.0195302726498
4399	0.260455003524
4400	0.221853939969
4401	0.0116547387574
4402	0.0143408248872
4403	-0.017704302008
4404	0.0122116212003
4405	0.00331319624421
4406	-0.0151503875017
4407	0.00869573924309
4408	-0.00137002865124
4409	-0.0246101265928
4410	0.000955648149546
4411	0.0192444405199
4412	0.0157418363916
4413	0.0341134345716
4414	-0.0972618636382
4415	-0.0118620983148
4416	0.0241100277391
4417	0.00125824086556
4418	-0.0054025502071
4419	0.00818896935753
4420	-0.0373670366503
4421	-0.0164545711396
4422	-0.0201961707765
4423	0.0116617891407
4424	0.0104390145445
4425	0.0241413390401
4426	-0.0121454714862
4427	0.0245674152646
4428	0.00786697783522
4429	-0.0390682715121
4430	-0.0925576348308
4431	-0.0547002434009
4432	-0.0927368221113
4433	-0.00852972943472
4434	-0.0231549989142
4435	-0.000420007365813
4436	0.0090106731949
4437	-0.108838143131
4438	-0.105286984062
4439	0.00112037238086
4440	-0.0187507549714
4441	-0.00510164103237
4442	-0.035345319243
4443	0.0143751110767
4444	0.00104525928218
4445	0.0142849492419
4446	-0.00474567070672
4447	-0.0391049756801
4448	0.00611242065264
4449	0.00879455579286
4450	-0.00563002294687
4451	0.0220085595941
4452	-0.0137547605361
4453	-0.100292972888
4454	-0.00471949397906
4455	-0.0115728930101
4456	0.0127528524084
4457	0.000618789224085
4458	-0.0369630867929
4459	0.00653834322167
4460	-0.00962021051265
4461	0.00708232306455
4462	-0.00155925113947
4463	0.149436254729
4464	0.050101449717
4465	-0.00424351746377
4466	0.017728331562
4467	0.148090234057
4468	0.0120681498127
4469	-0.0109818834513
4470	0.0170239386886
4471	0.000974813826445
4472	0.0211438792181
4473	-0.00798227444947
4474	0.0195208752945
4475	-0.0246576229112
4476	-0.00239318266006
4477	0.0197054220585
4478	0.0111332256874
4479	-0.00397655961534
4480	-0.0202350675217
4481	0.0122410883727
4482	0.00397419090774
4483	0.00976607795706
4484	-0.0183287391414
4485	0.0222970526481
4486	-0.0190466021597
4487	-0.0261304301214
4488	0.0139262989096
4489	0.00773839084746
4490	-0.00311761993483
4491	-0.0124175040577
4492	-0.189843244247
4493	0.00560097746685
4494	0.00204286708239
4495	-0.0190191879269
4496	-0.0541372593095
4497	-0.025100122836
4498	0.0160589774302
4499	0.00988627729954
4500	-0.0213917962582
4501	-0.0733911191126
4502	0.00415220488781
4503	0.0010332736873
4504	-0.00110832021419
4505	-0.123113262439
4506	0.0136986180665
4507	-0.000499100729307
4508	0.000789261606418
4509	-0.00334013677814
4510	-0.028675430656
4511	0.0143263040729
4512	-0.000582154286314
4513	-0.00124421865055
4514	-0.0186952671345
4515	-0.0168065902928
4516	-0.0252177054204
4517	-0.0105752366018
4518	-0.00991338083977
4519	0.0204247835755
4520	-0.00690634510479
4521	-0.00664812438075
4522	0.0222187448927
4523	-0.106119417078
4524	-0.0664602213827
4525	-0.00940539797173
4526	0.0761360609576
4527	-0.0193746860795
4528	-0.0327448372248
4529	0.0215807426941
4530	0.0188235593277
4531	0.0252326705009
4532	-0.0178819191578
4533	0.0143017762682
4534	-0.278372923371
4535	-0.0703336820761
4536	-0.0231721244433
4537	0.000244547330586
4538	-0.000245982798127
4539	0.0205097383667
4540	-0.01029012406
4541	0.00883482705356
4542	-0.0181290541249
4543	-0.0081125058417
4544	-0.00163047046329
4545	-0.000455155620765
4546	-0.153354379926
4547	0.00262454782288
4548	0.0173898311554
4549	-0.005836683291
4550	-0.0219639014924
4551	0.0192598699967
4552	-0.0057972276191
4553	-0.00582708346498
4554	-0.032085773298
4555	0.0144341807597
4556	0.014987077216
4557	-0.00769559106181
4558	-0.0683803089908
4559	0.00916089275118
4560	0.00565652063789
4561	-0.00382553322539
4562	-0.00944469806925
4563	-0.115531708684
4564	0.0117115423808
4565	-0.0297146382494
4566	0.00292730673264
4567	-0.00155774940125
4568	0.0876992104014
4569	0.101962337475
4570	0.0115782239718
4571	-0.0223850105046
4572	0.0236739695756
4573	-0.00872898490124
4574	0.103069154915
4575	0.100884651905
4576	0.00491207333839
4577	-0.0173466301044
4578	-0.00802656709437
4579	-0.0325073602364
4580	0.00942080000322
4581	-0.0657270123375
4582	-0.0672863548571
4583	-0.00362231668765
4584	-0.134211596724
4585	-0.165752415239
4586	-0.0251297574784
4587	-0.0021908908538
4588	0.00834541212854
4589	0.00124871995333
4590	-0.00888375844817
4591	-0.0191659353882
4592	0.00564473845445
4593	-0.0389214942752
4594	-0.0117818566663
4595	-0.0249228698394
4596	0.517829740391
4597	0.0244472199923
4598	0.011623251082
4599	-0.00316598716331
4600	0.0222734093612
4601	-0.0235007229303
4602	-0.0205824872791
4603	0.0183337630719
4604	0.0216317308575
4605	0.00188151813864
4606	0.0151333361742
4607	0.113596113907
4608	-0.000652126041623
4609	-0.00852353250476
4610	-0.015734682343
4611	-0.0234352459805
4612	0.00709240962314
4613	0.0325463230894
4614	-0.18794272815
4615	-0.0107058788164
4616	-0.0591995171003
4617	0.00102020211209
4618	-0.0222213122972
4619	0.0107803758291
4620	0.0148315098895
4621	0.0091029432786
4622	0.00220041277407
4623	-0.00510327094156
4624	0.0234514332266
4625	0.0655895204161
4626	-0.435254096707
4627	0.00664490483043
4628	-0.0861394206393
4629	-0.0872283809873
4630	-0.00197024486319
4631	-0.0263638494777
4632	-0.0118632825663
4633	-0.00727269900215
4634	0.0154481426581
4635	-0.0196308663548
4636	0.00491594596308
4637	-0.0304295083909
4638	-0.00326577013994
4639	-0.0141817145854
4640	-0.0470106860145
4641	-0.0104119284981
4642	0.0192269907091
4643	0.0395177346614
4644	0.0620771489791
4645	0.00776504089281
4646	0.0172069830566
4647	-0.019434549683
4648	0.0185171229661
4649	-0.00421092168788
4650	0.00299845752708
4651	0.00337796120228
4652	0.0195532666924
4653	-0.0191143916921
4654	0.00109893368238
4655	-0.012458711483
4656	0.0472064456149
4657	0.00425427740115
4658	0.00804774958998
4659	-0.0202460928875
4660	-0.0177329256542
4661	-0.009905404474
4662	-0.0580996428558
4663	0.00749248930862
4664	0.0228761035952
4665	0.000854356350975
4666	-0.0249552527878
4667	-0.0354849600537
4668	0.0104749276295
4669	0.0106802476883
4670	-0.0919059606843
4671	0.017472736369
4672	-0.0815228747003
4673	0.247812275633
4674	-0.0565216309505
4675	-0.00205089367853
4676	0.00550492901918
4677	-0.0317118657146
4678	0.0129263057288
4679	-0.00754307868055
4680	0.10048730436
4681	-0.0688110627839
