0	-0.644337191038
27	-0.269379758424
28	-0.407983843588
29	-0.0199181449403
30	-0.291489528882
31	-0.329493628153
32	-0.656542492814
33	-0.0556072099658
34	-0.0377889317312
35	-0.599291385637
36	-0.601373286503
37	-0.570188002424
38	-0.711670603023
39	-0.246546560153
40	-0.644337191038
41	-0.830747989554
42	-0.656555963254
43	-0.345871039652
44	-0.394774308264
45	-0.333076061482
46	-0.194027965659
47	-0.035618014497
48	-0.0464447448788
49	-0.217009299919
50	-0.0993216657139
51	-0.277945165097
52	-0.0388142214866
53	-0.443065716654
54	-0.078276012232
55	-0.0856965881747
56	-0.264835445287
57	-0.265384643989
58	0.18264141246
59	-0.327598778856
60	0.499003944583
61	-0.00273275177668
62	-0.428345334839
63	-0.444384103823
64	-0.30190497746
65	-0.348048599256
66	-0.333140258924
67	-0.0187392822158
68	-0.349015280143
69	0.00217859350141
70	-0.672340907236
71	-0.202617279423
72	-0.190557878627
73	-0.980775180482
74	-0.974328170781
75	-0.630520434482
76	-0.601397950602
77	-0.534820014534
78	-0.792372491421
79	-0.180802937393
80	0.0088867424407
81	-0.393536525434
82	-0.0920731344675
83	0.127850303914
84	0.0179111335195
85	-0.642499427166
86	-0.0260049125185
87	-0.553785920001
88	-0.505876634719
89	0.000789997647154
90	-0.453056390456
91	-0.0765966831828
92	-0.00926378631346
93	-0.0237997136863
94	-0.557155516318
95	-0.58096897874
96	-0.389079482555
97	-0.490459416702
98	0.364962275267
99	-0.00782847036058
100	-0.319289402217
101	-0.143927007629
102	0.025093726149
103	-0.00749124883213
104	-0.702945190221
105	-0.0072401958799
106	-0.0965673734429
107	0.32233261946
108	0.0563961460928
109	0.0607829176951
110	0.154389522785
111	0.0784473541706
112	0.0969260479758
113	-0.00374523595637
114	-0.600033042525
115	-0.796325190267
116	-0.651896474531
117	-0.37898965353
118	-0.293665569996
119	-0.00794921605625
120	-0.189782268828
121	-0.228890052924
122	-0.247768968361
123	-0.36871425672
124	-4.25663884211
125	0.0168442324212
126	-0.0585499028962
127	-0.027945942479
128	-0.0294186805811
129	-0.733739365626
130	7.00971577035
131	-0.0242592182778
132	-0.415900454142
133	0.165438701836
134	0.0176571364059
135	-0.00637316621998
136	-0.00617382799604
137	-0.210272277778
138	-0.0936163572905
139	-0.129158323172
140	-0.0363376783525
141	-0.350103612868
142	0.00610425242222
143	-0.392718045716
144	-0.156352706244
145	-0.109488170608
146	-0.0212922114903
147	-0.0386401395676
148	0.00193868762292
149	-0.40780335206
150	-0.409005032568
151	-0.206929469553
152	0.0101690973398
153	-0.00484979559497
154	-0.429140603593
155	-0.113832634107
156	-0.152447901179
157	-0.0413010371202
158	0.106998343257
159	-0.451988666302
160	-0.148212782846
161	-0.0738765580957
162	0.121200702807
163	0.0196452437718
164	-0.504955833061
165	0.0529124570532
166	0.00506800876335
167	-0.0212196327281
168	-0.110391521909
169	-0.0425820640307
170	-0.658218423281
171	-0.758318239059
172	-0.332336526385
173	-0.0199574441741
174	-0.112370562004
175	-0.0305141252887
176	0.0146052595115
177	-0.374516026739
178	-0.00534170388263
179	-0.780867643567
180	-0.782569980875
181	-0.00271483757151
182	-0.473042096788
183	0.110172802244
184	-0.0514119748549
185	-0.0228879719546
186	-0.456521999369
187	-0.453436796246
188	-0.191446578401
189	-0.0176404457193
190	0.00226927229121
191	-0.450198928621
192	-0.450365244724
193	0.00454576441435
194	-0.485769830371
195	-0.474110653145
196	0.0685836348567
197	-0.025715771199
198	-0.0181029844155
199	-0.48030341367
200	0.00969753468196
201	-0.105833724703
202	-0.127462814496
203	-0.107110825306
204	-0.0294789749101
205	-0.358691893989
206	0.274717246689
207	-0.0975463363429
208	0.183498572526
209	0.00835510768552
210	-0.103151510365
211	-0.0927916691386
212	-0.00426945872643
213	-0.380518320822
214	-0.375127510873
215	0.0012371831122
216	0.00529530281851
217	-0.00844333955869
218	-0.328201908967
219	-0.218577882139
220	-0.0163398259801
221	0.00477021923268
222	-0.826289773819
223	-0.743063205084
224	0.0137718154012
225	-0.413578555059
226	-0.194878073879
227	-0.0766504845885
228	-0.0809696533058
229	0.0012182691182
230	-0.0103484725625
231	0.0194614153379
232	0.0356245991486
233	-0.0228250357023
234	-0.146975909032
235	-0.00767676900981
236	-0.0494284263176
237	-0.71836840572
238	0.0192565889982
239	-0.0154691023112
240	-0.03051773265
241	-0.00603125213142
242	0.0213733870713
243	-0.299629442542
244	-0.0554647015723
245	-0.0463040745919
246	0.0145308155754
247	0.0181115787595
248	0.0257450226724
249	0.0131429678006
250	0.106746198973
251	0.110900503127
252	-0.250313440888
253	-0.221649017688
254	0.00536816663154
255	-0.207294918685
256	-0.198861231903
257	-0.0345268947071
258	-0.130249645333
259	0.00273182022236
260	-0.186615744648
261	-0.361950532249
262	-0.0504335167503
263	-0.162938870781
264	0.0223017435636
265	0.215478219218
266	-0.0674371849479
267	-0.0603075492866
268	-0.00973750798088
269	-0.00761474736551
270	-0.435827224906
271	0.0101477814322
272	-0.0533026523914
273	0.0159167030426
274	0.00717257946627
275	-0.316262435944
276	-0.000878588292862
277	0.0222678934327
278	0.0169237801004
279	-0.515790189746
280	-0.516463195626
281	0.237684694318
282	0.000462381059892
283	-0.213299453719
284	-0.0199500053984
285	-0.00635420483412
286	-0.138593606749
287	-0.0476864466016
288	-0.0184214053892
289	0.0607372074148
290	0.00100424163216
291	-0.14284127045
292	-0.353083644394
293	-0.00889517077709
294	0.0708217385768
295	0.0545938066772
296	-0.023944762979
297	-0.171386323266
298	0.0205176684443
299	-0.0429697426556
300	-0.0201965560739
301	-0.0125912429981
302	-0.00900218838584
303	-0.0135096266773
304	-0.0730380659109
305	-0.253370009466
306	0.00298328157237
307	-0.00696641190448
308	-0.010005176097
309	-0.0309990074545
310	-0.0190239445419
311	-0.0083839194511
312	-0.383625747077
313	-0.491568760793
314	0.0307631278555
315	0.00029637321892
316	-0.0180136579512
317	-0.103799015216
318	0.00230546994411
319	-0.0588926180272
320	-0.00109496968354
321	0.0334626740097
322	0.0086451317606
323	0.448964930858
324	0.0206719127398
325	-0.0292840052354
326	-0.0221162681066
327	0.0403906962398
328	-0.0638608281999
329	-0.0140924108298
330	-0.0113402094231
331	0.0628168118404
332	-0.0141976179445
333	0.00796879434176
334	-0.00354013953676
335	-0.000931067425014
336	-0.0353488881189
337	-0.0468937793734
338	0.209003013654
339	0.260447001124
340	-0.0628470707286
341	-0.0578440145612
342	0.00488904283279
343	-0.209539140098
344	-0.175418573397
345	0.115191111447
346	-0.0157454555171
347	-0.0289307553069
348	0.563137942839
349	-0.0181651011398
350	0.0439389060671
351	-0.1961590137
352	-0.0161304928813
353	0.0137807231072
354	0.0380273040264
355	0.0789595024659
356	-0.00986716292367
357	0.0252602376556
358	0.000601024381655
359	-0.0434890015553
360	0.00428360699021
361	0.0227377242272
362	-0.385964250029
363	-0.0698661738532
364	-0.0637113644431
365	0.0143845044437
366	-0.00969345242174
367	-0.252903014797
368	-0.186399480384
369	0.00258710354251
370	-0.0836641903157
371	-0.00462824604424
372	-0.0306122889738
373	-0.258273142435
374	-0.20669913691
375	-0.0238163600535
376	-0.0104417555849
377	-0.033232375999
378	-0.102632656755
379	-0.00719008287999
380	-0.435407025294
381	-0.105279436778
382	-0.0197980225255
383	-0.00036134895959
384	0.0184833167956
385	-0.246557727363
386	-0.0546224490845
387	-0.194757230521
388	-0.124465231362
389	-0.00983078347078
390	0.0183351823431
391	0.00191962974927
392	-0.00220863517636
393	0.0857224938411
394	-0.101346821902
395	-0.0264186320339
396	-0.0145673693712
397	-0.018714732965
398	-0.00448149700617
399	-0.0187675185857
400	0.123828107844
401	0.145679181909
402	-0.0197021140303
403	-0.217128196655
404	-0.300634208204
405	0.00918221660424
406	-0.300837207274
407	-0.251926331496
408	-0.379919653939
409	0.0013106542657
410	-0.0436873838206
411	-0.0596152578898
412	-0.00300007538049
413	0.00861042743983
414	0.0810905204427
415	-0.0936492964032
416	0.00579083447771
417	-0.00238900859969
418	-0.020579562474
419	-0.0250803634929
420	-0.00156487755647
421	-0.00584593119475
422	-0.0186023720777
423	-0.00724174592589
424	0.0228881763039
425	-0.0269993026515
426	-0.0376333183268
427	-0.159389771228
428	-0.234474716933
429	0.00493055279986
430	-0.0254201775311
431	0.00407135808943
432	-0.00407931936849
433	-0.225061474121
434	-0.199784779979
435	0.0120004763553
436	-0.00951218787914
437	0.168390377735
438	-0.0197390474994
439	0.240409581427
440	0.219268260091
441	-0.00264572919363
442	0.237055603624
443	0.584921089454
444	-0.000975065194179
445	0.0243806904825
446	0.427217853482
447	0.0980557061951
448	0.000227028634116
449	0.0474934784905
450	0.00254026930453
451	-0.157200955801
452	0.0930027905452
453	-0.0193967611853
454	-0.00353690657004
455	0.275370190639
456	0.0214567771827
457	-0.310613126165
458	0.0310468096458
459	0.0173850512659
460	0.0121444011428
461	-0.316336666329
462	-0.124649173019
463	-0.0201347769458
464	0.00536979059912
465	0.0201990140787
466	-0.0169479524787
467	0.00682402282644
468	-0.0235144674041
469	0.0300047832296
470	0.00995774639969
471	-0.0760871992316
472	-0.0411665434928
473	-0.00782522027688
474	-0.0679501452829
475	-0.0106646239079
476	0.0109603870433
477	-0.00220848611456
478	-0.012551062398
479	0.00857365470041
480	-0.191715562789
481	-0.166356941582
482	0.149755176033
483	0.0543569541045
484	-0.00738733703524
485	-0.0211599686859
486	0.00384819916664
487	0.00503064939918
488	0.112611870103
489	-0.00843650988172
490	-0.0126039740535
491	0.0565271056663
492	-0.466944683488
493	0.0110345933418
494	-0.199600735421
495	0.00351494306417
496	-0.0414220263812
497	0.00132284777283
498	-0.00421476179137
499	-0.0149717379953
500	-0.0362684910784
501	-0.0251707545666
502	-0.15599065972
503	-0.0174186170709
504	-0.141032242916
505	-0.0167183236386
506	-0.550820469384
507	-0.0989896040187
508	0.00440312674173
509	-0.00185113052909
510	-0.00849193436203
511	-0.25742698397
512	0.00735915180841
513	0.387984189124
514	0.0115970720784
515	0.00296412233444
516	-0.0238619679933
517	0.0855281401863
518	-0.00333433606963
519	0.0175089597807
520	-0.0265340733597
521	0.0160016856552
522	-0.209456560164
523	0.152827638744
524	0.0814661660725
525	0.0126186507313
526	-0.287457824808
527	-0.00716463015386
528	-0.201489225339
529	-0.0255897790761
530	0.0116768766054
531	-0.0101149814771
532	-0.00415409388927
533	-0.00540198789091
534	-0.228327154798
535	0.0211106099921
536	0.0110979320743
537	-0.0257224049754
538	-0.00522744560284
539	-0.026208253349
540	-0.5558538754
541	0.021563936472
542	0.255890140559
543	-0.102103109614
544	-0.0367254525756
545	-0.0107574185257
546	0.11434917512
547	-0.0484498435047
548	-0.0355603135644
549	-0.0164645158763
550	-0.162103663138
551	-0.0111980996906
552	0.105940710151
553	0.0186824439149
554	-0.580555988418
555	-0.024862852902
556	-0.0472524222667
557	0.00163666174578
558	0.0144201235403
559	-0.622145439108
560	-0.0475492469535
561	-0.0478243932228
562	-0.273922966257
563	0.0125621993811
564	-0.0437568554552
565	0.00258239190969
566	0.0149629132036
567	-0.569666377183
568	-0.0183364667198
569	-0.51932290004
570	-0.15482503041
571	-0.0270071605681
572	-0.0245914128224
573	-0.0491402306644
574	-0.0238407124224
575	-0.0134249753638
576	-0.07931812315
577	0.00810423887576
578	-0.0049827592823
579	-0.0798764668457
580	-0.00469283691816
581	-0.0959361243296
582	-0.0134880868994
583	-0.0278811267067
584	-0.0242065911444
585	0.00667833534102
586	-0.191626533781
587	0.0608259458391
588	-0.030549612896
589	0.0220880223481
590	-0.157975345298
591	-0.0662643361844
592	-0.0430044294864
593	0.00171505036694
594	0.000553585769243
595	0.0092883224594
596	0.116789966029
597	-0.0109629550146
598	0.13839251451
599	-0.0017352878957
600	0.010071837796
601	-0.125158030837
602	0.00881832412208
603	-0.00201420895586
604	-0.0239939580008
605	0.0949654087038
606	0.00423689730489
607	-0.00994312539863
608	-0.224667200777
609	-0.197600905387
610	-0.216447056107
611	0.0104098237457
612	-0.103663852535
613	0.0108973734239
614	-0.0176624186537
615	-0.385243408554
616	-0.0061250137352
617	-0.00646182574004
618	0.00145859801131
619	-0.227917166638
620	0.0211940606223
621	0.0632371058981
622	0.085613947718
623	0.169865195025
624	0.00125844945846
625	0.0102257196056
626	-0.0237645781905
627	0.0159691307152
628	-0.054123700452
629	0.00709605617008
630	-0.204196432957
631	0.00610428982918
632	-0.070995999918
633	-0.41475122677
634	-0.0174255782091
635	-0.459923412171
636	-0.203799519143
637	-0.0166591014211
638	0.174900400219
639	0.18316648388
640	-0.00724505260441
641	0.226867586211
642	-0.036877147445
643	0.0162052005678
644	-0.821805302109
645	0.00991007133733
646	0.0118567838101
647	0.00868280159105
648	0.0145190294075
649	-0.172137596738
650	-0.00656416202395
651	0.0103294035038
652	-0.00470179083662
653	0.0128285046031
654	-0.019484488203
655	0.00711016582285
656	0.00598598024491
657	-0.538184008748
658	0.0680606045224
659	0.015951711663
660	0.00425768845972
661	0.00847238281161
662	0.0836734211503
663	0.0570151555811
664	-0.00966627784201
665	-0.0101058111618
666	0.0147874512911
667	-0.0105261720419
668	-0.0327244682843
669	-0.0290564541267
670	0.0111474631744
671	-0.0134309644541
672	-0.00605827989402
673	-0.000425529648808
674	-0.00585388639964
675	3.36116062305e-05
676	-0.0214061347577
677	-0.0310549229678
678	0.00751617118126
679	-0.297589262767
680	-0.0125114615243
681	0.00892270341217
682	0.318759830957
683	-0.0740227199689
684	0.0147539425503
685	0.0647540653303
686	0.0168814220513
687	0.00530987798657
688	0.153247290516
689	0.00264634196867
690	0.0393603518671
691	0.0719835335438
692	0.0117470676348
693	-0.0031653331945
694	0.00910756479638
695	-0.0054474910223
696	-0.118305970499
697	0.480078434746
698	0.375008120555
699	-0.00533219270043
700	-0.00242476720059
701	-0.0317444055989
702	-0.022511267881
703	0.0406981895575
704	-0.0121779254757
705	-0.0209736045006
706	0.0059718768749
707	-0.0258548338111
708	0.00955090683885
709	0.0154857957175
710	-0.207236197122
711	0.0559813635808
712	0.025895976949
713	0.109097033192
714	0.017353804689
715	-0.00568881541093
716	-0.0478022833177
717	0.0115356551583
718	0.00278738191203
719	-0.0099526279686
720	0.134963880736
721	-0.0690631464098
722	-0.0408464230372
723	-0.0228940807293
724	-0.01283618038
725	-0.0238022748453
726	-0.0141951924165
727	-0.117884887471
728	0.0228657924681
729	-0.0208149400978
730	0.0621763764011
731	-0.0437031953047
732	-0.00531361939543
733	-0.136411354638
734	-0.0155812409752
735	-0.0184183433863
736	0.00206660671127
737	-0.0175274430205
738	-0.0251452645041
739	-0.188274390894
740	0.00976448427526
741	-0.088625222523
742	0.0179221251533
743	-0.0184857820091
744	-0.346727350331
745	0.102356829121
746	0.101798570476
747	-0.0246199800344
748	-0.127285584055
749	-0.018511638607
750	-0.00793146504053
751	0.00196467251662
752	-0.398440522224
753	-0.010872450003
754	-0.0775659861835
755	-0.085523924189
756	-0.0104560608959
757	0.131126702904
758	-0.0219674377268
759	-0.00820686320572
760	0.013915518379
761	0.01631928645
762	0.00628029069645
763	0.00549536752507
764	-0.0139057254485
765	-0.0641663612684
766	0.0083110124747
767	0.0126879383157
768	-0.0123063833489
769	-0.339098503347
770	-0.0234989102557
771	-0.0013291643146
772	0.0044182523192
773	-0.024220151831
774	-0.124058838873
775	-0.0227066497791
776	-0.0144400028377
777	-0.00383411904752
778	0.0155921732541
779	0.0943656055529
780	0.00554251882102
781	-0.00996479153057
782	-0.0977374920132
783	-0.0249711804532
784	-0.00305065145674
785	-0.0692884966845
786	-0.304003936146
787	0.0141540817724
788	0.0939284354137
789	-0.0112904568278
790	-0.0120425372883
791	-0.0103589400629
792	-0.0494935377045
793	0.0166659622056
794	-0.00632113961503
795	-0.0176861276468
796	0.00855955911238
797	-0.057673736905
798	0.264514334191
799	0.221019223547
800	0.0016131749278
801	0.0065204095371
802	-0.00842197706479
803	-0.0162285751641
804	0.175417834795
805	0.0041954967325
806	0.00878081954113
807	0.0775043458853
808	0.0812068912437
809	0.0196908127336
810	0.0867924987386
811	-0.0234315400473
812	-0.0893732390892
813	-0.101696775483
814	-0.0273424336201
815	0.0147225412581
816	0.0366628223777
817	0.0195139831386
818	0.0372638990095
819	-0.0856247642145
820	-0.00730166381699
821	0.0419293478567
822	0.0226732594354
823	-0.146513588135
824	-0.12513229078
825	-0.0232131578586
826	-0.12197362577
827	-0.160860248957
828	0.00708428836721
829	0.0166693018049
830	-0.0132943406657
831	0.0226680007024
832	-0.0123794948777
833	-0.00431730608371
834	0.0163118074982
835	-0.191585631858
836	-0.0115017013536
837	0.0144606828811
838	-0.328356531957
839	0.00943628703497
840	-0.0119904104597
841	-0.13607740614
842	-0.0124119589358
843	0.00987170853884
844	-0.0109560833643
845	-0.00947795962582
846	-0.135336070363
847	0.00263225886791
848	0.142058366547
849	0.133529564885
850	0.0141883383633
851	-0.0499018340232
852	-0.0193525278512
853	-0.184249296784
854	-0.0485645485151
855	0.0113398963407
856	-0.00176338830871
857	0.0109181895586
858	0.0165703685285
859	-0.026316531597
860	-0.0375475835441
861	-0.0153805034052
862	-0.0189800439303
863	-0.16811731252
864	-0.0158492627163
865	0.0115238799036
866	-0.0242195620772
867	-0.0183548629874
868	0.000417682420983
869	0.0861582737477
870	0.00766420404421
871	-0.01465854986
872	-0.0296459428504
873	-0.00199628456187
874	-0.0374888351672
875	-0.00508710324084
876	-0.00128774743934
877	0.0444755771826
878	-0.0113784952676
879	0.0185864082361
880	-0.116315487031
881	-0.0230672008903
882	-0.0221508732268
883	-0.00786073368864
884	-0.00462461824398
885	-0.271908074419
886	0.00851165245547
887	0.0121076062727
888	0.0218868453757
889	0.00181017750815
890	0.00920129419491
891	-0.0170265858887
892	-0.023666150286
893	-0.0143870165085
894	-0.3175158522
895	-0.023075874729
896	-0.0335241576782
897	-0.313857057285
898	0.0136526707318
899	-0.0235958164877
900	0.0166168067776
901	-0.0151323418657
902	0.000190447610396
903	0.0426366724637
904	-0.00120741285488
905	-0.0104902327171
906	-0.0134236839379
907	-0.00676725705036
908	0.000514467957662
909	-0.025325374362
910	-0.0993958363493
911	-0.237657118426
912	0.0162162067297
913	0.00861952542069
914	-0.15271627481
915	0.673407717016
916	-0.0237647229559
917	-0.426395354897
918	-0.268482682718
919	-0.00224420244941
920	-0.0134552438389
921	-0.0285850407019
922	0.0195366540818
923	0.0447401661337
924	-0.0124343422812
925	-0.0102259079637
926	-0.123932860578
927	0.0194014100135
928	0.0112377324491
929	0.0183908652254
930	0.647084975259
931	0.00731465388508
932	-0.225008698192
933	0.0134038397685
934	-0.00106979562587
935	0.0163793245857
936	-0.11837823048
937	-0.0247444944465
938	0.0012569623183
939	0.00321682473363
940	0.0483897503031
941	0.0180238463235
942	-0.00690760625572
943	0.00752401905213
944	0.00173095208859
945	0.0461493162381
946	-0.00608469724978
947	-0.0313881117771
948	-0.0614240812726
949	0.0107557579226
950	-0.0565538593974
951	0.00784306143142
952	-0.0215434371043
953	-0.029535943402
954	-0.0230093871205
955	-0.00421823319236
956	0.00593538501859
957	0.0837692820188
958	0.0242839962253
959	-0.112392739
960	0.017735250922
961	0.0466548206223
962	-0.0148096160352
963	0.000530610180805
964	0.00812963788446
965	-0.0107431205426
966	0.045887366777
967	-0.00374591128357
968	-0.0242399240747
969	-0.022202157206
970	-0.00707148962959
971	0.178335484369
972	-0.0177646179666
973	0.0225618204885
974	-0.0101080116531
975	-0.0214706837255
976	-0.0161007573345
977	0.0194063063754
978	0.0166632543328
979	0.201311330007
980	-0.0241923552558
981	0.00662577708336
982	-0.050674226278
983	-0.0178674800529
984	-0.0226687536786
985	0.158290195904
986	0.0354632919897
987	-0.0124178276192
988	0.125769467442
989	-0.059311108427
990	0.0158943849988
991	-0.171579760164
992	-0.138678638801
993	0.00174633949831
994	-0.0217139375906
995	-0.140810842093
996	0.0125448741779
997	0.0329166238985
998	-0.0120148512017
999	-0.0271413094591
1000	-0.00078035805297
1001	-0.0104748217567
1002	-0.0154101828644
1003	-0.00322216154926
1004	0.222787710099
1005	0.00722938648333
1006	0.0249812756085
1007	0.0237145555484
1008	-0.0039164384928
1009	-0.0134367173499
1010	-0.0615710524543
1011	-0.018833907535
1012	0.0124431406277
1013	0.0191027137544
1014	0.10542454138
1015	0.112100422038
1016	0.0141834170332
1017	-0.0113915813438
1018	0.00579744748646
1019	-0.00916869862654
1020	0.00105886527905
1021	-0.0216310546074
1022	0.0187813474779
1023	-0.0696906268054
1024	0.00950551386694
1025	-0.0332486724525
1026	-0.0240496389607
1027	0.0016199991657
1028	0.0149024492127
1029	-0.0708461251832
1030	0.0106302557408
1031	-0.0121289892509
1032	-0.0198618247192
1033	0.0691370675721
1034	-0.0228472983442
1035	0.163744879821
1036	-0.0157810433194
1037	-0.0134371853799
1038	0.0128146207925
1039	-0.0202932108427
1040	-0.0197797514397
1041	-0.0111618903283
1042	-0.0844149185346
1043	-0.0526192542743
1044	-0.00437963863745
1045	-0.0112504757127
1046	-0.0140462571417
1047	-0.0144037812341
1048	-0.0244515259258
1049	0.00493556151947
1050	-0.0533807914706
1051	0.00784538201462
1052	0.0108844918433
1053	-0.0315936681812
1054	-0.00192323141023
1055	0.0211134673698
1056	-0.0120730268103
1057	-0.00958952731528
1058	-0.0128525719807
1059	0.0645712442702
1060	-0.0702937178524
1061	-0.0150425378801
1062	0.00811940809378
1063	0.00154322096868
1064	0.00855895862474
1065	-0.0760839018016
1066	-0.136454596115
1067	0.095745720829
1068	-0.00596863589236
1069	0.223726794345
1070	0.0150771934548
1071	-0.0101763465126
1072	-0.202447738258
1073	0.00366607755203
1074	-0.00974301358964
1075	-0.00556650178194
1076	-0.184181194397
1077	0.00925733224225
1078	-0.00238874314072
1079	-0.0168834770274
1080	0.0195982888593
1081	-0.0115116323807
1082	-0.0218392040581
1083	-0.0015086875489
1084	-0.0186866219261
1085	-0.0212739406638
1086	-0.00104922284111
1087	0.00615196403329
1088	-0.0200453211553
1089	0.0111772354891
1090	0.181715165164
1091	0.00135538401005
1092	0.0137083589692
1093	-0.0989069040861
1094	0.0130762923174
1095	0.0100049663437
1096	-0.0853314902846
1097	-0.0676388332245
1098	-0.00195144276471
1099	0.0146210196743
1100	0.0077392665358
1101	-0.112003775009
1102	0.0122739389408
1103	0.0069489713465
1104	-0.000588286331227
1105	-0.11513969989
1106	0.00698781682822
1107	-0.0681247284936
1108	-0.0627230443125
1109	-0.0136013843151
1110	-0.00685556242697
1111	-0.020595453816
1112	0.0296551641457
1113	-0.0231412073414
1114	0.221498358545
1115	0.0714449684591
1116	-0.0226760686172
1117	0.0200940042646
1118	-0.00322779080611
1119	0.0233139838255
1120	0.000307415451996
1121	0.00264841058284
1122	0.0120889757752
1123	0.0166956445713
1124	0.0951203797147
1125	-0.182956465676
1126	-0.149502280033
1127	-0.137014393943
1128	-0.196094361342
1129	-0.0707571057122
1130	-0.0171372549307
1131	-0.469887357683
1132	0.416024460283
1133	0.00163384308697
1134	0.0222555704443
1135	-0.1213520034
1136	-0.0676598004053
1137	-0.00198085943994
1138	0.00197666579998
1139	-0.0198043390901
1140	-0.00335808933983
1141	-0.0257047728649
1142	-0.0188730505782
1143	-0.0132498246886
1144	-0.0204727124608
1145	-0.327455256397
1146	-0.0049065198936
1147	-0.0601963507826
1148	-0.0107592670911
1149	0.446940308763
1150	-0.00824162162969
1151	0.0154937793392
1152	0.0928307773319
1153	0.0118709470937
1154	0.0443307559635
1155	0.0207294789043
1156	-0.0533787853114
1157	0.0158141235286
1158	0.051696111708
1159	-0.00593387495972
1160	0.018353640701
1161	-0.0666875237315
1162	-0.0649450309439
1163	0.0142160019155
1164	0.00730133762478
1165	0.0154031445666
1166	-0.00595335812575
1167	0.00460498085209
1168	0.0197013370445
1169	-0.013039761522
1170	-0.013939774216
1171	0.0361752788742
1172	-0.0247180405777
1173	0.00814594278231
1174	-0.0167566092494
1175	-0.161919131369
1176	-0.0457313933367
1177	-0.00166124852048
1178	0.0179218011603
1179	0.214384967488
1180	0.206866230085
1181	0.0211530619885
1182	-0.0221380252511
1183	0.00403252207174
1184	0.00749368648775
1185	0.062286208242
1186	0.0140111319852
1187	0.046884028112
1188	-0.0339007747905
1189	-0.00532202346303
1190	0.0166468796319
1191	0.0656774385122
1192	0.0138905069498
1193	-0.105876974819
1194	0.0126377286825
1195	0.0108115239098
1196	-0.0392267278485
1197	-0.000695720803405
1198	-0.0392381374737
1199	-0.00362345227431
1200	-0.161856046216
1201	-0.187428298499
1202	-0.00401542909442
1203	-0.00760036478929
1204	-0.024680908576
1205	-0.0071660696903
1206	-0.0217092151722
1207	0.0227969291632
1208	-0.0189274106638
1209	0.0673068877115
1210	-0.0122522240617
1211	-0.116184213998
1212	-0.0222222305229
1213	0.000561086541271
1214	0.0756375102218
1215	-0.05824031084
1216	-0.00880540509348
1217	-0.00866875426266
1218	-0.0147482411535
1219	0.0203829901986
1220	0.11141862789
1221	-0.137208879253
1222	-0.120318592221
1223	-0.00898426873815
1224	-0.0288448081591
1225	-0.0396785827229
1226	-0.0351659961461
1227	0.00095203080035
1228	-0.001289744558
1229	-0.0123291047271
1230	-0.027721588548
1231	-0.0125153753102
1232	-0.0188578959935
1233	-0.0977661133121
1234	0.0241235485412
1235	-0.0230203920627
1236	0.0013750689999
1237	-0.0590169177694
1238	0.0134457208724
1239	-0.0187189034845
1240	0.0101963524119
1241	-0.00226590611761
1242	0.00197447265051
1243	-0.0495591333967
1244	-0.0163823130579
1245	0.014789462942
1246	-0.0549839067707
1247	-0.0357413964342
1248	-0.0247020621139
1249	0.013917850752
1250	-0.0193577827469
1251	-0.0162271887574
1252	-0.00201879570369
1253	-0.0265536218209
1254	-0.00961649772878
1255	-0.085026807452
1256	0.00964622614787
1257	-0.12906411917
1258	-0.132292016663
1259	-0.0481829948052
1260	0.00470162942105
1261	0.00769854228031
1262	0.0111706062526
1263	-0.11681444472
1264	-0.0564925672815
1265	0.00342489143739
1266	-0.0134967206959
1267	-0.00803114832645
1268	-0.00154633275931
1269	-0.0249657599866
1270	-0.0735154792755
1271	-0.0752808777735
1272	-0.0702225134858
1273	0.014958898753
1274	-0.0605606738559
1275	-0.0222658212033
1276	-0.044002499117
1277	-0.00732754381649
1278	-0.0126637180471
1279	-0.167379242318
1280	0.00629023896237
1281	-0.0310577176763
1282	-0.0264615809718
1283	0.0229360691373
1284	0.0355974273164
1285	0.00594730440215
1286	0.014006129882
1287	0.0234978654911
1288	0.0137599800357
1289	-0.0170054814249
1290	-0.0264402085772
1291	-0.0171505722903
1292	0.0349498086682
1293	-0.0308650014106
1294	0.0169844702638
1295	-0.0565645775358
1296	-0.00456583879545
1297	-0.0219559424204
1298	0.0521077649434
1299	0.131447481702
1300	0.153488806061
1301	0.0119515168654
1302	-0.0676357167354
1303	-0.0501354459831
1304	0.000882056011212
1305	0.0104760664022
1306	0.00170420302691
1307	-0.0167916480405
1308	0.115813598287
1309	0.015273732386
1310	0.00855870300369
1311	0.00649955502726
1312	0.00181512417779
1313	-0.0162660906601
1314	-0.0213896381749
1315	-0.0211821402932
1316	-0.023669974634
1317	0.0588316611138
1318	0.097028596361
1319	-0.00465660295445
1320	-0.0708062789603
1321	-0.0931434231747
1322	-0.0261006725942
1323	-0.00826759561221
1324	0.00299991399557
1325	-0.0121695567625
1326	0.161378981467
1327	-0.00239010319046
1328	0.043902290044
1329	0.0129801025744
1330	-0.0093363501342
1331	0.0133716823578
1332	0.011251822159
1333	0.00090836325969
1334	-0.00964012234052
1335	0.0240021922839
1336	-0.0964261818655
1337	-0.00903182881131
1338	0.00563154953662
1339	-0.0138644580402
1340	-0.00248642039387
1341	0.0765523450225
1342	-0.000286154994802
1343	-0.0186555977901
1344	-0.0239993003557
1345	0.00907763314823
1346	-0.0132619763724
1347	-0.0245394556591
1348	-0.0180015527347
1349	0.0144270704776
1350	-0.0136414597873
1351	0.00563359633138
1352	-0.00555358940657
1353	-0.00264522831745
1354	0.202179929121
1355	-0.0103938405805
1356	-0.0314093445234
1357	-0.0331331223552
1358	-0.0285658103916
1359	-0.147253303973
1360	0.00814898377248
1361	-0.013379544892
1362	0.0804545291849
1363	-0.066604537558
1364	-0.0149885489451
1365	0.00192764931494
1366	-0.306872276943
1367	-0.178848361648
1368	0.0221284250102
1369	-0.00164920492864
1370	0.0189336625206
1371	-0.000614311907541
1372	-0.0144858069796
1373	-0.00279712607784
1374	-0.00154622252331
1375	0.015760905489
1376	-0.00388189046007
1377	-0.0334760272722
1378	-0.0463427970436
1379	0.0142090863215
1380	0.013726060585
1381	-0.00877863860154
1382	-0.0081417907394
1383	-0.00618492544029
1384	0.00199537574708
1385	-0.0220222109698
1386	-0.018512779113
1387	0.0132216199024
1388	0.0165527203634
1389	-0.0191851824844
1390	0.0467432729709
1391	-0.0472587131982
1392	-0.00896419150235
1393	-0.0166459941031
1394	0.0191061816254
1395	-0.0716995681616
1396	-0.00645375723282
1397	-0.0243895442149
1398	-0.0482644583956
1399	-0.000814322644455
1400	-0.00980801793572
1401	-0.0379525844755
1402	-0.0223596235083
1403	0.0190620515216
1404	-0.0544492902321
1405	0.00837854632758
1406	-0.0223997819897
1407	-0.0056963368519
1408	0.0157483112506
1409	-0.0146421488824
1410	-0.00408451906801
1411	-0.0119211095315
1412	0.0124133498135
1413	0.0195287883446
1414	-0.005945585587
1415	-0.0229253796642
1416	0.0482359662388
1417	0.00755200439009
1418	0.0104768088948
1419	-0.0243764828916
1420	0.0168918367812
1421	0.0016877406836
1422	-0.138995739313
1423	-0.0246033200412
1424	-0.00679718543604
1425	-0.0733397986526
1426	0.0204472707724
1427	-0.0813408374557
1428	0.00815239918249
1429	-0.00332772525812
1430	-0.0235266361475
1431	-0.147302344223
1432	0.00207710626919
1433	0.0229156006629
1434	-0.0069255059825
1435	0.000938599618948
1436	-0.0599783052047
1437	-0.00552214993966
1438	-0.0135540177228
1439	-0.0222108429514
1440	0.0114109892997
1441	0.0051134098855
1442	0.059359995181
1443	0.0564757874278
1444	0.0171906777298
1445	-0.0106125238163
1446	-0.0120367342162
1447	0.0169721514443
1448	-0.0109104018624
1449	0.12902760339
1450	0.0641293489023
1451	-0.00964563272094
1452	-0.14468456235
1453	-0.0229423630286
1454	-0.033315844559
1455	0.0244488713832
1456	0.0126193128467
1457	0.00932154156953
1458	-0.0168121992532
1459	-0.0311898312688
1460	0.0988517873727
1461	-0.54469105984
1462	0.101808265085
1463	-0.0739915464116
1464	-0.481057471714
1465	-0.284633084332
1466	-0.00344872521379
1467	-0.0117099145497
1468	-0.0409215337951
1469	-0.0580001625291
1470	0.13625480206
1471	0.0119885030063
1472	-0.00166749785991
1473	-0.178087581532
1474	-0.0899806972369
1475	-0.0150662083428
1476	-0.0229167404181
1477	0.00327393729915
1478	0.0163643389081
1479	-0.0416721605279
1480	-0.0145234075701
1481	0.0199274309077
1482	-0.0069199454323
1483	0.00754887519758
1484	0.0093624526527
1485	0.00554082297932
1486	0.0215510334177
1487	-0.0247034918719
1488	0.00945112310248
1489	-0.0408934383428
1490	0.010451622086
1491	0.0117503806214
1492	0.0153633907176
1493	0.0141448601286
1494	-0.0207621855338
1495	-0.0443904901025
1496	-0.00611133699234
1497	0.00423788876053
1498	0.0223166032451
1499	-0.0220393705967
1500	-0.00880096662913
1501	-0.012341655887
1502	-0.0109155179885
1503	0.0156561343712
1504	-0.0220540725144
1505	-0.00825134912558
1506	-0.0193763879703
1507	0.0630988576239
1508	0.00105433156952
1509	-0.0209314150185
1510	0.00888364309644
1511	-0.243464965029
1512	-0.0190491952918
1513	0.284601072733
1514	0.107065945316
1515	0.0817139226332
1516	0.0890023473607
1517	-0.0203969365686
1518	0.0176607400373
1519	-0.0126172565088
1520	-0.01607790404
1521	-0.00681252598846
1522	-0.0460480184926
1523	0.0149942275632
1524	-0.00815042682451
1525	-0.0101240063419
1526	0.0203496559626
1527	0.0185424352984
1528	-0.576781208145
1529	-0.0138745998842
1530	0.0240734401037
1531	-0.0130970091768
1532	0.0217310666716
1533	0.00206605216644
1534	0.0452637146792
1535	-0.00727226116559
1536	0.0147344974452
1537	0.00824757793277
1538	-0.0250139100718
1539	0.020054277049
1540	-0.0440500005486
1541	-0.0132964764862
1542	-0.0855968617332
1543	-0.00454266731175
1544	-0.00942906677611
1545	-0.00625626469978
1546	0.0222042439474
1547	-0.106491371988
1548	-0.0911274410607
1549	0.0206670669345
1550	-0.0373262832
1551	-0.0132004082541
1552	0.0200122335529
1553	-0.00120845764459
1554	0.00392534058188
1555	-0.0846719948731
1556	-0.020233326263
1557	0.000816629129179
1558	-0.0142991452637
1559	-0.0107190154459
1560	-0.101038250888
1561	-0.00012324370554
1562	-0.0125669508081
1563	0.0114879041006
1564	0.0100554952451
1565	-0.00604335532588
1566	0.022304914119
1567	-0.0116006659678
1568	-0.0262126688516
1569	-0.0131391187891
1570	-0.0733041049158
1571	0.00327400853585
1572	0.0123838775568
1573	0.0219637596495
1574	-0.003116483143
1575	0.0142893936737
1576	0.00802601745851
1577	-0.00348881989147
1578	0.085839076557
1579	-0.0603022226946
1580	-0.139795999892
1581	-0.0107436227276
1582	-0.013638755983
1583	-0.0218887418045
1584	-0.0788435309158
1585	-0.0171186780534
1586	-0.00472368231013
1587	-0.0246807377528
1588	-0.00880380008447
1589	-0.00951034564739
1590	-0.0296499121184
1591	-0.0215071184573
1592	-0.055231469804
1593	-0.0607811894386
1594	-0.00253159672774
1595	0.0223539764276
1596	-0.0405930174641
1597	-0.0360425414737
1598	-0.00597928782526
1599	-0.0669742394678
1600	0.00408029971611
1601	-0.217345311625
1602	-0.235050275837
1603	-0.00539326030493
1604	0.0270180975892
1605	-0.00753138511308
1606	-0.0108790052863
1607	0.049765079896
1608	0.0239331283644
1609	-0.00316002291764
1610	-0.00179952649461
1611	-0.00644426042985
1612	-0.132731379098
1613	0.0985103640924
1614	0.0235419317589
1615	-0.00759286698755
1616	0.0729988969927
1617	0.00840943226171
1618	0.074710427206
1619	-0.00272396963512
1620	0.0594187998654
1621	-0.0205272613072
1622	-0.019214155459
1623	-0.0183234480835
1624	-0.0915344657402
1625	0.00551442597831
1626	-0.00431187271802
1627	0.018505197863
1628	-0.00754940358211
1629	0.0190083811734
1630	0.00582106502409
1631	-0.0153926246148
1632	0.0230589715376
1633	-0.0684994098052
1634	-0.0878045510572
1635	0.0225536678443
1636	-0.0124766975097
1637	-0.0015641147646
1638	-0.0066955024031
1639	0.0206966813284
1640	0.00617422926748
1641	-0.160155531365
1642	-0.0197099531059
1643	-0.0122216712562
1644	-0.110263115305
1645	0.0036311963894
1646	0.0128326864688
1647	-0.00522880233777
1648	0.0149210503384
1649	0.00298189406087
1650	-0.218672541959
1651	-0.00409341589187
1652	-0.0105880140819
1653	-0.00458660017525
1654	-0.0460671111964
1655	0.0059086833699
1656	-0.136266228476
1657	-0.0230437311221
1658	0.000181920997053
1659	0.00692520194743
1660	-0.00177773461833
1661	0.0197405887074
1662	0.0161569363819
1663	-0.00234268394026
1664	0.00686374367217
1665	0.01603198287
1666	-0.00930365199667
1667	0.0140493602146
1668	-0.0243287232406
1669	0.00557382903221
1670	-0.0165364710433
1671	-0.00712788020482
1672	-0.00712045620786
1673	-0.0107170662061
1674	-0.0267554632676
1675	0.0216275597161
1676	0.0100592974034
1677	0.0182980876152
1678	0.00504039757845
1679	-0.0171229278672
1680	0.00643790822406
1681	0.0197208618351
1682	-0.00911890203479
1683	-0.0214741690406
1684	0.00881224675228
1685	0.0355512428662
1686	0.0302023235988
1687	0.00257129646774
1688	-0.349085774478
1689	0.000811398169467
1690	0.0189782179416
1691	-0.0235071189354
1692	-0.022754458512
1693	0.0087338070075
1694	0.0143181756341
1695	0.0104639332342
1696	-0.0186308942085
1697	-0.0153499390128
1698	-0.0144987643426
1699	0.00187290599936
1700	-0.0219472251078
1701	0.00957627886447
1702	-0.00290621160736
1703	0.080293697579
1704	0.00647667821127
1705	0.0210647898517
1706	-0.0386326786284
1707	0.0107106483218
1708	0.0022227393847
1709	-0.0309093294695
1710	-0.0115625171526
1711	0.167684019286
1712	0.193257815259
1713	0.00834169373345
1714	0.00729919529551
1715	0.000395122990103
1716	-0.00673283434089
1717	0.0140242301253
1718	0.0116246797939
1719	0.0178954872849
1720	0.0780086313322
1721	-0.000159181831211
1722	0.0119755220516
1723	-0.132693758431
1724	-0.0782223516632
1725	-0.00610570225843
1726	-0.0169820739864
1727	-0.022765657001
1728	0.0083552969729
1729	-0.0215445371555
1730	0.00521499053967
1731	-0.00891937980326
1732	-0.00532846563541
1733	-0.00734998375838
1734	-0.00811921125217
1735	0.0207520299132
1736	0.0205315987554
1737	-0.0218727584923
1738	-0.0587684733243
1739	0.00310158629236
1740	-0.0867003858925
1741	0.0155711302507
1742	0.00721387842293
1743	0.0111496328027
1744	0.00381915763666
1745	0.000114306985016
1746	-0.136020483518
1747	0.0152475223777
1748	-0.0172800694623
1749	-0.00887529884902
1750	-0.00806294501617
1751	-0.0224333555461
1752	0.021435358862
1753	0.024025472517
1754	-0.0198385062409
1755	0.0155620357796
1756	-0.00718956596862
1757	-0.00748108648696
1758	0.0763566865982
1759	0.0188181379122
1760	-0.0152649215422
1761	0.0197823013854
1762	0.00621487400764
1763	-0.0216470708735
1764	-0.0317276546159
1765	0.00593948113764
1766	-0.0331059266442
1767	-0.0387685024929
1768	-0.133617137615
1769	0.022267315692
1770	-0.00281567245144
1771	0.0112987538273
1772	-0.0243971587639
1773	-0.0119306098606
1774	-0.00355536980905
1775	-0.00727568747515
1776	0.00556673754797
1777	0.0217181911042
1778	0.00065508215169
1779	0.0209327834834
1780	0.0937716665545
1781	0.00492249673172
1782	-0.0149069264888
1783	-0.00443687256852
1784	-0.0635054110113
1785	-0.0668597221288
1786	-0.0117813997768
1787	-0.0322771111315
1788	0.0113286203287
1789	-0.0179151003189
1790	0.00256605888551
1791	0.0214016931965
1792	0.0354603266858
1793	-0.00202023885638
1794	-0.00452075192208
1795	-0.00856146676831
1796	-0.0044893855482
1797	0.0154543514258
1798	-0.0934083386078
1799	-0.0142853164709
1800	-0.0244298489672
1801	-0.0113124674617
1802	0.0109421417992
1803	7.99272854527e-05
1804	0.000678394453388
1805	0.0103384450479
1806	-0.0254853595579
1807	-0.0216509481827
1808	-0.0156607190192
1809	-0.0141962810616
1810	-0.0205498989146
1811	0.0501099028202
1812	0.04158200048
1813	0.00968591409586
1814	0.0129584711674
1815	-0.0244214365737
1816	-0.137677584826
1817	-0.108332960496
1818	0.0212687805518
1819	-0.0368387364552
1820	0.0127075537134
1821	-0.00624957763081
1822	0.0226331351977
1823	0.00846493058257
1824	-0.0126015105915
1825	0.0480247886255
1826	-0.00851153316587
1827	-0.0141238579046
1828	0.0214145307186
1829	-0.00285568720834
1830	0.0132405099789
1831	-0.0215927446669
1832	-0.0159919311055
1833	-0.195308762906
1834	0.00886879161847
1835	-0.0438527125361
1836	-0.0641799174316
1837	0.0181734784678
1838	-0.000961043914951
1839	0.00517820266346
1840	-0.0155408368428
1841	-0.0213935517431
1842	0.0115292639339
1843	0.0217837713212
1844	-0.0187502507203
1845	-0.0178499781224
1846	-0.00537244526855
1847	-0.0584876747176
1848	-0.0710362970204
1849	0.022082166304
1850	0.00720797667735
1851	-0.110858855248
1852	-0.130213372299
1853	0.0105990837838
1854	0.0517557057559
1855	-0.0169489481637
1856	-0.0180288628436
1857	-0.0143787391705
1858	0.0045873569013
1859	-0.00229897858349
1860	0.0127719664338
1861	-0.0154084327578
1862	-0.00843698033265
1863	-0.125284369932
1864	-0.0582398286785
1865	0.001190097381
1866	0.00927921042211
1867	-0.0288760860438
1868	-0.000453185850294
1869	-0.0325121364138
1870	-0.0253725913619
1871	0.0150835893092
1872	-0.0370657318107
1873	-0.0167489929906
1874	-0.00484788726996
1875	-0.00500743571446
1876	0.0162503211645
1877	-0.0154690558241
1878	-0.00283032551026
1879	-0.0435245054644
1880	-0.00018958397628
1881	-0.000318535072044
1882	-0.00231639399421
1883	-0.016575213863
1884	-0.0201584166179
1885	-0.00709412553141
1886	-0.0214030539438
1887	0.0208496522465
1888	0.020224726193
1889	-0.0630694302089
1890	-0.011715066671
1891	-0.0419206102135
1892	-0.0357775163633
1893	0.020934966833
1894	0.000618142902398
1895	-0.00154442802233
1896	-0.00818114321319
1897	-0.0262637628631
1898	-0.0172561820848
1899	-0.0232542819125
1900	0.00286454592069
1901	-0.0559961014842
1902	0.0163179685806
1903	-0.000542223045189
1904	-0.0144639623769
1905	-0.141036555551
1906	-0.142669649651
1907	0.00551490462582
1908	0.00947535398994
1909	-0.130115083674
1910	-0.0258497501463
1911	0.00855793198834
1912	0.020286198102
1913	-0.0419965516729
1914	-0.025005786654
1915	0.00464959445966
1916	-0.0366656001214
1917	0.00211282187744
1918	0.0230243469374
1919	-0.0541690249812
1920	-0.00946707425259
1921	-0.010772618749
1922	0.00362400335918
1923	-0.0562184707712
1924	-0.0289836779671
1925	-0.0145211967966
1926	-0.0212167779263
1927	-0.0222398883541
1928	0.115096616556
1929	0.0105768434912
1930	-0.0249709785883
1931	-0.00319353187239
1932	-0.0227663731684
1933	0.00864546280113
1934	0.0632746151017
1935	0.0107249163204
1936	-0.0250233268115
1937	-0.0167264214051
1938	-0.161925106879
1939	3.14048293168e-05
1940	-0.0296635540345
1941	-0.0450559082541
1942	-0.0220953699648
1943	-0.0226055219837
1944	-0.0247715073353
1945	0.00979857737583
1946	0.1138861535
1947	-0.0517504018413
1948	-0.0114543954495
1949	0.00496149860716
1950	-0.0220296768964
1951	-0.0156197654886
1952	-0.0676475062492
1953	0.00811799982989
1954	0.00965372591468
1955	0.0228797902829
1956	-0.0190609738072
1957	-0.00747624984498
1958	0.00933165691892
1959	-0.00613989551367
1960	-0.00315632324335
1961	0.00413222313588
1962	0.0171709563083
1963	0.00515611546115
1964	-0.0189433263505
1965	-0.00411107554005
1966	0.0146707552231
1967	0.0143665607182
1968	-0.0319887817062
1969	0.000630538131982
1970	0.423741732956
1971	0.329952835628
1972	-0.00127977048503
1973	-0.0278704820047
1974	-0.0371440894845
1975	0.00969025151208
1976	0.0171639797078
1977	0.00723281754775
1978	0.0264841888984
1979	-0.00678259239865
1980	-0.00992521828537
1981	0.0224839756841
1982	-0.0192470546849
1983	-0.00412991991037
1984	-0.154182180347
1985	-0.118018788736
1986	-0.00653601148912
1987	0.00083120231544
1988	0.0060501080438
1989	-0.00550246458222
1990	-0.0249483611512
1991	0.0167553740684
1992	-0.015648737234
1993	0.00421381547092
1994	-0.0166100822716
1995	-0.0261696421029
1996	0.00491793206231
1997	-0.0216572835422
1998	-0.0209608164403
1999	-0.0132158292347
2000	0.0236931852493
2001	0.00476250816017
2002	0.0166865888391
2003	0.0223950938686
2004	-0.00241135608442
2005	-0.170591189122
2006	-0.0189462773271
2007	-0.0115202739001
2008	0.00487517493122
2009	-0.00534848127718
2010	0.069062239218
2011	-0.380705836601
2012	-0.218670352097
2013	-0.0150388729924
2014	0.00768461384424
2015	-0.0199666980875
2016	-0.0138949732572
2017	-0.000700712685196
2018	0.0137780790588
2019	-0.0166989057527
2020	-0.0174271432903
2021	-0.0251010248053
2022	-0.0308214425554
2023	-0.00473427220759
2024	-0.00981460636631
2025	0.00231025730549
2026	-0.0128770819508
2027	-0.0185115715609
2028	0.0258472071526
2029	-0.00530041037837
2030	-0.00323075492651
2031	-0.0775533089651
2032	-0.068944676864
2033	0.019118824531
2034	0.0114696981532
2035	-0.140638186893
2036	-0.0681327708914
2037	0.00464514470008
2038	-0.0178461018898
2039	0.0698719464867
2040	0.0191194930658
2041	0.0179744592599
2042	-0.0122347368022
2043	-0.007264136861
2044	0.00336382257585
2045	-0.0168762097221
2046	0.0451200140915
2047	-0.0231147656927
2048	-0.018575535075
2049	0.0514941031575
2050	-0.0245806239058
2051	-0.0154611606914
2052	0.00976073681084
2053	-0.020344891597
2054	-0.0363151810339
2055	-0.195439241056
2056	0.0164951830333
2057	0.0183002284443
2058	-0.157576939063
2059	-0.162117601451
2060	-0.0154884660624
2061	0.0133581472427
2062	0.0217434334808
2063	0.0927335937822
2064	-0.00326827948429
2065	0.010752124118
2066	-0.00844908073752
2067	-0.0281413095903
2068	-0.0187482880984
2069	-0.00279678757344
2070	0.0191035484853
2071	-0.00188213985341
2072	0.0129805242788
2073	0.00540512618967
2074	0.0237654246324
2075	0.0215689013118
2076	-0.0181341604129
2077	0.0164213522096
2078	-0.0186512011632
2079	0.00563647028838
2080	-0.0238035913798
2081	-0.101019809504
2082	-0.0293738927405
2083	-0.0118573263046
2084	0.211382476533
2085	-0.0186036098734
2086	0.00708711171299
2087	-0.00643855795521
2088	0.00597140419855
2089	-0.0222456125023
2090	-0.133810905367
2091	0.0172513304332
2092	0.0115245183097
2093	0.0112115759521
2094	-0.0230321041029
2095	0.00450024230277
2096	-0.180559124477
2097	-0.0198588851073
2098	-0.0207766121747
2099	-0.000802730990227
2100	-0.0331458442354
2101	0.0173676353366
2102	0.0145421765683
2103	-0.0224271699721
2104	0.0217134787957
2105	0.00401185938672
2106	-0.00890989389118
2107	0.00816416809006
2108	0.101749487882
2109	0.0967377316897
2110	0.0761127107336
2111	-0.00258872444734
2112	-0.00844533941866
2113	0.0117920006774
2114	0.0411302049361
2115	-0.0121006936356
2116	0.170407520208
2117	0.154049048297
2118	-0.00724520131907
2119	-0.146439569005
2120	-0.00253990740048
2121	0.0124028395535
2122	0.0063491266358
2123	-0.0128766795082
2124	-0.00900505476475
2125	-0.0174123157657
2126	-0.0102888699663
2127	0.00218008988507
2128	-0.0233272914512
2129	0.0100997376306
2130	0.0131430948327
2131	-0.0123972088336
2132	-0.00253135730173
2133	0.0229434964503
2134	0.0817026674545
2135	-0.0054491827837
2136	-0.00723774511991
2137	0.00368511617287
2138	0.0221378035054
2139	-0.0140160078702
2140	6.33231878505e-05
2141	-0.00287366266025
2142	0.00576134813195
2143	-0.00659221626897
2144	-0.0177396462388
2145	0.0561479592106
2146	0.0889409723499
2147	0.00433622949425
2148	0.00338891525402
2149	0.109143435737
2150	0.493541190817
2151	-0.0697508919555
2152	0.0204297773025
2153	-0.138061127842
2154	0.0934215792047
2155	-0.0860505871452
2156	-0.0151825521876
2157	-0.00857235594054
2158	-0.0181260226238
2159	0.0190312848624
2160	0.0216699845621
2161	-0.0155780680504
2162	0.00114668672877
2163	-0.0227876704635
2164	-0.0855098681801
2165	-0.0823396624682
2166	-0.00483408571527
2167	0.0133979864208
2168	0.0265958364826
2169	-0.004622997644
2170	-0.00857220701932
2171	0.00286802980496
2172	0.00700270032602
2173	0.0159242643913
2174	0.024103545962
2175	-0.00568337553642
2176	0.00415190717436
2177	0.00937302763719
2178	0.0116872981393
2179	-0.0162498523657
2180	-0.0199021037258
2181	-9.16369305712e-05
2182	-0.00594687318019
2183	0.00823093130641
2184	-0.0139415830618
2185	0.0125668928227
2186	-0.00521140867545
2187	-0.091552973246
2188	-0.066304673598
2189	-0.011105589991
2190	-0.0211493519018
2191	0.159366457547
2192	0.020429093825
2193	-0.0174277286675
2194	0.0289674902202
2195	-0.0222189674212
2196	-0.00177542308748
2197	-0.0233847563473
2198	-0.000875688636135
2199	-0.0156332949849
2200	-0.125675164756
2201	-0.0158554278174
2202	0.00597572633778
2203	-0.103354753355
2204	-0.00244414217547
2205	-0.000670810213652
2206	0.0196195329773
2207	-0.0142940431727
2208	-0.0151429588936
2209	-0.0160023171294
2210	0.0162487015405
2211	-0.0601772114239
2212	-0.080271852555
2213	-0.0233321589985
2214	-0.0214465609923
2215	-0.0917626202394
2216	0.0152156600599
2217	-0.0294265427334
2218	-0.021050187504
2219	0.0117275300875
2220	0.00181929537417
2221	0.014047505512
2222	-0.00850573040163
2223	0.0145725281325
2224	-0.0158031031382
2225	-0.0122805085039
2226	0.0205217017641
2227	0.0185548046999
2228	0.0096207549673
2229	-0.00107589245127
2230	0.0215485294971
2231	-0.0141591544588
2232	-0.0395868393326
2233	0.00748421798537
2234	-0.0925132138165
2235	-0.0167096746214
2236	-0.0117246158335
2237	-0.0181638476189
2238	-0.0212713391856
2239	0.0886410142596
2240	-0.0051706672849
2241	-0.00764062280915
2242	-0.00484687589418
2243	-0.0291388159379
2244	0.0117378333639
2245	-0.00203885210702
2246	-0.0507512514459
2247	-0.00429608402044
2248	0.00354983051413
2249	-0.0170175925185
2250	0.0105557559881
2251	-0.0278032790527
2252	-0.0131590007768
2253	-0.01445942846
2254	5.87671548292e-05
2255	0.0594724125984
2256	-0.0194314761724
2257	-0.0148269768624
2258	-0.0149445400732
2259	0.000884548152179
2260	0.0192411679803
2261	-0.0140682592156
2262	0.000128010406373
2263	-0.0298997568208
2264	0.00069342402939
2265	-0.0033275159485
2266	-0.0139095403214
2267	-0.0150984095508
2268	-0.245342412593
2269	0.00219471512962
2270	-0.0647274286622
2271	-0.0349219129636
2272	-0.00842168104864
2273	-0.0213034190576
2274	-0.150032301352
2275	0.00161986144816
2276	-0.0171463125724
2277	0.0158356926867
2278	-0.00772939428775
2279	-0.00460432094668
2280	-0.015442475938
2281	0.00121311600409
2282	-0.239736700681
2283	0.00846031357603
2284	0.0178249260508
2285	-0.163813887236
2286	-0.0488723671863
2287	-0.022419006957
2288	-0.00277605472885
2289	0.0756564488929
2290	-0.0185397899941
2291	-0.0149820871753
2292	0.0203797838885
2293	0.0475958585033
2294	-0.0295235252388
2295	0.00249165346142
2296	-0.0935417695102
2297	0.0238561052653
2298	0.00549841742408
2299	0.0187002265229
2300	0.00846903001521
2301	0.00787923808556
2302	0.00592188798464
2303	0.0059175088836
2304	-0.0528661731439
2305	-0.0304814160566
2306	-0.0192486013565
2307	-0.00210025185434
2308	0.018895648022
2309	-0.00877339482129
2310	0.00709749842238
2311	-0.0200621711668
2312	-0.00356521915132
2313	-0.0121002060214
2314	-0.00387541014714
2315	0.165075134028
2316	0.000726600867015
2317	-0.0139351709088
2318	0.0547880813905
2319	-0.00317510160077
2320	-0.0191197901057
2321	0.00406761227029
2322	-0.0187378931597
2323	0.013114458307
2324	-0.0217295149641
2325	-0.065735830769
2326	0.0217243090856
2327	0.00412071031289
2328	0.019222980601
2329	0.0192830825866
2330	-0.00721039564377
2331	-0.0105902281857
2332	-0.0176761338461
2333	0.00411949817799
2334	-0.0677217974884
2335	-0.0124237245898
2336	-0.0592748258674
2337	0.016692436129
2338	-0.00136250139433
2339	0.0643620082056
2340	0.00449776699314
2341	0.00871884934508
2342	-0.0235584253815
2343	0.0202089410588
2344	0.00529222027751
2345	0.0199850088081
2346	-0.0125232528981
2347	-0.0204951784663
2348	-0.00622514422982
2349	0.00313685847146
2350	-0.00857548666912
2351	0.00188665406799
2352	0.00699506823811
2353	-0.0253816686868
2354	-0.020739864929
2355	0.0208220493827
2356	0.021780872667
2357	-0.165195028567
2358	-0.0511692685263
2359	-0.0754214323339
2360	0.00803379160963
2361	0.00830863752173
2362	0.0149493794628
2363	0.0597432329597
2364	0.0107398501239
2365	-0.0201264818292
2366	0.0141344778451
2367	-0.190980757961
2368	-0.103793125637
2369	-0.00145831382471
2370	-0.0237804549043
2371	-0.0349544048032
2372	-0.00179803620411
2373	-0.000262371657914
2374	0.00399277343402
2375	-0.0225776816933
2376	-0.0273762263864
2377	-0.0184036362705
2378	0.024465977929
2379	-0.512479253002
2380	0.019801498984
2381	-0.0393362486997
2382	-0.017071957808
2383	-0.024657234203
2384	0.0221638759171
2385	0.021397669479
2386	-0.00410256350503
2387	-0.0605362935527
2388	-0.0975713050874
2389	0.0101152142483
2390	-0.0247478221708
2391	-0.0126835611932
2392	-0.0237528285851
2393	-0.0151095871521
2394	-0.285034944929
2395	-0.0175710387823
2396	-0.00352576681513
2397	-0.0101348270831
2398	-0.0102400968598
2399	0.000747095835022
2400	0.0142925489432
2401	-0.0103533222242
2402	-0.00492186572356
2403	-0.0117891912703
2404	-0.0407612632741
2405	0.000590968868381
2406	0.0197152523381
2407	-0.0123856295272
2408	0.045830817181
2409	-0.0199859466006
2410	0.00226030605538
2411	0.010815508927
2412	0.040876914316
2413	0.00124823494173
2414	-0.131702225284
2415	-0.0101040017598
2416	-0.0230400239462
2417	0.00811426397347
2418	0.00834169309035
2419	0.0120840504195
2420	0.205376545272
2421	0.210000897089
2422	-0.0170168537023
2423	-0.0599150257543
2424	-0.0422255736316
2425	0.0829958155684
2426	0.00291945642025
2427	-0.0125604382132
2428	-0.0111285137607
2429	-0.0185091929259
2430	0.0208681859498
2431	0.0107784278788
2432	0.0285433747995
2433	-0.00825430414462
2434	-0.00309801711616
2435	0.0209110976375
2436	-0.0232991668655
2437	-0.0147068810201
2438	0.0119294232145
2439	0.0157015505889
2440	0.00883280728377
2441	0.00162871177175
2442	-0.0185221420145
2443	-0.0227550539982
2444	0.00530457392711
2445	-0.140257055502
2446	0.00776290263344
2447	-0.0145881302965
2448	-0.00368023878426
2449	0.0198377240402
2450	-0.0212969828489
2451	-0.0119640465081
2452	0.0134655700076
2453	0.012753682019
2454	0.0116937081704
2455	0.000815477120379
2456	0.0240741448473
2457	0.0163429062005
2458	-0.00440827710616
2459	-0.0119814671345
2460	-0.015827409835
2461	0.00638077123618
2462	-0.0182176778745
2463	-0.00444483445842
2464	-0.0135406999872
2465	-0.0369922159255
2466	0.105433772759
2467	0.133916601912
2468	0.308864377445
2469	-0.0147995758101
2470	-0.00725124841509
2471	-0.0032457183038
2472	0.0088797111957
2473	-0.0807687884494
2474	-0.0165076751294
2475	0.00244240424827
2476	0.011585526133
2477	-0.0142971145514
2478	-0.0156429530463
2479	0.0334120083216
2480	0.0442204019028
2481	-0.0123294710411
2482	-0.074486879192
2483	0.0243174477398
2484	-0.123431947962
2485	0.00443552949062
2486	-0.0194533354213
2487	0.00669148042409
2488	-0.0978890283974
2489	-0.0923265220347
2490	0.0166485428956
2491	-0.0190852644476
2492	0.00717729979928
2493	-0.00916359187149
2494	0.00438832566153
2495	0.10387507641
2496	-0.0274621602461
2497	-0.0318376123571
2498	0.00830899559318
2499	0.0172725972425
2500	0.101197447673
2501	-0.00889111555731
2502	0.0218678234008
2503	-0.0167333634208
2504	-0.0153173040009
2505	-0.0183944386243
2506	0.143155391069
2507	0.00314592341906
2508	0.0179338919455
2509	-0.334695300088
2510	-0.0196678707882
2511	0.00928523918084
2512	0.0305318185833
2513	-0.0107225533437
2514	-0.00530936258782
2515	0.00315513249994
2516	-0.0439897157052
2517	0.000284411419185
2518	-0.0164465410558
2519	0.00401363683787
2520	-0.00969677189926
2521	0.0205057232843
2522	-0.0126395944026
2523	-0.0077630852564
2524	-0.0232644193679
2525	0.00314852319658
2526	-0.0548446568653
2527	-0.117331815792
2528	-0.0182800224242
2529	0.0120175664238
2530	-0.0079378403805
2531	-0.0255887051999
2532	-0.014683800544
2533	-0.00796228047161
2534	-0.0163122311308
2535	0.0215846163166
2536	-0.00886143802155
2537	-0.0227348924598
2538	-0.0177596699103
2539	0.018257779659
2540	-0.0122626611808
2541	-0.010888597839
2542	0.00197635452056
2543	-0.0135734609723
2544	-0.00967140816525
2545	-0.026042133223
2546	-0.0235541771205
2547	-0.0164833354851
2548	-0.0414532380074
2549	-0.0458449231927
2550	-0.0270013660287
2551	-0.0409563574478
2552	-0.00241845592501
2553	-0.00326710485537
2554	0.00514652453102
2555	-0.0344049860152
2556	0.00991357417134
2557	0.0192940357615
2558	-0.0157895996838
2559	0.023698718697
2560	0.0100961547136
2561	0.0146288492801
2562	-0.0327790033095
2563	-0.0195700931636
2564	-0.0158529935024
2565	-0.041052115613
2566	0.0159687075827
2567	0.00902548581211
2568	-0.00154238925633
2569	-0.293071542325
2570	0.00765871347968
2571	-0.0210515828251
2572	-0.00705420540761
2573	-0.0206189827348
2574	0.013773340547
2575	-0.0187610261006
2576	0.00323865048015
2577	-0.00019327537291
2578	0.0184421116665
2579	0.0135440935
2580	0.00587477307291
2581	-0.0228572143521
2582	-0.0468618226639
2583	0.0140912445655
2584	-0.0680271527213
2585	-0.0135293667492
2586	-0.0109676672151
2587	-0.00778416933137
2588	-0.117436352784
2589	0.0057628378177
2590	-0.246970952475
2591	-0.327083266002
2592	-0.00146211460626
2593	-0.0408738154729
2594	0.00339298302523
2595	-0.00879086035605
2596	-0.00469397524184
2597	-0.000986349713384
2598	-0.0750116849323
2599	-0.0658659409302
2600	-0.00779495247734
2601	-0.0180237090903
2602	0.000663807127208
2603	-0.00530532479269
2604	0.0202409601365
2605	0.00801847741966
2606	0.0061472853779
2607	0.0115232751514
2608	-0.00425320020799
2609	-0.00484086434794
2610	0.0134906389103
2611	-0.0224422849651
2612	-0.00983485508795
2613	-0.0124432070184
2614	-0.0116393131106
2615	-0.019931088297
2616	0.015366584626
2617	-0.00462740877877
2618	-0.0419763243745
2619	-0.00227157675548
2620	0.0145910948667
2621	0.0116729358986
2622	-0.000664403001218
2623	0.0179018525255
2624	0.0229267410867
2625	0.11928670303
2626	0.0439201586897
2627	-0.0227981567228
2628	0.0114914113282
2629	0.124754556706
2630	0.0131645073643
2631	0.0156913819423
2632	0.0560921476652
2633	-0.00754622839846
2634	0.00130976679635
2635	-0.0156707045854
2636	0.0108947264836
2637	-0.0213530800537
2638	0.0220194963557
2639	0.00693366793659
2640	-0.170502401516
2641	-0.0190394200191
2642	0.0157657901255
2643	-0.0206309874753
2644	0.00502204073877
2645	0.0121909811072
2646	0.07577460583
2647	0.0137700988004
2648	-0.0722029643883
2649	0.00151810646051
2650	-0.00137274350552
2651	-0.0117831915548
2652	0.0759782473337
2653	0.10776629432
2654	0.0122144613039
2655	0.00434763762692
2656	-0.00948327668817
2657	-0.0180917944257
2658	0.00607684073933
2659	-0.0929920887288
2660	0.0105592961502
2661	-0.00376986131213
2662	0.000264080611683
2663	-0.0419706995613
2664	-0.00471188889587
2665	-0.0207540478424
2666	-0.0263646076988
2667	-0.020271518956
2668	0.00805643329598
2669	-0.013180594384
2670	-0.0518266314004
2671	0.0018520370167
2672	-0.0236159873734
2673	-0.00441114807765
2674	0.012474920426
2675	-0.0113722614161
2676	0.00109910619535
2677	-0.024623059134
2678	-0.0473732048572
2679	-0.0209478492486
2680	-0.0205984673445
2681	-0.00251241370201
2682	0.0065428896941
2683	0.142235617646
2684	0.09274897153
2685	-0.0201841486295
2686	-0.0232970123085
2687	0.218320543005
2688	-0.00952763999516
2689	-0.0186613012806
2690	-0.0897453503581
2691	-0.00880653108666
2692	-0.00384975443845
2693	-8.1808930227e-06
2694	0.00384647231989
2695	0.000514081914539
2696	-0.0103083654812
2697	-0.0300598312335
2698	0.0137081554169
2699	-0.00044553214278
2700	-0.00650068744821
2701	-0.00959399179509
2702	-0.0169610429688
2703	0.0394029706085
2704	0.00257862699175
2705	-0.0390410114301
2706	-0.000783105717588
2707	-0.0246027961488
2708	-0.0240972269375
2709	-0.0083263887679
2710	0.0207505717739
2711	0.0182443823499
2712	0.0176199120363
2713	-4.49931068205e-05
2714	-0.0158012507842
2715	0.00766408238371
2716	-0.0229536325696
2717	-0.0188751128886
2718	0.0298725332158
2719	0.0129657603467
2720	-0.102985908003
2721	0.0190457126098
2722	-0.0209617480556
2723	0.0233688153841
2724	-0.018898686458
2725	-0.0859838582833
2726	-0.100594880741
2727	0.0170369265105
2728	-0.203721736462
2729	-0.0208092328374
2730	0.0117609442946
2731	0.0195460149223
2732	-0.00311751376528
2733	0.0960434008706
2734	-0.0206454279733
2735	-0.0231579647294
2736	-0.0553710610079
2737	0.0128279056312
2738	0.00338760576658
2739	0.00330414382605
2740	0.000759027817096
2741	0.0117974030112
2742	-0.016875270753
2743	0.339281771188
2744	0.0229927419618
2745	-0.0141543997606
2746	0.0237461665003
2747	-0.00598072262959
2748	0.0106303312734
2749	-0.0195664821295
2750	-0.112612573216
2751	0.000358315611979
2752	0.0134271897066
2753	0.0150544974695
2754	0.0137859384048
2755	0.00175862605402
2756	-0.225292444724
2757	0.0118585692223
2758	-0.0448274285623
2759	0.0233770055319
2760	0.0187843099666
2761	-0.00300034543257
2762	0.00591632600358
2763	0.0313370876965
2764	-0.0112834273544
2765	0.00551369906063
2766	-0.00251169511561
2767	0.00424122619185
2768	0.0237437980213
2769	-0.0121083182892
2770	-0.00863495030164
2771	-0.00684898067809
2772	0.108986972731
2773	0.0094364751406
2774	-0.202176401082
2775	-0.0501472222827
2776	-0.0164568012483
2777	-0.0152363382414
2778	0.00735350390285
2779	0.0172356180111
2780	0.0240636026602
2781	-0.00980651525847
2782	0.0117545886897
2783	0.206804413109
2784	-0.0107661742712
2785	0.0195810482354
2786	-0.00731585622228
2787	0.0230500055808
2788	0.0229381007332
2789	0.0140224699574
2790	0.0112864500436
2791	-0.013014879755
2792	0.00612657895876
2793	0.0224558576102
2794	0.0117888455115
2795	0.0228853951355
2796	-0.0142973379343
2797	0.0550587802404
2798	-0.00372382489829
2799	0.0695977421489
2800	0.01102901643
2801	-0.00920311786418
2802	-0.0148992504716
2803	-0.157558215325
2804	-0.0516882009821
2805	0.146366592472
2806	-0.0629434799929
2807	-0.00212754942365
2808	0.00923501688587
2809	-0.0140031990692
2810	-0.0139781333933
2811	0.00612603355746
2812	-0.0106762198981
2813	-0.00229001335171
2814	-0.148185366505
2815	0.00712955435032
2816	0.00164005535438
2817	-0.144706757702
2818	0.017887046819
2819	-0.0154261398643
2820	-0.0131242988512
2821	-0.00375318190129
2822	0.00579119990627
2823	0.0451024264378
2824	-0.0217578950635
2825	0.0037613658988
2826	0.0167508430171
2827	0.00963362591457
2828	0.00903745302492
2829	-0.0254685019152
2830	-0.0113395835957
2831	0.00611262217688
2832	-0.00183853636672
2833	0.0124009043813
2834	-0.013684021823
2835	-0.0168781452119
2836	-0.0304010122561
2837	-0.0131381509767
2838	0.0089905677664
2839	0.0185957016987
2840	0.0112332959826
2841	-0.0049317480831
2842	-0.0933127111879
2843	-0.0935481440337
2844	-0.0025896262741
2845	0.0228531788858
2846	0.193807586112
2847	-0.00815085582905
2848	0.0137122935658
2849	0.00911494694734
2850	-0.0142618451485
2851	0.00886192647586
2852	0.133575919256
2853	-0.000849226790677
2854	-0.00457615648849
2855	-0.0329182968255
2856	-0.0181249076776
2857	0.00174047770045
2858	0.0197550656682
2859	-0.0205636619896
2860	-0.00761363916731
2861	-0.00010524228495
2862	-0.0108836779592
2863	-0.000908953782072
2864	-0.0122186812244
2865	0.0153107726722
2866	0.00456647098435
2867	0.00503088978844
2868	0.0228926264795
2869	-0.924574293953
2870	-0.544907726139
2871	0.00819895870913
2872	-0.0093745977858
2873	-0.206939332403
2874	-0.0396923516993
2875	0.00678201214268
2876	0.0110166558847
2877	0.000761158119242
2878	-0.00199549342889
2879	-0.119402176002
2880	-0.0115278615112
2881	-0.0142684995263
2882	-0.0104654695986
2883	0.122362387321
2884	-0.0227592662917
2885	-0.0198709132168
2886	0.00707586171141
2887	-0.011055838933
2888	-0.000919806199922
2889	-0.0251162177149
2890	-0.0329856304094
2891	-0.00812822952419
2892	-0.0122903081731
2893	0.0172152755871
2894	-0.0480925130409
2895	-0.0438796145661
2896	0.0109104369496
2897	-0.0105015674956
2898	-0.0119652245016
2899	-0.0571190331162
2900	0.00181690989642
2901	0.00420777762743
2902	0.0811024408627
2903	0.00153605105729
2904	0.0187297270714
2905	-0.235898550392
2906	0.00484805773551
2907	0.124837657752
2908	0.168690205972
2909	0.017923509289
2910	0.0129986400404
2911	0.0180127771151
2912	0.0126417082057
2913	-0.105876164709
2914	-0.0117012150908
2915	0.00939405643405
2916	-0.00931806509492
2917	-0.0212658832177
2918	-0.0155178651163
2919	0.00877771268452
2920	0.0105575776524
2921	0.0105196707861
2922	-0.0185815768442
2923	-0.0205408849649
2924	-0.010999814963
2925	0.00111015400786
2926	-0.00400527258716
2927	0.00339228073161
2928	0.0126970824634
2929	-0.0139718203243
2930	0.0181603556038
2931	0.0131492433659
2932	-0.0387205363437
2933	-0.0160563384875
2934	-0.00321493379134
2935	-0.00974150327648
2936	0.00481794096989
2937	0.00351698637642
2938	0.00356835640641
2939	-0.00223783277777
2940	0.105706678368
2941	-0.0121718252184
2942	-0.13879100388
2943	0.00226467764269
2944	0.0426711128845
2945	0.00682050872337
2946	0.00319709955691
2947	-0.00469838401725
2948	-0.0124313070533
2949	-0.0244482533562
2950	-0.0111170320416
2951	0.0165768693411
2952	-0.00729746683583
2953	0.0176052065908
2954	-0.0191539206833
2955	-0.0368961996682
2956	0.0217590630578
2957	0.0196089802943
2958	-0.0201502545551
2959	-0.0097026543615
2960	-0.0180980781071
2961	-0.00889680689683
2962	0.00926925991373
2963	-0.00677240915391
2964	-0.0164292968085
2965	-0.0227477231036
2966	0.0109094330143
2967	-0.00849672373812
2968	-0.00790667015865
2969	0.179095427878
2970	0.173186520363
2971	-0.0248624326445
2972	0.00840854599543
2973	0.0169215177523
2974	-0.000452349866241
2975	0.016317229821
2976	-0.00143750188568
2977	0.0203519107491
2978	0.0333142140707
2979	0.0106424614516
2980	0.0137185775498
2981	0.0228361487834
2982	-0.0297094770519
2983	0.0187506786573
2984	-0.0115791231274
2985	-0.00803048749067
2986	0.0150783239713
2987	-0.0221874887472
2988	-0.00299463261579
2989	-0.0334774301243
2990	0.00453441717398
2991	0.00123269109375
2992	-0.140527219801
2993	0.00499219443025
2994	0.038400031459
2995	0.00148635706941
2996	0.00234453517833
2997	-0.0117995485589
2998	0.00436045720913
2999	-0.015647258889
3000	-0.013535971033
3001	-0.0282934595134
3002	-0.0178911098948
3003	0.0177999492542
3004	0.012814767996
3005	0.0204148452662
3006	0.0119830693096
3007	0.00514075419608
3008	-0.0045415708439
3009	-0.338734659175
3010	-0.491183550912
3011	-0.0573514473413
3012	-0.00806325806005
3013	-0.0143434230975
3014	-0.0135399465692
3015	0.00631982713049
3016	0.0211416194585
3017	0.0113333103183
3018	-0.0190537357207
3019	-0.0206234076272
3020	-0.0199295050922
3021	-0.0403835059781
3022	0.000456740086182
3023	-0.00986010799833
3024	0.00939093802091
3025	0.0138843037543
3026	0.00270879957057
3027	-0.0167923619351
3028	-0.0181422960765
3029	0.000644617174582
3030	-0.00787966233656
3031	0.0180947010226
3032	-0.0189630555166
3033	-0.0192584605535
3034	0.000797693808781
3035	0.0222695891696
3036	-0.0194358550103
3037	0.00111050934773
3038	0.0010840920718
3039	-0.0139155725986
3040	-0.0226875265693
3041	0.0230998284355
3042	-0.0137474799436
3043	0.0132365496252
3044	0.00479179204031
3045	0.0149849550592
3046	-0.0270143057131
3047	0.148806641416
3048	-0.230331990164
3049	0.0156846629972
3050	-0.0145893613218
3051	-0.00267317398638
3052	0.0134963700658
3053	0.00631055212119
3054	-0.042703303036
3055	-0.0356308860506
3056	-0.00857795977744
3057	0.0107473303442
3058	0.0894983152407
3059	0.0834904147862
3060	0.0043775518151
3061	0.0359725555682
3062	0.00066913468833
3063	-0.0120948730819
3064	0.00279099946164
3065	0.00511717359524
3066	0.021792606787
3067	0.0239242795774
3068	-5.3355990106e-05
3069	-0.00465009609596
3070	-0.0398004030301
3071	-0.0135797825664
3072	-0.000917564153061
3073	-0.0172078761094
3074	-0.0139573521216
3075	0.0136549186667
3076	-0.112238923166
3077	-0.00204136425472
3078	0.0102345544976
3079	-0.0144615244831
3080	-0.0227538808631
3081	-0.00760579556414
3082	0.0146460803189
3083	-0.024702560401
3084	0.0185569466778
3085	0.223274413263
3086	0.236936114369
3087	0.00997623596506
3088	0.0110406947012
3089	-0.0301468788954
3090	-0.0210521685098
3091	7.27928480208e-05
3092	-0.00278912945527
3093	-0.00618407769717
3094	-0.0132957810484
3095	-0.0154601362088
3096	0.021401948444
3097	-0.0202125121077
3098	-0.0165805448889
3099	-0.0205340365893
3100	-0.00432802958882
3101	-0.00975966857327
3102	0.00858094149075
3103	-0.00548153726989
3104	0.0115428508343
3105	-0.0135994535149
3106	-0.0148229117287
3107	-0.0385836649671
3108	0.0703674894185
3109	-0.0891188956628
3110	-0.0860459699275
3111	-0.00900300448858
3112	0.0080838347329
3113	-0.0189222729085
3114	-0.0012465634201
3115	0.0172933403887
3116	-0.00128236703854
3117	-0.0165828503948
3118	-0.0219288564248
3119	-0.00381311329284
3120	-0.0237611884207
3121	0.0047021692819
3122	-0.00612232008647
3123	-0.0504536272185
3124	-0.040230230024
3125	0.0119306408765
3126	-0.00777628340441
3127	0.0846514992993
3128	0.101755480314
3129	0.0106381338221
3130	0.161152557631
3131	-0.0152136692137
3132	-0.0403481455003
3133	0.00100895278094
3134	-0.0171238793844
3135	0.0139038930377
3136	0.146476868314
3137	0.136306188736
3138	0.0170818423191
3139	0.0225225736896
3140	-0.00322150840436
3141	-0.00227285112972
3142	-0.0164225225721
3143	-0.0117658450998
3144	-0.0193648865662
3145	-0.0920798422575
3146	-0.00788253551988
3147	-0.0217271253294
3148	0.0244089223504
3149	-0.0200524651436
3150	-0.00362250455269
3151	0.0111073164632
3152	-0.0190893180317
3153	-0.0156206373828
3154	-0.0176662513283
3155	0.0161869565466
3156	0.00399877222111
3157	-0.00122534332188
3158	0.148270239237
3159	-0.0407411835665
3160	0.0116526749565
3161	-0.0168625285817
3162	0.0210260078928
3163	-0.00774819633219
3164	-0.0313622201111
3165	0.0130013986505
3166	-0.000680788989367
3167	-0.0128162441454
3168	0.0151419396887
3169	-0.164365827362
3170	0.0134871777519
3171	-0.0869247246691
3172	-0.09113627091
3173	-0.0169083298081
3174	-0.0154012803837
3175	0.0240961657791
3176	-0.502374753962
3177	-0.00802902830373
3178	0.0214616107017
3179	-0.0228215272213
3180	-0.0225634336323
3181	0.0209899019776
3182	-0.00478349397131
3183	-1.47926282067e-05
3184	-0.00239610568339
3185	0.00861040077075
3186	-0.00465620555396
3187	0.000252367915176
3188	-0.0637906689812
3189	0.0189878281051
3190	0.023020932394
3191	0.0176648818829
3192	-0.0104918315755
3193	0.00911280577304
3194	0.0188639849675
3195	0.00758068219235
3196	-0.0157041063271
3197	-0.403850391065
3198	-0.352356957921
3199	-0.0171419606982
3200	0.438660448273
3201	-0.0201525641998
3202	0.023964259486
3203	0.00309914047108
3204	-0.0197464511777
3205	0.0895964125014
3206	0.0182088664943
3207	-0.0141276257809
3208	-0.0183543015656
3209	0.0187134328183
3210	-0.0195189939345
3211	0.00810201470139
3212	-0.0011267312195
3213	0.0802459409837
3214	0.047850489963
3215	0.0159729726064
3216	-0.0572359036974
3217	-0.00601905601025
3218	-0.000938633613161
3219	0.0140100233812
3220	0.0212478649078
3221	0.0213822753202
3222	-0.00819861388326
3223	0.0214389298516
3224	0.00667987690356
3225	-0.00177459605802
3226	-0.000371238251496
3227	0.00775858170505
3228	0.00605267008781
3229	-0.00892102926364
3230	-0.0116416811196
3231	-0.0224725283943
3232	0.00888295722033
3233	-0.0117042701821
3234	0.0141607342166
3235	-0.00668252529842
3236	-0.0408207245126
3237	0.0208203949294
3238	-0.0232521534929
3239	0.0210716154701
3240	-0.00889595954674
3241	0.0221398656698
3242	-0.0229411905543
3243	-0.00856005882342
3244	-0.00422752304937
3245	0.00963871808715
3246	-0.00230971168321
3247	-0.0130008986208
3248	-0.00857058430281
3249	-0.0159410662397
3250	-0.0245930261406
3251	-0.0146898435366
3252	-0.010982909771
3253	0.00502117868938
3254	-0.0112015178108
3255	-0.00646796701382
3256	0.0159215490268
3257	0.0138077218115
3258	0.0227408738022
3259	-0.0911302714872
3260	0.0189604546098
3261	0.00903302581725
3262	0.012722492098
3263	0.0183003681838
3264	-0.0208464317387
3265	-0.0253562377018
3266	0.00564526822724
3267	-0.00845048160987
3268	-0.00956264759881
3269	-0.091213676729
3270	-0.0990282668159
3271	0.00602296350057
3272	0.104762944002
3273	-0.0164254367663
3274	-0.0018737962101
3275	0.00884148686966
3276	-0.0160883220089
3277	-0.0144194118776
3278	-0.0145513274885
3279	0.0685422993456
3280	0.100882700195
3281	-0.00154696887288
3282	0.00429832704997
3283	0.0929745330139
3284	0.00275841693364
3285	-0.015841770469
3286	-0.0123532733505
3287	0.00602692346072
3288	-0.021596210203
3289	0.00543578731319
3290	-0.010596936705
3291	-0.0126567324835
3292	0.0768837902636
3293	-0.0218174915701
3294	0.000983013460881
3295	-0.100911691124
3296	-0.0540894724279
3297	-4.84439098872e-05
3298	0.00639402178163
3299	-0.0108266944344
3300	0.009255696322
3301	-0.0119116072255
3302	-0.00344597277892
3303	0.00565047622602
3304	0.0239951550011
3305	-0.0393602078406
3306	-0.109834831848
3307	-0.0212609360269
3308	0.0101470794051
3309	-0.00224543611553
3310	0.00492189397018
3311	-0.012364134502
3312	0.00585643485162
3313	0.0130742446293
3314	0.0175706315948
3315	-0.00338489845205
3316	0.0218622017521
3317	-0.0260303798051
3318	0.00512424360885
3319	0.00124087551059
3320	0.0387590303843
3321	-0.0134199452386
3322	-0.145924711731
3323	-0.000313993962033
3324	0.00502095687581
3325	0.00923309924745
3326	-0.00718546920773
3327	0.00962997771028
3328	0.00915790365332
3329	0.00992212633211
3330	-0.0323521939379
3331	-0.00743562003155
3332	0.0224647561929
3333	0.020934795126
3334	-0.0181051076276
3335	-0.0318466111011
3336	-0.0153780206873
3337	0.0095046971797
3338	0.00850678303971
3339	0.00816860626661
3340	-0.0191575715677
3341	-0.0923721872302
3342	0.0237895327364
3343	-0.00440138986815
3344	-0.00619575394003
3345	0.019690944276
3346	-0.0099016585517
3347	-0.0152017359871
3348	0.00869479635064
3349	0.130347942823
3350	0.181755577111
3351	-0.00795261280524
3352	-0.00494293958222
3353	0.00795752377628
3354	0.00206951636318
3355	-0.0132967032536
3356	0.0216474416952
3357	-0.161991303949
3358	0.0124237753033
3359	-0.0687117858406
3360	0.00503519839924
3361	-0.0163632902215
3362	-0.0253217881374
3363	-0.0481504508829
3364	-0.00434833632922
3365	-0.00129615585819
3366	0.0483414026615
3367	-0.0120914117765
3368	-0.014602266708
3369	0.0126954287364
3370	-0.00601708860745
3371	0.0109342362329
3372	0.0401333248603
3373	-0.0158671494298
3374	-0.0431188932116
3375	0.0171132427381
3376	0.00225913972843
3377	0.0162843723835
3378	0.0111439508077
3379	0.00205341016317
3380	0.00365672363277
3381	0.024596336793
3382	-0.000987585780418
3383	-0.104037352196
3384	0.0636504633316
3385	-0.00681525431945
3386	0.00901058378677
3387	-0.0178619562803
3388	0.018995529688
3389	-0.0102616783836
3390	0.0940611756022
3391	-0.0241361889684
3392	0.0189216062953
3393	-0.0258204163372
3394	-0.0130942466124
3395	0.024521564168
3396	0.00977916391243
3397	-0.0046095643287
3398	0.00054128635232
3399	0.0634232433764
3400	-0.00562990140928
3401	-0.00827875931279
3402	-0.000112933964347
3403	-0.016096646312
3404	0.00884735631021
3405	-0.0144899359818
3406	-0.00627002249152
3407	-0.00499674501757
3408	0.0127507327759
3409	-0.00746533627041
3410	0.0179770838728
3411	-0.0630946086963
3412	0.00765398726308
3413	-0.00763987330371
3414	0.0213663485989
3415	0.0156323054525
3416	0.0123232995551
3417	-0.0485620064454
3418	-0.0866578892774
3419	0.00345723100572
3420	-0.00722055145409
3421	-0.0221235483503
3422	-0.0168192722406
3423	-0.0110373332757
3424	-0.000487559912843
3425	-0.0280076995014
3426	-0.0285280216501
3427	0.00936877708001
3428	-0.000996343319555
3429	0.00476171777843
3430	-0.0240256891558
3431	0.00697414871213
3432	0.0039528938982
3433	-0.020822156667
3434	0.0136226675761
3435	0.0177053564617
3436	0.0147217866945
3437	-0.00888831181409
3438	0.0108849758658
3439	0.0808743211565
3440	-0.0249581531476
3441	-0.0178479318837
3442	-0.0151137061479
3443	0.0138260929806
3444	-0.00381271705951
3445	0.0163980784869
3446	-0.00417468528377
3447	0.0151747934629
3448	-0.0248372847733
3449	0.00880383462936
3450	-0.00814670961108
3451	-0.011367012269
3452	-0.0182565886739
3453	0.0230498218764
3454	-0.0255370178001
3455	-0.0230849660604
3456	0.0186708582096
3457	-0.0796582277872
3458	0.0193198914448
3459	-0.0249759381761
3460	-0.0136572903534
3461	-0.0537043499243
3462	0.0192262636741
3463	-0.0234956788922
3464	0.00250260212235
3465	-0.00983571178198
3466	-0.00451042358515
3467	-0.00201086912002
3468	-0.0106352043296
3469	-0.0340797549823
3470	-0.0171213225432
3471	-0.000454774524157
3472	-0.0183450852591
3473	0.0137013084371
3474	0.0762476157338
3475	-0.00247406635679
3476	-0.0188958438048
3477	-0.0233546707171
3478	-0.0180680591873
3479	-0.0123002953357
3480	-0.00508111510344
3481	0.0104088547747
3482	0.0971102241546
3483	0.0117192323634
3484	0.0173936805982
3485	0.0199447760668
3486	-0.0223571346139
3487	-0.189655935954
3488	-0.0135003390753
3489	-0.0214465389695
3490	0.0111520913873
3491	-0.0807649729682
3492	0.00725537708623
3493	-0.00296779233202
3494	-0.0128387261099
3495	-0.0125183460631
3496	0.0130507792774
3497	-0.0209677852921
3498	-0.0223081608853
3499	-0.0164917107825
3500	-0.0672513782826
3501	-0.00105874484052
3502	0.0195687810264
3503	-0.0134131810143
3504	0.0613074219206
3505	-0.00144529936944
3506	-0.0227086537962
3507	0.0129567285315
3508	0.0153821125792
3509	0.0145747524267
3510	-0.019048857385
3511	0.011526100928
3512	0.0191757220729
3513	-0.0168855213105
3514	0.0124529144302
3515	0.0210434037259
3516	0.0163785190192
3517	0.00603013231338
3518	0.01901221321
3519	-0.00773686714818
3520	-0.0195640742539
3521	0.000741244898357
3522	-0.000767438082307
3523	0.0190888823
3524	0.0206833984759
3525	-0.0044905645587
3526	0.00274535719446
3527	0.0115180099717
3528	0.00962165059546
3529	-0.0267684342774
3530	0.00326366255931
3531	0.0289457400389
3532	-0.0552674255056
3533	-0.0265191298011
3534	-0.00671266898261
3535	-0.0102700716975
3536	-0.0189191177762
3537	0.0475279528774
3538	0.0608856973138
3539	-0.00877319901104
3540	-0.0194570569134
3541	-0.0224746150103
3542	-0.0191040367665
3543	-0.0177893193834
3544	-0.0843094136946
3545	-0.0799094962083
3546	-0.00694361936753
3547	-0.0243721273224
3548	0.011992385068
3549	0.00763835459365
3550	0.00123576215115
3551	0.0217929576151
3552	0.0198377555662
3553	-0.00059063602567
3554	0.0599127890719
3555	0.00354094568538
3556	0.00632965617101
3557	0.00404493939099
3558	-0.022184544672
3559	0.00351920025737
3560	-0.00577269098737
3561	-0.00849929357425
3562	-0.0246631547275
3563	-0.00821164898082
3564	-0.0110981939151
3565	-0.00551516662017
3566	-0.153810537729
3567	-0.0132782578878
3568	-0.0166202795239
3569	-0.0198367099205
3570	0.00945990274732
3571	-0.0251998881658
3572	0.0127879026683
3573	-0.0119936510999
3574	0.0611308595719
3575	-0.00472519647731
3576	-0.00114818019051
3577	-0.00927272774863
3578	0.00692382826341
3579	-0.017220543447
3580	-0.052178046175
3581	-0.015880259655
3582	0.00224897617475
3583	0.0121176409842
3584	0.00192169192769
3585	-0.025281917027
3586	0.0114468075813
3587	-0.0056981089098
3588	0.00823731528542
3589	0.0153550583781
3590	0.021042783475
3591	0.0166584050649
3592	-0.0290809529629
3593	-0.0225540695838
3594	-0.0222007682517
3595	-0.0145448932201
3596	-0.0112715761649
3597	0.020755639914
3598	-0.0248731193226
3599	0.0190996305713
3600	-0.0231550012931
3601	-0.0161777744896
3602	0.0224400025315
3603	0.0114913626998
3604	0.0033431906822
3605	0.0239708132104
3606	0.0200529774553
3607	0.000569225822405
3608	-0.0168607586657
3609	-0.0212400728714
3610	-0.0217311023934
3611	-0.00536262215438
3612	-0.0198917582431
3613	0.022748760007
3614	-0.0015055252433
3615	-0.014022356215
3616	-0.0481431616024
3617	0.126812617501
3618	-0.0210520100278
3619	-0.0199858447806
3620	0.0104852078483
3621	-0.0159074211296
3622	-0.00871268610331
3623	-0.00286153235205
3624	-0.0159133875782
3625	-0.00900420605964
3626	0.00831556877364
3627	0.0237066532368
3628	0.0117823769557
3629	0.00952584328449
3630	0.00766300675175
3631	0.0221060941044
3632	-0.0238607818713
3633	0.0168463602419
3634	-0.00279784495758
3635	-0.0026532147803
3636	0.00940579780766
3637	0.0240090479073
3638	0.0221927097577
3639	0.00413866490037
3640	-0.0110485311209
3641	0.0138753883634
3642	0.0232175822576
3643	-0.0115262226617
3644	-0.00428010297062
3645	0.00984064726257
3646	0.0158229467552
3647	-0.00311464750146
3648	-0.000371862139581
3649	-0.0019029561345
3650	0.0148191464622
3651	0.0207896537547
3652	0.0375869815924
3653	-0.00897334473215
3654	0.00881634888569
3655	-0.0195467878332
3656	0.0206379515548
3657	-0.00707906368921
3658	0.00886158439469
3659	-0.0205517447857
3660	-0.0242505992263
3661	0.022998825238
3662	-0.0120974738225
3663	-0.00383884883662
3664	0.0221123215512
3665	-0.00587331350604
3666	-0.0183779785009
3667	-0.0103923050742
3668	-0.0004007185741
3669	-0.0108725466365
3670	0.00522816082943
3671	0.0245611408532
3672	-0.0184010675408
3673	-0.0388076686262
3674	0.0199733281991
3675	-0.013306060296
3676	0.0197792042424
3677	-0.0217200295856
3678	-0.034390095925
3679	-0.0144974330629
3680	0.002102645238
3681	0.010261716408
3682	-0.0302873178888
3683	-0.00870267176945
3684	0.0138186463442
3685	0.0176510888179
3686	0.0107221235252
3687	0.00949651882545
3688	0.0232699389517
3689	-0.00950585061267
3690	-0.0179332229937
3691	-0.0108339661053
3692	-0.0037721710672
3693	0.00396598440795
3694	-0.00285092773082
3695	-0.00610036822677
3696	0.00269242429434
3697	0.00213710779518
3698	-0.284902280326
3699	0.000456675959849
3700	-0.00978667769628
3701	-0.134272286624
3702	-0.0502393203937
3703	-0.0466146979591
3704	0.0144126293249
3705	0.0163635068107
3706	0.106199383929
3707	0.0728876622218
3708	0.0880310997649
3709	-0.00788589168562
3710	-0.120770627166
3711	-0.0742881139646
3712	-0.00199164603277
3713	-0.00579522667302
3714	-0.00927477892734
3715	0.0100908265524
3716	-0.0118035191142
3717	-0.00810126351148
3718	0.00996571994889
3719	-0.0910720955528
3720	-0.00681334403117
3721	-0.031474422125
3722	-0.0118289607102
3723	0.000790479737786
3724	0.0199446282243
3725	-0.00929944230283
3726	-0.0129396288186
3727	-0.00109499764442
3728	-0.0123637915823
3729	-0.00473931326209
3730	-0.150584390828
3731	0.0233128366129
3732	-0.0124517070148
3733	-0.0246900968239
3734	-0.00245937877473
3735	-0.0224084942297
3736	0.0110805170993
3737	-0.017743911516
3738	0.0204201497698
3739	0.00707269869177
3740	0.00596922339815
3741	0.00521006981514
3742	-0.0271846056178
3743	-0.0277934719778
3744	-0.00649472246702
3745	-0.0148779541236
3746	0.0246258947875
3747	-0.000887062908694
3748	0.00325342315816
3749	-0.0183992687791
3750	-0.0494577202314
3751	-0.00713995772832
3752	-0.0978102239202
3753	-0.0233065549199
3754	-0.00850485154517
3755	-0.00378454743058
3756	-0.00190649423618
3757	0.0207410812452
3758	0.00533958630558
3759	0.0199081182753
3760	-0.00399698047205
3761	-0.0248218143749
3762	-0.0179248218909
3763	0.0693947505032
3764	-0.00257188275838
3765	0.00445435497857
3766	-0.0252229649094
3767	-0.0177001643606
3768	0.0144296311679
3769	0.0171535713622
3770	-0.00706795847553
3771	0.00824423784539
3772	0.0143780220385
3773	-0.0229908586257
3774	-0.0072066592096
3775	-0.0158356539439
3776	0.0425447766405
3777	-0.0199464442519
3778	-0.00413763111053
3779	0.0108112242143
3780	0.000248804846363
3781	0.0170975875191
3782	-0.00994294105405
3783	-0.0246683490905
3784	0.00735000423655
3785	0.01446986763
3786	0.0139346724213
3787	-0.0243525492502
3788	0.0212965244771
3789	-0.0200546036642
3790	-0.00169178682443
3791	-0.0170483509506
3792	-0.00557417502428
3793	-0.0960117519446
3794	-0.0199071699667
3795	0.0139409841877
3796	-0.0929870699183
3797	0.00608923327791
3798	0.0141745406359
3799	-0.0173748209938
3800	-0.00264042289712
3801	-0.00539580261451
3802	-0.0227356513327
3803	-0.0137380094831
3804	-0.0216682680117
3805	0.021038446735
3806	-0.0107666216366
3807	-0.0226270354709
3808	-0.012860286323
3809	0.00856322409669
3810	-0.00726347881503
3811	-0.0734731319289
3812	0.00119244248738
3813	-0.0123812487913
3814	-0.0181131440109
3815	-0.0234131338742
3816	-0.00523543965503
3817	0.0126859638476
3818	0.00444022576786
3819	-0.0158195157965
3820	0.0115580407406
3821	0.000776717470779
3822	0.00251044005594
3823	0.00893086767477
3824	-0.0150828382892
3825	0.0104742795843
3826	-0.0158139684953
3827	0.0148893885374
3828	-0.0179125021693
3829	-0.0229363550579
3830	0.0229940007539
3831	-0.0201825755541
3832	-0.022475017471
3833	0.0214387943449
3834	0.00368505220498
3835	0.0014420284758
3836	-0.0228092070918
3837	0.0192529078159
3838	-0.00980220691624
3839	-0.00786451973737
3840	-0.0198827815554
3841	0.0163387974369
3842	-0.124648122707
3843	-0.0281691748041
3844	0.00888397165619
3845	0.0205592093117
3846	-0.137342818834
3847	-0.00111522258879
3848	0.00152961233269
3849	-0.0192161923555
3850	-0.0184181119197
3851	0.0116232700764
3852	0.0106445971485
3853	0.0199043464267
3854	0.00589973602509
3855	0.0220757227191
3856	-0.0196945039138
3857	-0.00158828128769
3858	-0.021137142028
3859	-0.0119147753353
3860	0.00756363371053
3861	0.000944540355721
3862	0.0054055551036
3863	-0.000632690480198
3864	0.00705098628588
3865	-0.0149785880279
3866	0.040874213072
3867	-0.015297605977
3868	-0.0134386040162
3869	0.0126058175688
3870	-0.0109256914525
3871	0.0164680044828
3872	-0.0161129271353
3873	-0.00743184544102
3874	0.0223509151217
3875	-0.0151163774221
3876	-0.0231018013106
3877	0.00687357704455
3878	-0.0149322134758
3879	0.00340148952586
3880	-0.026393658585
3881	-0.0154587882057
3882	0.0163312644257
3883	-0.00168947003444
3884	-0.00250473884312
3885	-0.00249778928248
3886	-0.00684784006211
3887	0.011275090235
3888	0.0236293373158
3889	-0.0161852961233
3890	-0.0202756905315
3891	0.00405766534383
3892	0.00734287036543
3893	-0.00225787100821
3894	0.123217985524
3895	0.090321944183
3896	0.000882024697472
3897	-0.0244811298848
3898	0.306135871877
3899	0.00287681115955
3900	-0.0197009471426
3901	0.0138042798914
3902	0.0134766738979
3903	0.0119271376076
3904	0.00607844007779
3905	-0.0214910489238
3906	-0.0205149079235
3907	-0.0244749133977
3908	-0.0115023363639
3909	-0.0268485507401
3910	-0.0506680211138
3911	0.0120427175465
3912	0.0138751610077
3913	-0.0323417032217
3914	-0.00823490137193
3915	-0.0203249490135
3916	0.0167239926175
3917	0.00627688982924
3918	-0.0087723843313
3919	0.018581214568
3920	-0.00778185185441
3921	-0.105115600175
3922	0.0120718497556
3923	-0.0348337776866
3924	0.00841412325016
3925	0.0146969557203
3926	-0.00442848584206
3927	0.0201496167419
3928	-0.0209142056502
3929	-0.00989721998434
3930	0.00355977374419
3931	-0.0283747551036
3932	-0.00338271131406
3933	0.023770687152
3934	-0.064359304278
3935	-0.00441246721892
3936	-0.0202084512756
3937	0.0238456414754
3938	0.000287362953015
3939	0.00757577725819
3940	-0.0224335333882
3941	0.0099227696098
3942	-0.00118200117832
3943	-0.00161505886366
3944	0.0127184869771
3945	-0.0205511987533
3946	0.00924894401356
3947	0.0107325092981
3948	0.0170684776758
3949	-0.0236610215296
3950	-0.00163381046724
3951	-0.0084121153326
3952	-0.00810895929037
3953	-0.00217940273523
3954	-0.0119166823757
3955	-0.000169638426831
3956	0.00811712655365
3957	0.0105555376499
3958	-0.0040042170856
3959	0.0170060107613
3960	-0.00881558956712
3961	0.0984356154947
3962	-0.0244874628464
3963	-0.014602463517
3964	-0.00476006903797
3965	-0.0097717521725
3966	-0.0201694657818
3967	0.00366361787377
3968	0.029274929832
3969	-0.0130308979536
3970	0.01105380538
3971	-0.0227998883326
3972	-0.0127842706917
3973	0.0129327885893
3974	-0.00728365744754
3975	0.00695159431773
3976	-0.0278441572349
3977	0.0158890701694
3978	-0.0232206640324
3979	-0.0154798827626
3980	0.0128431623454
3981	0.00442736615579
3982	0.0198109439133
3983	0.0054652502958
3984	-0.00620570441902
3985	0.00651612526353
3986	0.00986547316763
3987	0.0222768275713
3988	0.0238849581516
3989	0.0204894611982
3990	0.104189192792
3991	0.0670141212833
3992	-0.00237404429814
3993	0.0188274302487
3994	-0.0176799515494
3995	0.0237697562159
3996	-0.0190649493655
3997	0.00499551384085
3998	0.0213541937191
3999	-0.013116180476
4000	-0.00394053008418
4001	0.0105693959305
4002	0.0063413602351
4003	-0.0139917989597
4004	0.0080150603255
4005	-0.024826646315
4006	0.019842190019
4007	0.0215674901652
4008	0.0790603552506
4009	-0.0237062035788
4010	-0.00675620626254
4011	-0.0670610588598
4012	-0.00533422287092
4013	0.0131338986593
4014	0.0042003614143
4015	0.00161595484915
4016	-0.00952018794481
4017	0.0143897871088
4018	0.00292864897262
4019	0.0039703172209
4020	0.00658654098547
4021	0.00234525299241
4022	-0.0104597819622
4023	-0.0209039864713
4024	-0.00594584069467
4025	-0.00854610259053
4026	-0.00710706453631
4027	-0.005802306137
4028	-0.0133958157704
4029	0.0696242185907
4030	0.0722075006872
4031	0.0186704399761
4032	-0.013506087394
4033	-0.0192223291535
4034	0.00227693759233
4035	-0.00710431308541
4036	-0.0211265755332
4037	-0.00232388701577
4038	0.00275369246737
4039	0.0186598116444
4040	-0.0155886660336
4041	0.0140380636711
4042	-0.0097232723835
4043	0.0225260392734
4044	0.0129062977064
4045	0.0230382017863
4046	0.0104353673983
4047	-0.00869747775333
4048	-0.0227195598019
4049	0.00307466898797
4050	-0.00597004151089
4051	0.0115381107635
4052	-0.0154850188026
4053	-0.0186590050897
4054	0.014505763892
4055	-0.0087451981154
4056	-0.0105893051403
4057	0.023387829892
4058	0.00562595026888
4059	-0.00227416889203
4060	-0.0228169375813
4061	0.0215594322424
4062	-0.0215867507128
4063	-0.100111958178
4064	-0.0232337155189
4065	0.00154897726552
4066	0.000118977323808
4067	-0.0157981820777
4068	-0.00291895848312
4069	0.00682172347527
4070	-0.0101559010046
4071	-0.14206649341
4072	-0.0101110639378
4073	0.0208374788209
4074	-0.0245611606867
4075	-0.0606752820285
4076	0.0178891809307
4077	-0.0161898018185
4078	0.0193055213636
4079	-0.0254899634491
4080	-0.0179477025627
4081	-0.00763162884062
4082	-0.0174272532144
4083	0.0186147672906
4084	-0.019685422735
4085	0.00453738398147
4086	0.0700619447022
4087	-0.0226101313615
4088	-0.0173145976033
4089	0.0205758397725
4090	0.0221555004926
4091	0.000710225431038
4092	-0.012494776562
4093	-0.0166007873096
4094	-0.0353059302728
4095	0.0138694705245
4096	-0.0254502813964
4097	-0.0242446329721
4098	-0.0477150986405
4099	-0.012289301955
4100	0.0146478895623
4101	0.0247654537187
4102	-0.0120645240307
4103	-0.0189900194502
4104	-0.0327267814635
4105	0.0176001714792
4106	-0.0143935325779
4107	-0.00762039908732
4108	-0.0284681988125
4109	0.00327106682842
4110	0.0237484738126
4111	0.0132012078781
4112	0.00997300095672
4113	-0.0161430682932
4114	-0.0112104320612
4115	-0.000887255602037
4116	-0.0162644079982
4117	-0.0212589631109
4118	-0.0160829217808
4119	-0.00184895551687
4120	0.0076083314277
4121	0.0227295591595
4122	-0.016098535145
4123	0.0228551343376
4124	0.0129106597739
4125	-0.00700560585616
4126	0.00956064237149
4127	0.0242018783863
4128	0.0223649844541
4129	0.0654481885035
4130	0.0174148934262
4131	-0.0207561183294
4132	0.0100535378772
4133	-0.00690354843012
4134	2.00553209379e-05
4135	-0.000539002851708
4136	0.0190657125176
4137	-0.00868676201196
4138	0.00211792677313
4139	-0.0170794000937
4140	-0.0197007310118
4141	0.0218812102214
4142	0.00393789110684
4143	0.0179576634645
4144	-0.00935286964761
4145	-0.0210228903011
4146	-0.013324085423
4147	0.012109729968
4148	-0.00016112410172
4149	-0.0266246734996
4150	-0.0153915697197
4151	-0.0176788975988
4152	-0.00507040447186
4153	-0.0375455951804
4154	-0.0195693742714
4155	0.0378260178123
4156	-0.0378813055739
4157	-0.00559125062505
4158	0.0117087046296
4159	-0.01120209085
4160	-0.0288903249828
4161	0.0124474854505
4162	0.0211322988846
4163	-0.0236000851838
4164	-0.0194873574811
4165	0.0104140478291
4166	-0.012880653536
4167	0.0228249724228
4168	-0.0615862452959
4169	-0.0198434111306
4170	0.0242483371367
4171	0.013287132499
4172	-0.010068703744
4173	-0.0170633260818
4174	-0.0213178366717
4175	0.00120444008709
4176	0.00286367574977
4177	0.0212975829073
4178	-0.00584759618788
4179	-0.0171824922531
4180	-0.0205444421947
4181	-0.0175917545085
4182	-0.052888705542
4183	-0.0852644790284
4184	0.00702527796022
4185	0.0117476922957
4186	-0.00100708920142
4187	-0.022721454322
4188	-0.00136595449551
4189	0.000162319186429
4190	0.0217041616595
4191	-0.0237921781631
4192	0.0138549780395
4193	0.023649362632
4194	0.00602900951211
4195	0.00560015499493
4196	-0.00530245388293
4197	-0.00756588359072
4198	0.0212596246712
4199	-0.023618606332
4200	-0.00910052454789
4201	0.0195310907708
4202	0.021508571599
4203	-0.00622937867267
4204	0.0163894898674
4205	-0.017248163497
4206	-0.013217576826
4207	-0.0203215059724
4208	-0.00354240418307
4209	0.0106631277057
4210	-0.0137947220708
4211	0.00412107556187
4212	-0.0228923845011
4213	-0.00349321847051
4214	-0.0169249330115
4215	0.0046632803982
4216	0.0155190222285
4217	-0.00364480974764
4218	-0.0194004580311
4219	0.00332699384147
4220	-0.0271043918401
4221	-0.000163091894432
4222	-0.0091186781383
4223	0.00577800121545
4224	0.0108953661403
4225	0.0175983088969
4226	-0.0118244874543
4227	-0.0227380227542
4228	0.0181125499017
4229	0.0107283669367
4230	-0.0122085004633
4231	0.0114681533328
4232	2.87235764474e-05
4233	-0.0188766725628
4234	-0.00583170888626
4235	-0.0097125558773
4236	0.0059819484367
4237	0.00610614546274
4238	-0.0324071864684
4239	0.0126140151777
4240	0.0164677447588
4241	-0.0122554932526
4242	0.0170395226621
4243	-0.00791737134546
4244	-0.0179858692192
4245	0.010535266237
4246	-0.02409610097
4247	-0.0136824947187
4248	-0.0029502319021
4249	-0.00798179064553
4250	-0.0166831342661
4251	0.0237726609682
4252	0.00248781721217
4253	0.0151969552884
4254	-0.0176940017121
4255	-0.0191950589222
4256	0.00263098889755
4257	-0.0240078249451
4258	0.0216615779886
4259	0.045883034121
4260	-0.00484374032513
4261	0.0138139610977
4262	-0.0154348130566
4263	-0.0138676617248
4264	-0.0191600011504
4265	-0.057217851944
4266	-0.0131889963824
4267	-0.00829284699547
4268	0.0134059133595
4269	0.0817643130635
4270	-0.0206288962774
4271	0.0156278063337
4272	-0.0298212158807
4273	-0.00136132226029
4274	-0.0243015147534
4275	0.0081540111218
4276	0.000381620235557
4277	0.0181530918517
4278	0.000395275453233
4279	-0.012652538796
4280	-0.0217598335275
4281	-0.010814404952
4282	0.021097355671
4283	-0.0594210838272
4284	-0.0078341084747
4285	-0.0136150554163
4286	-0.000317716011023
4287	0.0237420153133
4288	0.00637654351222
4289	0.0104206966608
4290	-0.0219628468834
4291	0.0195213846154
4292	-0.00708090612193
4293	-0.0144344379202
4294	0.00151068927294
4295	-0.0139832774588
4296	0.0142329142947
4297	0.000180099641239
4298	0.00187334796842
4299	0.0206217307473
4300	-0.00199330453522
4301	0.00896606095767
4302	-0.0653664651522
4303	-0.00122534224639
4304	-0.00873627695313
4305	0.00164248176758
4306	-0.01631429466
4307	0.014397509387
4308	-0.0553541012815
4309	-0.00986790061231
4310	0.00484384188925
4311	0.0110812077339
4312	-0.0148071325594
4313	0.00154235035952
4314	0.00634422659193
4315	0.000837164154689
4316	-0.0108177619969
4317	-0.00492292206382
4318	0.104796359641
4319	0.0681878224109
4320	-0.0151074329074
4321	0.0135329160159
4322	-0.0495721392873
4323	0.0120650480597
4324	0.00700475904689
4325	0.0135853418712
4326	0.0146035405726
4327	-0.00437426384773
4328	0.00907397109606
4329	0.00611335977297
4330	-0.0243706948407
4331	0.000276704783754
4332	-0.0725937513771
4333	0.00807484327689
4334	-0.0208072451662
4335	-0.0192199258336
4336	0.00420479414914
4337	-0.0219053120556
4338	0.000795127607574
4339	0.00165967595149
4340	0.0155218169974
4341	-0.00318048176298
4342	-0.0148089244518
4343	-0.00890303076821
4344	-0.020584090817
4345	0.0116120676322
4346	-0.0218652546308
4347	0.00663256785453
4348	-0.00320830213392
4349	0.00708862526603
4350	-0.0177465104563
4351	0.0147535443867
4352	0.000264199475625
4353	0.0108963726277
4354	-0.01026381781
4355	-0.014738803
4356	-0.00811954562646
4357	-0.0437020735155
4358	-0.0599521920432
4359	-0.0126168086294
4360	0.0021252444811
4361	0.00707252479152
4362	-0.021027999248
4363	-0.000345583070111
4364	-0.0157399317742
4365	-0.0156867291683
4366	-0.0127452614591
4367	0.0166601579528
4368	-0.012635760682
4369	-0.0067563790428
4370	0.0017936532645
4371	-0.0917998643619
4372	0.0179801617491
4373	-0.0169359997801
4374	-0.00111268235352
4375	-0.012400091593
4376	-0.0895817582815
4377	0.0168394710149
4378	0.00463951798377
4379	-0.165805894871
4380	-0.00123558123798
4381	-0.0164088895638
4382	0.00218357494145
4383	-0.0249045186467
4384	-0.0117339589739
4385	-0.00559307295379
4386	-0.0191983273853
4387	0.00913602852863
4388	-0.0243346705928
4389	0.0245467312306
4390	0.00469101238847
4391	-0.012804376259
4392	0.00177352955737
4393	-0.00832429424137
4394	-0.00266232175022
4395	-0.0155977739345
4396	-0.0166501385187
4397	0.0104165854476
4398	-0.0193182974582
4399	-0.00192669693177
4400	-0.00126315408466
4401	0.0078753788141
4402	0.0159465151873
4403	-0.0198791906507
4404	0.00964784281583
4405	-0.0246847247414
4406	-0.0545382738576
4407	-0.00432167555133
4408	-0.00115601091652
4409	-0.0069593218975
4410	0.000710234911554
4411	0.00345927958331
4412	0.0238310275174
4413	0.0729338357965
4414	0.165688226046
4415	0.0374528153543
4416	0.0195082548527
4417	0.00911975920895
4418	-0.00014523435031
4419	0.00911363720531
4420	-0.0210591898056
4421	-0.0102207304567
4422	-0.0204550104163
4423	0.00968047097507
4424	0.101586791922
4425	0.115478194974
4426	-0.00695321493608
4427	0.0166439052772
4428	0.00907009654093
4429	-0.0243903293286
4430	0.00630684075266
4431	0.0201234107134
4432	0.0104792833515
4433	-0.00872832485025
4434	-0.550860469337
4435	0.00106815545567
4436	0.00718286712204
4437	-0.00582800193894
4438	-0.0146755612285
4439	0.00121393035269
4440	-0.025002997057
4441	-0.00720492815981
4442	-0.0202507502811
4443	0.014497393742
4444	-0.237016806853
4445	-0.00633308883981
4446	-0.00489606267501
4447	0.000870279902923
4448	-0.0876011356726
4449	0.00869966040162
4450	-0.00570041448122
4451	0.0223852190783
4452	-0.0132096100348
4453	-0.017172724361
4454	-0.00515006903319
4455	-0.0110685332778
4456	0.0131023225401
4457	0.00105716533193
4458	0.00423769456183
4459	0.006771183059
4460	-0.00946945149944
4461	0.0107706142929
4462	-0.0015574643181
4463	-0.0100697478299
4464	0.0161334595671
4465	-0.0162993132268
4466	0.00511761101072
4467	0.00434272366214
4468	0.00942400513959
4469	-0.00983935354409
4470	0.0171061699171
4471	0.000450513945623
4472	0.0206664975277
4473	-0.00204232127177
4474	0.0188206860931
4475	-0.0232090276217
4476	0.000164567531467
4477	-0.00268292123073
4478	-0.011737609413
4479	-0.00135140404441
4480	-0.0175984693907
4481	0.00364855169549
4482	0.00522613415526
4483	0.00841852498545
4484	-0.0192711130216
4485	-0.0492375918216
4486	-0.0468647726615
4487	0.0698152807055
4488	0.0208868086235
4489	0.0079214333206
4490	-0.00168097233901
4491	-0.01323756584
4492	-0.00807851728362
4493	-0.00151756176502
4494	0.00366624094065
4495	0.00534400400251
4496	-0.0230851062047
4497	-0.0316744395379
4498	-0.000336325528067
4499	0.00708473060445
4500	-0.00362010667785
4501	-0.0221735933932
4502	0.00410950098724
4503	0.00445968381134
4504	-0.00227504550912
4505	-0.0123392889668
4506	0.0158223507134
4507	-0.00246084930226
4508	0.00376071198045
4509	0.00935221958065
4510	-0.0241317193938
4511	0.0185036393428
4512	-0.000410440335284
4513	-0.00424815062926
4514	0.000962454786586
4515	0.0064129598421
4516	-0.0247321334901
4517	0.0137255253659
4518	-0.00629212759321
4519	0.0192136147996
4520	0.00648498583503
4521	-0.0106324536291
4522	0.000589947024612
4523	-0.00692311195115
4524	0.00668668653376
4525	-0.00788502087388
4526	0.00259666855089
4527	-0.0191469660638
4528	-0.024246952319
4529	0.0218577471476
4530	0.0171458203617
4531	0.0168225208237
4532	-0.0218232237192
4533	0.00144576574248
4534	-0.0177128871296
4535	-0.0151359578392
4536	-0.0228446763234
4537	0.000292674713109
4538	-0.000493970833373
4539	0.0136924164872
4540	0.0205428837615
4541	0.0108525056268
4542	-0.0182498834205
4543	-0.00795333660038
4544	-0.000341229827344
4545	-0.00163088101418
4546	-0.0091145735335
4547	-0.0848581350679
4548	0.0176139109494
4549	-0.00558908910362
4550	-0.0206060933029
4551	0.155799488513
4552	0.116784813091
4553	0.0101921197947
4554	0.0103558323102
4555	0.0115036987801
4556	0.0238816072877
4557	-0.00767197977356
4558	0.0213988398843
4559	0.0161265319599
4560	0.00568431436758
4561	-0.0036798347769
4562	0.00375877245704
4563	0.00789698591342
4564	0.0117742582685
4565	-0.0214866786103
4566	0.0078718725366
4567	-0.00353738841344
4568	-0.0105937715822
4569	-0.000598051607699
4570	0.0116571451569
4571	-0.0215396057554
4572	0.0236821792859
4573	-0.00898020640245
4574	-0.0470345162889
4575	0.00617778602779
4576	0.00465617572331
4577	0.00531556061015
4578	-0.00835134185382
4579	0.000600566762231
4580	0.00948256201753
4581	0.01489694416
4582	0.00613031519384
4583	-0.00346723985336
4584	0.00895808288471
4585	-0.00372174074629
4586	-0.0250903377286
4587	-0.000799645706406
4588	0.00816837967031
4589	0.00119350570282
4590	-0.0048084539644
4591	-0.0156712162739
4592	-0.0309620892581
4593	0.00805554483603
4594	-0.0113047058306
4595	-0.0202992791916
4596	0.0201051263919
4597	0.0140770231049
4598	0.0117213540813
4599	-0.00711324232709
4600	0.0221707914239
4601	-0.000249610687158
4602	0.018949161022
4603	-0.0145847963147
4604	0.0211747890022
4605	-0.0249862645173
4606	0.0142401275736
4607	-0.00120340064146
4608	-0.0300631586061
4609	-0.0114235238934
4610	0.384859172552
4611	-0.0058052311196
4612	0.00761479552484
4613	-0.0102752512611
4614	-0.0559171481832
4615	-0.0670430286403
4616	-0.0100666165119
4617	0.00219735270691
4618	-0.0159411975014
4619	0.0107822480966
4620	0.0150127013269
4621	0.00774070709764
4622	0.00181810194826
4623	0.00516690791438
4624	0.0224356021171
4625	0.0232793841595
4626	-0.00646057043903
4627	0.00650049648663
4628	0.0020150478737
4629	0.00192319526023
4630	-0.0010058724667
4631	-0.0246748076568
4632	-0.0114734413343
4633	-0.00765977993647
4634	0.0149941433199
4635	-0.0196637784226
4636	-0.029477316945
4637	-0.0712402179403
4638	-0.00307982759036
4639	-0.0142583724318
4640	-0.0150968383415
4641	-0.000152926485914
4642	0.0192106783341
4643	-0.0136152701106
4644	0.00995548213266
4645	0.00733764766567
4646	0.017875552079
4647	-0.0145420541208
4648	0.0202123281607
4649	-0.00476342829287
4650	-0.00351688294623
4651	0.0030142409161
4652	0.00435751754979
4653	-0.0189988764523
4654	0.00248044566517
4655	-0.0123358504246
4656	-0.00434136772097
4657	0.00393875749436
4658	0.0122726932191
4659	-0.0169187100727
4660	-0.0128944681534
4661	-0.00983162205952
4662	-0.0017989738516
4663	-0.0117847042574
4664	0.022741140362
4665	0.133041640301
4666	0.00195781689043
4667	-0.00974914519046
4668	0.0102142316315
4669	0.0102778537519
4670	-0.02522796283
4671	0.0176184932318
4672	-0.0185064235488
4673	0.00387066655291
4674	-0.15757849895
4675	-0.00210887726655
4676	0.141351508772
4677	0.0161076663543
4678	0.0229207092188
4679	-0.00799858708352
4680	0.00133165334358
4681	0.00565215403116
