0	-0.635185531837
27	-0.451468837131
28	-0.440627218432
29	-0.0200257619787
30	-0.271828012002
31	0.0308169319957
32	-0.759284861007
33	-0.0230339538218
34	-0.0334390121877
35	-0.424017224827
36	-0.425035358982
37	-0.774456099491
38	-0.607304749921
39	-0.219164225978
40	-0.635185531444
41	-0.57180863147
42	-0.736757909593
43	-0.0924806588381
44	0.00692395625501
45	-0.00725536179084
46	-0.547728081548
47	-0.0322600486116
48	-0.644393045792
49	0.0694632954245
50	-0.522837392425
51	-0.509397525376
52	-0.63572767368
53	-0.536731974564
54	-0.631683710225
55	-0.547485591579
56	-0.765422143564
57	-0.644392124976
58	-0.194148890475
59	-0.206596953016
60	-0.496513346686
61	-0.572513142372
62	-0.0733572514665
63	-0.45561841608
64	-0.202890821582
65	-0.187708393937
66	-0.151214127072
67	-0.471304621447
68	-0.5534058027
69	0.374904691613
70	-0.488967884084
71	-0.104730799897
72	0.00183558754269
73	-0.26835156563
74	-0.046451836472
75	-0.0568663431921
76	-0.0197923631983
77	0.00157906553045
78	-0.00331845214263
79	-0.125282490021
80	0.0192512912711
81	-0.473611825182
82	-0.410205469154
83	-0.431339626876
84	-0.537474658215
85	-0.0080342755954
86	-0.416312171277
87	-0.42055376991
88	-0.0244925557943
89	-0.000452603425999
90	-0.48649364243
91	-0.0240483717748
92	-0.241489053073
93	0.0478634825082
94	-0.00222549697967
95	0.0110451082206
96	0.485729296697
97	0.109808757718
98	-0.0117682407759
99	-0.232855099842
100	-0.250351576182
101	0.0742624456648
102	0.0557199063253
103	-0.0134886050688
104	-0.357457077999
105	-0.137601946265
106	-0.00180829988296
107	-0.0107070037609
108	-0.292023523743
109	0.0465565133251
110	-0.129601358097
111	-0.10074428187
112	-0.0263544145392
113	-0.136793276451
114	0.000389420258663
115	-0.0487049840873
116	-0.0324622824129
117	-0.0155026309551
118	-0.0185081749424
119	-0.787463073341
120	-0.44167802006
121	-0.245168794565
122	-0.0048685057787
123	-0.469813174428
124	-0.121138728229
125	-0.0244262973064
126	-0.0848502802205
127	-0.0271089504888
128	0.0462895895928
129	-0.500723335252
130	-0.551639604877
131	-0.760096830285
132	-0.421570860303
133	-0.0810797101434
134	-0.184469782279
135	-0.00755358024393
136	-0.0483822203949
137	-0.013137920738
138	-0.00390574908468
139	-0.145421187816
140	-0.00787847925193
141	0.016148109965
142	-0.24372437882
143	-0.449337898024
144	-0.0402031970088
145	-0.199294738615
146	-0.145696408459
147	-0.561502825326
148	0.134302861042
149	0.00525423451668
150	-0.0561384863462
151	-0.407177448883
152	-0.338643630784
153	-0.00461185101199
154	-0.281809259393
155	-0.276569477922
156	-0.00717067630891
157	-0.565425072292
158	0.00730313185762
159	-0.28147383045
160	-0.309982413056
161	-0.608397185916
162	-0.404160989917
163	0.0195266644766
164	-0.326671895451
165	0.185716103802
166	0.171809059928
167	-0.0212431161221
168	-0.0981104403906
169	0.0831896333186
170	-0.0423844337765
171	-0.0350248607567
172	-0.0242646619885
173	-0.459409094874
174	-0.272434608311
175	-0.0236328655897
176	-0.180740213706
177	-0.31160433219
178	0.505957579545
179	1.06165775616
180	0.00684883848017
181	-0.504031121785
182	-0.0440634062663
183	-0.123785853913
184	-0.0496198433
185	-0.0374711802549
186	-0.0185542931986
187	-2.22895844288
188	-0.519499323189
189	-0.0179748960153
190	0.154778459941
191	-0.0264072950855
192	-0.0266323978777
193	0.00365154437131
194	0.342359496835
195	-0.00723817403892
196	-0.0234087463958
197	-0.272291346367
198	-0.265806536465
199	-0.00580990675454
200	0.00993088439258
201	-0.110911104977
202	-0.0654449409849
203	-0.0447817885924
204	-0.00270044137887
205	-0.0102828953059
206	-0.0173209141811
207	-0.0066962242274
208	-0.0112551969565
209	0.00804654887593
210	-0.326168205698
211	-0.0805395853039
212	-0.0630523970857
213	-0.0142611137434
214	-0.010425230267
215	-0.193514174241
216	0.0159737643693
217	-0.028846608154
218	0.0100960492028
219	0.019994368006
220	-0.238446202867
221	-0.185992231172
222	-0.796642620173
223	-0.773605111418
224	-0.476461200945
225	-0.0267036529063
226	-0.0781213829092
227	-0.0386967861198
228	0.000317748651745
229	0.00216112211704
230	-0.15396712624
231	0.131170911051
232	0.0413411290176
233	-0.0405935559833
234	0.0102740803701
235	0.0486387744789
236	-0.106582053197
237	-0.000278593380174
238	-0.513127545699
239	7.0138881536
240	0.000477777585411
241	-0.0547736397565
242	0.017058535264
243	-0.961526435329
244	-0.666133940377
245	-0.0174978857019
246	-0.0330511329654
247	-0.0336586716296
248	-0.00172789269618
249	-0.312663925234
250	-0.0122301010883
251	-0.00271953318753
252	0.27690183972
253	-0.0253109104667
254	-0.171119612242
255	-0.20016592072
256	-0.0721099044607
257	0.0155248173327
258	-0.00732107780603
259	-0.0074449461573
260	-0.0273390258664
261	-0.222119966675
262	0.00288752972528
263	0.158029203756
264	0.0226066593959
265	-0.301172339348
266	-0.45156056352
267	0.136859719652
268	-0.0416620178967
269	-0.00844114945757
270	0.000580334450444
271	-0.0099516513032
272	-0.0287369863434
273	0.0951998451109
274	0.0873072341821
275	-0.724587987717
276	0.0084327168738
277	0.14437114108
278	-0.0705218058508
279	-0.00980010721792
280	0.0136997454046
281	-0.0112934275102
282	0.188998358649
283	-0.00383414434653
284	-0.0716341073834
285	-0.120649365077
286	-0.189226295242
287	0.0177103195031
288	-0.123216402589
289	0.0944605268852
290	0.000308857444916
291	0.220329782661
292	0.0128567532549
293	-0.177880899646
294	-0.00822299009501
295	-0.230952651433
296	-0.157111002729
297	-0.14444806254
298	0.0203731345273
299	0.0904998459305
300	-0.0499208394421
301	-0.0104699807251
302	-0.147234242272
303	0.195417049402
304	0.0204789189537
305	-0.117723439137
306	-0.394099601514
307	-0.528748311522
308	-0.00965482398271
309	-0.0110022020318
310	-0.0191933217197
311	-0.135191635795
312	-0.0147082336068
313	0.0835538416373
314	-0.453355851092
315	0.0167212078946
316	0.0135814108596
317	0.0169643167424
318	0.179358138946
319	-0.00577869902268
320	-0.0851098649395
321	0.0136591754717
322	-0.287350162549
323	-0.167475281792
324	-0.22415437472
325	-0.446513615648
326	-0.0213697652701
327	-0.431767111817
328	-0.110361710804
329	-0.0124347898779
330	-0.0133491213966
331	0.0175208627006
332	-0.0117996014836
333	0.0182173396916
334	0.00438990963437
335	-0.16532063121
336	-0.150277792255
337	-0.172312248733
338	-0.211608084611
339	0.00732642190576
340	0.204588571866
341	-0.0217235571791
342	0.116129226265
343	0.142417474112
344	0.00208805497908
345	-0.38193851957
346	-0.0908080640641
347	-0.0093163694117
348	-0.0419715681377
349	-0.0676909305749
350	-0.0329649437983
351	-0.000577721082688
352	-0.388128599114
353	-0.179214482893
354	-0.713575673585
355	0.0147494904582
356	0.048049989916
357	0.0177087837566
358	0.00816465380604
359	-0.00853852077551
360	-0.0322489552676
361	-0.00180761347104
362	-0.0181529254111
363	-0.0161140807367
364	0.251956065316
365	0.0139406424664
366	0.0274498329593
367	-0.0145164600066
368	-0.000636506464564
369	0.00205925655029
370	-0.00791812550654
371	0.000390772836545
372	-0.0248562238637
373	-0.027896189811
374	-0.0252968775626
375	-0.0242348772798
376	0.0121660800829
377	-0.0418077341803
378	-0.0430227214405
379	-0.0471287735512
380	-0.025851066147
381	0.152502872144
382	0.00675486515367
383	0.00227239539795
384	0.145809497104
385	0.00141011217564
386	0.0541102720273
387	-0.581816774452
388	-0.00371495106635
389	-0.408468102783
390	-0.0309006299101
391	0.00301879606073
392	-0.00367679515976
393	0.00915897541431
394	-0.0172337479567
395	0.0947501582766
396	0.102283129626
397	-0.0176444784114
398	-0.13150233553
399	-0.0188736490456
400	-0.0863111941024
401	-0.0617808657196
402	-0.0203790874017
403	-0.171866674783
404	-0.156979663796
405	-0.122165520112
406	-1.67749458488
407	0.0139515471048
408	-0.245087405821
409	0.00482411045334
410	-0.010308062459
411	-0.00636885622586
412	-0.663479849023
413	0.00922539446153
414	-0.022486620499
415	0.00391276457514
416	-0.0344304625832
417	-0.0104016875273
418	-0.171352020552
419	-0.0659098078188
420	0.0080192490293
421	-0.140047831026
422	0.0264734050505
423	-0.00747334244677
424	0.00374028012056
425	-0.229455726042
426	-0.678492027274
427	-0.488291196698
428	-0.358738853792
429	0.00500776065462
430	-0.0743888243038
431	-0.103695016708
432	-0.0662040020018
433	0.018788952923
434	0.0149657147148
435	0.0621107858981
436	-0.0126442661174
437	0.00693466046217
438	-0.0679771675093
439	-0.00171442554591
440	-0.00710551729124
441	-0.0769835204681
442	-0.0342405276359
443	-0.0308121032884
444	-0.000483955234023
445	-0.407862563344
446	0.283054902081
447	0.0209868984207
448	-0.0986919300656
449	-0.118418642286
450	0.00513142999654
451	0.0703574708299
452	0.0835277907276
453	-0.0427724941356
454	-0.0117411643405
455	0.00573746369539
456	-0.0140151760325
457	-0.0738795442267
458	-0.0390410803088
459	0.0126084998318
460	0.0452354656587
461	-0.0151872130237
462	0.008371870007
463	-0.134105084516
464	-2.30363997422
465	0.0196357665051
466	-0.0575310765544
467	-0.0181595838565
468	0.0150363729714
469	-0.201120059788
470	-0.00547929305882
471	0.0386202593764
472	0.0260544679932
473	0.0408461848091
474	-0.00356987581489
475	-0.0110787170537
476	0.1660550753
477	0.00495423792484
478	-0.00613895889936
479	-0.0909023326005
480	-0.0923082408842
481	-0.0566830347299
482	-0.0140534683885
483	-0.0871808503175
484	-0.0601989017185
485	0.0171918407106
486	0.00134142599296
487	-0.0458429247122
488	0.0567770322556
489	-0.00689994581158
490	-0.0871149529234
491	0.0232499889448
492	0.000506914921099
493	0.00948951416312
494	-0.003437178082
495	0.00105870741816
496	-0.0195470807105
497	-0.0412042556919
498	-0.113992302993
499	-0.0879365363054
500	-0.0162742640971
501	-0.0368877971593
502	-0.0194691977313
503	-0.017447974322
504	0.0116277828021
505	0.0435003511814
506	-0.00950136941631
507	-0.0357212315136
508	-0.156136206403
509	-0.00186802795541
510	-0.298245786916
511	-0.310501918952
512	0.00780558315223
513	-0.0109667595007
514	-0.00748319732145
515	-0.0239629182512
516	-0.0700085666107
517	0.00953319341347
518	-0.00426323599374
519	0.0130630311469
520	-0.0217032552161
521	0.0157857846545
522	-0.287922508877
523	0.436934456677
524	-0.0306701005099
525	0.0127183229107
526	-0.0273364043239
527	-0.18920550363
528	-0.0218773488498
529	-0.0257370985119
530	0.00779112334345
531	0.00139282569623
532	-0.120871536063
533	0.0186713121955
534	0.0428413073137
535	-0.0350906044411
536	0.0405550746636
537	0.158291117652
538	0.0141535456069
539	-0.0124214604468
540	-0.0296618160585
541	0.0237887452194
542	-0.144621805817
543	-0.0398453209044
544	0.117246053973
545	-0.010776491376
546	0.0849522581463
547	-0.00506795839125
548	-0.366703574841
549	-0.23584070037
550	-0.0464588058892
551	-0.0532678062435
552	0.0114316252398
553	-0.174930086612
554	3.98226898103e-05
555	0.266627386597
556	0.0854488484852
557	0.00574488513641
558	-0.143393673896
559	-0.0114905171676
560	-0.0148839592183
561	-0.0071658477156
562	-0.0420679510761
563	0.00192517756901
564	-0.0246817404962
565	0.42747223451
566	0.351834986279
567	-0.0244109902898
568	-0.0682492522977
569	0.0228524474833
570	-0.0119098038959
571	-0.832069285
572	-0.28573262683
573	-0.362214666983
574	-0.313036763235
575	-0.0205250044139
576	0.118965989404
577	0.151275312671
578	-0.00358165329716
579	-0.00955437027146
580	-0.0818770111582
581	-0.060124623035
582	-0.0129396278659
583	-0.267126996484
584	-0.0236435060545
585	-0.141581595714
586	-0.667639792806
587	-0.682425842844
588	-0.00579040759029
589	0.0224671526667
590	-0.00553389770158
591	-0.0160520550928
592	-0.0367979723442
593	0.00166160271461
594	-0.0533504148453
595	-0.00247503685713
596	-0.00383671639851
597	-0.0119452596221
598	0.12372267243
599	-0.00426609660138
600	0.00994406269563
601	-0.0196137414815
602	0.00731512681845
603	-0.00653526853236
604	-0.129160287254
605	-0.00487442698608
606	0.00152614015973
607	0.0402331999867
608	-0.0166219274072
609	0.0235416405064
610	-0.508792327806
611	0.0105900384642
612	-0.0238386598271
613	0.248023881613
614	0.0704393640317
615	0.0432071642371
616	-0.00677409083587
617	-0.055928379854
618	-0.0355560906536
619	-0.0195909746318
620	0.0214048397546
621	0.0149800505473
622	-0.00268235749103
623	0.0166732147299
624	-0.000870320256183
625	-0.016012913852
626	0.0383241632757
627	0.0229011389203
628	0.117039573605
629	0.0390181110425
630	0.0229531002052
631	-0.0771422773499
632	-0.0137218921122
633	-0.0963131846477
634	-0.0322383057389
635	-0.0211054703519
636	0.00914847215759
637	0.0962179708339
638	-0.00503701182558
639	-0.0144517108056
640	-0.00550722731992
641	-0.146716332596
642	0.00906009063027
643	0.0160158450403
644	0.0726847761469
645	-0.110037060718
646	-0.0370885837959
647	0.0148633802527
648	0.0634796451195
649	-0.0380425992331
650	0.0107710507072
651	0.0537286281454
652	0.00048922363718
653	0.0141103369914
654	-0.160691054062
655	0.00976851513304
656	-0.0318910641206
657	-0.59657911953
658	0.00446503233558
659	0.0934828448461
660	0.0136445069207
661	0.00831137175234
662	0.00705247991455
663	0.0174996423687
664	0.162284431917
665	0.0175175633976
666	-0.024220172429
667	-0.00381202813047
668	0.113879965936
669	-0.0519338693036
670	0.0142809547041
671	-0.0144185337822
672	-0.00607386732819
673	-0.000493077452941
674	-0.17077757982
675	-0.0175399212319
676	-0.0243552087713
677	-0.0227900701916
678	-0.0184664675394
679	-0.0361940207547
680	-0.0121892758071
681	-0.150878783583
682	0.00727740574381
683	-0.00963678591019
684	-0.239749578397
685	-0.239174679493
686	-0.0317397734869
687	0.00645658615134
688	0.0163219408499
689	-0.081539074583
690	0.00934130814146
691	-0.0751430992793
692	0.0116519013027
693	-0.0712037680902
694	-0.0198021435028
695	-0.0481361402038
696	0.00461461995712
697	-0.0157170341483
698	0.00106040549033
699	-0.0145038475817
700	-0.0111323414635
701	-0.0220729591532
702	-0.0224999064744
703	0.00424963143744
704	-0.0131046887302
705	-0.0181333209649
706	0.0366671498721
707	-0.0266194940446
708	0.401787614836
709	0.0152625605673
710	0.0840757341126
711	-0.0272441419296
712	-0.0230197600983
713	-0.37817108796
714	-0.00608750048094
715	-0.00511730692998
716	-0.000546806545889
717	0.0114913768742
718	-0.202081775275
719	-0.0116256889474
720	0.00410053528163
721	-0.0800911889252
722	-0.00927550087554
723	-0.0220178860006
724	-0.0124587175013
725	0.021978295187
726	-0.0112844867801
727	0.0051452150566
728	0.0121120811387
729	-0.110062083866
730	-0.0128126705434
731	-0.00743177505991
732	0.0638540128292
733	-0.0309985513019
734	-0.434822185086
735	-0.141774212263
736	0.00158529026769
737	-0.0177100243923
738	-0.0255402854156
739	0.0121357097074
740	0.0737934990828
741	-0.00771233470073
742	0.014903522722
743	-0.0180634093561
744	-0.334362111379
745	-0.247408605432
746	0.00795838523307
747	-0.194982886242
748	0.0126541771855
749	-0.0172175237254
750	0.0010436119169
751	-0.101810020048
752	-0.125881633619
753	-0.0111826063589
754	0.0210849269152
755	0.0123824496126
756	-0.0102706847284
757	0.0232601354699
758	-0.134153206001
759	-0.0136033636309
760	0.0146160562893
761	0.0140875295448
762	-0.0563729816199
763	-0.109562770516
764	-0.11016444408
765	0.0136547674434
766	-0.141433501981
767	-0.0427123564797
768	-0.0580129805635
769	0.00780358203977
770	-0.0229841457644
771	-0.00199919130506
772	-0.0875179862275
773	-0.0481443827622
774	-0.00831769048095
775	-0.0227866137224
776	-0.0091011045489
777	-0.0747640003726
778	0.00932402753959
779	-0.371605247567
780	0.0209457596843
781	-0.122651255528
782	0.0189113108872
783	-0.0313398361659
784	-0.00718632048839
785	-0.0381311536326
786	0.0158102517038
787	0.0136180924036
788	0.0879139978854
789	-0.105107059501
790	-0.012666664478
791	-0.00856341434498
792	-0.0271820548978
793	0.015592879572
794	-0.00404634590057
795	-0.126247789401
796	-0.0836827803468
797	-0.0166389855679
798	0.171853047906
799	-0.0500951225365
800	-0.0450021495263
801	0.00650967988373
802	-0.0414154252156
803	-0.018562237037
804	0.0189324033889
805	0.00403867124389
806	0.290687073362
807	-0.024434640592
808	-0.0512101716919
809	-0.0470291452149
810	-0.068254819248
811	-0.0226559080299
812	-0.00756775743146
813	0.00117852402017
814	-0.0629275854725
815	-0.15174581927
816	-0.0509499214428
817	0.0201229259975
818	0.00414855632097
819	0.019038174642
820	-0.103119563817
821	-0.131151487622
822	0.0217811380305
823	-0.0105573908395
824	0.00148048923777
825	-0.023355683443
826	0.0972015483433
827	-0.0288836158917
828	0.0671846772623
829	0.0168495806864
830	-0.00162241498673
831	0.0233949647133
832	0.00129831323957
833	0.00856203801604
834	0.0128651042349
835	-0.0412647326768
836	0.012052271644
837	0.0134346000054
838	-0.0740399578867
839	0.00910951024653
840	-0.0661083114584
841	-0.016089208366
842	-0.000107151682681
843	0.00997848582903
844	-0.0461391775746
845	0.134975009196
846	-0.0192834798787
847	-0.00540058803255
848	-0.004935092087
849	0.0166822786334
850	0.0162077131092
851	0.0504752169175
852	-0.0180980141864
853	-0.0189502668982
854	-0.0127431785237
855	-0.00569706967134
856	-0.0193711438368
857	-0.0605795573809
858	-0.132148198385
859	-0.0180799709911
860	0.391736989063
861	-0.0149197426693
862	0.00511491285751
863	0.00319184082958
864	-0.0154895639931
865	0.00846079348203
866	-0.0247495751132
867	-0.017882007444
868	0.000543792810705
869	0.00488066625285
870	0.0204827674126
871	-0.0680806229429
872	-0.0470155953195
873	-0.00235671333191
874	-0.124324828327
875	-0.000640493441409
876	-0.000702526055672
877	0.152157060124
878	-0.0236784111891
879	-0.0867719662074
880	-0.00165561631153
881	0.139561966058
882	0.140566804878
883	-0.00781778442885
884	-0.203967997516
885	-0.0206188622484
886	0.0160721939328
887	0.00206666384822
888	0.0210477154234
889	-0.0672650801648
890	-0.0463994781
891	-0.0167909534738
892	-0.056924027101
893	-0.0141128885667
894	-0.0658380954151
895	-0.022857594365
896	0.0209520614772
897	-0.0564166601011
898	0.278914200552
899	-0.0230638345283
900	0.0171556878889
901	0.0788330712118
902	0.0878937876307
903	0.00462492408306
904	0.00352173435331
905	-0.0117918193303
906	-0.250757817463
907	-0.0059796639
908	-0.260457037909
909	-0.256148862039
910	-0.0140029112931
911	-0.113849750971
912	0.0161171882195
913	0.00939790761077
914	0.0152588486331
915	0.00815487596215
916	-0.0777192908692
917	-0.079613387148
918	0.0181714430248
919	0.177881523444
920	-0.0869403895316
921	-0.018127265322
922	0.0203494143716
923	-0.0213102549492
924	-0.00726590497825
925	-0.00953037762661
926	0.00273401217021
927	0.0200806340738
928	0.01136654233
929	-0.0447208294348
930	-0.0740676043638
931	0.0118930765061
932	-0.0139477919541
933	-0.0228082381795
934	-0.00384908849931
935	-0.0128367049068
936	0.0892804954008
937	-0.052909688261
938	-0.0259454941214
939	0.00472751503498
940	0.0691063064221
941	0.015567024535
942	0.174507507588
943	0.11260957661
944	0.00182387496999
945	-0.150601592645
946	-0.0589001377308
947	-0.0253604923232
948	0.0169396382709
949	-0.0532792413836
950	-0.0268306492297
951	0.00777934804053
952	-0.058947054188
953	0.0226515593634
954	-0.00765394134629
955	-0.0296258172871
956	0.0905653840116
957	-0.000369788621508
958	0.024285818098
959	-0.00492381621381
960	0.0207783324583
961	-0.0265064217988
962	-0.0141441025047
963	-0.00326102306362
964	-0.107289310344
965	0.149424508087
966	0.198756916294
967	0.0214837931353
968	-0.0248662540748
969	-0.0946407296148
970	-0.384613466785
971	0.00951688252202
972	-0.0179556549821
973	0.0224758788476
974	-0.0301868608543
975	-0.019968732821
976	-0.073173356496
977	0.0207053612189
978	0.0111386746726
979	0.00198954131913
980	-0.022625856723
981	-0.0565596043897
982	-0.0870423773458
983	-0.28924808092
984	-0.0222930186556
985	-0.0917158764665
986	0.0155269443375
987	-0.0127790641006
988	0.0547685286239
989	-0.0125184780415
990	0.0166508286045
991	0.0170618988793
992	0.0136043893331
993	-0.130805904076
994	-0.0218716883293
995	0.0303048809435
996	0.0128102283571
997	-0.00899147954705
998	-0.0953981174535
999	-0.0628124863375
1000	-0.0375731766928
1001	-0.0103188742996
1002	-0.119470433789
1003	-0.0030805556595
1004	-0.144138988339
1005	0.00758301836865
1006	0.0581313882674
1007	-0.0105922970066
1008	-0.0366652262573
1009	-0.00408939802478
1010	-0.049100363783
1011	-0.0441004333909
1012	0.0097150554669
1013	-0.0645357084024
1014	0.00297338404515
1015	0.0104455906057
1016	0.0138522746742
1017	-0.215342010047
1018	-0.167509841101
1019	0.00291253000582
1020	0.00360389663738
1021	-0.191245482756
1022	0.0188578957123
1023	-0.0337001064247
1024	-0.0150929462147
1025	-0.0125472435387
1026	0.160779182339
1027	0.00152210588708
1028	-0.0200587265639
1029	-0.0182235916101
1030	0.0107401081059
1031	-0.0119913711253
1032	0.00182070806467
1033	0.0151474409158
1034	-0.0471605350809
1035	0.00794864530462
1036	0.0075027226615
1037	-0.0116142118119
1038	0.00788337030923
1039	-0.0222277474684
1040	0.0238394706707
1041	-0.01029987641
1042	0.0157956379976
1043	0.0191709380487
1044	-0.00443888804193
1045	-0.0119089422964
1046	0.00522352034284
1047	-0.00850670975454
1048	-0.026101645088
1049	0.576626813967
1050	0.0207257609675
1051	-0.247254174597
1052	0.0105809821048
1053	-0.0221161877655
1054	0.00515852152453
1055	-0.0441808234237
1056	-0.03450595114
1057	-0.00945938420985
1058	-0.0329549558742
1059	0.00441277862696
1060	0.080846102942
1061	0.016894295203
1062	0.0774704676527
1063	0.000892111145632
1064	0.0125215116171
1065	-0.0152393755212
1066	-0.0586910540194
1067	-0.0188959005608
1068	-0.00571502780059
1069	0.0172229730173
1070	0.014516415228
1071	-0.00933714637571
1072	0.0169112843776
1073	-0.0711078939244
1074	-0.0861907638881
1075	-0.00589782353587
1076	-0.0404748096977
1077	0.00931576930174
1078	0.348136331533
1079	-0.0209247312794
1080	0.0196191801848
1081	-0.00315508188045
1082	-0.0370385486972
1083	-0.00201785563789
1084	0.30040438524
1085	0.0535022743316
1086	0.0067719688888
1087	-0.0188439667561
1088	-0.0199843949147
1089	0.0114277802888
1090	0.00795192772604
1091	-0.000902540729765
1092	0.00466115527795
1093	0.00507165658531
1094	-0.0894805998739
1095	0.00689307578402
1096	0.0136375260955
1097	0.000389866235794
1098	-0.00208529545541
1099	-0.173459784507
1100	0.011881558636
1101	-0.016923979458
1102	0.012969074049
1103	-0.0135688183879
1104	0.130500868879
1105	-0.0224772434522
1106	0.120163569553
1107	0.00525696329006
1108	-0.136755562575
1109	-0.015109013494
1110	-0.00219584243581
1111	-0.0328687857535
1112	0.0286529955833
1113	-0.0215761665132
1114	0.00945828895264
1115	0.0180106184409
1116	0.0480138848039
1117	-0.0545010901769
1118	-0.00338768557953
1119	0.0226095341733
1120	0.0226147073753
1121	0.00375444209103
1122	0.0117760134858
1123	0.0126395910542
1124	-0.0217035337602
1125	-0.0206238293665
1126	0.0058070895492
1127	0.0192476589622
1128	0.0101889364039
1129	-0.0682941375485
1130	-0.0465900852865
1131	-0.0116725942192
1132	-0.0329666671597
1133	-0.0155113296398
1134	0.0225673971431
1135	0.0619474659317
1136	-0.00307120581017
1137	-0.00204264350912
1138	-0.215047343173
1139	-0.0107569313732
1140	-0.00347188219356
1141	-0.0253588496156
1142	-0.207293000098
1143	-0.0855628240016
1144	-0.0316867020998
1145	-0.104773628402
1146	-0.00499760556188
1147	-0.00375621820849
1148	-0.0110586783225
1149	0.017780559722
1150	-0.00827421489656
1151	0.00460217989688
1152	-0.0237548828754
1153	0.0063729074471
1154	-0.0162693039783
1155	0.0144500919142
1156	-0.234846949113
1157	-0.00239316672827
1158	-0.0461440216413
1159	-0.00556010939703
1160	0.100268837447
1161	0.00974468602911
1162	0.0110576176732
1163	0.013732176745
1164	0.00719412704457
1165	0.0157281874396
1166	-0.00712164606727
1167	-0.00524635139245
1168	0.0199193282799
1169	-0.0107766193637
1170	0.0522200803545
1171	-0.0175292881332
1172	-0.0244274623745
1173	-0.0590263006604
1174	0.0444225522482
1175	0.0492349881175
1176	-0.0125898705656
1177	-0.0112292056374
1178	0.0103632550627
1179	-0.00782030124246
1180	0.0174228130059
1181	-0.0660847334856
1182	0.0228573169822
1183	0.00356131145883
1184	0.00745262568918
1185	0.00213790597991
1186	-0.0569976784392
1187	0.00857950446957
1188	-0.0203425521242
1189	-0.00504813873512
1190	0.0170750484171
1191	-0.00438564137983
1192	0.0139646493294
1193	0.0168272004574
1194	-0.0192273433753
1195	0.00655012894373
1196	-0.00888663774729
1197	-0.0213823528273
1198	0.0355983364679
1199	-0.0151598954349
1200	-0.0150295673681
1201	-0.0327187731129
1202	-0.00350635790927
1203	-0.112131162598
1204	-0.0176947834764
1205	-0.00648226895612
1206	0.0747160794081
1207	0.0223137375599
1208	-0.018718740055
1209	-0.00137327774869
1210	-0.011898209108
1211	-0.33955062853
1212	0.0122566845919
1213	0.00103781667899
1214	-0.0172685887529
1215	-0.0216086836095
1216	-0.00396630527665
1217	-0.00859086468642
1218	-0.0215445699021
1219	0.0208635227652
1220	0.00475476967005
1221	-0.0347572116234
1222	-0.0107023630443
1223	-0.00904106330361
1224	-0.00168837375447
1225	-0.0174654210303
1226	-0.0256746514593
1227	-0.0111446090438
1228	-0.0136719255322
1229	-0.0122601997393
1230	0.303785880334
1231	-0.012535612281
1232	-0.019101758744
1233	-0.0792737841995
1234	-0.0171028391524
1235	-0.0225047041723
1236	0.00335534711099
1237	0.0157650795499
1238	0.0173214620185
1239	-0.0128456323383
1240	0.0053782960594
1241	-0.00271672126279
1242	-0.00263829385892
1243	-0.017912396283
1244	-0.0751385057869
1245	0.045660115919
1246	0.0190787506842
1247	0.00508789457934
1248	-0.0281204221227
1249	0.00120245589067
1250	-0.0461971451312
1251	-0.0158543870504
1252	0.0640745846311
1253	-0.0111234898527
1254	0.21519406172
1255	0.199422319134
1256	0.0098579968282
1257	0.0445975759856
1258	0.00691946773458
1259	0.00167707604876
1260	-0.171252417334
1261	-0.0197536509533
1262	0.011189159272
1263	-0.01242271634
1264	-0.00721661643393
1265	0.00439058730156
1266	-0.0168405661038
1267	-0.00702864679223
1268	-0.0400067292107
1269	-0.0230161057618
1270	0.00586858921429
1271	-0.0106658681704
1272	-0.0133172672699
1273	0.0152732504301
1274	0.0157416387418
1275	-0.0369074240661
1276	-0.0245153563331
1277	-0.00738435598504
1278	-0.0168580933373
1279	-0.0052002789154
1280	-0.044247873705
1281	-0.0273238329916
1282	-0.0137558705108
1283	0.0234070416548
1284	0.0212886479165
1285	0.447605449833
1286	-0.200674910175
1287	0.0221457089203
1288	-0.284210182283
1289	0.00275254286271
1290	-0.0500956854061
1291	-0.0149067091311
1292	-0.271667754086
1293	-0.00133198653802
1294	0.0166218817333
1295	-0.0703997985181
1296	-0.0047883689905
1297	-0.0550904968267
1298	0.0828998463955
1299	-0.00874019309046
1300	0.011083247762
1301	0.0122582977162
1302	-0.249468745272
1303	-0.0195765678489
1304	0.000906796700203
1305	0.0111882655398
1306	0.00444043767484
1307	-0.0158537131393
1308	-0.118713906125
1309	-0.0522214793215
1310	-0.053658466244
1311	0.00690948729761
1312	0.0604280117591
1313	-0.0249384941754
1314	-0.0217422130603
1315	-0.0436513431772
1316	-0.0232768163976
1317	-0.0145863604983
1318	0.0215672788832
1319	0.0941720642789
1320	-0.0266096309922
1321	-0.0588267027932
1322	-0.0225357878616
1323	-0.00479768108615
1324	-0.0064229416404
1325	-0.0190283528571
1326	0.0179915877767
1327	-0.00342358175365
1328	0.00520906476619
1329	0.0164657539369
1330	-0.0127210292346
1331	0.00939852857191
1332	0.0122855482859
1333	-0.0697894526615
1334	-0.0108260726309
1335	0.023865287903
1336	0.0456574800931
1337	-0.00447945715331
1338	-0.192118661116
1339	-0.0136257404375
1340	0.270583671627
1341	-0.066024962981
1342	0.0303947099877
1343	-0.0183756992655
1344	-0.023890174657
1345	0.00964512193199
1346	-0.0134787016371
1347	-0.024562572242
1348	-0.0188218291406
1349	0.0132695589248
1350	0.0208298653691
1351	0.0225946965293
1352	0.0823289583274
1353	0.0846021207519
1354	0.00418786603279
1355	0.0209629066169
1356	0.0119847368404
1357	0.00129234148309
1358	-0.0533661495541
1359	0.00186149406445
1360	-0.0779413521427
1361	-0.0699850143554
1362	-0.00662272090265
1363	-0.0216665231024
1364	0.214985997669
1365	0.0731110444066
1366	0.051843360282
1367	0.0124729452983
1368	-0.117946035384
1369	-0.0028337733241
1370	-0.0361087985648
1371	0.00475919920036
1372	-0.0677681726047
1373	-0.00205048031933
1374	0.0773372232681
1375	-0.0280834908873
1376	-0.00381549980481
1377	0.0035017557819
1378	-0.00988995317141
1379	0.0167766197413
1380	0.016161699154
1381	-0.00842443049253
1382	-0.0077891476706
1383	0.0218977681354
1384	0.000474236376854
1385	-0.0233067916131
1386	-0.0610884099286
1387	-0.000328658168663
1388	0.0212005561219
1389	-0.0185689124905
1390	-0.0273358073523
1391	-0.0215395224083
1392	-0.181128174738
1393	-0.186587423351
1394	0.0254721390175
1395	-0.00372277177929
1396	-0.00624508036693
1397	-5.25681799292e-05
1398	-0.101023402083
1399	-0.000893960549919
1400	-0.0134737817948
1401	-0.0289572545037
1402	-0.00483941427971
1403	0.019424740697
1404	-0.0391675352237
1405	0.0663349826071
1406	0.0623936885664
1407	-0.00565936907938
1408	0.0160091689764
1409	-0.0126598223222
1410	-0.00932219744826
1411	-0.00426086967131
1412	0.013164139472
1413	0.0204461014552
1414	-0.042414922774
1415	-0.0230206412374
1416	-0.0221334124055
1417	-0.118022013804
1418	0.0100225322405
1419	-0.00265835282037
1420	0.021059565006
1421	0.00150636734966
1422	-0.0160978450508
1423	-0.0266258831221
1424	-0.00985191022755
1425	-0.0168541802456
1426	-0.0119959444642
1427	-0.0180604875189
1428	0.00935151940701
1429	-0.00884226805799
1430	0.0209896230172
1431	-0.0011574943796
1432	0.00702434704969
1433	0.149147627057
1434	0.067113696168
1435	0.00107269844354
1436	-0.00257485913768
1437	0.0116774774068
1438	-0.0138786362685
1439	-0.0207219594883
1440	0.0073644492651
1441	-0.0124744118371
1442	-0.00208441425348
1443	-0.064748189559
1444	0.0177517089677
1445	-0.0099662820791
1446	-0.0115832555255
1447	0.110282987862
1448	-0.00984089426748
1449	0.130957526613
1450	0.0171334890746
1451	-0.00915615857798
1452	-0.0101555715246
1453	0.0071437625106
1454	-0.00389086665086
1455	0.024119803994
1456	0.012977558359
1457	-0.0530409069083
1458	-0.0251957213997
1459	0.0016770572804
1460	-0.00348123169618
1461	-0.00243839959168
1462	-0.0197274720986
1463	-0.00952198096001
1464	0.000144296120964
1465	-0.0306195636679
1466	-0.120957721579
1467	-0.0112312463301
1468	0.0160256022117
1469	-0.0156418616084
1470	0.0101413673415
1471	0.0117273953956
1472	0.0193222362764
1473	0.0139949441087
1474	-0.021738591238
1475	-0.0205853514194
1476	-0.0306099167029
1477	-0.00150377885106
1478	0.0164859837414
1479	-0.0198202924003
1480	-0.00766184056985
1481	0.0204782995292
1482	0.00709738241303
1483	-0.0131508635352
1484	0.0174035489742
1485	0.000873955576546
1486	0.0214767375072
1487	-0.238577516184
1488	0.0713952289059
1489	-0.0323665190027
1490	0.0236869957522
1491	0.0125478196998
1492	0.0153191588361
1493	0.0162550794075
1494	-0.0695211625426
1495	-0.0270750493035
1496	-0.0353323483155
1497	-0.0239369934473
1498	-0.0656370127087
1499	-0.0210173846651
1500	-0.0109689447471
1501	-0.0138065318917
1502	-0.0022321981863
1503	0.0155354938825
1504	-0.0219950103904
1505	-0.00453676558803
1506	-0.024161894538
1507	0.00484309604452
1508	0.00146905276838
1509	-0.0541356820314
1510	-0.00326544001427
1511	-0.0260195612298
1512	-0.0974711339634
1513	0.0115805768759
1514	-0.0189089448487
1515	0.00507855541987
1516	0.00545273834039
1517	-0.020018092986
1518	-0.147853818741
1519	-0.00996993681266
1520	0.0250566802892
1521	-0.00615241910038
1522	0.0033210737318
1523	0.011658458265
1524	-0.00706701878555
1525	-0.0104236868145
1526	0.0203002822362
1527	0.0185219295602
1528	0.000474184484478
1529	0.0202843227959
1530	-0.0536137861908
1531	-0.0137561757798
1532	0.0215924038808
1533	0.00276254818151
1534	-0.0271964181511
1535	-0.00744653443659
1536	0.0149791744761
1537	0.00892412191791
1538	-0.0248465004832
1539	0.016712704367
1540	-0.000270452924881
1541	-0.0134584045901
1542	-0.0066236129317
1543	-0.00682014858995
1544	-0.00780448617873
1545	-0.00606310112247
1546	0.0819941750349
1547	-0.127683859684
1548	0.000871883735316
1549	-0.0453799640922
1550	-0.0730367693595
1551	0.00177268367141
1552	0.00257945357847
1553	0.00925207566936
1554	-0.147079864977
1555	-0.0126774372476
1556	-0.0270740827308
1557	0.0092208189169
1558	0.0171439400774
1559	0.0105635645295
1560	-0.00620647908992
1561	0.0133857464044
1562	-0.00897612659208
1563	0.0130193315079
1564	0.0198655182296
1565	-0.0108173702712
1566	0.0113557165806
1567	-0.0119638713568
1568	-0.0166932110685
1569	-0.0392344932665
1570	-0.019120373691
1571	0.00385615040402
1572	0.0136300309352
1573	0.0241925680638
1574	0.0628369097181
1575	0.0152717101694
1576	-0.0819420131027
1577	-0.00305480077153
1578	-0.00976249511132
1579	-0.00507293372566
1580	0.00751355057743
1581	-0.0128405187169
1582	-0.013994920266
1583	-0.0150473914067
1584	-0.00834389358906
1585	-0.0349996767579
1586	-0.0124232355178
1587	-0.0807744935843
1588	-0.319091414721
1589	-0.27442674388
1590	-0.00878385663994
1591	-0.0116214811389
1592	-0.283838880494
1593	-0.00972995344728
1594	0.463967848502
1595	0.0226307514837
1596	-0.0121088208161
1597	-0.0049714702642
1598	-0.00523312322296
1599	-0.0252710961907
1600	0.00546552291702
1601	0.00780511698123
1602	-0.0129022974921
1603	-0.00570972127502
1604	-0.0288111445562
1605	0.0109374756062
1606	-0.0132393269071
1607	-0.0238271148888
1608	0.023898993133
1609	0.0045261431766
1610	0.000915852834769
1611	0.252904514538
1612	0.271876786728
1613	-0.00600498205773
1614	0.023480716725
1615	-0.00748803989564
1616	0.0040612093802
1617	-0.0255475968972
1618	-0.00716746189556
1619	-0.00261404532676
1620	-0.0292657114397
1621	0.0496630410111
1622	0.0218233374778
1623	-0.0178424228585
1624	-0.0181509443769
1625	0.0198451318211
1626	-0.00439748080767
1627	0.0183569772233
1628	-0.00907592044961
1629	0.0193661610847
1630	-0.0209922548846
1631	-0.0100375992012
1632	0.0231587329016
1633	0.00774613232209
1634	-0.0153469929607
1635	0.022697490013
1636	-0.0828375108997
1637	0.00348311086892
1638	-0.0684715793232
1639	0.00280858531844
1640	0.00557074840151
1641	-0.0070953082292
1642	-0.00485389660922
1643	-0.0122945982733
1644	-0.180152483595
1645	0.00320449155098
1646	0.0123337751423
1647	0.0124357963747
1648	0.0178425370247
1649	0.00337584016281
1650	-0.00968363496242
1651	-0.00394249554088
1652	0.0629840066033
1653	0.0120036387699
1654	-0.0215272056677
1655	0.00703414751752
1656	-0.0166796113691
1657	-0.0226158113515
1658	0.164703462512
1659	0.0112384730901
1660	0.00017521134873
1661	0.0174625708908
1662	0.0147731751671
1663	0.0104490802209
1664	0.0104678918508
1665	-0.0569539174249
1666	-0.00795025281365
1667	0.156942823515
1668	-0.0241400816627
1669	-0.0805464681998
1670	-0.120827143907
1671	-0.00499082135268
1672	-0.00871549415579
1673	-0.0413678077956
1674	-0.0208399857289
1675	0.0179586509811
1676	0.019236229065
1677	0.0211723603082
1678	0.00463929875995
1679	-0.0171880584649
1680	-0.0266640874754
1681	0.0194087080017
1682	-0.0109706404644
1683	-0.022170955411
1684	0.01216563454
1685	0.0136668061398
1686	-0.00505712205901
1687	0.00279912014455
1688	0.0032363419931
1689	0.0205342074556
1690	0.018582100726
1691	-0.0321436876033
1692	-0.0358915768455
1693	0.00986247063519
1694	0.019427982304
1695	0.0224535008668
1696	-0.0189329427036
1697	-0.00694719842581
1698	-0.0676541766268
1699	0.00196033206375
1700	-0.0152871948851
1701	0.00948305865796
1702	-0.00161501110243
1703	0.0190682720177
1704	0.00595382347404
1705	0.0731096650141
1706	-0.00818965751589
1707	0.00817391479606
1708	-0.0422015355434
1709	-0.0461572817255
1710	-0.011672789287
1711	-0.00862104076126
1712	0.0123785337083
1713	0.00769373061243
1714	0.00805927907212
1715	0.00758115651307
1716	-0.0520595389139
1717	-0.0370436037126
1718	-0.0415110978529
1719	0.0183881119891
1720	-0.0446104940257
1721	0.00394208985999
1722	0.0121252734341
1723	-0.0215259605586
1724	0.0123748098078
1725	-0.00756601030538
1726	-0.01687052717
1727	-0.0226891438578
1728	0.00802534583926
1729	-0.0213197200561
1730	0.0116642606038
1731	-0.00869298155313
1732	0.061035959517
1733	-0.00740689193935
1734	0.0129398839194
1735	-0.0164807711736
1736	0.0205509964765
1737	-0.0225491570487
1738	-0.0198804487358
1739	-0.078672602822
1740	-0.0437006506095
1741	0.0159765477153
1742	0.0032146305785
1743	0.0174411677696
1744	-0.0154036920975
1745	-0.0913775060065
1746	-0.0306467526428
1747	0.0161564563792
1748	0.0198820430253
1749	-0.029022437332
1750	-0.0352853582726
1751	-0.0161384414984
1752	0.0188651247169
1753	0.0239839369322
1754	-0.0201665161857
1755	0.0144294739079
1756	-0.00794612827741
1757	-0.00724360987475
1758	-0.0385378305604
1759	0.0200507095878
1760	-0.0121718212412
1761	-0.0645646624181
1762	-0.0739741155178
1763	-0.0144946690315
1764	-0.0246994375858
1765	0.00688101192432
1766	0.00423050861161
1767	-0.203282892078
1768	-0.0731085185672
1769	0.0224212100191
1770	-0.0727405598817
1771	0.0125189792014
1772	-0.028183176594
1773	-0.0118531483717
1774	-0.04256981905
1775	-0.00739420570566
1776	0.00556423330109
1777	0.0109663548143
1778	-0.010181368504
1779	0.0209175782828
1780	-0.00380719757945
1781	0.0139721743887
1782	-0.0145698591618
1783	0.0420887715649
1784	0.00257043060918
1785	-0.0214918223074
1786	0.0141984982278
1787	0.0720883780963
1788	0.0110744309155
1789	-0.0627642739442
1790	0.00292874738641
1791	0.00531522513122
1792	-0.0222283091961
1793	-0.00195750998311
1794	-0.0296146289224
1795	-0.00204885057616
1796	0.00189779475317
1797	-0.0703752300398
1798	-0.0183015461553
1799	-0.0140538954668
1800	-0.0242862827589
1801	0.006491765448
1802	-0.112859284172
1803	-0.123998921981
1804	0.000797280623193
1805	0.0107090233873
1806	0.0531966761667
1807	-0.0217156718514
1808	-0.0124233750423
1809	-0.0133914163275
1810	-0.0194425100882
1811	0.0247738850762
1812	0.00654271873049
1813	0.0101889976485
1814	0.0181717607996
1815	0.012570486356
1816	0.027902517923
1817	-0.023163367341
1818	0.0213628341042
1819	0.0390629906226
1820	0.0128874583182
1821	-0.218366783118
1822	0.0226169370353
1823	-0.133323850182
1824	-0.155735668633
1825	7.98081668972e-05
1826	-0.00800741572585
1827	-0.0468666891016
1828	0.0234818145618
1829	-0.00214471931866
1830	0.0126791028551
1831	-0.0208209491092
1832	-0.012314444064
1833	-0.0246182733157
1834	0.009881662286
1835	0.0136249943438
1836	-0.0108958713143
1837	0.0192500413774
1838	-0.00111210663865
1839	0.000488624721625
1840	-0.0202869212216
1841	-0.0213345370613
1842	0.198739855782
1843	0.0217018190924
1844	-0.117002421694
1845	-0.0174500283225
1846	-0.00505841382913
1847	0.0127367418334
1848	0.071668456198
1849	0.0221648695008
1850	0.00695749567905
1851	-0.00224432093223
1852	-0.0239237307672
1853	-0.029989580901
1854	-0.000635776063971
1855	0.0199373189158
1856	0.104149263789
1857	-0.0139226559781
1858	-0.0266228984217
1859	-0.00201492273446
1860	0.0129842446036
1861	-0.0155094744134
1862	-0.00737617570181
1863	0.0100494151422
1864	-0.0499938065365
1865	-0.00827330948864
1866	0.00898756181987
1867	0.0249616825956
1868	-0.000521009986624
1869	-0.0240247455446
1870	-0.0144984074265
1871	0.0150680639108
1872	-0.00435420372669
1873	-0.0167461348803
1874	-0.00412007021429
1875	-0.00526333557096
1876	-0.088605827531
1877	-0.0301738123382
1878	-0.00180911433815
1879	-0.0479923210405
1880	-0.027057515801
1881	0.000205528736829
1882	-0.00760874045798
1883	-0.0181185243117
1884	-0.0203993636311
1885	0.0110606782866
1886	-0.0473339258853
1887	0.0212618962438
1888	0.0108622967132
1889	0.00157032842892
1890	-0.0156987176364
1891	0.0150027744058
1892	-0.00828709410804
1893	0.0210684980868
1894	0.001031832948
1895	0.00505177559813
1896	-0.0380813228499
1897	-0.0196860918833
1898	-0.0499834069575
1899	-0.0226567864033
1900	0.0874996801411
1901	-0.0278928756277
1902	0.0679231957473
1903	-0.00932389853487
1904	-0.0140184075021
1905	-0.00596877677187
1906	-0.0143719467991
1907	0.00545853361706
1908	0.038105638844
1909	-0.0525776831318
1910	-0.000856221240428
1911	0.00859476385788
1912	0.0205396984578
1913	0.0151575431769
1914	-0.0250159065888
1915	0.00499715265131
1916	-0.022680260303
1917	-0.00166821313471
1918	0.0216639048847
1919	-0.0139953289572
1920	-0.00640048685301
1921	-0.0414685913461
1922	-0.00966452309868
1923	-0.0234970872591
1924	-0.00954628751437
1925	-0.121836871553
1926	-0.0243365907768
1927	0.17844845715
1928	-0.0116430436162
1929	-0.0124456677455
1930	-0.0475098492782
1931	0.0164097261587
1932	-0.00321787699471
1933	0.240376283859
1934	0.211202073258
1935	0.00981507826476
1936	-0.0595646185328
1937	-0.0188978899949
1938	0.0213751164368
1939	-0.0104016298123
1940	0.00158518999014
1941	-0.0401268164502
1942	-0.0224930449933
1943	-0.0249560597806
1944	0.0421174447403
1945	0.0107738254712
1946	-0.0444158283408
1947	-0.00633657679276
1948	-0.011353486571
1949	-0.0253273250206
1950	-0.0219270238571
1951	-0.0150935536188
1952	-0.00567595806387
1953	-0.0261241506896
1954	-0.0249489651228
1955	0.0227591674976
1956	0.00339175046927
1957	-0.066016946256
1958	0.00920141469679
1959	-0.00650158873238
1960	-0.00312623995702
1961	-0.0477187775788
1962	0.0168511117555
1963	0.00342597936848
1964	0.0354340510408
1965	-0.0212634044212
1966	0.0146691022959
1967	-0.00113266818051
1968	-0.019539630601
1969	0.00072824567693
1970	-0.00660462444026
1971	-0.0251016927701
1972	-0.00148081569756
1973	-0.0115162061452
1974	-0.0125137342885
1975	0.00991812638302
1976	-0.0144764202395
1977	0.00267552807354
1978	-0.0229145306825
1979	0.00104150344692
1980	-0.0104744345704
1981	0.114233694871
1982	-0.00803521869236
1983	-0.00528277250224
1984	-0.0190602876552
1985	0.0127510275577
1986	-0.0135342926602
1987	-0.00291820984037
1988	0.0135716697724
1989	-0.171736317536
1990	-0.0261460778795
1991	0.153665282231
1992	-0.0147879785026
1993	0.024171702881
1994	-0.0207508364219
1995	-0.0405670647018
1996	0.00667573878885
1997	-0.0216821614204
1998	-0.000676867975516
1999	0.0182489839998
2000	0.0236631937943
2001	-0.0156426953207
2002	0.0182949312265
2003	0.0225827907882
2004	-0.00252268332375
2005	-0.00325114255907
2006	-0.0163573642309
2007	-0.0865777498712
2008	0.00486796976261
2009	0.0255158193377
2010	0.0226356870651
2011	-0.0772908930942
2012	-0.0837901117013
2013	-0.0111722585428
2014	0.0232186555178
2015	-0.0206216216557
2016	-0.0131080126544
2017	-0.129917389768
2018	-0.0307189743573
2019	-0.0595387742026
2020	-0.017555496781
2021	-0.00313964888077
2022	-0.0843766928059
2023	-0.00482372153199
2024	0.174802003176
2025	0.00350646697299
2026	-0.00378791950139
2027	-0.11487798203
2028	0.0404054975256
2029	0.00325598970801
2030	-0.00926135519173
2031	-0.00682378872788
2032	0.00745365670491
2033	0.0214529280127
2034	-0.0680605549179
2035	-0.0106919037628
2036	0.00505514504924
2037	-0.0349853482324
2038	-0.0325005361997
2039	0.011141091455
2040	0.018641820854
2041	0.0120948574705
2042	0.0324960504624
2043	0.00941743301054
2044	-0.190872078462
2045	-0.0171076172924
2046	0.00651897399874
2047	-0.0236272576864
2048	-0.0196829167739
2049	-0.0214575574086
2050	-0.131114910758
2051	-0.153138858299
2052	0.0160323471459
2053	0.00275440637415
2054	-0.0133346522839
2055	-0.00542533975108
2056	-0.0775189811174
2057	-0.368139116201
2058	-0.373860591663
2059	-0.00296532545216
2060	-0.00854811470864
2061	0.0198856224713
2062	0.129537548652
2063	0.0121932578127
2064	-0.00446834352963
2065	0.010401173396
2066	-0.00828964349317
2067	-0.0405184232527
2068	-0.0403594771681
2069	-0.00293266327789
2070	-0.00590543991195
2071	-0.00590291167337
2072	0.109867734427
2073	0.0164264322084
2074	0.0146365503281
2075	0.0214802596991
2076	-0.0178758698286
2077	-0.0100660731749
2078	-0.0874179826722
2079	-7.0133393302e-06
2080	0.0209386471876
2081	-0.036160815828
2082	-0.296953942738
2083	-0.0127779637888
2084	-0.0422486498573
2085	-0.0264481055224
2086	0.00134457079451
2087	0.0190994380834
2088	0.010484132426
2089	-0.0232088559755
2090	0.0133154169848
2091	0.0184142979053
2092	-0.0753332709942
2093	0.0109624328135
2094	-0.00906133704993
2095	-0.14536990086
2096	-0.0531459646483
2097	-0.0200380012576
2098	-0.0470658584482
2099	-0.0300778622717
2100	-0.016622121008
2101	0.00526800669985
2102	0.00499603393347
2103	-0.0218187950197
2104	0.0216929748382
2105	-0.0504134367687
2106	-0.0160473990511
2107	0.0133868183296
2108	0.00281091807474
2109	-0.028742765809
2110	-0.00826086646399
2111	5.53491788472e-05
2112	-0.00814143464777
2113	0.0131894247089
2114	0.00656505674125
2115	-0.0326330429574
2116	0.00498095619774
2117	-0.0114380021641
2118	-0.00680753087789
2119	-0.000160246920659
2120	0.0169700996196
2121	0.0138214623452
2122	0.00962675559009
2123	0.0200006637005
2124	0.0793751886586
2125	-0.0599401405599
2126	-0.0105194374427
2127	0.00221310140376
2128	-0.0232234729521
2129	-0.0217583610981
2130	0.0152287450035
2131	0.152924021418
2132	-0.00224744702176
2133	0.0220648957565
2134	-0.0164428923904
2135	-0.00496561780025
2136	-0.0249022798728
2137	-0.00139900620027
2138	0.0227600731171
2139	-0.0250723110999
2140	-0.000604834295877
2141	0.0210360619663
2142	0.00575674750053
2143	-0.0347132976107
2144	-0.017703257176
2145	-0.0136481168883
2146	0.00690617712207
2147	-0.120658050254
2148	0.00213525591423
2149	0.0128914552458
2150	-0.0240283316949
2151	0.0106124223978
2152	0.0197878837277
2153	0.0038265670626
2154	-0.0041024503531
2155	-0.0245829398078
2156	-0.0212544460834
2157	-0.00884039775005
2158	-0.0171404523726
2159	0.0186537894002
2160	0.0217643960384
2161	0.0681083991109
2162	0.00729125362487
2163	-0.0230021832678
2164	0.0130141107851
2165	0.00271151845942
2166	-0.0050280109367
2167	0.0119271020234
2168	-0.00896598742887
2169	-0.00204472056016
2170	-0.00692022032594
2171	-0.0334696080163
2172	0.049526211875
2173	0.0158340712464
2174	0.00119270776779
2175	-0.00660702136211
2176	0.00388114213417
2177	0.0894852309038
2178	0.0120068931061
2179	-0.0201497482887
2180	-0.0199720576184
2181	0.000375816800094
2182	-0.00128360281833
2183	0.00732926315871
2184	-0.0136388594728
2185	0.0123406113207
2186	-0.00517728167439
2187	0.0174020333858
2188	0.00141948940716
2189	-0.0096247431817
2190	-0.00750775536973
2191	0.00964985074767
2192	0.0212306341149
2193	-0.0172835084067
2194	-0.00373765268954
2195	-0.0245350419783
2196	-0.00200019749985
2197	-0.0237351317739
2198	-0.000955409871312
2199	-0.0156310765976
2200	0.00522479042781
2201	-0.0154662140063
2202	0.0193884796889
2203	-0.0343956938092
2204	-0.00141385437998
2205	0.0333353142407
2206	0.0196209244169
2207	-0.022969185925
2208	-0.0506193626565
2209	-0.0572952499052
2210	0.0110019464083
2211	0.00250724567268
2212	-0.0422195221215
2213	-0.0234066909748
2214	-0.027305907061
2215	0.00843833680676
2216	0.0167512731396
2217	-0.0118247710624
2218	-0.239726856758
2219	-0.218306617307
2220	-0.000360783401924
2221	-0.000833855743
2222	-0.0233829541093
2223	0.0147816080007
2224	-0.0300533068403
2225	0.000312412197143
2226	0.0205443511005
2227	0.00330435955966
2228	-0.00589179349621
2229	-0.00816920600541
2230	0.0212224782319
2231	-0.0133672227049
2232	-0.0608988729298
2233	0.00749355611756
2234	0.0130391835335
2235	-0.027100110908
2236	0.0272331844074
2237	-0.0184207380468
2238	-0.110242894226
2239	0.0871400610108
2240	0.113014708089
2241	-0.00780720076225
2242	0.0164451079477
2243	-0.022147574209
2244	0.011948664971
2245	-0.0018613716941
2246	-0.024532061624
2247	-0.00413066669801
2248	0.00325750444218
2249	-0.017053823287
2250	0.0215306735516
2251	-0.157742889855
2252	-0.0140137949307
2253	-0.0137729342788
2254	0.000260017624188
2255	-0.0239980731704
2256	0.129491241021
2257	-0.0947323449692
2258	-0.0149790803296
2259	-0.138319858169
2260	0.0199700312582
2261	-0.0141257041551
2262	-0.0326768079463
2263	-0.018414855695
2264	0.00922161822787
2265	-0.00357817922925
2266	-0.0121193653647
2267	-0.0120891428693
2268	-0.0816466747959
2269	0.00222128165149
2270	-0.0144777915727
2271	0.0112993972466
2272	0.105016018627
2273	-0.0211374539153
2274	-0.0176820593182
2275	0.00180182612788
2276	-0.0186754643266
2277	-0.00142762686776
2278	-0.00748512792209
2279	-0.0151820024467
2280	-0.014934523032
2281	0.0245939676925
2282	-0.0362570032604
2283	0.00867537973341
2284	-0.00195401844074
2285	-0.000879081657158
2286	-0.00306500182296
2287	-0.0213304845938
2288	-0.00199835775242
2289	0.114566282896
2290	-0.0185716353782
2291	-0.0156537742498
2292	0.0205623200769
2293	0.0123553537891
2294	-0.0135414537139
2295	0.0892900283697
2296	0.0145544545632
2297	0.0238190303596
2298	0.00562612726975
2299	-0.0146135315874
2300	0.0126055548283
2301	0.00782428584316
2302	0.006021515443
2303	-0.0345028774166
2304	-0.0519125140229
2305	-0.00735226156908
2306	-0.0190130979817
2307	-0.0879369091287
2308	0.022779226604
2309	-0.00932504191418
2310	0.00860738274431
2311	-0.0199650669913
2312	0.00149341364445
2313	-0.0121241416015
2314	-0.00398728961383
2315	0.00957712339103
2316	0.00151653623598
2317	-0.0161004721241
2318	-0.0163986640918
2319	-0.0078860260179
2320	-0.0347241263094
2321	0.00382174939397
2322	-0.0189984206743
2323	0.0178211304817
2324	-0.0215765917913
2325	-0.0236310389356
2326	0.0218496946006
2327	0.00436739602628
2328	0.0197483111639
2329	0.167044593406
2330	0.139080298884
2331	-0.00954741851968
2332	-0.00957254844108
2333	0.0106654601942
2334	-0.024073312939
2335	-0.0447630999981
2336	-0.0362193446997
2337	0.0167109871938
2338	-0.000908077970473
2339	0.0906939025977
2340	0.00421724986427
2341	0.00739442238347
2342	-0.0234088510965
2343	0.0187070470406
2344	-0.0129975251306
2345	0.0202240105558
2346	-0.0313848444464
2347	-0.0305455148009
2348	-0.00502750441979
2349	0.00313592860081
2350	-0.00912586426809
2351	0.0063915274971
2352	0.0019287175716
2353	-0.0937052045046
2354	0.00673887430128
2355	0.0208261444007
2356	0.0217488499124
2357	-0.0321971828396
2358	-0.0103979693145
2359	-0.00737104511409
2360	0.00816607409123
2361	0.00777147013756
2362	0.0148308077715
2363	0.08958103042
2364	0.0944644311916
2365	-0.0194148755824
2366	0.0143951079445
2367	0.0164813439008
2368	0.0113917575937
2369	-0.0016144222024
2370	-0.0239728864319
2371	-0.153062674792
2372	-0.00155258796811
2373	-0.000404982553547
2374	-0.156589689868
2375	-0.171657973366
2376	-0.0232781440427
2377	-0.0175401865285
2378	0.0243735020559
2379	-0.0128046208086
2380	-0.00848757000131
2381	0.00862187189487
2382	-0.0105876242182
2383	-0.0246950788759
2384	0.0582069440625
2385	0.0228894345386
2386	-0.00841346905471
2387	0.00339275507668
2388	0.00831095539457
2389	0.00539206242054
2390	0.00241991504272
2391	-0.131199137143
2392	-0.176223884442
2393	-0.0148038272678
2394	-0.000689072968842
2395	-0.0177176490553
2396	-0.00327495015137
2397	0.0274539111433
2398	-0.0205032582352
2399	-0.00532915664437
2400	0.0173579521675
2401	-0.0103771842817
2402	-0.00405424258192
2403	-0.107930790618
2404	-0.111988416765
2405	0.0129915962883
2406	0.0202080416116
2407	-0.0142548684201
2408	-0.0226396675034
2409	-0.031852452761
2410	0.00211496331029
2411	0.0110013553257
2412	-0.0134890207279
2413	0.120490034786
2414	-0.0231919791972
2415	-0.00937640707611
2416	-0.0228055387663
2417	0.0233106229208
2418	-0.0677433112553
2419	0.0896087820456
2420	0.00837805910419
2421	-0.0162625938606
2422	-0.0170982960353
2423	0.0934460060716
2424	-0.00736628634132
2425	0.0130144314737
2426	0.00526493740417
2427	-0.0102907474587
2428	-0.0111699204485
2429	-0.0181514795295
2430	0.0211496942984
2431	0.0109212400021
2432	0.152679098222
2433	0.164163816922
2434	-0.000213174818282
2435	0.0207869122019
2436	-0.0346775631499
2437	0.00486563743115
2438	0.0124631491369
2439	0.0163126171992
2440	0.048831233066
2441	0.0165368285308
2442	-0.0185727507353
2443	0.0234886836893
2444	0.00556035355238
2445	-0.0103620728473
2446	0.00784253555968
2447	-0.0146525902544
2448	-0.00337933889023
2449	-0.0413816545637
2450	-0.0209575444668
2451	-0.0315853687885
2452	-0.0124630989942
2453	0.0127320627655
2454	0.0118616773798
2455	-0.0191933481644
2456	0.0246635626178
2457	0.0168013400384
2458	-0.00473412279813
2459	-0.0118603910732
2460	-0.0158097014918
2461	0.00384940580047
2462	-0.022892268223
2463	-0.0061097754408
2464	-0.0137183496813
2465	-0.0161296797993
2466	-0.000932997524039
2467	-0.00480417791407
2468	0.040179311181
2469	0.0170089327714
2470	-0.00692452720174
2471	-0.00200160241048
2472	-0.000573387480315
2473	-0.00245696465539
2474	-0.000833457826932
2475	0.00294480442545
2476	0.0109819744286
2477	-0.0146180582391
2478	-0.015773261979
2479	-0.0036822210181
2480	0.00683931841231
2481	0.0182087772966
2482	-0.0108036116777
2483	0.0240423811242
2484	-0.0106731787291
2485	-0.0208545497286
2486	-0.0167284367337
2487	-0.0154103859316
2488	-0.0149223150496
2489	-0.00781367233891
2490	0.0166374495575
2491	-0.0188701266915
2492	0.0164999288046
2493	0.0149889460478
2494	0.0874287385257
2495	0.0181162248716
2496	-0.00398235381125
2497	0.0123613082452
2498	-0.0063233368355
2499	0.0176414252158
2500	0.00130363948647
2501	-0.00786097284827
2502	-0.011935392506
2503	-0.0175983505026
2504	-0.0153365405162
2505	-0.0181944528482
2506	0.0066827566219
2507	0.0020704679277
2508	0.0179419259758
2509	0.0235284987658
2510	-0.0189525491724
2511	0.0094785221367
2512	0.00242058382109
2513	0.0602359671144
2514	-0.00168759698647
2515	0.00279101715528
2516	4.00722025294e-05
2517	0.000400441400002
2518	-0.0122800133793
2519	-0.0107922595448
2520	-0.00961928670236
2521	-0.0204442378952
2522	-0.0160124779939
2523	-0.00586786006902
2524	-0.0222998341173
2525	0.00308265089455
2526	0.00220678550705
2527	0.0480270535602
2528	-0.0184721032252
2529	0.011688506538
2530	-0.00775231797562
2531	0.00761469819251
2532	0.0182885107003
2533	-0.00802229712634
2534	-0.0160629487488
2535	0.022457619581
2536	-0.065179284093
2537	-0.0227072187993
2538	-0.018266358601
2539	0.0184292230731
2540	0.114266062714
2541	-0.0107206557667
2542	0.00442911604404
2543	-0.0136198792635
2544	-0.00913435569764
2545	-0.156267832558
2546	-0.0267427012178
2547	-0.0185397023384
2548	-0.0091281312287
2549	-0.0233094826928
2550	-0.00816980641815
2551	-0.00202029199378
2552	-0.00241918668262
2553	0.0914813266569
2554	0.00503290790993
2555	-0.0975016070192
2556	0.00983024778776
2557	-0.0315123391476
2558	-0.0159637159499
2559	0.0233349835809
2560	0.0656947344227
2561	0.0147359594222
2562	-0.017773437088
2563	-0.0156703464447
2564	-0.0161526614692
2565	-0.0279040924933
2566	0.0130843338831
2567	0.009080298839
2568	-0.00173232044252
2569	-0.0161807593417
2570	0.00800684368043
2571	-0.0209936832447
2572	-0.00695286033215
2573	-0.0205289574885
2574	0.0242681334287
2575	-0.0194407579479
2576	0.00304472255272
2577	-0.000114755531771
2578	0.0184560907771
2579	0.013628365636
2580	0.00614391858393
2581	-0.0224924147889
2582	-0.00908300014096
2583	-0.0172407828818
2584	-0.0205458108118
2585	-0.0338951067542
2586	-0.0160944770468
2587	-0.00586234379328
2588	-0.00258086161858
2589	-0.0217820908679
2590	-0.0261241623695
2591	-0.0534815583129
2592	0.00277662427905
2593	0.0151112642469
2594	-0.0221720114149
2595	-0.0257580791904
2596	-0.00460979946703
2597	-0.0198933435184
2598	-0.0968074334646
2599	-0.0192655726053
2600	-0.00765856124129
2601	-0.0182385784038
2602	0.00053654533667
2603	-0.0814525055017
2604	-0.0370826725054
2605	0.0125809987751
2606	0.00597057932454
2607	0.0247257222321
2608	-6.10669405281e-06
2609	-0.00591981365903
2610	0.0110167548837
2611	-0.0223201425882
2612	0.0367267557703
2613	-0.0120918437926
2614	-0.00873200458383
2615	-0.0190624390792
2616	0.0157490299547
2617	-0.00423810744453
2618	-0.0103798743273
2619	-0.45800110777
2620	-0.258679758733
2621	0.0121668654346
2622	0.000444482768397
2623	0.0177573495559
2624	-0.0635546074159
2625	0.00901555551523
2626	-0.0253090536141
2627	-0.0226492289771
2628	-0.0566045674559
2629	-0.0587092323699
2630	0.0130098298911
2631	0.0157363481769
2632	-0.00206059359748
2633	-0.35508499857
2634	-0.248625559553
2635	-0.015470046963
2636	0.0108100235591
2637	-0.0218742850484
2638	-0.0707951469728
2639	-0.00779532823012
2640	0.0242264750212
2641	-0.0187636992023
2642	0.0151994735237
2643	-0.0204937895424
2644	-0.0256092998558
2645	0.0120269073435
2646	-0.0124090778527
2647	0.0131932096172
2648	-0.0168316930576
2649	0.00175900445587
2650	-0.115400005124
2651	0.0394100628502
2652	0.0410020605526
2653	0.014986667253
2654	0.0123753372783
2655	0.00447263618511
2656	-0.00602800802347
2657	0.071936753587
2658	0.00469045295484
2659	-0.0223041205558
2660	0.0104566103391
2661	-0.00457036911054
2662	0.00137736144653
2663	-0.0192849883735
2664	-0.00452714731134
2665	-0.0208805222983
2666	-0.0327750516458
2667	-0.042288270404
2668	0.00809061445083
2669	-0.0139731922207
2670	-0.00654260330765
2671	-0.0168807556426
2672	-0.0235536974866
2673	-0.00355029432981
2674	-0.00710818816452
2675	0.0102825951874
2676	0.0453353202428
2677	-0.0245551588501
2678	-0.0201737098945
2679	-0.0103652076315
2680	-0.0211875122584
2681	-0.000324421675651
2682	0.00615605698466
2683	0.0258322133051
2684	0.0217450555953
2685	-0.0198063253061
2686	0.0393324411892
2687	0.00329561819145
2688	-0.00917147962786
2689	-0.152254630665
2690	0.00452216288472
2691	-0.00927019935906
2692	0.0122445109335
2693	0.000152332967887
2694	-0.0223632628049
2695	0.0010139235189
2696	0.00451911594475
2697	-0.0405676800498
2698	0.0687089770671
2699	-0.000246509819863
2700	-0.00754555245282
2701	-0.00999318191488
2702	-0.0235527344467
2703	0.0163260351008
2704	0.00300008932094
2705	-0.0243962093533
2706	0.022487541943
2707	-0.0243578684016
2708	0.00843665890393
2709	-0.008257285689
2710	-0.0084553276573
2711	-0.011145015957
2712	-0.0365415614879
2713	-0.00610458495163
2714	-0.0158524170752
2715	0.00778039471925
2716	-0.0245002401916
2717	-0.0188430382161
2718	0.0191021292024
2719	0.065469081891
2720	0.0205840206285
2721	0.0043839210141
2722	-0.019848308122
2723	-0.164394931172
2724	-0.0184560604752
2725	-0.0154778119598
2726	0.0705440697176
2727	0.0173040065728
2728	-0.0373436878868
2729	-0.0209305082812
2730	0.0116492235441
2731	-0.0487587491607
2732	-0.00276246408552
2733	0.0194249861039
2734	-0.0167861946604
2735	0.0238093666112
2736	-0.0114523446293
2737	0.012748646708
2738	0.00388982342823
2739	-0.00183728916752
2740	0.00210811391839
2741	0.0120330845914
2742	-0.0402767860241
2743	0.0189094125547
2744	0.023295371336
2745	-0.0119682383463
2746	0.0244716453401
2747	-0.00536964847602
2748	0.0104355439107
2749	-0.0197297114303
2750	-0.00634233065336
2751	-0.000720566734293
2752	0.0166069512371
2753	0.0156886355024
2754	0.00791697391356
2755	0.00951556340152
2756	-0.0233028776572
2757	0.0118852924763
2758	-0.0142543081593
2759	0.0232841483695
2760	0.0154945745562
2761	-0.00284663521751
2762	0.00608485785607
2763	0.017101113725
2764	-0.0115145721581
2765	0.00399621173318
2766	-0.00210868149996
2767	0.00285692937316
2768	-0.0269735730404
2769	-0.00757077967246
2770	0.0643683063059
2771	-0.015052413397
2772	0.00544558527004
2773	-0.0161036930239
2774	-0.0226884248588
2775	-0.0181772410181
2776	-0.0158780352366
2777	-0.0152088321731
2778	0.00737133440438
2779	-0.0475323264469
2780	0.0242436480954
2781	-0.00946950657923
2782	0.00161356449254
2783	-0.048141186105
2784	-0.0102997124467
2785	0.0118913644454
2786	0.0106682194576
2787	0.0229588422424
2788	0.0221030727299
2789	0.0131348098014
2790	0.017288884141
2791	0.00590231153067
2792	0.00571842297204
2793	0.171294002855
2794	0.183349011536
2795	0.0204854898568
2796	-0.0152102443394
2797	-0.000533651148708
2798	-0.0756084589353
2799	-0.00508255490619
2800	-0.00519178108656
2801	-0.014919835452
2802	-0.014786690891
2803	0.0194255317052
2804	0.0744137266682
2805	-0.0129665685343
2806	-0.0199121178078
2807	-0.00190883813212
2808	0.0060064100331
2809	-0.0125377998911
2810	-0.0180520690349
2811	0.00718775043782
2812	0.0190897115614
2813	-0.0191245133827
2814	-0.0156944861287
2815	-0.0133603879571
2816	-0.0263410259601
2817	-0.00996092481619
2818	0.0177701357302
2819	-0.0167464034178
2820	-0.00422493287988
2821	0.00851999181369
2822	0.00625184449465
2823	-0.0069627523647
2824	-0.00422833041948
2825	-0.0487154286567
2826	0.0104471198268
2827	0.00368538407125
2828	0.00901964512853
2829	-0.025366825228
2830	-0.0107875652201
2831	-0.037131630599
2832	0.000624447736299
2833	0.0134884467164
2834	-0.0104862439767
2835	-0.0168157044867
2836	0.00166847995723
2837	0.00776603379647
2838	0.00704446879663
2839	0.019161344278
2840	0.0113002493986
2841	-0.0049452604714
2842	-0.0706710627043
2843	0.0222033314679
2844	-0.0572601920875
2845	0.0223271850643
2846	-0.0090522138932
2847	-0.0277998470166
2848	0.0161842189212
2849	0.00924271936836
2850	-0.0146975542471
2851	0.00717757838195
2852	-0.0463446830921
2853	0.0103619483937
2854	-0.0016552431735
2855	-0.0191938751839
2856	-0.0182704431333
2857	0.0134851267851
2858	0.0196985408756
2859	-0.0205225600849
2860	-0.0169389427688
2861	-0.0098861472601
2862	-0.0100334796036
2863	0.00156068922731
2864	-0.00685597964403
2865	0.0201390598631
2866	0.00501804615012
2867	0.0049255983568
2868	0.0231787331535
2869	0.0042190051921
2870	-0.00718949763499
2871	0.00772236682077
2872	-0.0689514009204
2873	-0.00699840263278
2874	-0.0024786727192
2875	0.00678937024565
2876	0.0110340717338
2877	0.000754744082502
2878	-0.00144612470203
2879	-0.0406736250622
2880	-0.00182211434971
2881	-0.0124168583133
2882	-0.0104136723728
2883	0.0240941180055
2884	0.0135336001747
2885	-0.0260415469554
2886	0.00715055843313
2887	-0.270267292536
2888	-0.000977999716377
2889	-0.0267589881512
2890	-0.101783075853
2891	-0.00815633848507
2892	-0.0573279408715
2893	0.0173892165271
2894	0.0141336448763
2895	-0.0947924779151
2896	0.0108942737791
2897	-0.146422544081
2898	-0.0118430394605
2899	0.172536701621
2900	0.191673578513
2901	-0.00900323449363
2902	-0.00656260066512
2903	0.0015532138959
2904	0.0187240813619
2905	-0.0369287873773
2906	0.00480186500657
2907	-0.0126442540526
2908	0.0233789968305
2909	0.0180206607752
2910	-0.0405483323241
2911	0.0159907456644
2912	-0.0114190479558
2913	-0.143830806915
2914	-0.00943236057487
2915	0.00965881601175
2916	-0.00918595692542
2917	-0.0208780406869
2918	-0.020831225005
2919	0.00743287142271
2920	-0.00538570880466
2921	0.0105199401416
2922	-0.00566802866776
2923	0.100954425573
2924	-0.0182861416632
2925	-0.0943297574058
2926	-0.00592163166654
2927	0.00372538841208
2928	0.109009808863
2929	-0.0138116080156
2930	0.0180326863961
2931	0.0134710138832
2932	0.00371236919179
2933	-0.00225905210896
2934	-0.0493229098204
2935	-0.00957783987982
2936	0.00436002618147
2937	-0.0154364157152
2938	0.00250578638084
2939	-0.00221150768754
2940	-0.00161430530832
2941	-0.013571831298
2942	-0.0142340696735
2943	0.0025255207043
2944	-0.0130742691566
2945	-0.0388484192128
2946	0.197794287263
2947	-0.0488303432426
2948	-0.0123793072217
2949	-0.0243215172258
2950	-0.179672121963
2951	0.0149896189556
2952	0.00214116350307
2953	0.0147254592546
2954	0.0128067371479
2955	-0.0014219536835
2956	0.0222208496475
2957	0.0233495871932
2958	-0.0202529804353
2959	-0.00949066346014
2960	-0.0182407573658
2961	-0.00851511647969
2962	0.00854381300224
2963	-0.0178850185085
2964	-0.0162346635053
2965	-0.0229404092715
2966	0.0111612601719
2967	0.0179367824913
2968	-0.0167878601565
2969	0.0050732267199
2970	-0.00949564974429
2971	-0.112162405746
2972	0.0107557827402
2973	0.0161590021183
2974	0.00452768952346
2975	0.017458695799
2976	-0.00126382876949
2977	0.0153789823467
2978	0.00440389495727
2979	0.018670465225
2980	0.0131549132629
2981	0.022961727799
2982	-0.023772987622
2983	0.0996468674583
2984	-0.0427190061187
2985	-0.00799821868151
2986	0.0160276677407
2987	-0.0218181212211
2988	-0.00254389716053
2989	-0.00605710529735
2990	0.00448391998679
2991	0.00128094872393
2992	0.0195995747523
2993	0.0253120412071
2994	0.00744556510427
2995	0.00206255826813
2996	0.00246193622746
2997	-0.0117076023948
2998	0.00432166717428
2999	-0.0159081253969
3000	-0.0155198474013
3001	-0.0407576921035
3002	-0.0177336779952
3003	0.0166886596643
3004	0.00124932876733
3005	0.0190704616095
3006	0.0117534754868
3007	0.00525754028359
3008	-0.00494575599747
3009	0.0206673404225
3010	-0.0018753313781
3011	-0.0130231390538
3012	-0.00801688101512
3013	-0.0141846191956
3014	-0.00455672591203
3015	0.00344324627257
3016	0.0147016785848
3017	0.0114593890495
3018	-0.0192013827696
3019	-0.0204650456409
3020	-0.0201209572071
3021	0.00267436217804
3022	0.000905447641473
3023	-0.00984804489601
3024	-0.0192807117061
3025	0.0144838173447
3026	-0.0285297057973
3027	-0.0439891798492
3028	-0.0180206628566
3029	-0.00703846273806
3030	-0.00742922975528
3031	0.0178982616609
3032	-0.0218214698083
3033	-0.0317340551392
3034	-0.0114064016598
3035	0.0223562614301
3036	-0.019220573387
3037	0.00110411990075
3038	0.00130839748721
3039	-0.00898520934688
3040	-0.00233701179334
3041	0.0211680471065
3042	-0.0143769761474
3043	0.0136856538344
3044	0.00513640533561
3045	0.0146946625262
3046	-0.0236404995805
3047	0.0505602857033
3048	0.018636019017
3049	0.0156710001517
3050	-0.0301835965427
3051	-0.00317568138717
3052	0.0137782024582
3053	0.00861628592785
3054	-0.00430345956196
3055	0.00301817996029
3056	-0.00890731546862
3057	0.00944033860306
3058	0.0197444944756
3059	-0.00282521700362
3060	0.00448706988474
3061	0.0224392327768
3062	-0.0118878186605
3063	-0.0112588698578
3064	-0.0400105360901
3065	-0.167424082107
3066	-0.0567656171731
3067	0.0241248232451
3068	0.000845735935753
3069	-0.00391404651995
3070	0.0604965224807
3071	-0.0127759965685
3072	-0.000997935266762
3073	-0.0370296079629
3074	-0.0140090885705
3075	0.00868462193672
3076	-0.0268526908849
3077	0.0106701856829
3078	-0.00533970236226
3079	-0.0187097307127
3080	-0.0265014238297
3081	-0.00617704344628
3082	0.014693346201
3083	-0.138115568852
3084	0.0195775762562
3085	-0.00610141726887
3086	0.00462231301171
3087	0.00998756405119
3088	0.0167151464635
3089	-0.024889868092
3090	-0.0210854801982
3091	0.000176068725875
3092	-0.00265644973019
3093	-0.00633755080384
3094	-0.019019048259
3095	-0.0159360283941
3096	0.0217047526479
3097	0.0998190059647
3098	-0.0164938269605
3099	-0.0198898021258
3100	-0.0532281465542
3101	-0.0503439792862
3102	0.00302206029656
3103	-2.21496852478e-05
3104	0.0112927908305
3105	-0.0761166617172
3106	-0.0120620934011
3107	0.0237549319403
3108	-0.0191981717534
3109	0.0215839995094
3110	0.0168607266209
3111	0.0360098472649
3112	0.0081562746292
3113	-0.0218699510819
3114	0.0206628179596
3115	0.0173075776453
3116	-0.000937935101595
3117	-0.00487654843783
3118	0.00451347619677
3119	-0.00491235185115
3120	-0.0250259906588
3121	0.0048814299801
3122	-0.00672250454245
3123	-0.00959443004022
3124	0.042035961056
3125	0.0119727209326
3126	-0.00782254834674
3127	-0.00365057490825
3128	0.0135357296353
3129	0.268559559289
3130	-0.0300682688885
3131	0.0659705548427
3132	-0.00797413087758
3133	0.00164227568737
3134	-0.0169247104409
3135	0.0139405662857
3136	0.01674336934
3137	-0.0248896588073
3138	0.0168512744238
3139	0.0227284040172
3140	0.0924232741501
3141	-0.00246187606235
3142	-0.0163070274825
3143	-0.0190788888213
3144	-0.0231417781724
3145	-0.0252716772514
3146	-0.00797416293519
3147	-0.0189820144351
3148	0.0243196322778
3149	-0.0201347786315
3150	-0.00362645842279
3151	0.0126178672054
3152	0.00599191709976
3153	0.00977210714272
3154	-0.0745124691153
3155	0.0163955938542
3156	-0.0545639939439
3157	-0.00146695540338
3158	-0.0403628667676
3159	-0.0114166894603
3160	0.0118293062353
3161	-0.0165847150632
3162	0.021629252005
3163	-0.00338229470003
3164	-0.0147162336868
3165	-0.0144861967833
3166	-0.0211238284442
3167	-0.0128706911948
3168	0.015377138896
3169	0.00987941945034
3170	0.013965052954
3171	0.0117825156586
3172	0.00751764069653
3173	-0.0165424221364
3174	-0.0142368692448
3175	0.0936796958577
3176	0.0234169962848
3177	-0.00813011515368
3178	0.0210906059282
3179	-0.0229491316694
3180	-0.0220099120025
3181	0.0209845906894
3182	-0.00486386920903
3183	-0.00947747991006
3184	-0.0022515990664
3185	-0.0365292033248
3186	-0.0019237487465
3187	0.000449934790711
3188	0.00202361215949
3189	0.0191117288374
3190	0.0232029744203
3191	0.0177816806856
3192	-0.0103711892312
3193	0.00928556420948
3194	0.0192512705671
3195	0.00776949365588
3196	-0.0155189889231
3197	-0.00451927193771
3198	-0.0186443132296
3199	-0.0169937583081
3200	-0.014299360701
3201	-0.0190592866066
3202	0.017168835182
3203	-0.0387515029832
3204	-0.0197861632477
3205	-0.00674017997532
3206	0.106215983225
3207	0.0768077294028
3208	-0.0181104881061
3209	0.0189135915155
3210	-0.0195598981424
3211	0.247646095839
3212	-0.00101222162377
3213	-0.0136432545319
3214	0.0223967781253
3215	0.0166661252852
3216	-0.0133575767877
3217	-0.00600089999777
3218	-0.00117935479449
3219	0.0136703720608
3220	0.021356949218
3221	0.022277905193
3222	-0.00804438199441
3223	0.0232564289573
3224	0.00678848399551
3225	-0.00161433560415
3226	-9.74472334785e-05
3227	0.170418727363
3228	0.0059214022311
3229	-0.0931371713466
3230	-0.0113419596627
3231	-0.0230256915462
3232	0.00859464212111
3233	-0.0111300249284
3234	0.0143742948836
3235	0.00790878046119
3236	0.00502402800337
3237	0.0208186916179
3238	-0.0232795647665
3239	-0.00791416689322
3240	-0.0137850315865
3241	0.022169686169
3242	-0.0229283854346
3243	-0.00818934509785
3244	-0.0042056764372
3245	0.0097116124285
3246	0.00520764138044
3247	-0.0121750204782
3248	-0.0215462800032
3249	-0.0317895623335
3250	-0.0248156500307
3251	-0.0143346522688
3252	-0.0105293918136
3253	0.0211141063822
3254	-0.0111915981904
3255	-0.00621006667606
3256	0.0163139616329
3257	0.014108368022
3258	0.0245277183083
3259	-0.0780681081185
3260	-0.0827733658302
3261	-0.198808749962
3262	0.0127258359839
3263	0.0182994607991
3264	-0.0397262021014
3265	-0.0121073042269
3266	0.0192550587807
3267	-0.0281762606434
3268	-0.0284397924563
3269	0.0201089797785
3270	-0.00560896180308
3271	0.00270062313503
3272	0.0103154651581
3273	-0.0732481403996
3274	-0.00178042094072
3275	0.0110894605544
3276	-0.0299573791295
3277	-0.0242302617051
3278	-0.0147419491091
3279	0.00794619425494
3280	-0.00535245807495
3281	-0.021064522429
3282	0.0106097376203
3283	-0.00200148434319
3284	0.00812025153067
3285	-0.013457083299
3286	-0.0124224934327
3287	0.00605416717199
3288	-0.0239342931127
3289	0.00567664936174
3290	-0.0108228059805
3291	-0.0127148378452
3292	0.0611576817229
3293	-0.022001264117
3294	0.00141189073244
3295	0.000691612589227
3296	-0.0211119562483
3297	3.22610715155e-05
3298	-0.0504762651265
3299	-0.0107721751771
3300	-0.00377115416592
3301	-0.0253098750105
3302	-0.00365827015757
3303	0.00537877064578
3304	0.0243007603542
3305	0.0157856653133
3306	-0.0115245977956
3307	-0.021308558861
3308	0.0103546596542
3309	-0.0020444480592
3310	0.00552695499583
3311	-0.0121290245343
3312	0.00955472665581
3313	0.0136734917639
3314	0.0175338130166
3315	-0.00102927317564
3316	0.0224856414824
3317	-0.023276699226
3318	0.00518030243009
3319	-0.00047218073924
3320	0.0124258674648
3321	-0.0212847614815
3322	-0.0106922988173
3323	4.7311482238e-05
3324	0.0225159316196
3325	0.00922704115568
3326	-0.00706690608359
3327	0.00972762256804
3328	-0.000856172704321
3329	0.00962829248645
3330	-0.01930910537
3331	-0.00742434779232
3332	-0.0623820925242
3333	0.801248525913
3334	-0.0174938980945
3335	-0.0106444977117
3336	-0.0208170957291
3337	0.00975674060419
3338	0.005239370415
3339	0.00771303180521
3340	-0.0132786250644
3341	0.0397954237793
3342	0.0899042358494
3343	-0.00459739837931
3344	-0.00646243668293
3345	0.0194499934054
3346	-0.0097853413052
3347	-0.0979423821469
3348	-0.054456116571
3349	-0.0201447902813
3350	0.0240604610612
3351	-0.00767799131045
3352	0.000286235318871
3353	0.0129243771405
3354	0.00222511749023
3355	-0.0355075855677
3356	0.0215546549772
3357	-0.000366646773418
3358	0.00331064891899
3359	-0.0120435718085
3360	0.0374861088722
3361	-0.0163848456775
3362	-0.0257360107506
3363	-0.00196150772673
3364	-0.00392566817612
3365	-0.00131680714515
3366	-0.0241798610596
3367	-0.0294944663934
3368	0.0710042918024
3369	0.0129021711168
3370	-0.00546739746331
3371	0.0111556192931
3372	0.0159667739317
3373	-0.0157885682135
3374	-0.0260013713827
3375	0.0171166763983
3376	0.00475022956553
3377	0.0163310241749
3378	-0.0101569571868
3379	-0.000188165007641
3380	0.00409661642264
3381	0.0245777593416
3382	7.06700324796e-05
3383	-0.0165436023825
3384	0.0164143451335
3385	-0.00658086831946
3386	0.00871122042279
3387	-0.018565885611
3388	0.0195257148535
3389	-0.0551907978568
3390	0.00579401439482
3391	-0.0308502718903
3392	0.0194110804052
3393	-0.0248488546846
3394	-0.0130391024181
3395	0.0246435912585
3396	0.0113788609326
3397	-0.00445862261785
3398	0.000559383834587
3399	0.0148356094098
3400	-0.0043264013231
3401	-0.00833049197391
3402	0.0030591764113
3403	-0.0175223296875
3404	0.00925099060204
3405	-0.0139214013516
3406	0.139732008868
3407	-0.00471566138763
3408	0.013201793816
3409	0.00835010284255
3410	0.0205396487649
3411	-0.0180781557026
3412	0.00759556853465
3413	-0.00761704530275
3414	-0.00536482551181
3415	-0.00368419605988
3416	0.0130096955479
3417	-0.000107835987706
3418	-0.012782578029
3419	0.00365272812421
3420	-0.00390936286519
3421	-0.0220632259414
3422	-0.0162941644084
3423	-0.0071372790705
3424	0.00180208337881
3425	-0.00735783889245
3426	-0.0245729721131
3427	0.00954568928562
3428	-0.000967043929755
3429	0.00454844519597
3430	-0.0380368149957
3431	0.00582173051154
3432	0.00410739740692
3433	-0.0209780522099
3434	0.0978454952281
3435	0.0177641377306
3436	0.0149895095416
3437	-0.04742904487
3438	0.0110135526047
3439	0.00451845050304
3440	-0.0145678669077
3441	-0.0178639311678
3442	0.00965856084617
3443	0.0135051565232
3444	-0.00377572611423
3445	0.0168384139354
3446	-0.00399457907097
3447	0.0154534497144
3448	-0.0250590527147
3449	0.00853517457104
3450	0.019170845155
3451	0.011387639534
3452	-0.0182602419444
3453	0.0106971949968
3454	-0.0251307707573
3455	0.0029893696999
3456	0.018236447816
3457	-0.0188774406698
3458	0.0242798327122
3459	-0.0245723747536
3460	-0.0417036600641
3461	-0.00492026859379
3462	0.0216420056653
3463	-0.0366889563576
3464	0.00177483307711
3465	-0.0775936389895
3466	-0.00400709083241
3467	-0.0100988574371
3468	-0.675704823206
3469	-0.262031504544
3470	0.000240207775829
3471	-0.000191609371479
3472	-0.0269856076571
3473	0.0147437162852
3474	-0.0532480594183
3475	-0.0216715766293
3476	-0.0380588951506
3477	-0.0307770590815
3478	0.0799438993539
3479	-0.0122417770211
3480	-0.00256379593395
3481	0.0104422906858
3482	0.00453547091112
3483	0.0119735864081
3484	0.0183090138406
3485	0.0199816313063
3486	-0.022207126485
3487	0.0156182249394
3488	-0.0109862048723
3489	-0.0211622754472
3490	0.0113675047061
3491	-0.0147236724326
3492	-0.122691051947
3493	-0.0262771173097
3494	-0.0126998952432
3495	-0.00719566114807
3496	0.0138730398757
3497	-0.0210409555927
3498	-0.0221470166043
3499	-0.0164035034561
3500	-0.0198292521461
3501	-0.0128439749533
3502	0.0195862430935
3503	-0.0135606876059
3504	-0.0126929467528
3505	0.00654912796198
3506	-0.0182850435186
3507	0.0515742243856
3508	-0.0239399897662
3509	0.0147764716154
3510	-0.0240956690332
3511	0.0130825877298
3512	-0.0155478898974
3513	-0.0352964786376
3514	0.0122834613666
3515	0.0208348762082
3516	-0.0785119661819
3517	0.00648026751461
3518	0.019065901849
3519	-0.00761208982607
3520	-0.0181849548072
3521	0.00970220396548
3522	-0.000476707126755
3523	0.132637279993
3524	0.0673858923117
3525	0.00519557627098
3526	0.00374325298889
3527	-0.0357651048117
3528	-0.0372596762899
3529	-0.0107727859056
3530	0.00346636340057
3531	-0.00819083623161
3532	0.0898599409608
3533	0.0170924501393
3534	-0.00670042764427
3535	-0.0104403757898
3536	-0.0784779661679
3537	0.0190895333419
3538	-0.00358472457667
3539	0.00189593794121
3540	-0.0223883669053
3541	-0.0224949937411
3542	-0.0290323813106
3543	-0.0252805336345
3544	0.0147084051737
3545	-0.035710004775
3546	-0.00687728759787
3547	-0.0241818336494
3548	0.0201103589111
3549	0.0153696858994
3550	0.00921378896175
3551	0.0228740123499
3552	0.0198374869002
3553	-0.00070791852777
3554	-0.00505203103073
3555	-0.0148030978326
3556	-0.00807605802025
3557	0.00438976456151
3558	-0.0214756904795
3559	0.00290144990041
3560	0.135974335588
3561	0.0774412983358
3562	-0.0242240840567
3563	-0.0212024173316
3564	-0.0370027445188
3565	-0.0197164543354
3566	0.00782410975199
3567	-0.0131870915717
3568	-0.0345927952153
3569	-0.0379643065909
3570	0.0115357572489
3571	-0.0214051795612
3572	0.0120217397729
3573	-0.0120598289709
3574	0.00577770243139
3575	-0.00479619760253
3576	-0.00103650254291
3577	-0.00903205961665
3578	0.0072502119844
3579	-0.0138228060286
3580	0.007386887246
3581	-0.0153357138719
3582	-0.102080470847
3583	0.0109042104988
3584	0.00196725764939
3585	-0.0133871218074
3586	0.011628449608
3587	-0.00583051921179
3588	0.0100686633708
3589	0.00264014166127
3590	-0.00361280920001
3591	0.00979023959592
3592	0.0151491124392
3593	-0.022563662142
3594	-0.0223726296805
3595	-0.0144964316499
3596	-0.00794148151615
3597	0.0199421332004
3598	-0.0249420188554
3599	0.016768143795
3600	-0.0234858560937
3601	-0.0400618523596
3602	0.0229244466176
3603	0.0114387687357
3604	-0.00993032129072
3605	0.0241611548808
3606	0.0197101665892
3607	0.00860447642991
3608	-0.00469731661308
3609	-0.114160607382
3610	-0.0217847250059
3611	-0.102517805445
3612	-0.0221312574578
3613	0.0224191777186
3614	-0.00120823410356
3615	-0.0139952441102
3616	-0.00748118785695
3617	-0.00305283664765
3618	-0.0213163583584
3619	-0.0443818066944
3620	-0.0139715561082
3621	-0.015713154443
3622	-0.00888321121482
3623	-0.00489455673635
3624	-0.0158614973587
3625	-0.00956360595973
3626	0.00833808450508
3627	0.0237330959564
3628	0.0101216180768
3629	0.00245462752969
3630	-0.0265074567249
3631	0.0224786599055
3632	-0.0232971047456
3633	0.0171340212256
3634	-0.00275679503055
3635	-0.00257857220289
3636	0.00945069547286
3637	0.0224803928347
3638	0.0210889952961
3639	0.00401658380282
3640	-0.0110647265415
3641	0.0110047739324
3642	0.0234174923993
3643	-0.0125175059437
3644	-0.0024882967024
3645	0.0156448973688
3646	0.0158134332211
3647	0.00965525508048
3648	-0.270999682539
3649	-0.00212145398396
3650	0.0151339877767
3651	0.0207853894715
3652	-0.00797763855033
3653	-0.00716935302143
3654	0.011790613416
3655	-0.0179081224445
3656	0.0207437574422
3657	-0.00703372062459
3658	0.00934743302288
3659	-0.0202710509459
3660	-0.0235945883675
3661	0.0233419186209
3662	-0.0122022430355
3663	-0.0041139395189
3664	0.0221509197405
3665	-0.00544995969336
3666	-0.0193563403092
3667	-0.0110552200689
3668	-0.00145456245935
3669	-0.0105417199675
3670	0.0074998271568
3671	0.0247814039469
3672	-0.0108306800312
3673	-0.0187580026152
3674	-0.0854878557962
3675	-0.118412721335
3676	0.02007541259
3677	-0.0218938003421
3678	-0.0221403075489
3679	-0.0201758622213
3680	0.00200550047329
3681	-0.00757361238616
3682	-0.0450134655103
3683	-0.021881767821
3684	-0.0215234907696
3685	0.0184265475887
3686	-0.0188214033896
3687	0.0026446572778
3688	0.0199561110974
3689	0.0274999629689
3690	0.0469536248784
3691	-0.0107821484816
3692	0.00617979477083
3693	0.00940845939991
3694	-0.100790040597
3695	-0.00606712285309
3696	0.00266897379139
3697	0.00236306006392
3698	0.00266205787666
3699	-0.00145012479473
3700	-0.00394409681081
3701	0.00560561458601
3702	-0.0106719276111
3703	-0.00727946121759
3704	-0.0298384397308
3705	0.00302094716481
3706	-0.0151810899813
3707	-0.0144224015638
3708	0.000556462964386
3709	-0.00771537841309
3710	-0.0103512534944
3711	-0.0193528388703
3712	-0.00182352588689
3713	-0.0191700775732
3714	-0.00883381946015
3715	-0.0483002676798
3716	-0.0118783506265
3717	-0.0189108164084
3718	0.00993934255955
3719	-0.0194967020868
3720	-0.00677094095353
3721	-0.0221080654196
3722	-0.00228652444875
3723	0.00153369904223
3724	0.0198549561483
3725	-0.00970927402285
3726	-0.0139014261969
3727	-0.000829182439948
3728	-0.0102494254205
3729	-0.00446487106653
3730	-0.0101798367894
3731	0.0233935433098
3732	-0.0129745265789
3733	0.0614893470077
3734	0.0376158667324
3735	-0.0223664275423
3736	0.00965457389258
3737	-0.0215774103416
3738	0.0166121005098
3739	0.00839689537976
3740	0.00408186335494
3741	0.00551136305775
3742	0.00747024500249
3743	-0.0181415789087
3744	-0.0063423160147
3745	-0.0130960893956
3746	0.0229332301292
3747	-0.000351347974228
3748	0.00335252249102
3749	-0.0142098732758
3750	-0.0236293553185
3751	0.00545137456989
3752	-0.0203412790429
3753	-0.0230453756656
3754	0.123186559708
3755	-0.0345757738064
3756	-0.0019226631566
3757	0.021120567316
3758	0.00524980701743
3759	0.017332027967
3760	-0.00373522667015
3761	-0.0249193104063
3762	-0.0169465544931
3763	0.0203657220736
3764	0.00932351363072
3765	-0.02815998726
3766	-0.0471546470269
3767	-0.0192593655544
3768	0.0146943200096
3769	0.017262312998
3770	-0.00678930491814
3771	0.0084727441485
3772	0.0138282745874
3773	-0.0228415021386
3774	-0.00675430876765
3775	-0.0160012526311
3776	-0.0217773195538
3777	-0.0174351057192
3778	-0.00280474889701
3779	-0.0233702751629
3780	1.74103667844e-05
3781	0.0175464389766
3782	-0.00974152543229
3783	-0.0240446310035
3784	0.00758657914915
3785	0.0147070966398
3786	0.0140815490377
3787	0.721036051428
3788	0.0215274754238
3789	-0.0190753228952
3790	0.00473605427379
3791	-0.00982426437562
3792	-0.00643502989868
3793	-0.03155638246
3794	-0.0197630150428
3795	0.0139274976214
3796	0.000444332413578
3797	0.00616923038108
3798	0.0107646655518
3799	-0.0204218913412
3800	0.00502081999715
3801	-0.00478005164625
3802	-0.0225671571853
3803	-0.0137542506076
3804	-0.021605356601
3805	0.0210284418328
3806	0.0757599432051
3807	-0.0222484614688
3808	-0.0127860933825
3809	0.0091612510337
3810	-0.00598829683477
3811	-0.0211056976702
3812	0.00205693062608
3813	-0.0312561244234
3814	-0.0152234356995
3815	-0.0230504072933
3816	-0.0242345261979
3817	0.0124618810505
3818	0.00432516247491
3819	-0.0157828409439
3820	0.0116724712856
3821	-0.00489110630263
3822	0.00235454496083
3823	0.00913688410364
3824	-0.110637893818
3825	0.0103467107085
3826	-0.0160161368886
3827	0.0149721331135
3828	-0.0175628163947
3829	-0.0273572183308
3830	0.0183933780908
3831	-0.0190085502679
3832	-0.021992617879
3833	0.00688791234855
3834	0.00368678328698
3835	0.00164031561523
3836	-0.0225842320816
3837	0.019081211414
3838	-0.00954297316543
3839	-0.029592465431
3840	-0.0384433061495
3841	0.0172791408151
3842	-0.000917777031588
3843	-0.0159774886213
3844	0.00896727401718
3845	0.0209158533322
3846	-0.0279090409399
3847	-0.000620956435248
3848	0.00170114031428
3849	-0.0189590014235
3850	-0.0183219440926
3851	0.0167950016392
3852	0.0106618696489
3853	0.0188594657915
3854	0.0116115246009
3855	0.0222447699175
3856	-0.0195141637522
3857	-0.00119479568867
3858	-0.0175583486611
3859	-0.00853483908237
3860	0.00840589908219
3861	-0.0124788409211
3862	0.00565399229441
3863	0.00286694256662
3864	0.00739514924918
3865	-0.0544814194184
3866	-0.0133867337853
3867	-0.0152763291542
3868	-0.178933903689
3869	-0.00850079498208
3870	-0.0373450647592
3871	0.0094407488743
3872	-0.0163202356719
3873	-0.00706051630886
3874	0.0226231379269
3875	-0.015297667826
3876	-0.0228094015075
3877	0.00702017297682
3878	-0.0148153147675
3879	0.00359047084754
3880	-0.0135950667155
3881	-0.00238162389264
3882	0.0163786327096
3883	-0.00150420183246
3884	-0.0112459212109
3885	-0.0024861347011
3886	-0.00727819865277
3887	0.0114018868633
3888	0.0241486596483
3889	-0.036201268649
3890	-0.0386793348474
3891	0.00404577384094
3892	0.00743433950594
3893	-0.00212680707027
3894	-0.015123699566
3895	-0.045860855066
3896	-0.0077695523499
3897	-0.0245285059344
3898	-0.00582767144178
3899	-0.092914381878
3900	-0.0194728752126
3901	0.0140286618939
3902	0.013439887242
3903	0.0114904428732
3904	0.0069798201328
3905	-0.0213567824305
3906	-0.0234931665464
3907	-0.0242535965682
3908	-0.0107084897763
3909	0.00907491550823
3910	-0.019125287581
3911	0.0120975590552
3912	0.0136911202162
3913	-0.00955430241238
3914	0.000725067775863
3915	-0.0201274411576
3916	0.00905932311545
3917	0.00632760199604
3918	-0.0103602210061
3919	-0.00182329345606
3920	-0.022091105531
3921	0.0122793823275
3922	0.012044997534
3923	-0.0182528357933
3924	0.0124502239816
3925	0.0147930828378
3926	-0.00433920079159
3927	0.0201243257676
3928	-0.0203165585991
3929	-0.00993169233477
3930	0.0105233483853
3931	-0.0214557165313
3932	-0.139754456416
3933	0.0226593619961
3934	0.00868754130091
3935	-0.00433357631865
3936	-0.0383878689613
3937	0.0238759048772
3938	0.000779199400321
3939	0.00753873993643
3940	-0.0224164171387
3941	0.0100642674073
3942	-0.00124670934084
3943	-0.00153469428153
3944	0.0127940399129
3945	-0.0205334040104
3946	-0.134915492623
3947	0.0105507287862
3948	0.0167555301238
3949	-0.0211940318463
3950	-0.00534050508335
3951	-0.00718059048039
3952	-0.00675519407271
3953	-0.00179633545606
3954	0.0110953009399
3955	-2.77741522909e-05
3956	0.00916777341912
3957	0.0108532685627
3958	-0.00266658391514
3959	0.0168043849768
3960	-0.0063247374095
3961	-0.000447348167857
3962	-0.0240781868646
3963	-0.0145774241277
3964	-0.0117816845042
3965	-0.00169636580958
3966	-0.0244458012746
3967	0.00369252713098
3968	-0.00980495980735
3969	-0.00235948969955
3970	0.0110479696219
3971	-0.0231793298181
3972	-0.012245718992
3973	0.012871691245
3974	-0.00696803310736
3975	-0.0437083824439
3976	-0.0326021612769
3977	0.0158646209457
3978	-0.0218963990076
3979	-0.0150955463033
3980	0.0129557682876
3981	0.00389897957799
3982	0.0203934590393
3983	0.00518701106306
3984	-0.00631663132029
3985	0.00409418384879
3986	0.0101741295075
3987	0.0224119886657
3988	-0.162201187081
3989	0.0201939330976
3990	-0.0164563915445
3991	0.0163801290616
3992	-0.00257466641115
3993	0.0210866873476
3994	-0.0176913122863
3995	0.023894528139
3996	-0.0129231881452
3997	0.0528898203409
3998	0.0215774818455
3999	0.000158638231178
4000	0.00176909350769
4001	0.0107669106005
4002	0.00618790435562
4003	-0.0138788615325
4004	0.00775103822359
4005	-0.0433707818888
4006	0.00705260017782
4007	0.0215498925274
4008	-0.0190462901091
4009	0.0344930713558
4010	-0.00642722720784
4011	-0.0208260570403
4012	-0.005365916995
4013	0.0128813867772
4014	0.0042095598059
4015	0.00209139624434
4016	-0.00985859009995
4017	0.0142892094349
4018	0.00286408716058
4019	0.00416509059194
4020	0.0064416164944
4021	0.0768627293933
4022	-0.0103893649105
4023	-0.0281414543452
4024	0.146493098844
4025	-0.0164746142724
4026	-0.0466937710045
4027	-0.00606320866869
4028	-0.0133252363703
4029	-0.00399830411642
4030	0.00225290552594
4031	0.0190624719566
4032	-0.0999913397606
4033	-0.0180682728432
4034	-0.0357184628007
4035	-0.0146346367309
4036	-0.0111964135722
4037	0.00123728596515
4038	0.00253869592801
4039	0.018271421315
4040	-0.0186472955175
4041	0.0144267468231
4042	-0.0088490837299
4043	0.0225845502133
4044	-0.0311453152259
4045	0.0230349712047
4046	0.00807397062298
4047	-0.00883788131832
4048	-0.0226875035197
4049	0.00333441918998
4050	-0.00596994814116
4051	0.0121683704157
4052	-0.0164868722241
4053	-0.0186117619668
4054	0.0204482126414
4055	-0.00871218670042
4056	-0.0106408517347
4057	0.0228862546311
4058	0.00532017477948
4059	-0.00182682420969
4060	-0.0227769911817
4061	0.0221727818335
4062	-0.0210320724622
4063	0.0176671265997
4064	-0.0231142248557
4065	0.00856615022968
4066	-0.148462776645
4067	-0.0160344227376
4068	-0.00279554326778
4069	-0.00966553187755
4070	-0.0100709049147
4071	0.0174184512837
4072	-0.00853606098776
4073	0.0201260276725
4074	-0.023813492782
4075	0.00991248741628
4076	-0.022094812959
4077	-0.0163865660801
4078	0.0195007783544
4079	-0.0247476020622
4080	-0.0184050815616
4081	-0.0077048580313
4082	0.066929540464
4083	0.0173509959619
4084	-0.0197653414269
4085	0.00340801521945
4086	0.015035999892
4087	-0.0226837105063
4088	-0.0172335945572
4089	0.00334529681921
4090	0.0492290329144
4091	0.000354047807712
4092	-0.0121556910601
4093	-0.0160407727122
4094	-0.00592942967912
4095	0.0147369224215
4096	-0.0251826163167
4097	-0.0240096186719
4098	0.0229014764641
4099	-0.0114580326309
4100	0.0139033773662
4101	0.0203940579087
4102	-0.0110254411255
4103	0.00247521269753
4104	-2.9757772438e-07
4105	0.0175327998491
4106	-0.0124321387137
4107	-0.00758084437309
4108	-0.0225064592172
4109	0.0031582112405
4110	0.0241310274524
4111	0.000639501095493
4112	0.0122532639592
4113	-0.0159641692219
4114	-0.0110826312261
4115	-0.000922169160958
4116	-0.0163494641615
4117	-0.0217009075247
4118	-0.0127950018595
4119	0.00152741228063
4120	-0.00760493878553
4121	0.0227505975462
4122	-0.0160881281442
4123	0.0225665432491
4124	0.0710040847358
4125	-0.0292494356072
4126	0.00983006333941
4127	0.0240045820847
4128	0.0223792856265
4129	0.00201163201826
4130	0.0175057002757
4131	-0.0438965447891
4132	0.0107561249884
4133	-0.0068175016832
4134	0.00015670253007
4135	-0.000724422525931
4136	0.0161772275998
4137	-0.00789869360036
4138	0.00235961791635
4139	-0.0138406832806
4140	-0.0189745612926
4141	0.0218767298472
4142	0.00358127215774
4143	0.0123287053651
4144	-0.00835806488833
4145	-0.0199140728796
4146	-0.0148346144187
4147	0.0165759706939
4148	0.00136845689184
4149	-0.0250878074064
4150	-0.00620491960742
4151	-0.00695772901432
4152	-0.0054066077454
4153	0.000758398273468
4154	-0.0194125124201
4155	-0.0103188853662
4156	-0.00707814078707
4157	0.0169451186789
4158	0.0121199514414
4159	0.014561459426
4160	-0.00318682639299
4161	0.0128074361511
4162	0.0230024482358
4163	-0.0235451554643
4164	-0.0236728899455
4165	0.00650872195138
4166	-0.0010760701437
4167	0.0227354704628
4168	-0.0114887255474
4169	-0.0115412256755
4170	0.0235832157456
4171	0.0131067512169
4172	-0.0101073587462
4173	-0.018294779696
4174	-0.0211236244108
4175	0.00141997435332
4176	-0.0230834720934
4177	0.0139488439436
4178	-0.00550952146031
4179	-0.0170984041656
4180	-0.0169432205241
4181	-0.0172537090416
4182	0.0179319673909
4183	-0.0142645376788
4184	0.00703012702009
4185	0.0118368879207
4186	-0.180123514646
4187	-0.0230752475929
4188	-0.00171004856656
4189	0.00024941556469
4190	0.0218380730465
4191	-0.0639176333301
4192	0.00622125528676
4193	0.0238747424625
4194	0.00534445459643
4195	-0.0312840521365
4196	-0.00497603764377
4197	-0.00736859488246
4198	-0.000488804302182
4199	-0.0247006453788
4200	-0.00888485194055
4201	0.0229781997186
4202	0.0214228512043
4203	-0.00144479797654
4204	0.0213383967449
4205	-0.017382487475
4206	-0.0132353901752
4207	-0.020013222574
4208	-0.00334505640158
4209	0.0106604128288
4210	-0.0234700208831
4211	0.00404392223056
4212	-0.022723952551
4213	-0.00319809596404
4214	-0.016595172556
4215	0.00457063559497
4216	0.0163735486407
4217	-0.00350533227676
4218	-0.0192107479258
4219	0.00332837320093
4220	0.0116867341486
4221	0.000169708878701
4222	-0.00882750723163
4223	0.00607472336631
4224	0.0109051802487
4225	0.0823052852485
4226	0.0497405520356
4227	-0.0232247123338
4228	0.0180041843216
4229	0.0111597203248
4230	-0.0119536650332
4231	0.0108302397223
4232	-0.000127578786985
4233	-0.0293599433719
4234	-0.00576979921394
4235	-0.0487631549685
4236	0.00596585450851
4237	0.00606164808873
4238	-0.0183211422525
4239	0.0127289484428
4240	0.0154419061753
4241	-0.0155175452466
4242	0.0151654744264
4243	-0.0111793345748
4244	-0.017511787557
4245	0.011057669578
4246	-0.0242418947997
4247	-0.0274595357045
4248	-0.00323607239752
4249	-0.00857762435519
4250	-0.0164861208125
4251	0.0241532183156
4252	0.00339124669264
4253	0.0163653583908
4254	-0.0175286669009
4255	-0.0189134062559
4256	0.00260294636839
4257	-0.0235938909331
4258	0.0237880498427
4259	-0.00747151685106
4260	-0.00438226713297
4261	0.0125703340334
4262	-0.0153553050928
4263	-0.012938478272
4264	-0.0190971557232
4265	-0.0117986997416
4266	-0.00755969550019
4267	-0.00745441754311
4268	0.0135650287348
4269	0.00397800232056
4270	-0.0206408511685
4271	0.0161524007374
4272	-0.0160373142635
4273	0.0799668702704
4274	-0.0242725222528
4275	0.0083465697971
4276	0.000330318566972
4277	0.018142522426
4278	-0.0507690488486
4279	-0.0125037590055
4280	-0.021796369853
4281	-0.0104968092125
4282	0.0211115840109
4283	-0.00832710134474
4284	-0.0113902813923
4285	-0.0126554009389
4286	4.47921227489e-05
4287	0.0237834987815
4288	0.00615691959194
4289	0.010361885084
4290	-0.0195420804637
4291	0.0200611278674
4292	-0.00693675567905
4293	-0.0180664758157
4294	-0.0124886858273
4295	-0.0281846494615
4296	0.0144516638466
4297	-0.0517694179059
4298	-0.0050223321596
4299	-0.00525251734608
4300	-0.0139743015627
4301	0.00941367670994
4302	-0.00628826034819
4303	-0.000496270820861
4304	-0.00713429484664
4305	0.00398304055531
4306	-0.0164239933788
4307	0.00501295507003
4308	-0.0184254009757
4309	-0.00906568293892
4310	0.00479913209109
4311	0.0110459374825
4312	-0.0133471731181
4313	0.00162338423881
4314	0.00656599504655
4315	0.000933617268581
4316	0.0144708843182
4317	-0.00444541282313
4318	0.0211821510896
4319	-0.0484493822875
4320	-0.0151138520256
4321	0.0191229122661
4322	-0.0185642644748
4323	0.0110578964073
4324	0.0141132384908
4325	0.0135642822835
4326	0.015143739742
4327	-0.00362669169979
4328	0.00913454666598
4329	0.00639809036214
4330	-0.0241561899609
4331	0.000384306667658
4332	-0.0108787816065
4333	0.00817006116209
4334	-0.0209468227878
4335	-0.0192147428408
4336	0.179602781557
4337	-0.0219665544327
4338	0.000661995567194
4339	0.00162842722137
4340	0.0153512265603
4341	-0.00468771623441
4342	-0.0159757867364
4343	-0.00871194137652
4344	-0.0206296402401
4345	0.00773075109236
4346	-0.0216768463892
4347	0.00664606404966
4348	-0.00268553013873
4349	0.00684713320212
4350	-0.0176104140946
4351	0.0143790741868
4352	0.00356070225856
4353	0.0110938871939
4354	-0.0102654332018
4355	-0.0114675001206
4356	-0.00781328389746
4357	-0.00466993215626
4358	-0.0210353412548
4359	-0.0128753514607
4360	0.00250363066222
4361	-0.163466465388
4362	0.0239809276962
4363	-0.000453254499742
4364	-0.0149941421844
4365	-0.0155907656426
4366	-0.0103676457229
4367	0.0173479781879
4368	-0.059197301893
4369	-0.0502776527461
4370	0.00198419428825
4371	-0.0813287212482
4372	0.0187369000742
4373	-0.0155307023164
4374	-0.000696544862108
4375	-0.0122478623455
4376	0.0067186685806
4377	0.0168628036722
4378	0.00487840876406
4379	-0.0171962874855
4380	-0.000932036127668
4381	-0.0152395875952
4382	0.00200992668737
4383	0.10399427621
4384	-0.0112568480952
4385	-0.00601071215969
4386	-0.0203105942492
4387	0.00683891875076
4388	-0.0241255167815
4389	0.024223639298
4390	0.015960398629
4391	-0.0128991257241
4392	0.00171450338162
4393	-0.00896708384979
4394	-0.00728745981112
4395	-0.0157137003607
4396	-0.0134396149574
4397	0.010378825998
4398	-0.0222725128378
4399	-0.00216559086023
4400	0.0151762254114
4401	0.01036358406
4402	-0.0424093487564
4403	-0.0172047453182
4404	0.0125381016178
4405	0.00343432783802
4406	-0.0151830812359
4407	-0.00446238495665
4408	-0.00160153655775
4409	0.0751319909968
4410	-0.000275054959358
4411	0.0178677951858
4412	0.0241270248231
4413	0.00143944219103
4414	-0.00481944251955
4415	-0.00834157233812
4416	0.024265707435
4417	0.00823358773592
4418	-0.000195801996873
4419	0.136955093509
4420	-0.0210690632375
4421	-0.010449445126
4422	-0.0200538792119
4423	0.0115016414831
4424	0.00879129100587
4425	0.107541601486
4426	-0.00558138215837
4427	0.0247854891326
4428	0.00895560827734
4429	0.0132092363059
4430	-0.00457838471265
4431	0.020389064764
4432	0.0105491440491
4433	-0.00864726359567
4434	-0.0192693368138
4435	0.00112547779665
4436	0.00864176096912
4437	-0.00928643266745
4438	-0.0301391926447
4439	0.000645225684722
4440	-0.0190291998071
4441	-0.00466727655283
4442	-0.0199769949578
4443	0.0142641008128
4444	0.000863027937127
4445	0.0142876378351
4446	-0.45565566409
4447	-0.440643139481
4448	0.00757942375698
4449	0.00886039825555
4450	-0.00570269219216
4451	0.0206130680941
4452	-0.0131664336494
4453	-0.0169917283557
4454	-0.00469686676777
4455	-0.0112367301752
4456	0.0130604640382
4457	0.00114216283997
4458	0.00411049235524
4459	0.00673347321922
4460	-0.00962886717215
4461	0.0106447618646
4462	-0.00141465451527
4463	-0.00899206219093
4464	0.0163116672166
4465	-0.00395234075525
4466	0.0179418318548
4467	0.00443459458523
4468	0.00974957075969
4469	-0.00972529784572
4470	0.016846335194
4471	0.00100130872049
4472	0.0208926142859
4473	-0.00203557522197
4474	0.0193424896018
4475	-0.0231998590723
4476	0.000297712234614
4477	0.0199884674455
4478	0.0110988246968
4479	-0.00149152659788
4480	-0.0178892261147
4481	0.0123238379807
4482	0.0379781924545
4483	0.000508274082997
4484	-0.0135937542772
4485	0.0188427770856
4486	-0.0192336822482
4487	-0.0040999865333
4488	0.0209269983236
4489	0.103261297612
4490	0.000256302552043
4491	-0.0122792419924
4492	-0.00212120746681
4493	-0.00138652348795
4494	0.00539893695058
4495	0.0051200161585
4496	-0.0230435631025
4497	-0.0205751406183
4498	0.018457921849
4499	0.009801487602
4500	-0.00352105580738
4501	-0.0311933674505
4502	-0.0146321979272
4503	0.00471112581067
4504	-0.0147116013623
4505	-0.0120237267145
4506	0.0158457584819
4507	0.000175892243888
4508	0.00467885419641
4509	0.00824492371544
4510	-0.0238195105883
4511	0.0191265802846
4512	-0.000168999642808
4513	-0.00109228181109
4514	0.00472318544476
4515	0.0070213976071
4516	-0.0289336497689
4517	0.0137306697103
4518	-0.00598656547951
4519	0.020610649646
4520	0.00676453231011
4521	0.00945916644878
4522	0.0223204055138
4523	-0.00573569521771
4524	0.00666572990931
4525	-0.00759175400855
4526	0.00270500559871
4527	-0.0191187541941
4528	-0.0242656317013
4529	0.0210713716729
4530	0.0188821741771
4531	0.0169613979369
4532	-0.0176716007493
4533	0.0143810918557
4534	-0.0177949908778
4535	-0.0151867512946
4536	-0.022744861271
4537	0.000417652334985
4538	-0.000311701238278
4539	0.0207891852143
4540	0.0215085202594
4541	0.0109704470888
4542	-0.0178581272895
4543	-0.00812723870564
4544	-0.000550614112523
4545	-0.000578178879353
4546	-0.0045293723592
4547	0.00379760617695
4548	0.0178515219777
4549	-0.00565332956111
4550	-0.0203890942007
4551	0.0196866273145
4552	-0.00559920252162
4553	0.010364680224
4554	0.0103174963006
4555	0.00995983058504
4556	0.0241289979547
4557	-0.00771275407193
4558	0.0213820715853
4559	0.0631507188199
4560	0.00568966272973
4561	-0.00456377598038
4562	0.00303971884562
4563	0.00573006030525
4564	0.00672587339942
4565	-0.0348618082788
4566	-0.0009763589786
4567	-0.00129332250398
4568	-0.0107312614489
4569	-0.0492336581197
4570	0.0117016045542
4571	-0.0215695615471
4572	0.113770728659
4573	-0.00917830880753
4574	0.0132420415354
4575	0.0158859546394
4576	0.00493972468098
4577	0.00534237687117
4578	-0.00806035221681
4579	0.000336407277247
4580	0.0128064846204
4581	0.0804626886947
4582	0.00635640575772
4583	-0.00343994612196
4584	0.00919520693096
4585	-0.0031284056732
4586	-0.0249683505159
4587	-0.000972397130394
4588	0.0779283058078
4589	0.079284838735
4590	-0.00439771428249
4591	-0.0156838028793
4592	0.00579720801754
4593	0.160205844721
4594	0.00687062129357
4595	-0.019809698955
4596	0.0200240419062
4597	0.0242684540033
4598	0.0114148607181
4599	-0.00342035584365
4600	0.00663658514042
4601	-0.0184640928401
4602	0.019403930833
4603	-0.0147094700663
4604	0.0197874998676
4605	-0.0140363385126
4606	0.00992453414276
4607	-0.000838492266591
4608	0.0161154686107
4609	-0.0110863472915
4610	-0.0152256212195
4611	-0.00806916870797
4612	0.0076274410827
4613	-0.00990014597626
4614	0.00668796315637
4615	-0.0106410562091
4616	-0.0105693770485
4617	0.00231469079285
4618	-0.0247320148923
4619	0.0106645804586
4620	0.0146323244327
4621	0.00886198480824
4622	0.0022542938735
4623	0.00522924643023
4624	0.00880970833835
4625	0.00870473478783
4626	-0.00669696843901
4627	0.00610789216354
4628	0.00249729670018
4629	0.0019293970552
4630	-0.000865676221188
4631	-0.024575567248
4632	-0.011507595844
4633	-0.00760343266878
4634	0.0153589870793
4635	-0.0285204781873
4636	0.0216131765009
4637	-0.0201278028235
4638	-0.00358875933786
4639	-0.0139038307873
4640	-0.0148234376844
4641	-0.000111699061408
4642	0.0192941385954
4643	-0.0135383967663
4644	0.00989497875979
4645	0.0036424923941
4646	0.0150678353878
4647	-0.012970216749
4648	0.0201625569457
4649	-0.00430942137943
4650	-0.00727883553225
4651	0.00334523487968
4652	0.0195280030965
4653	-0.0190720473184
4654	0.00231541975086
4655	-0.0490830344232
4656	-0.00427760897395
4657	0.00419933081849
4658	0.0122808256206
4659	-0.0172711209168
4660	-0.0124023999803
4661	-0.00905351690121
4662	-0.00157828022358
4663	-0.0112150588584
4664	0.09479576088
4665	0.00159417718967
4666	0.00185421790886
4667	-0.0142598987253
4668	0.0104217083444
4669	0.0109381325668
4670	0.022575734164
4671	0.0172083743211
4672	-0.0184764780718
4673	0.00678260326097
4674	0.0203926640804
4675	-0.00483288127606
4676	-0.0220368097944
