0	-0.592160700718
27	-0.367519933024
28	-0.315876761062
29	-0.020254544005
30	-0.424969376427
31	0.0266461720922
32	-0.622235547765
33	-0.328603141464
34	-0.315847266696
35	-0.489155787712
36	-0.528217100975
37	-0.636476935219
38	-0.679566165238
39	-0.489184278228
40	-0.592160700678
41	-0.837733632768
42	-0.622286169525
43	-0.26798997633
44	-0.0654108185693
45	-0.375083068127
46	-0.567377067221
47	0.00291412574373
48	-0.298267238004
49	-0.114971084634
50	-0.258780603257
51	-0.121250270106
52	-0.406586658515
53	-0.410351190193
54	-0.410617160723
55	-0.204839367301
56	-0.356375936349
57	0.0440982397756
58	-0.0503471344246
59	-0.271725180721
60	-0.197274388905
61	-0.0553867657524
62	0.0069063025267
63	-0.093420328512
64	0.0857179464936
65	-0.102854826224
66	-0.0962359876565
67	-2.12717991283
68	-0.0189838159183
69	-0.0575314449884
70	4.28536508669
71	0.0107956607317
72	-0.354179081907
73	0.205230188276
74	0.0520725757348
75	0.244606551208
76	-0.417864206197
77	-0.588261031724
78	-0.417246160474
79	-0.222015343186
80	-0.27570753271
81	0.0687212329543
82	-0.130445022727
83	-0.0589520454914
84	-0.708081154323
85	-0.0163180904615
86	-0.00874458362591
87	-0.63625985013
88	-0.583692135863
89	-0.634953399275
90	-0.73878314039
91	-0.0450962223696
92	-0.0760027285974
93	-0.0212457252474
94	-0.146363592164
95	0.0533529937405
96	-0.086753835456
97	-0.101214783337
98	-0.617683212248
99	-0.372831719211
100	-0.0315656578941
101	-0.186951855783
102	-0.193642873746
103	-0.0372010066748
104	-0.0301850059317
105	-0.142099135243
106	-0.00134704258036
107	-0.268445669902
108	0.0932029301168
109	-0.37824901433
110	-0.309047212798
111	0.0516732768283
112	0.0161422106284
113	-0.212545526351
114	-0.111495611274
115	-0.773885370901
116	-0.0286543022069
117	-0.662511189084
118	-0.663594235763
119	-0.619837666969
120	-0.000211648609191
121	0.0132983340275
122	-0.0923057394148
123	-0.141993954671
124	-0.00702181106063
125	-0.29077741171
126	-0.183150817627
127	-0.0272168950355
128	-0.0286112590491
129	-0.136301604276
130	-0.18843748071
131	0.0505470853332
132	-0.023473978325
133	-0.21803648735
134	-0.159857715495
135	-0.068094631416
136	-0.0732271705784
137	-0.00707275428313
138	-0.470900958739
139	-0.240659594977
140	-0.0466101656778
141	0.0166844602362
142	-0.109843813273
143	0.227080723945
144	0.00301012115814
145	-0.200317627889
146	0.153026328016
147	-0.0378988335481
148	0.00228783482344
149	-0.142663772387
150	0.00399845018782
151	-0.0473746679005
152	0.0132045007081
153	-0.00524928865576
154	-0.0354130553872
155	0.0189233050702
156	-0.00658532816892
157	0.00840247792409
158	-0.00660375901296
159	0.00823842821244
160	-0.0268180190298
161	0.00547377311936
162	-0.0830313069642
163	0.0435670498511
164	0.0209514679357
165	-0.337866648711
166	0.00184263645642
167	-0.0245778957407
168	0.0017182170368
169	-0.127886608598
170	-0.0363488498578
171	-0.0205883174902
172	-0.567849078817
173	-0.018433397442
174	-0.434917548925
175	-0.0613583610232
176	0.049387414407
177	0.180268487529
178	-0.288765737522
179	0.00749857697629
180	-0.0188158929756
181	0.0751797440305
182	0.0763339137406
183	0.450633163575
184	-0.000215328311126
185	-0.246197386809
186	-0.243659679273
187	-0.00385420792704
188	0.000193005428924
189	-0.0170135744597
190	-0.43716036727
191	-0.111616896188
192	-0.0619457631392
193	0.00510403435347
194	-0.0245932726733
195	-0.00683715477713
196	-0.0253422139662
197	-0.321162050517
198	-0.0154850822334
199	-0.147082481409
200	-0.151133938098
201	-0.486568630634
202	-0.171981264997
203	0.00712556318412
204	-0.0681522633147
205	-0.0523573100273
206	-0.454573594178
207	-0.401751382741
208	-0.0105612229429
209	-0.135491979677
210	-0.0819068247639
211	-0.0732987577659
212	-0.40260135724
213	-0.402518366962
214	0.00699157525152
215	-0.0384034906434
216	0.0126105042996
217	-0.00763717104229
218	-0.301389995751
219	-0.00924554236619
220	0.0171825042774
221	0.00740047136422
222	-0.247290443666
223	-0.19197003451
224	-0.399266787678
225	-0.0264358730307
226	-0.197490976263
227	-0.197692607428
228	-0.00825831173715
229	0.00304771519962
230	-0.233442214057
231	-0.0179134995489
232	-0.018805249108
233	-0.022611087655
234	-0.138711875343
235	0.0134801602173
236	-0.307502149931
237	0.00958374107721
238	-0.0192487787401
239	-0.0175700081572
240	0.134984509008
241	-0.00595492802232
242	-0.0359969180455
243	-0.0391904962467
244	-0.0295221408868
245	-0.0445710656717
246	0.00527311090712
247	0.0014405687645
248	-0.00799386237512
249	0.0942244036286
250	-0.00171665971554
251	0.0198165178678
252	-0.084225848856
253	-0.0244132629327
254	-0.275049629101
255	-0.014422389647
256	0.00140078663114
257	-0.426994694833
258	-0.0426651064479
259	-0.529780056625
260	-0.547751457716
261	-0.0228571786956
262	-0.0501049822528
263	0.0160043915117
264	-0.0744722045471
265	-0.072826484013
266	0.0196146146215
267	-0.00861030348787
268	-0.250830884439
269	-0.00688522421375
270	-0.0952671735841
271	-0.0719989934535
272	-0.020297525737
273	0.0669138677499
274	0.0734795490814
275	0.00275950084633
276	-0.240638413723
277	-0.0858201135678
278	-0.0304979210677
279	0.0127954691948
280	0.0127342082183
281	-0.0103826403155
282	-0.137674717858
283	-0.076307091583
284	0.0194587009344
285	-0.123101540386
286	-0.135315336945
287	-0.10134779626
288	-0.133794617392
289	0.119759677481
290	0.00156944308251
291	-0.447293298627
292	0.0236908008074
293	0.0650140143346
294	-0.0471548760798
295	-0.0247989386366
296	-0.230241778171
297	-0.113081508531
298	0.0205140312061
299	-0.303075835237
300	-0.202794869495
301	-0.604123405458
302	-0.0091341680068
303	-0.0837707052588
304	0.0203870172711
305	-0.0711328195449
306	-0.0384002598451
307	-0.028035188345
308	-0.0132995313499
309	-0.0697146943317
310	-0.155344891061
311	-0.095695603227
312	-0.90900586579
313	-0.916806234838
314	-0.908320316602
315	0.0168434001241
316	0.276526483139
317	0.0140386233355
318	0.00241911801918
319	-0.0978178202037
320	-0.000930843791069
321	-0.138713406297
322	-0.0393294481149
323	-0.0216600057527
324	-0.299724321756
325	-0.324333443932
326	0.00626460554465
327	0.0715747566129
328	-0.0112397751829
329	-0.0196398656628
330	0.0056154811355
331	0.0176858617945
332	-0.0100545664232
333	-0.474294828212
334	-0.376983489854
335	0.00403853961586
336	-0.011391053181
337	-0.0266718166935
338	-0.019093989855
339	0.0270757070433
340	0.00769882348819
341	0.113729062562
342	0.140481477588
343	0.0949326646812
344	0.0677262874527
345	0.0126164788256
346	-0.0153604765879
347	-0.0338874513847
348	-0.0278678765329
349	-0.0205776324941
350	0.0902929473957
351	-0.0178050379311
352	-0.040558350174
353	0.0104788316693
354	-0.188437759148
355	-0.0762811382124
356	-0.0371163245574
357	0.0192471815785
358	0.0097071724101
359	0.249933848559
360	-0.225493650156
361	-0.156095314387
362	-0.0188194454186
363	0.0220098488991
364	-0.0351906224444
365	0.0524198533597
366	0.200240245782
367	-0.0143353948969
368	-0.0109956185974
369	0.00284927529305
370	-0.00564273888638
371	-0.01775315415
372	-0.0260294504759
373	-0.0747383301946
374	-0.0247329777659
375	-0.0238226251712
376	0.0119837669076
377	-0.0632561570032
378	-0.0939317019295
379	-0.0259229164145
380	-0.0443901288661
381	-0.00460455754043
382	-0.0463614246643
383	0.00495547024992
384	0.0188750377083
385	-0.0531601510204
386	-0.03909344654
387	-0.00817105780941
388	-0.336737380149
389	-0.0701106903959
390	0.0280935417274
391	0.00569656199721
392	-0.00414739978993
393	0.00107535648761
394	-0.00807317707341
395	0.169748671654
396	-0.01298497071
397	-0.0201762420904
398	-0.0533756731325
399	-0.0184112143071
400	-0.156299104288
401	-0.150718587579
402	-0.018944629008
403	0.138585733957
404	0.0290019213722
405	0.00906428599471
406	-0.220452953655
407	-0.0121110389786
408	0.00218514591322
409	0.0939175998734
410	-0.127060094467
411	-0.0749909892
412	-0.00043794775286
413	-0.00532424279448
414	-0.0177487918526
415	0.00361538513247
416	0.00585390381676
417	-0.0873486457726
418	-0.0155467136206
419	-0.133305851947
420	0.0061388880709
421	-0.174672087985
422	0.0166295490254
423	-0.0097389360058
424	0.0050457767063
425	-0.0204609545378
426	0.0579571736071
427	0.00616844506872
428	-0.0182783450093
429	0.169936078094
430	-0.161939386953
431	-0.0111966722545
432	-0.00362906367328
433	-0.148859959011
434	-0.158526716283
435	-0.161022429303
436	-0.00979770435546
437	-0.0793044842365
438	0.154376682082
439	0.40359107654
440	-0.00894806600141
441	-0.064073662535
442	-0.0906228178195
443	-0.0156714429549
444	-0.0681447108373
445	0.00622894029052
446	-0.00306237771994
447	0.0217777010893
448	0.0427703512063
449	-0.0417179816331
450	-0.00333870812745
451	-0.0104580744839
452	0.00771627855461
453	-0.0251046392397
454	-0.00338395030184
455	0.129995845587
456	-0.275568119614
457	-0.288965800278
458	-0.00698824991809
459	0.000831486383954
460	0.0133595607365
461	0.0195311653905
462	-0.0426281250056
463	-0.158442586924
464	0.0230025420066
465	0.113660838183
466	-0.0519858699265
467	0.00632904532712
468	-0.11631642889
469	0.0198755519825
470	-0.408266457736
471	0.189159358836
472	0.0480242435872
473	0.088641220233
474	-0.00345573161405
475	-0.0102253487233
476	-0.142420164185
477	-0.142371727041
478	-0.00604342790525
479	0.0978928118186
480	-0.0178375218389
481	-0.093286955969
482	0.371658330215
483	-0.0649158366294
484	-0.0113987333078
485	-0.158802748638
486	0.07279329637
487	0.00811584664529
488	0.0142626392352
489	-0.00722664921418
490	-0.345139939303
491	-0.17080285045
492	0.00091848081047
493	0.0109340472745
494	-0.0215980540624
495	0.0275386469254
496	-0.0899189638157
497	-0.170025728676
498	-0.00437753111305
499	0.0232902815479
500	-0.0156394833751
501	-0.0839847457011
502	-0.110563124186
503	-0.0173483207359
504	-0.488376523174
505	-0.0156358286189
506	-0.163886030002
507	-0.002216117485
508	0.0325849392291
509	-0.0606741155221
510	-0.0671832561855
511	0.00164288370485
512	0.252411356467
513	-0.00945760600526
514	0.0110886618665
515	0.0170108843625
516	-0.306789133067
517	0.00972522225835
518	-0.0218670393224
519	0.0172951235127
520	-0.0243334875657
521	0.0151561753476
522	-0.00561697484084
523	-0.0212816083267
524	-0.0190346633146
525	0.010650003093
526	-0.0224441492056
527	-0.0589006198383
528	-0.0259911910787
529	-0.0296406542758
530	0.0151557295405
531	-0.128976212955
532	0.00259059135681
533	-0.103843093703
534	-0.0214374865545
535	0.423842837958
536	-0.0768094687773
537	0.0162766778547
538	-0.0498778235408
539	0.0878013282587
540	-0.0248482517221
541	0.0241464717832
542	-0.419231304152
543	-0.0103451635307
544	0.00864363802391
545	-0.0818120497253
546	0.00687482954024
547	-0.0757558820931
548	-0.0145570341733
549	-0.000544050733777
550	0.31288954762
551	-0.0103476646534
552	0.19927342746
553	0.018855255253
554	-0.00773322619284
555	-0.0345261263403
556	-0.993381141483
557	0.0057598139603
558	0.186195032199
559	-0.0106061829213
560	-0.021741862306
561	-0.00739540712327
562	-0.133607358063
563	-0.0208131420268
564	-0.0242224943858
565	-0.255647002782
566	-0.129349218599
567	-0.0308756109204
568	0.223679228298
569	-0.0811465585491
570	-0.0103797701621
571	0.0125747825861
572	-0.0481588817366
573	0.23074805431
574	0.221286238534
575	-0.0134170167715
576	-0.0703995651133
577	0.00786920435022
578	-0.0735254639486
579	-0.00861409452375
580	-0.0938054447485
581	0.00832075122581
582	-0.034737460902
583	-0.0659802902833
584	-0.0236574743101
585	-0.0393791745341
586	0.00757529761468
587	0.0480673480012
588	0.0114214505661
589	0.0337614517291
590	-0.0100292171102
591	-0.207834988281
592	-0.0114236848932
593	-0.182485714604
594	0.0120864153894
595	-0.0900612131429
596	0.00370223737202
597	-0.141766456102
598	-0.0277251501133
599	-0.00240589739189
600	0.0533164787754
601	-0.0096483872469
602	-0.00988516643535
603	-0.084903606659
604	-0.0842511814495
605	0.00217125107889
606	0.00188912045076
607	-0.00971183577773
608	-0.0183459362767
609	0.0177931674147
610	0.00364915296164
611	-0.250777802261
612	-0.0237440840508
613	-0.193249273053
614	-0.0178820771607
615	-0.00224086635723
616	-0.00632993390976
617	-0.00633786702975
618	0.0134897512844
619	-0.0155492092762
620	-0.072582687069
621	-0.00817095799743
622	-0.00113577359236
623	-0.000510406342625
624	-0.00784695116971
625	0.0201395902465
626	-0.00153638486666
627	-0.106689120855
628	-0.00893044051345
629	-0.00151957706629
630	0.0241317295115
631	0.125653398796
632	-0.0132852724702
633	0.00309876770376
634	-0.0176556452155
635	-0.00551322056065
636	-0.0223005159144
637	-0.0163699037649
638	-0.00481085637841
639	-0.0721168315286
640	-0.00481441874505
641	0.120556227685
642	0.00929589030563
643	0.0158554117735
644	-0.160892199992
645	-0.149646941521
646	0.0120767309693
647	-0.24226988287
648	0.0136822935619
649	-0.0897995644574
650	0.0112009198504
651	0.0109059231825
652	0.00582300553978
653	0.0140562454789
654	-0.198675594783
655	0.0104184259904
656	0.00537094367271
657	-0.0668920948537
658	-0.0583980161007
659	-0.120379424441
660	0.0135046568716
661	0.0270862007513
662	0.019561081149
663	0.017995528583
664	-0.207413057959
665	0.0169869599505
666	-0.277495246819
667	0.175917674527
668	-0.0178897328132
669	-0.0168941703516
670	-0.0312952124115
671	-0.106792091787
672	-0.0174845385601
673	-6.55889472952e-05
674	-0.017845938819
675	-0.0129178101758
676	-0.0220892667436
677	-0.174472755983
678	0.0107004467968
679	0.0408295248343
680	-0.0115374568793
681	-0.0587506257603
682	0.00319605669987
683	0.000923073603846
684	-0.00704384820185
685	-0.00848899087402
686	-0.134420640125
687	-0.000682992092765
688	0.0161994221547
689	0.0152216940786
690	0.0473781290825
691	-0.0963063060955
692	0.0116540764177
693	0.0135115626536
694	0.11486398246
695	-0.0178946639961
696	0.00533555079847
697	-0.0913252381081
698	-0.0246999491063
699	-0.0050872933906
700	-0.0373527364464
701	-0.0222741148779
702	-0.174650105404
703	-0.0452205486522
704	-0.0235658767362
705	-0.173979519182
706	-0.0353967787128
707	-0.185350932387
708	0.00174673350863
709	0.0100569523912
710	0.0195174543368
711	-0.025491416705
712	-0.0227808319923
713	-0.0037282150654
714	-0.418313799442
715	0.184048292872
716	-0.0632498179445
717	-0.482134556432
718	-0.482207941101
719	-0.00797784496406
720	0.00372299488197
721	-0.0469573889743
722	-0.0095979200523
723	-0.0218290343003
724	-0.013890508725
725	0.0222605359856
726	-0.0116665532702
727	-0.170689442416
728	-0.725306291354
729	-0.345557949182
730	-0.0127198471077
731	0.0905290786285
732	0.0406789466147
733	0.0611608170829
734	-0.24784251893
735	0.495730504512
736	0.00174703481802
737	-0.0169892683663
738	-0.0251972971978
739	0.011644509488
740	-0.0562652430236
741	-0.00793525322186
742	0.0182944702316
743	-0.0238513395553
744	0.0195154308859
745	0.00809609233927
746	-0.0350542464705
747	-0.0401655729919
748	0.0126609584102
749	-0.0176677057411
750	0.00136391388417
751	0.00201307073477
752	0.0701364641385
753	-0.0315676433247
754	0.0203747099557
755	0.135415899683
756	-0.127297412538
757	-0.0945193533505
758	-0.0216368804041
759	-0.0684668412337
760	-0.0610338890754
761	0.0168376846218
762	-0.131196438742
763	0.0110560796259
764	-0.0374822638118
765	0.0852919650568
766	0.00790966922756
767	0.00263387473884
768	-0.0123391842315
769	-0.0860471070359
770	-0.0696587360117
771	-0.00133829601294
772	-0.529441774354
773	-0.0822384242347
774	0.004536315413
775	0.0879613703049
776	-0.00899147758287
777	-0.00119760470148
778	0.0791885571482
779	0.0436651764167
780	0.0570593227842
781	-0.00714986230187
782	-0.0391196825491
783	-0.0779326583983
784	-0.0913786000158
785	-0.0162034283698
786	0.0159166192591
787	-0.0861422684122
788	-0.00611101612343
789	0.0430934688953
790	-0.0123982919842
791	-0.00855726298446
792	-0.168661463448
793	0.0172230623722
794	-0.0240078151783
795	-0.250822022367
796	-0.0643276995013
797	-0.0165989955922
798	0.0187387585084
799	-0.02574343693
800	0.154182391783
801	0.0064035209638
802	-0.201486103766
803	-0.0158630174147
804	-0.101024414319
805	-0.0336600181547
806	0.00935756708413
807	-0.017186806518
808	0.059122314544
809	0.108644596173
810	-0.0160510776205
811	-0.117297423396
812	-0.0419350122927
813	0.00305322971762
814	-0.0473806817981
815	-0.0214724988665
816	-0.000759032567905
817	0.0207719543427
818	0.00410600725205
819	-0.0724045466819
820	0.00491764614431
821	0.123550342044
822	0.0227373742253
823	-0.0162121087924
824	0.00179991226835
825	-0.0234799230381
826	0.0123877836422
827	-0.0216591539681
828	0.00739289587928
829	0.0170543912671
830	-0.153019147988
831	0.0232980975473
832	-0.0639521287561
833	-0.00412279256983
834	0.0171155231021
835	-0.216314928933
836	-0.058016513032
837	0.016944140565
838	-0.00771437383691
839	0.00866425057553
840	0.0725609758511
841	0.292103653797
842	-0.0771771676103
843	0.00551501497194
844	-0.122192079595
845	-0.27207048844
846	-0.23835621047
847	0.00311873968804
848	0.00371791646404
849	0.0871957591161
850	0.0993132610865
851	-0.0250787954504
852	0.0424935538315
853	-0.0211949167362
854	-0.0120787980177
855	0.00492430256542
856	-0.272650470481
857	-0.23298749968
858	0.0160625204722
859	-0.0612954070993
860	-0.328707856708
861	-0.0152940219562
862	-0.0166157414301
863	0.00214194153606
864	-0.0151811992016
865	0.0121975841681
866	0.0251950480097
867	-0.0372691133231
868	0.000483070330017
869	0.0107672397917
870	0.0193003901932
871	-0.00655777077672
872	0.0142903615699
873	0.0293714100141
874	0.0159462164341
875	0.0222421017872
876	-0.12347885943
877	0.00984741088446
878	-0.119367813343
879	-0.179193259047
880	-0.00146615280914
881	-0.0758819424562
882	-0.0748635990894
883	-0.00754318265412
884	-0.00447837637154
885	-0.0371503723916
886	0.00914013598825
887	0.00175104913518
888	0.118210338131
889	0.000318055417449
890	0.0144843253483
891	-0.0617172181272
892	-0.0862939401217
893	-0.0140687319225
894	-0.0137520378201
895	-0.0231847805429
896	-0.119983190142
897	-0.0106339986955
898	0.0141954142925
899	-0.101514836687
900	0.0170498080688
901	-0.0342733616858
902	-0.252435148027
903	0.00479798622931
904	-0.086255230241
905	0.0828045005236
906	0.0339918003158
907	-0.00667478441953
908	-0.0389618354702
909	-0.0253058787242
910	-0.3487297519
911	-0.000228833338107
912	0.0160511411451
913	0.0284880639581
914	0.016132495872
915	0.00196631824351
916	-0.0241673885518
917	-0.0118981875977
918	0.0181107614671
919	-0.0120045409093
920	-0.0657802819697
921	-0.0182352180294
922	0.0962252105561
923	-0.0209103592211
924	-0.00763133013254
925	-0.0329718078944
926	0.00597276037505
927	0.0200523061844
928	0.0115485191278
929	0.0227358297396
930	-0.0428286028303
931	0.011901495493
932	0.0103030735473
933	-0.136063187054
934	0.00313125039191
935	0.0255384951939
936	-0.0238593359749
937	-0.0146436095827
938	0.0013803035281
939	0.0700050354957
940	0.404857653226
941	0.0176925084434
942	-0.103325022018
943	0.00772048572194
944	0.001897519912
945	0.0150915335701
946	-0.0060782896034
947	0.0202736623393
948	-0.103372658627
949	-0.0282620236562
950	0.0200086682532
951	-0.0431146355956
952	-0.0475516772606
953	0.0227367755255
954	-0.00785559562672
955	-0.00804624282686
956	0.0445765877463
957	0.0382451586743
958	0.0240108696044
959	0.178188044067
960	0.0213961734911
961	-0.0251595716434
962	-0.025572716122
963	0.000659299167216
964	0.084397377828
965	0.066230206486
966	0.00328102036807
967	-0.00392770366332
968	-0.0245176649847
969	-0.0220692893023
970	-0.00619003733145
971	0.00942009687943
972	0.0315352379777
973	0.0109388973089
974	-0.00764134567304
975	-0.106166270061
976	-0.0840564721359
977	0.0202785879557
978	-0.108711566119
979	-0.0935091934371
980	-0.0223841523903
981	-0.0264379565485
982	-0.0244368194223
983	-0.0141945598452
984	-0.362005616895
985	0.00833693817231
986	0.0921766327757
987	-0.0153068456447
988	0.0245906729826
989	-0.0535644598041
990	0.0164856238134
991	0.148269014974
992	0.0134029854855
993	0.0060333454346
994	-0.0217422397701
995	0.0127730797396
996	-0.0184725718416
997	-0.0376833057193
998	-0.0127579159579
999	-0.0217169336989
1000	0.00373503967811
1001	-0.0105962646591
1002	0.0843754468402
1003	-0.00278879226387
1004	-0.0188871785608
1005	0.0073693088953
1006	-0.00941568319182
1007	-0.0108591323598
1008	-0.15600226618
1009	-0.00439577016993
1010	-0.0048170456102
1011	-0.0409558352544
1012	-0.0127775291648
1013	0.0193186104334
1014	0.00295436039414
1015	0.0103739466051
1016	-0.00145591147502
1017	-0.0241188837863
1018	0.0180947221777
1019	0.00311477216045
1020	0.00214094920222
1021	-0.00197206206365
1022	0.0185997135068
1023	-0.000954715277437
1024	-0.125142878904
1025	-0.0378169712957
1026	-0.0186343536849
1027	0.00165600504786
1028	0.0160537302545
1029	0.0619561750505
1030	0.00848850617978
1031	-0.0245063026883
1032	-0.0198578452646
1033	0.06000375007
1034	-0.0233188670819
1035	-0.0705857337578
1036	-0.0462686547618
1037	0.00962300448632
1038	-0.122073627576
1039	-0.0407071561795
1040	-0.0237909660147
1041	-0.0120261445685
1042	0.012393285024
1043	0.0192548239509
1044	-0.00518181310537
1045	-0.0113193962634
1046	0.00504191743467
1047	-0.00392337896605
1048	-0.02432151671
1049	-0.048787548808
1050	0.0212231826408
1051	0.00770307726359
1052	0.010554279334
1053	0.0442096323117
1054	0.005334095154
1055	0.0214441359789
1056	-0.079541860653
1057	-0.00926495277053
1058	-0.0975340681778
1059	0.00431236094181
1060	-0.158514688064
1061	0.0171311348465
1062	-0.0569914425874
1063	0.00164431712376
1064	-0.00888276486738
1065	-0.0149541049844
1066	-0.0130881216521
1067	-0.300079101765
1068	-0.254474984222
1069	-0.533932386357
1070	-0.519231360557
1071	-0.00993980866451
1072	0.0171047714487
1073	0.0155098536458
1074	-0.113220614383
1075	-0.00577685373847
1076	-0.0420236021283
1077	0.00723525451415
1078	-0.00234117938279
1079	-0.0170893683695
1080	0.0197440471812
1081	-0.00326831788706
1082	-0.0474087053338
1083	-0.0302704811484
1084	-0.0169123586726
1085	-0.0138530194306
1086	-0.08086260484
1087	0.00754197739196
1088	-0.0420061059262
1089	0.0114086058937
1090	0.0133857326783
1091	-0.000243729706363
1092	0.00332184822141
1093	0.00509944523579
1094	0.0134761598646
1095	0.0102834128567
1096	-0.0415255334914
1097	0.000252516892741
1098	-0.0122872449568
1099	-0.0186614271512
1100	0.00819245216418
1101	0.00678200628433
1102	0.0127532095778
1103	0.000122857003371
1104	-0.00744748006436
1105	-0.0226243117759
1106	0.00705600490015
1107	0.00591125841473
1108	-0.0193951892701
1109	-0.0134289752266
1110	-0.00205178523533
1111	-0.0194921101025
1112	0.024390292629
1113	-0.0499155332753
1114	-0.0172779639465
1115	0.0104642435316
1116	-0.0223239832549
1117	0.400124669704
1118	-0.0077414001648
1119	0.0235997083492
1120	-0.119422450591
1121	-0.0260457521447
1122	-0.0177868098714
1123	0.0175766831992
1124	-0.0202198268562
1125	-0.0197610846057
1126	0.00369567607356
1127	0.00646310879124
1128	0.165103823589
1129	0.0202380065542
1130	-0.0172979777884
1131	-0.0122957032572
1132	0.0579588164597
1133	0.0861202502744
1134	0.0222039109839
1135	-0.0154916499696
1136	-0.00313350110352
1137	-0.0212271845854
1138	-0.00939100704465
1139	-0.0106830978029
1140	-0.373578746401
1141	-0.0252751367932
1142	-0.0250661667744
1143	0.029313366344
1144	0.00959592212669
1145	0.0051400530125
1146	-0.00480121291252
1147	-0.00402696987648
1148	-0.0103015524263
1149	0.0179774430196
1150	-0.0552420927899
1151	0.0176472175073
1152	-0.0257026196634
1153	0.00624347481507
1154	-0.0162937028848
1155	0.0201505365672
1156	0.142063616286
1157	0.0161268744008
1158	-0.0268504026164
1159	-0.0860928894347
1160	-0.0223552923318
1161	-0.241568676568
1162	0.0109976239915
1163	0.0139107891013
1164	-0.0198931099753
1165	0.00920836739685
1166	-0.00628799609535
1167	-0.00964999377368
1168	0.0196875825359
1169	-0.0106475060819
1170	0.10656198303
1171	-0.0102710874534
1172	-0.0244235182595
1173	0.027474342183
1174	-0.0163856289357
1175	-0.0252365795953
1176	-0.0181431476979
1177	-0.0821261565476
1178	0.0183013412227
1179	-0.0203645364597
1180	0.0180763044476
1181	0.0208615203907
1182	0.0237696838619
1183	-0.00676150562465
1184	-0.00434347930556
1185	-0.00955308855375
1186	0.0142271448034
1187	0.00898981326332
1188	-0.0200911069205
1189	-0.00477034838164
1190	0.0175664399802
1191	-0.0285734187824
1192	-0.0426119744975
1193	-0.0169372521715
1194	0.0132399700779
1195	-0.0705764258106
1196	-0.00897090123045
1197	0.019874319128
1198	0.0165916233269
1199	0.0957558465451
1200	0.00338031599951
1201	-0.0401700747281
1202	-0.00327600033791
1203	-0.235491732376
1204	-0.0177373237914
1205	-0.00591882340332
1206	-0.0215281503469
1207	0.0226739171002
1208	-0.0219962830421
1209	0.0105296628293
1210	0.189576113431
1211	0.0237960116242
1212	0.0177509201805
1213	0.00088048700273
1214	-0.0130333557952
1215	-0.0205100238304
1216	-0.170050377541
1217	-0.00915181889699
1218	-0.0346273790753
1219	0.0209621300466
1220	-0.00630735188178
1221	-0.157148099526
1222	-0.00246551287811
1223	-0.00916290700595
1224	0.0144323513499
1225	0.00330601225109
1226	-0.0243763276514
1227	-0.0625364990769
1228	-0.0018402410195
1229	-0.0122437200528
1230	-0.0034861613486
1231	-0.0596179351781
1232	-0.0313850833607
1233	-0.0104544105565
1234	0.0245814730764
1235	0.0617859682422
1236	0.00184467758082
1237	-0.0871215949695
1238	0.0180479593887
1239	-0.00217343297076
1240	-0.0112438924773
1241	-0.0675061807264
1242	-0.0292898925836
1243	-0.0177660547453
1244	0.0158398299992
1245	0.0143363170462
1246	-0.013134256947
1247	0.00521987998697
1248	-0.0154286413971
1249	0.0130975676346
1250	-0.0146224570849
1251	-0.0153980604059
1252	-0.0656966395548
1253	-0.0729550249163
1254	-0.0039321093801
1255	-0.0190285222709
1256	0.00976640334056
1257	-0.0172970810481
1258	-0.021067418577
1259	-0.169362464722
1260	0.0155056704873
1261	0.00729172174304
1262	0.00852150585342
1263	-0.012345647883
1264	-0.101257828764
1265	-0.0605525574462
1266	-0.0100904735089
1267	-0.00683606906085
1268	0.0131883200985
1269	-0.021678069149
1270	0.00704323233642
1271	-0.0105649358356
1272	-0.024619970913
1273	-0.00754449565274
1274	0.0155967667686
1275	-0.0232888490905
1276	-0.0212218591437
1277	-0.0073886271185
1278	-0.0033588294321
1279	-0.00493363777284
1280	0.00710702903362
1281	-0.00674290051381
1282	-0.133935686818
1283	0.023591010833
1284	0.0243209381095
1285	0.0152146289192
1286	0.00715333498556
1287	-0.0196855830885
1288	0.00550037332929
1289	0.00287611507383
1290	-0.104427803728
1291	-0.0148260423223
1292	0.00432294350956
1293	-0.000782779907036
1294	0.0170046520098
1295	-0.0873306876433
1296	-0.06832965481
1297	0.034183270892
1298	-0.0118598519769
1299	-0.00655878283971
1300	0.0113286168696
1301	0.0124346584299
1302	0.00940759455245
1303	-0.00415862806114
1304	0.000307608523219
1305	-0.000643551069658
1306	-0.0014513564384
1307	-0.0156911006811
1308	0.0442890730303
1309	0.0128240760467
1310	0.0110259230953
1311	0.0060022246995
1312	0.00195565229825
1313	-0.020440263236
1314	-0.0213706612922
1315	-0.020780852229
1316	-0.0560212485268
1317	-0.0144001843156
1318	-0.020564709548
1319	-0.0393211514617
1320	-0.0256460013992
1321	0.0164189641604
1322	-0.0225119453991
1323	-0.00455553663806
1324	-0.0652246542834
1325	-0.0116455152898
1326	0.0179079285873
1327	-0.0569559000342
1328	-0.0275201756022
1329	0.0176070580271
1330	-0.00850817690046
1331	0.0133950222538
1332	0.16325857036
1333	0.00135125852798
1334	-0.00949825953952
1335	-0.0159955224981
1336	-0.0429274312663
1337	-0.00457880497897
1338	0.00466704307698
1339	-0.0134368255895
1340	-0.00327661351009
1341	-0.0117837360522
1342	-0.0066337557409
1343	-0.0198535735287
1344	-0.0240775643184
1345	0.00961146433128
1346	-0.0129416150358
1347	0.140299748644
1348	-0.0178502905163
1349	-0.12822191595
1350	0.0208228410569
1351	-0.00191203097789
1352	-0.00552764393338
1353	-0.00341160362371
1354	0.00274476349322
1355	0.0212965804909
1356	0.0940831001078
1357	0.016218630995
1358	-0.0216311967819
1359	0.0016668602299
1360	-0.00599992649948
1361	-0.0129193034114
1362	-0.0609015377927
1363	-0.0216424801342
1364	0.0126526202477
1365	0.00187013755264
1366	0.0713511815565
1367	0.0122674722579
1368	0.0222936892018
1369	-0.0597165557014
1370	0.0184659409325
1371	0.00447808897093
1372	-0.0274651545202
1373	-0.0220156553838
1374	0.022741360345
1375	0.0175835019577
1376	-0.00365495312959
1377	0.104381823662
1378	-0.00886883158142
1379	0.178781966199
1380	0.0163065528731
1381	-0.00844388204401
1382	-0.010339819573
1383	-0.00984061940045
1384	-0.093537621252
1385	-0.0220036802889
1386	-0.0184904955951
1387	0.0178893720188
1388	0.0212303695475
1389	-0.0196533045497
1390	0.0157728645154
1391	-0.0213530158665
1392	-0.00905638455734
1393	-0.00337267201928
1394	0.0190239958176
1395	-0.0242448308529
1396	-0.00625657970604
1397	0.00048661620933
1398	-0.0220785867226
1399	-0.039041826552
1400	-0.0133335091953
1401	0.195217402655
1402	0.00783505516154
1403	0.0190542154821
1404	-0.0171348350879
1405	0.00816341371497
1406	-0.00521323693183
1407	-0.0053756999343
1408	0.00751580324642
1409	-0.0129189533994
1410	-0.00738108939852
1411	-0.024226983254
1412	-0.00563589127911
1413	0.0206770971369
1414	-0.00710712735078
1415	-0.0230289882638
1416	-0.0220739493491
1417	-0.111493637428
1418	0.00996084935228
1419	-0.0241416982707
1420	0.0235060999935
1421	0.0021133609404
1422	-0.0168657854417
1423	-0.024715415817
1424	0.0669547513804
1425	-0.0210190257369
1426	0.0201062550839
1427	-0.111044965229
1428	-0.0411462324047
1429	-0.0292083545353
1430	0.0207901765665
1431	-0.00194243883531
1432	0.00361348954834
1433	0.0243141264778
1434	-0.00748814634865
1435	0.0602563939783
1436	-0.00231477087717
1437	-0.0133442662174
1438	-0.0128393583574
1439	-0.0205931616266
1440	0.195374369452
1441	0.095998877648
1442	-0.00168942955929
1443	-0.00291639685685
1444	0.0175967174494
1445	-0.0100564501108
1446	-0.0152286926779
1447	0.0165960773421
1448	0.236022927685
1449	0.0926862946911
1450	0.0596881824211
1451	-0.00908933725018
1452	-0.00988477850782
1453	0.0166507580474
1454	-0.00309708415588
1455	0.0240999239619
1456	0.0129015364228
1457	0.00589169659242
1458	-0.00794703188948
1459	0.00174511964936
1460	0.00241823924354
1461	-0.00234457759167
1462	-0.019942795176
1463	-0.00927050404568
1464	9.66537185891e-05
1465	-0.010794054115
1466	0.00150761758468
1467	-0.107059283044
1468	0.0148085603539
1469	-0.036834444645
1470	-0.0112252304399
1471	0.0121127484983
1472	0.021289503118
1473	0.080816094579
1474	0.000479756531165
1475	-0.0149931613675
1476	-0.023136432444
1477	0.00327693091729
1478	-0.185877476124
1479	0.00656310399711
1480	0.00365396099096
1481	0.0206504098359
1482	0.0108729514921
1483	-0.0285544283894
1484	0.0185718047606
1485	-0.0268451024266
1486	0.0138310622739
1487	-0.0246701615404
1488	0.0115989853638
1489	-0.136513063627
1490	-0.101965831017
1491	0.0190368399853
1492	0.0153368393633
1493	0.126501782556
1494	-0.0204994883036
1495	-0.0250093689547
1496	-0.0901069820327
1497	-0.024060452836
1498	0.0227188500964
1499	-0.158281203669
1500	-0.00866155455839
1501	-0.0541202988873
1502	-0.00635804312477
1503	0.0156693328956
1504	-0.0963490095016
1505	-0.00479408939391
1506	-0.0535621590229
1507	0.00494251461055
1508	0.00680712589167
1509	-0.0187191659779
1510	0.00938147561268
1511	-0.0621900340615
1512	-0.0175317932607
1513	0.0137073815341
1514	-0.0185943792247
1515	0.00515940768775
1516	0.010799650874
1517	0.0220831276855
1518	0.0597347299577
1519	-0.01010520831
1520	-0.0136412512093
1521	-0.00626558296376
1522	0.0235749628588
1523	0.0192099940386
1524	-0.00715355841374
1525	-0.0916152123186
1526	0.0204414207759
1527	0.0186157341256
1528	-0.044809838807
1529	-0.0313795341754
1530	0.0242675418858
1531	-0.013848020149
1532	0.0211872303758
1533	0.00328184225324
1534	0.000812036655394
1535	-0.00711433557368
1536	0.0146048277208
1537	-0.119375000453
1538	-0.0245979688244
1539	-0.051365371038
1540	-0.0715928728215
1541	-0.0142899494966
1542	0.101373588093
1543	-0.00426915821805
1544	-0.00784386508075
1545	-0.0063092604796
1546	0.032638873858
1547	-0.0158312162132
1548	0.000873794949705
1549	-0.00240462454623
1550	-0.0584201005403
1551	-0.00660032944777
1552	-0.00156791826191
1553	0.00911120549768
1554	0.00369938369838
1555	-0.012977291457
1556	-0.0199716048551
1557	0.124198371686
1558	0.0172444068909
1559	-0.0107090999077
1560	-0.00623481711921
1561	0.00981683969012
1562	-0.00105878261727
1563	0.0124614082941
1564	0.0174846502218
1565	-0.00648729405433
1566	0.0227445576875
1567	-0.0115971634911
1568	-0.0175899285115
1569	-0.0131454110432
1570	-0.019051218833
1571	0.00395106474782
1572	-0.000476526358912
1573	0.0142561038408
1574	-0.00301670607812
1575	0.0158490999827
1576	0.00294876645355
1577	-0.00888261652749
1578	-0.0107452930747
1579	-0.00590640450938
1580	-0.0257626974522
1581	-0.432846773406
1582	-0.154173755929
1583	-0.0150160537237
1584	-0.00768712017361
1585	-0.0174655964295
1586	-0.0118391833258
1587	-0.0391961429108
1588	0.014270124848
1589	-0.0358785808867
1590	-0.0352842437047
1591	-0.034172188189
1592	-0.0204812971494
1593	0.0121622129288
1594	-0.0126015575741
1595	0.02281655082
1596	-0.00913901059519
1597	-0.0234542957463
1598	-0.00596192055412
1599	-0.00219242327637
1600	-0.0393216889152
1601	-0.03684360039
1602	-0.00976251061933
1603	-0.00576261486407
1604	0.0535532396569
1605	0.0123362042223
1606	-0.0003708751989
1607	-0.0239955260784
1608	0.000725255808936
1609	0.00159045736578
1610	0.000719885286064
1611	-0.0064849897823
1612	0.00373604343727
1613	-0.00643401617101
1614	0.0224328627645
1615	-0.149897556861
1616	0.0214259398118
1617	0.126217964098
1618	-0.0062281579418
1619	-0.125172458615
1620	-0.000185875782729
1621	-0.00877045321694
1622	0.0107006965559
1623	-0.0229748628836
1624	-0.0181955316672
1625	-0.02927784252
1626	-0.00510102947281
1627	-0.00179277594221
1628	-0.00740500782422
1629	-0.145722958742
1630	-0.0213121578173
1631	-0.230627779856
1632	-0.228176527715
1633	-0.0151658989545
1634	-0.0273151357544
1635	0.0229000516489
1636	-0.0280405378062
1637	-0.00573147068732
1638	-0.00161948835245
1639	0.0225601963151
1640	-0.048572191056
1641	0.0152684113288
1642	-0.0152493463426
1643	-0.012482768658
1644	-0.00894133457967
1645	0.00371097625394
1646	-0.0591079064377
1647	0.0122166926268
1648	0.0181894960947
1649	-0.0227875831254
1650	0.00224870224874
1651	-0.00378527152426
1652	-0.010627838304
1653	0.0118575283088
1654	-0.0213115548649
1655	0.00721930024564
1656	-0.0170111540422
1657	-0.0229293223428
1658	0.000111376480931
1659	0.0109520246805
1660	0.000147333206161
1661	0.0196713255903
1662	0.167490320286
1663	0.00125844167574
1664	0.0106746358991
1665	0.0160727661777
1666	-0.00772156237834
1667	0.0134816985923
1668	-0.0239183771604
1669	0.172640376505
1670	-0.0165378190054
1671	-0.00536284496294
1672	-0.0185542823851
1673	-0.0198076413423
1674	-0.0206450772624
1675	0.0215796327471
1676	0.0217785713923
1677	0.0211731975572
1678	0.00293775317974
1679	-0.0182897288274
1680	0.00622701929572
1681	0.0195750865643
1682	0.0793978920906
1683	0.0669479763836
1684	0.00941246503051
1685	0.0137686410992
1686	-0.00414547023022
1687	0.0021364592043
1688	-0.0663395015182
1689	0.000990720793553
1690	0.0189532486915
1691	-0.0129168573525
1692	-0.016456091275
1693	0.0101729686573
1694	0.0142150825433
1695	0.0212704758817
1696	-0.0368869224716
1697	-0.00656951931541
1698	-0.0137602282416
1699	0.00214879756856
1700	-0.0113233759252
1701	0.00955140123418
1702	-0.0013828818727
1703	-0.0106531129929
1704	0.00393905016046
1705	0.0209286208535
1706	-0.00818236051977
1707	0.0107898849466
1708	-0.00848009423006
1709	-0.0145038417064
1710	-0.011415975686
1711	0.0441318132369
1712	0.0151933087455
1713	0.00855649576733
1714	0.00789491261712
1715	0.00755972852202
1716	-0.00530113895372
1717	0.0131464862338
1718	0.00507473428213
1719	0.00259977101512
1720	0.0138285615399
1721	0.00390270458243
1722	-0.0618763388658
1723	-0.021527288432
1724	-0.0245387599791
1725	-0.00596458859865
1726	-0.0171303830988
1727	-0.022620400697
1728	-0.0120962443768
1729	0.0561912191397
1730	0.0118028504644
1731	-0.00892176436451
1732	-0.122744857607
1733	-0.00703510802861
1734	-0.011204555191
1735	0.0248310916374
1736	0.0195190233376
1737	-0.109218040795
1738	-0.0223056091428
1739	0.00384570922224
1740	0.0160537209982
1741	0.0159333561027
1742	0.00693157200965
1743	0.0173259568633
1744	0.00453618531768
1745	0.000143375478922
1746	-0.0243781264841
1747	0.0160036245044
1748	-0.0163795049519
1749	-0.00847289632852
1750	-0.00669445101501
1751	-0.029422454928
1752	0.0213479288911
1753	0.0241842441094
1754	-0.0204782775467
1755	0.0146330791792
1756	-0.00708527435329
1757	-0.0223772954527
1758	-0.00712482365132
1759	0.0255857641391
1760	-0.022584037064
1761	0.0199740665041
1762	0.00895930174517
1763	-0.0142926002679
1764	-0.0445542981713
1765	0.00688196630386
1766	0.00407794706101
1767	-0.0165543803801
1768	-0.0201244988894
1769	0.0223010001068
1770	-0.0429033280179
1771	-0.000876138287211
1772	-0.0244964526669
1773	-0.0118707323461
1774	-0.00366179136363
1775	-0.00736963287856
1776	-0.0242128643604
1777	-0.00800181111354
1778	0.000500518203585
1779	0.020827484069
1780	0.00218425111773
1781	-0.116447799778
1782	-0.0148030017858
1783	-0.00512913319189
1784	0.0023968963601
1785	-0.0218419235406
1786	0.0141645548097
1787	-0.0160146805865
1788	0.0228611817639
1789	-0.037715787727
1790	0.00276416591496
1791	0.0213615365188
1792	0.00265727372977
1793	-0.00401257263136
1794	0.0984787011284
1795	0.0864374154783
1796	0.00240159609199
1797	0.0152082756297
1798	-0.0226676776011
1799	-0.0185547496103
1800	-0.0244783435189
1801	0.00670453823205
1802	0.0161647731168
1803	0.00546904624811
1804	-0.00292734551542
1805	0.0102671554749
1806	-0.0253738910886
1807	-0.0216381954857
1808	-0.012372371421
1809	-0.0133967107635
1810	-0.019488985695
1811	0.0248521950722
1812	0.00781247156651
1813	0.0101778565869
1814	0.0132679696184
1815	-0.0244822679946
1816	-0.0204183520186
1817	-0.0227229897316
1818	0.0958971649287
1819	0.0169100548962
1820	-0.0295317684636
1821	0.0816144590156
1822	0.0225865283083
1823	0.00894767092268
1824	-0.0227807433582
1825	-6.22049383006e-05
1826	-0.00766625139615
1827	-0.0711611039271
1828	0.0239924645987
1829	-0.0648247000447
1830	-0.0131431947522
1831	-0.0206637974135
1832	-0.867855193538
1833	-0.284905541371
1834	0.00954047297019
1835	0.0138178261194
1836	0.161505501291
1837	0.102738486205
1838	-0.000805880677219
1839	0.00517164476484
1840	-0.0164003695932
1841	-0.0214183914036
1842	0.0186367987197
1843	0.0219051741765
1844	-0.018896716526
1845	-0.0185317157151
1846	-0.00477192761129
1847	0.0107208033164
1848	-0.00113940068509
1849	0.0164818848017
1850	0.00717862594494
1851	-0.0018777075668
1852	-0.0238854198828
1853	0.0124459296351
1854	0.084691195038
1855	0.102576429767
1856	-0.0161346936375
1857	-0.0145661884564
1858	0.00505978111255
1859	-0.0305676966643
1860	-0.0148547486185
1861	-0.0429850205167
1862	-0.00848866845331
1863	0.0110568235794
1864	0.0175292845606
1865	0.0757139675673
1866	0.00871277539283
1867	-0.0189238835763
1868	-0.000509135082574
1869	-0.024570315786
1870	0.0701235637206
1871	0.00187308583497
1872	-0.00488510342514
1873	-0.0167548375466
1874	-0.00414651146818
1875	-0.00505111455145
1876	0.0157172812086
1877	-0.207862090223
1878	-0.00194492038057
1879	-0.0446631627271
1880	-0.0555905532116
1881	-0.00754024602281
1882	-0.00218162539345
1883	-0.0759567357291
1884	-0.0797497490789
1885	0.0108911596488
1886	-0.0151332523631
1887	0.0206345110322
1888	0.0203458118737
1889	-0.00164313890741
1890	-0.0150582343144
1891	0.0118923507397
1892	0.0210614144347
1893	0.0210541300273
1894	-0.0414280056045
1895	-0.0374556434627
1896	-0.00755552641616
1897	-0.030431557919
1898	-0.0214012425667
1899	-0.0227984825332
1900	0.0419854923637
1901	-0.0214838725258
1902	0.0164960128535
1903	-0.000297929599852
1904	-0.014035690731
1905	-0.00577358688286
1906	-0.00466535930183
1907	0.00543068857948
1908	-0.00307450123558
1909	-0.030747838534
1910	-0.000836782721224
1911	-0.00189658227819
1912	0.0205352905969
1913	0.0153691528946
1914	-0.0249833412291
1915	0.00461951761822
1916	0.0483947124199
1917	0.00205006136213
1918	0.0231331209241
1919	-0.0143593995782
1920	0.0341710935795
1921	-0.011010190024
1922	0.0726114177632
1923	-0.019306150794
1924	-0.00975774943389
1925	-0.0134611104316
1926	-0.0211488005437
1927	-0.0226549352418
1928	-0.0566302825133
1929	0.00741884789659
1930	-0.0249276537466
1931	0.00898109928612
1932	-0.00313267458361
1933	0.013957936738
1934	-0.0150202770602
1935	0.0108995276416
1936	-0.0314279837012
1937	-0.0159091979266
1938	0.0211270002354
1939	-0.00218327295772
1940	0.00193242212245
1941	-0.0114938582737
1942	-0.022794948749
1943	-0.0224441185551
1944	-0.0246824647817
1945	0.0114439035649
1946	-0.00657033337591
1947	-0.00819903727888
1948	-0.0128328171573
1949	0.0242382202288
1950	-0.0226614870177
1951	-0.0148346198489
1952	-0.136267048565
1953	0.00846721665499
1954	0.010389028276
1955	0.0190995872711
1956	0.00288198943253
1957	-0.00755926068885
1958	0.0088409370441
1959	-0.00610372597121
1960	-0.00295079562198
1961	0.0141705561793
1962	0.0173500098013
1963	0.00419994199801
1964	-0.0189036422674
1965	0.00689831265793
1966	0.0148646473817
1967	0.0145274376958
1968	0.0771987240778
1969	-0.0978991918424
1970	-0.00945985090332
1971	-0.0254192867447
1972	-0.00137171501805
1973	-0.00482977744787
1974	-0.0127178786001
1975	0.0100025933993
1976	-0.0329355605213
1977	-0.00875560641671
1978	-0.0229335688196
1979	0.000495780543555
1980	-0.00987522218829
1981	0.0225134116882
1982	-0.00823717366461
1983	-0.00669604757757
1984	-0.0207636744784
1985	0.0168213025793
1986	-0.0568691508457
1987	0.00404620451023
1988	-0.0373606315047
1989	-0.00554324320484
1990	-0.0264433530324
1991	0.0106306689691
1992	-0.0193822614919
1993	0.024302839344
1994	-0.0165986766318
1995	-0.147387097885
1996	0.00661087521825
1997	-0.0215053624123
1998	-0.0181787051288
1999	0.0182727262633
2000	0.0236297471013
2001	-0.0200328285813
2002	0.0449245945851
2003	0.0224785536736
2004	-0.00271045563769
2005	-0.00333154949195
2006	-0.016181832346
2007	-0.0114315911931
2008	0.00487599636404
2009	-0.00491421484752
2010	0.0224288682844
2011	-0.00585703070724
2012	-0.407807898007
2013	-0.0110513361818
2014	0.0232274111747
2015	-0.0200923521093
2016	-0.013025348534
2017	0.00273257595902
2018	0.0157652479075
2019	-0.064184029207
2020	-0.0175466897019
2021	-0.00330263200917
2022	-0.00892450733207
2023	-0.00474343157195
2024	-0.00977512261158
2025	0.00355186236647
2026	-0.00299633531335
2027	-0.018269207982
2028	-0.00707002135932
2029	0.00306580421632
2030	0.259302311593
2031	0.174722122382
2032	0.00787928212797
2033	-0.00634976699056
2034	0.0114805780855
2035	-0.0105374954378
2036	0.00505955900468
2037	0.00536934705726
2038	-0.018640721582
2039	0.0114363101579
2040	0.0188133960724
2041	0.0231089954291
2042	0.0865478015014
2043	0.0899553039108
2044	0.00427130313589
2045	-0.0172298960044
2046	-0.0281310956848
2047	-0.0266618739989
2048	-0.0182339595911
2049	-0.0217189994868
2050	-0.0377568751414
2051	-0.0304989265901
2052	0.0162877871979
2053	-0.00219381675439
2054	-0.0144466668806
2055	-0.00511992493518
2056	0.0167521449911
2057	0.00975105411611
2058	0.0127839599529
2059	-0.00314905835823
2060	-0.00879709800499
2061	0.0199241302617
2062	0.022445345905
2063	0.0053503243159
2064	-0.00310828935177
2065	0.0108294622791
2066	-0.00800479876581
2067	-0.016898844184
2068	-0.0160375905978
2069	-0.00249670049239
2070	0.0241308516851
2071	0.00329515335645
2072	0.0768366741122
2073	-0.0482053350908
2074	0.0233081737557
2075	0.0212698535786
2076	-0.0178623012821
2077	-0.00967533918318
2078	-0.0187872646748
2079	0.00417857289014
2080	0.0211705197305
2081	-0.00376746587922
2082	0.0244026561302
2083	-0.0127935976519
2084	-0.0190118170985
2085	-0.0250442738823
2086	0.000966140675826
2087	0.0195270852583
2088	0.0110767838086
2089	-0.0217713222761
2090	0.0138560529447
2091	0.0198698822585
2092	0.0117485069933
2093	-0.00403687725537
2094	0.0213339316839
2095	0.00515952896215
2096	0.102328174917
2097	-0.0198385702608
2098	-0.171620977688
2099	-0.0155769004277
2100	-0.0162477455982
2101	0.0409410525979
2102	0.0146039342124
2103	-0.0282151489673
2104	0.0211099094895
2105	0.0104423846222
2106	-0.00894601745801
2107	0.0169246264067
2108	0.00255719968836
2109	0.197542381682
2110	-0.00807691505909
2111	-0.00256423479013
2112	-0.00840616034999
2113	0.0130593431424
2114	0.0064035288025
2115	-0.0114992981877
2116	0.0221156459842
2117	-0.0138424765859
2118	-0.00699162443375
2119	-0.0125521745439
2120	0.016720388824
2121	0.0138427704612
2122	0.0292827233702
2123	0.0707608362458
2124	-0.0823702723074
2125	-0.0133978804716
2126	-0.0101812246512
2127	0.00196158892756
2128	-0.0233451083424
2129	0.0130035535387
2130	0.0135393954223
2131	-0.0122247326406
2132	-0.00359206416432
2133	0.0143581601283
2134	-0.0166349152868
2135	-0.00822292546823
2136	-0.00700073080933
2137	0.00379375284942
2138	0.00935056043614
2139	-0.0163809488621
2140	-3.51916819189e-05
2141	0.0208354545023
2142	0.00576341007702
2143	-0.00626284282721
2144	-0.0177622660704
2145	-0.143987069575
2146	0.00706904800799
2147	-0.00814515664839
2148	0.00284856840879
2149	0.0129129184068
2150	-0.0256290033147
2151	0.0105579463637
2152	-0.0145033897437
2153	0.00389250633383
2154	-0.00395172448669
2155	-0.0245662498844
2156	-0.0142222087751
2157	-0.00863918885952
2158	-0.0171096047252
2159	0.0186614117295
2160	0.0212533849443
2161	-0.0153174902925
2162	0.0180563983785
2163	-0.0230429441675
2164	-0.0179689680055
2165	0.0159348248246
2166	-0.00483915670751
2167	0.0130315669694
2168	-0.00880225703098
2169	-0.00282681171675
2170	-0.00758146692738
2171	0.0184926301508
2172	0.00739618011255
2173	0.0157759750322
2174	-0.00147207251796
2175	-0.00578646595186
2176	0.0047370953239
2177	0.00655915222581
2178	-0.0136110269292
2179	-0.0162593393911
2180	-0.0209496329486
2181	7.38499287157e-05
2182	-0.000948744350609
2183	0.00902213890994
2184	-0.0140821388717
2185	0.0123003611646
2186	-0.00517274032207
2187	-0.0252475227548
2188	0.00141811315285
2189	-0.0102049060604
2190	-0.0210103247251
2191	0.0100377414224
2192	0.0212548834543
2193	-0.017478488637
2194	-0.0011502125125
2195	-0.022105210821
2196	-0.00182711759619
2197	-0.02321043447
2198	-0.00138393579396
2199	0.0844031614943
2200	-0.0114296485706
2201	-0.0154169449859
2202	0.155126630888
2203	0.000159535111281
2204	-0.00114570401433
2205	-0.00747117925908
2206	0.0196519157526
2207	-0.0141269769292
2208	-0.0150871861845
2209	-0.0678714658536
2210	0.00972442260486
2211	-0.0101189753366
2212	-0.0169759253557
2213	-0.0229958898748
2214	-0.0212735631423
2215	0.00591306046434
2216	0.0167569288116
2217	-0.012067119029
2218	-0.0153051568602
2219	0.00854145915224
2220	0.00199016219464
2221	0.0136777605949
2222	-0.00862773286689
2223	0.0146889734864
2224	-0.0150909618327
2225	-0.000408420604808
2226	0.0194574562868
2227	0.00368476709987
2228	-0.00542560129655
2229	0.0970407960648
2230	0.0214006140972
2231	-0.0136133179259
2232	0.0244862292516
2233	0.00728181783231
2234	-0.018448182606
2235	-0.0131034886462
2236	-0.0118772876753
2237	-0.0199820228346
2238	-0.0211968557192
2239	-0.0199155893228
2240	-0.00529335405392
2241	-0.00768656816031
2242	-0.0055014998731
2243	-0.0221870501682
2244	0.0118139250305
2245	-0.00655366215125
2246	-0.0253003305235
2247	-0.00428409414136
2248	0.00325725954101
2249	-0.0167237300292
2250	0.0214083615089
2251	-0.022905135751
2252	-0.0131078879356
2253	-0.0136054204208
2254	-9.21509392213e-05
2255	-0.0300104093531
2256	-0.0195755830785
2257	-0.0149965742053
2258	-0.0154461197786
2259	0.00301445698823
2260	0.0199151492405
2261	-0.01593553021
2262	0.000404724141176
2263	0.000303739032028
2264	0.00903811423494
2265	-0.00428215859659
2266	-0.0120326279834
2267	-0.0120899042954
2268	0.0204246149265
2269	0.00157023891194
2270	-0.0400490098869
2271	0.0113131008496
2272	0.115586724831
2273	-0.0216411738831
2274	-0.019010067072
2275	0.00130864319662
2276	-0.0221956859777
2277	0.0159817679987
2278	-0.00753865588545
2279	-0.00470560004203
2280	-0.0148905486684
2281	0.0247553976025
2282	-0.0158769529505
2283	0.00297219949215
2284	0.0179030302448
2285	-0.0014337973559
2286	-0.00300239257434
2287	-0.021271831069
2288	-0.0188027696268
2289	0.0120769096374
2290	-0.0181767328023
2291	-0.0223495223248
2292	0.0206042147917
2293	0.012325176651
2294	-0.0142928097648
2295	0.00172844361544
2296	0.0147562233519
2297	0.121433720518
2298	0.00579442224646
2299	0.0189356227281
2300	0.0122937731508
2301	0.00776047174793
2302	0.00643725086551
2303	0.00558317473921
2304	-0.0122671038445
2305	-0.00741775993484
2306	-0.0188162589891
2307	-0.0331059319908
2308	0.0223840267927
2309	-0.00899806327651
2310	0.00923986622203
2311	-0.0197640247243
2312	0.00708979904731
2313	-0.0118031212439
2314	-0.00417117783353
2315	-0.00520490616012
2316	0.00141983042978
2317	-0.0137499958609
2318	-0.0165447268363
2319	-0.00814493635865
2320	-0.019083618347
2321	0.00395693730393
2322	-0.0187562527744
2323	0.00221591853657
2324	-0.0213988914628
2325	-0.0232201927223
2326	0.0209586793032
2327	-0.0390601268721
2328	-0.0129644499412
2329	0.020420332115
2330	-0.00709513582002
2331	-0.104505270335
2332	-0.00981660518707
2333	0.195587146841
2334	-0.0245901140945
2335	-0.0125431675058
2336	-0.00621821814853
2337	0.0121679612917
2338	-0.0432938821728
2339	-0.01552887185
2340	0.00422349340711
2341	-0.0814513824364
2342	-0.0234575013787
2343	0.0228351583637
2344	0.00956116758261
2345	0.0237370908972
2346	-0.0197361595152
2347	0.00259143377011
2348	-0.00667318088591
2349	0.00302419403525
2350	0.072683539818
2351	0.00660710501934
2352	0.00640568226299
2353	-0.0251966823865
2354	0.00664748004536
2355	0.0193853915931
2356	0.0184666703428
2357	-0.00352601115406
2358	0.0171624909202
2359	-0.0578010816084
2360	0.00825030146708
2361	0.000375297311411
2362	0.0151027741199
2363	0.0190765802836
2364	0.0241555456518
2365	-0.0191307367803
2366	0.0143934116072
2367	0.016829487564
2368	0.012787762134
2369	-0.00145241583204
2370	-0.024060803314
2371	-0.0191666752328
2372	-0.0187797526336
2373	-0.000222806641505
2374	0.00422372719113
2375	-0.0808128460867
2376	-0.0228723624255
2377	-0.0173914973866
2378	-0.0690598418994
2379	-0.0852706769443
2380	0.0198507075622
2381	-0.0385187102168
2382	-0.0110295405926
2383	-0.0246320341809
2384	0.0234588241552
2385	0.0226834616654
2386	-0.00426735063881
2387	0.00474401996435
2388	0.00831308616268
2389	0.0102329875036
2390	0.0715283351907
2391	0.103254815545
2392	-0.0243697832546
2393	-0.0184643524319
2394	-0.000685174445948
2395	0.0240654406913
2396	-0.00684735386358
2397	-0.0105483543015
2398	-0.0105774942103
2399	4.40495889358e-05
2400	-0.0664316962382
2401	-0.0174790918851
2402	-0.00514168264698
2403	-0.0118173815951
2404	-0.0161385540724
2405	0.0091916669107
2406	-0.361586111186
2407	-0.0171777535359
2408	-0.00987353992009
2409	-0.0201723271338
2410	0.00253849504685
2411	0.0107028986431
2412	-0.0137092391688
2413	-0.00509568384653
2414	-0.0293329031274
2415	-0.00938176441792
2416	-0.0267758644332
2417	0.0177248358172
2418	0.0171442404258
2419	0.100986952559
2420	0.00852254577203
2421	-0.0125723014203
2422	-0.0174077717711
2423	-0.0373794662773
2424	-0.00758689463095
2425	0.0122818834273
2426	0.0052868744957
2427	-0.0109496386312
2428	-0.0112459281011
2429	-0.0182641333241
2430	0.021240897012
2431	0.0110361252108
2432	-0.0184215693383
2433	-0.00700410220863
2434	0.000293810643639
2435	0.0208671363854
2436	-0.0235015786692
2437	0.0161923644322
2438	0.012269255823
2439	0.0164256721585
2440	0.00921273406098
2441	0.00205401357099
2442	-0.0158861567419
2443	-0.0227111044915
2444	-0.00441450863889
2445	-0.0130346179603
2446	0.00675364562019
2447	-0.028954043151
2448	-0.0179135702464
2449	-0.0216011977033
2450	-0.0295895087439
2451	-0.0125249862923
2452	-0.0129001861956
2453	0.0127169725125
2454	0.0122913771816
2455	0.00204241344295
2456	0.122992203973
2457	0.0168162920031
2458	-0.00569074542603
2459	-0.0118485644743
2460	-0.0163796932299
2461	-0.0324378214913
2462	-0.0182428964624
2463	-0.00436233086228
2464	-0.0136612853325
2465	-0.00633720433104
2466	0.0058235501714
2467	-0.00437831637389
2468	0.00857155894605
2469	0.0395668329608
2470	-0.00697561638053
2471	-0.00215439297428
2472	0.0122406750283
2473	-0.00457521153571
2474	-0.0534081472617
2475	0.00290918651547
2476	0.0112559205661
2477	-0.0139372152282
2478	-0.0157871690465
2479	-0.00353605420355
2480	0.00693746844063
2481	-0.0121956142506
2482	-0.0107065380248
2483	0.0235582326578
2484	0.0146705060651
2485	0.00458036311039
2486	-0.0181426701778
2487	0.00985491965428
2488	-0.0403839530489
2489	-0.00813294357148
2490	0.0167278088812
2491	-0.0192080982774
2492	0.0161273698568
2493	0.0143604049515
2494	0.00628329225535
2495	0.0162175940051
2496	-0.00681486601549
2497	0.0193711121975
2498	0.00842688447784
2499	0.0162591943896
2500	0.00128856993289
2501	-0.00781400689626
2502	0.0216498697845
2503	-0.0169202880739
2504	-0.0153763130318
2505	-0.0184825743715
2506	0.00631801591079
2507	-0.0601856157371
2508	0.0182759844423
2509	0.0235411963843
2510	-0.0189593777026
2511	0.00912167589271
2512	-0.0119781747734
2513	-0.0107313661349
2514	-0.101430388738
2515	0.00295326285823
2516	3.00525007633e-05
2517	-0.000129821954871
2518	-0.0124811997322
2519	0.00420696305428
2520	-0.0126692786133
2521	-0.0217398933261
2522	-0.0238463922526
2523	-0.00563268991784
2524	0.114318368076
2525	-0.194050852364
2526	0.00564714894681
2527	-0.0219771733063
2528	-0.0181867822582
2529	0.0121623973273
2530	0.151019650644
2531	0.00733399858466
2532	0.0181002114466
2533	-0.00820463122368
2534	-0.0160974774051
2535	0.0242023860408
2536	-0.00944543954166
2537	-0.0228219926705
2538	-0.0176438163229
2539	0.0184716099724
2540	-0.0122455986178
2541	-0.109849343838
2542	-0.00112770933106
2543	-0.0208344404377
2544	-0.0308325524856
2545	0.00636329813085
2546	-0.0218107357578
2547	-0.0149134967053
2548	0.00464743448265
2549	-0.0235318686071
2550	-0.00794355627343
2551	-0.00130519267472
2552	-0.00255003226513
2553	-0.00355046847606
2554	-0.0496948569269
2555	0.00779493939975
2556	0.00983875777628
2557	0.01908212915
2558	-0.0160809326649
2559	0.0226945798158
2560	0.00915827306776
2561	0.0167613474811
2562	-0.0176431945166
2563	-0.0136223928984
2564	-0.0156532973184
2565	-0.00438345763882
2566	0.0152832633512
2567	0.00579309671956
2568	-0.00504073672542
2569	-0.0167075371755
2570	0.00786321872556
2571	-0.0229608886305
2572	-0.00717397088247
2573	-0.0214984096926
2574	0.0248836802805
2575	-0.0265364165968
2576	0.00325275643368
2577	-0.00102045249495
2578	0.0184035003413
2579	0.0137480687312
2580	0.00159869551655
2581	-0.0242648849186
2582	-0.0238498059676
2583	0.014476433392
2584	-0.0209334499186
2585	-0.00865491611195
2586	-0.0223118785744
2587	-0.021057284079
2588	-0.00248315045046
2589	0.00594919336694
2590	0.05699626038
2591	-0.0246668439255
2592	0.00285940874666
2593	0.0148500612131
2594	0.00342463292809
2595	-0.00875796459115
2596	-0.0044869289858
2597	-0.00123012898052
2598	-0.0247606825285
2599	-0.0193437122626
2600	-0.00770791324423
2601	-0.0179870902931
2602	0.000820582239382
2603	-0.0051506583545
2604	0.0209053794414
2605	0.0123651333535
2606	0.00419318107453
2607	0.00889240774816
2608	-0.0155228882992
2609	-0.00121910784863
2610	0.0154027606032
2611	-0.0223032924512
2612	-0.00983146876172
2613	-0.00528885372879
2614	-0.00878397502717
2615	-0.0440097364079
2616	0.0158409154205
2617	-0.0041516572784
2618	-0.0103642728662
2619	0.00306677647727
2620	0.0144435247075
2621	0.0369771245532
2622	-0.0414939213948
2623	0.0166373732583
2624	0.023467308279
2625	0.00892916127442
2626	-0.00541212024829
2627	-0.0229191218372
2628	0.0110329332062
2629	0.0121442404493
2630	0.013346927738
2631	0.0142463478004
2632	-0.00251483386708
2633	-0.447430375172
2634	0.00842330605957
2635	-0.0152656130853
2636	0.0108943696936
2637	-0.0206541906804
2638	0.0219220755073
2639	0.0067057051546
2640	0.108741669248
2641	-0.0188206459682
2642	0.0175959932471
2643	-0.0204881389802
2644	0.00499930084369
2645	0.011451086633
2646	-0.00201657210945
2647	0.0192569076947
2648	-0.0198509910461
2649	0.00140426796014
2650	0.0417533612839
2651	-0.0117640189664
2652	-0.0166012492139
2653	0.0149830907651
2654	0.0123186727068
2655	0.0038308239336
2656	-0.006068560173
2657	-0.019034330344
2658	0.00529081892339
2659	-0.0220326669409
2660	0.0106020424032
2661	-0.0157231736518
2662	0.00158489746383
2663	-0.0192614073816
2664	-0.00601725521127
2665	-0.0210388450783
2666	-0.00923005888721
2667	-0.0186301172907
2668	0.00792364830764
2669	-0.0130132021155
2670	0.0189738848792
2671	-0.0172961919887
2672	-0.0234351603129
2673	-0.00356643572724
2674	0.0133228832073
2675	0.0104761418908
2676	0.00178389093267
2677	-0.0244264141714
2678	-0.0163719928358
2679	-0.00722902819557
2680	-0.020384434118
2681	0.000303149390416
2682	0.00668402440551
2683	0.00183719495098
2684	0.0217372743988
2685	-0.0203445109074
2686	-0.0229614781635
2687	0.0030481109463
2688	-0.0909885620354
2689	-0.0233953406383
2690	0.00434747828109
2691	-0.0094178001316
2692	0.0116694873117
2693	-0.00011183855736
2694	-0.00935157982356
2695	-0.0432211263547
2696	0.0036162959061
2697	0.0168978600774
2698	0.0138018346406
2699	-0.000236365325214
2700	-0.00623949069243
2701	-0.0097314139682
2702	-0.0259638090471
2703	0.0163650083885
2704	0.0025327682517
2705	-0.0160604594544
2706	0.020067085696
2707	-0.0245202568379
2708	-0.0144232723591
2709	-0.0154489340706
2710	-0.00839954830984
2711	-0.0121084050524
2712	0.0175191314691
2713	-0.0199700960798
2714	-0.0165808056584
2715	0.00776337183562
2716	-0.022645644805
2717	-0.0395576905693
2718	0.0190487906067
2719	0.0138148336809
2720	-0.198300864807
2721	0.0870485223318
2722	-0.0198601269341
2723	-0.0325000577962
2724	-0.0185415300544
2725	-0.0160344318703
2726	-0.0176068742219
2727	0.0160303624752
2728	-0.00778431720453
2729	-0.0330928300693
2730	0.0116457904913
2731	-0.106824802965
2732	-0.00276368790765
2733	0.0190439231955
2734	-0.016825191587
2735	-0.0200994710745
2736	-0.0143967772712
2737	0.0113051224166
2738	0.00439790882137
2739	0.0036506242789
2740	0.00170999215805
2741	0.012245851535
2742	-0.0279441994821
2743	0.0187235584579
2744	0.0232873202097
2745	-0.152590220983
2746	0.024427764146
2747	-0.00507182784093
2748	0.00876622525969
2749	-0.0197699355152
2750	-0.00634606913168
2751	0.000372216255108
2752	-0.000584811787897
2753	0.0156605883138
2754	0.0138897800247
2755	0.00840253614344
2756	-0.023775374506
2757	0.0118718263024
2758	-0.014052542723
2759	0.0229718919393
2760	0.0192868470355
2761	-0.0149101937938
2762	-0.0881783849032
2763	0.0171103195466
2764	-0.0814119413648
2765	0.00547562668508
2766	-0.0029802221168
2767	0.00390981139721
2768	0.0240165597535
2769	-0.0123907307209
2770	-0.00827791046638
2771	-0.00712025274396
2772	0.00940084955216
2773	0.00946509109888
2774	-0.020557869339
2775	0.0810485095893
2776	-0.0160037557301
2777	-0.0150333927913
2778	0.00705334839533
2779	0.0173359690665
2780	0.119760544945
2781	-0.00935126243652
2782	0.0109617340033
2783	-0.0245012947025
2784	-0.00991275067926
2785	0.0116571305343
2786	0.0109110908836
2787	0.0227141846936
2788	0.0229749094452
2789	0.0135537923595
2790	0.0168432661829
2791	-0.0133009134368
2792	0.105567579652
2793	0.110375639735
2794	0.0997274915575
2795	0.200360604975
2796	-0.0140607419992
2797	-0.000713289375085
2798	-0.00401668732841
2799	-0.00513225720068
2800	0.010577857354
2801	-0.00946350357489
2802	-0.0339666961859
2803	0.021304691616
2804	-0.0171590915715
2805	-0.0128208606262
2806	-0.0199339107167
2807	-0.00647849633597
2808	0.0130966987727
2809	-0.0126968272975
2810	-0.0143804822917
2811	0.0072834763576
2812	0.0209041341055
2813	-0.00245445006945
2814	-0.0156223544503
2815	0.0125713366497
2816	0.00193467085549
2817	-0.0102588518523
2818	0.030476750317
2819	-0.0152543857138
2820	-0.00224779022606
2821	0.00830402431258
2822	0.00656452120155
2823	-0.00708460423656
2824	-0.00618263344811
2825	0.0129982020806
2826	0.0155206686968
2827	-0.0290932336234
2828	0.00899320380029
2829	-0.0251443050675
2830	-0.0199627679172
2831	0.00681726227452
2832	-0.0106227307984
2833	0.0134514929517
2834	-0.0100271163023
2835	-0.0169517537091
2836	0.0104776787244
2837	0.00716971082687
2838	0.00882515553131
2839	0.0190263445386
2840	0.0113159630868
2841	-0.117438573266
2842	0.0225996352243
2843	0.0219214748866
2844	-0.034272214114
2845	0.0224636241134
2846	0.0221399267752
2847	-0.00786113611966
2848	0.0160775347348
2849	0.00700615952011
2850	-0.0136128240933
2851	0.00888150579386
2852	-0.0692832956633
2853	0.0105322517588
2854	-0.00192562539959
2855	-0.0169535726278
2856	-0.0182524364411
2857	0.0116070878214
2858	0.0197768357193
2859	-0.0205985015305
2860	-0.00731467419971
2861	-0.000727918253035
2862	-0.0104710945958
2863	-0.00101933366525
2864	-0.00708210994368
2865	0.0139470865012
2866	0.00451501463543
2867	0.0823349901825
2868	0.11881629865
2869	0.00421424535563
2870	-0.00678538829607
2871	0.0084357401274
2872	-0.00978085876067
2873	-0.00704034926939
2874	-0.0019847098255
2875	0.00638183062656
2876	0.0110400980776
2877	0.000721280217637
2878	-0.00160765528354
2879	-0.0108706578815
2880	-0.00387995691545
2881	-0.0125149438707
2882	-0.0107064263148
2883	0.0238226127179
2884	0.0132225836239
2885	-0.01901385069
2886	0.00738120024747
2887	-0.0111336246116
2888	-0.000899203032884
2889	-0.0247727771943
2890	0.00312372002486
2891	-0.00865322767904
2892	-0.0112610770399
2893	0.0172659554082
2894	0.0141350245139
2895	0.00722156808019
2896	0.0105891285417
2897	-0.0175660456249
2898	-0.0116863496482
2899	-0.0172828645888
2900	0.00212822460056
2901	0.00366193320267
2902	-0.00707552677812
2903	0.000921360183414
2904	0.0187132091898
2905	-0.00204716113971
2906	0.00477822993108
2907	-0.0130079737806
2908	0.0230355742742
2909	0.0179227296072
2910	0.0233385926353
2911	0.0177584192021
2912	0.0130917430004
2913	-0.00433820423819
2914	-0.00956388764024
2915	0.0323725678235
2916	-0.00924482543904
2917	-0.0209898182355
2918	-0.0155142011012
2919	0.0101131439834
2920	0.0106539341593
2921	0.00646967442629
2922	-0.00450096537834
2923	-0.0227307356522
2924	-0.0131247239551
2925	-0.0235217362848
2926	-0.00320611907082
2927	0.00413389042511
2928	0.0128357869713
2929	-0.0142565915306
2930	0.0174049112437
2931	0.013463314482
2932	0.00389035829172
2933	-0.00205366522838
2934	0.112303331828
2935	-0.01028955878
2936	0.00474075184961
2937	0.00434873175903
2938	0.00279472236469
2939	-0.00191756348302
2940	-0.00164036523434
2941	-0.0121853519622
2942	-0.0140721764941
2943	0.00051425634212
2944	-0.0128208362041
2945	0.0156823815594
2946	-0.0184227256446
2947	-0.00310288374975
2948	-0.0122881931119
2949	-0.0250031140901
2950	-0.010911378767
2951	-0.0352621475065
2952	0.00190080523108
2953	0.020155390676
2954	0.014784375809
2955	-0.00197079609945
2956	0.0125741316739
2957	0.0231477724978
2958	-0.0203210262263
2959	-0.0765929715007
2960	-0.03119325777
2961	-0.0115298882229
2962	0.00193944947973
2963	-0.00676078297996
2964	-0.0167338541133
2965	-0.0227792902302
2966	0.0103640172893
2967	0.011939306558
2968	-0.0363235440205
2969	0.00486018410518
2970	-0.0132675556678
2971	-0.0237188853326
2972	-0.00189728757926
2973	0.0168721328537
2974	0.102035644214
2975	0.0178782244745
2976	-0.00162696491751
2977	0.150125054479
2978	-0.0216994726388
2979	-0.0119924815481
2980	0.0138446274902
2981	0.0227420172659
2982	-0.0428811614027
2983	0.00801061662089
2984	-0.00986553033174
2985	-0.0100354378736
2986	0.01615338661
2987	-0.0223846875747
2988	0.0421069780635
2989	-0.00145151147266
2990	0.00335317023344
2991	0.00111317663285
2992	-0.0336172889434
2993	-0.0219258234779
2994	0.0229470411848
2995	-6.09774509783e-05
2996	0.00238836634053
2997	-0.145187699341
2998	-0.0173073713137
2999	-0.0162982221811
3000	-0.0429705714157
3001	-0.0251783020849
3002	-0.0174972578835
3003	0.00671252984931
3004	0.0127847297092
3005	0.0120068509684
3006	0.0114531599714
3007	0.00538750266792
3008	-0.128626275764
3009	0.0204032424463
3010	-0.00172625494886
3011	-0.00878507989746
3012	-0.00933854182406
3013	-0.0150453394152
3014	-0.0712812092026
3015	-0.0554049992244
3016	0.0203977042147
3017	0.00521234853954
3018	-0.0190904742895
3019	-0.0205908496848
3020	-0.025769957979
3021	-0.00111261335628
3022	-0.0370588708125
3023	-0.0717458359829
3024	-0.080463018599
3025	0.0146218012387
3026	0.00273138736743
3027	-0.0160413559713
3028	-0.0180181236834
3029	-0.245034430496
3030	-0.00748037609456
3031	0.00757422987179
3032	-0.018820706726
3033	-0.08886603342
3034	-0.0224841289851
3035	0.0472326757085
3036	-0.0275041775469
3037	-0.0514085422774
3038	0.00098480308436
3039	-0.0104672614925
3040	-0.013080826246
3041	0.0156487550135
3042	-0.0138292453058
3043	0.00831508659799
3044	0.00499705645765
3045	0.0137063043182
3046	-0.0271334449272
3047	-0.0234749355902
3048	0.0188493329335
3049	0.0150410509497
3050	-0.0159562524079
3051	-0.00307242125132
3052	0.013345051005
3053	0.00827903614543
3054	-0.00430805463638
3055	-0.125889123166
3056	-0.00893261743137
3057	-0.110374261112
3058	0.019937462844
3059	-0.012761950602
3060	0.000918364236184
3061	-0.0238516219244
3062	-0.53623555604
3063	-0.334917409056
3064	0.00373915545133
3065	0.00636540900954
3066	0.0217443926726
3067	0.0160424370017
3068	0.00072450645164
3069	-0.0683140716111
3070	0.00879670507084
3071	0.020742367361
3072	-0.0498738040824
3073	-0.0169036328441
3074	-0.0201322294752
3075	0.00725289812201
3076	-0.0211288926622
3077	0.0105287669303
3078	0.00478648439995
3079	-0.0165603787558
3080	-0.0223416671379
3081	-0.0232149370347
3082	0.0142863337921
3083	-0.0247612416768
3084	0.0175076423823
3085	-0.0171762958219
3086	0.00782598050245
3087	0.00993708252103
3088	0.0168767318436
3089	-0.0242067943816
3090	-0.0212803856725
3091	0.000173652697755
3092	-0.00335236010058
3093	-0.00594221807932
3094	-0.0175260159509
3095	-0.0166892670681
3096	0.0214911733443
3097	-0.011343637689
3098	-0.0209953234147
3099	-0.020059737267
3100	-0.0060643618971
3101	-0.0226541611673
3102	-0.00324565551387
3103	0.000582009558705
3104	0.188924811339
3105	-0.0171488230604
3106	-0.0121427205415
3107	0.0051448996501
3108	-0.0368575582964
3109	0.0215686614715
3110	0.00768150163215
3111	-0.00915599720616
3112	-0.0141652908946
3113	-0.0228891155924
3114	-0.00191776236243
3115	0.0173069738501
3116	-0.00128183307887
3117	-0.0631005083914
3118	-0.000572420397471
3119	-0.0235806896579
3120	0.0756365961182
3121	0.103223821658
3122	-0.0060986732069
3123	-0.00877540143746
3124	-0.0109675253536
3125	0.00997856649558
3126	-0.00778107657906
3127	-0.0397544907842
3128	0.012758275663
3129	-0.0137690382774
3130	-0.0214561625102
3131	-0.015548229838
3132	-0.0535081541106
3133	0.000746525101374
3134	0.0825524726106
3135	0.0139563537588
3136	-0.056886056131
3137	0.00801273909536
3138	0.0847566297178
3139	0.110569187492
3140	-0.00324084761061
3141	-0.00241687979647
3142	-0.0165990209028
3143	-0.0105689250303
3144	-0.0193125055526
3145	-0.0261010047748
3146	-0.00785967320199
3147	-0.0103724198643
3148	0.024421564498
3149	-0.0209095845863
3150	-0.00334525735462
3151	0.0121512614326
3152	-0.0168579571323
3153	0.00764321496891
3154	-0.0179069975525
3155	-0.236139147885
3156	0.00450056148358
3157	-0.048254873622
3158	-0.0196584422022
3159	-0.0113355923862
3160	0.00876528529091
3161	-0.0200559997827
3162	-0.00132134036919
3163	-0.00383803244897
3164	0.155031048332
3165	0.00348876467042
3166	-0.000855681654551
3167	-0.0128700247508
3168	-0.0418968450772
3169	-0.104435196618
3170	0.0136880362865
3171	0.00274372046318
3172	0.00735624139815
3173	-0.0171908145452
3174	-0.0238574295868
3175	0.00520040227925
3176	0.0142631109272
3177	-0.00808742221583
3178	0.0335443038067
3179	-0.0232262912811
3180	-0.237481419369
3181	0.021061270117
3182	-0.00471014950646
3183	-0.126943106897
3184	-0.00265418902639
3185	0.0110209430595
3186	-0.01237065649
3187	0.000302884972722
3188	-0.00320520459941
3189	0.00822628877656
3190	0.022827276164
3191	0.0172692401707
3192	-0.0534754896501
3193	0.0729497516903
3194	0.0188844441403
3195	0.00772289909133
3196	-0.015766096286
3197	-0.00714070266276
3198	-0.0186773029734
3199	-0.0186338235467
3200	-0.0232246512904
3201	-0.0201893199826
3202	0.0237953325257
3203	-0.00754354759937
3204	-0.128168206046
3205	-0.00676053720184
3206	0.0593163811531
3207	-0.014824368311
3208	-0.0182682356367
3209	0.0188811592421
3210	-0.0197878508285
3211	0.0691161404499
3212	0.0928361819717
3213	-0.013657952356
3214	-0.03200499157
3215	0.0134732292477
3216	-0.0128707714734
3217	-0.00638420319525
3218	-0.000945110391966
3219	-0.0737915430789
3220	0.0125403101812
3221	0.0116493314098
3222	-0.0176985786567
3223	0.0230309142436
3224	-0.104696374506
3225	-0.00179020183607
3226	0.0526780447827
3227	0.0773841718113
3228	0.00614826018554
3229	-0.00925273538868
3230	-0.0272220776594
3231	-0.0228935073275
3232	0.00887465345835
3233	-0.0691132406943
3234	0.0142252064777
3235	-0.213792708481
3236	0.0400211962477
3237	0.0207940247691
3238	-0.0279157665888
3239	0.0204903125668
3240	-0.0091914325703
3241	0.0205226410165
3242	-0.0233647561697
3243	-0.0401778230041
3244	-0.00460218552715
3245	0.0059869357616
3246	0.00548568799123
3247	-0.0481485442635
3248	-0.00536201257673
3249	-0.0157845980189
3250	-0.0247458639128
3251	-0.0229235100896
3252	-0.0107867902421
3253	0.00976397029418
3254	-0.0151258720592
3255	-0.00616557812492
3256	0.0162943192858
3257	0.0119134075965
3258	0.0241175582743
3259	-0.0244728860964
3260	0.01366481506
3261	-0.0307521206302
3262	0.00970341350371
3263	0.0179675042636
3264	-0.0644644467234
3265	-0.0368153479402
3266	0.0204335735419
3267	-0.0374347718794
3268	-0.00824939509157
3269	0.0201341714872
3270	-0.00563038807619
3271	0.00596359761895
3272	0.01047344319
3273	-0.0156865947236
3274	-0.00171763455816
3275	0.0118481008764
3276	0.0154134212727
3277	-0.0145261222013
3278	-0.0144934611369
3279	0.00795688885198
3280	0.0102008318052
3281	-0.00138870760921
3282	-0.0993856930674
3283	-0.00410336661499
3284	0.00808282960525
3285	0.0349748198914
3286	-0.0144118272565
3287	0.00572460383133
3288	-0.0244792326128
3289	0.00536038049415
3290	-0.0107065620751
3291	-0.062541450293
3292	-0.00409316059515
3293	-0.0215866614824
3294	-0.0196923191522
3295	-0.00505904945485
3296	-0.00291122285834
3297	5.84098398444e-05
3298	0.00634203205093
3299	-0.0113183941037
3300	0.00942759130046
3301	-0.012617261774
3302	-0.00324872672952
3303	-0.0106320034705
3304	0.0242881081212
3305	0.0159007138071
3306	-0.0429449293058
3307	0.0184025804583
3308	0.0105632910628
3309	-0.00644843322592
3310	0.00549111042441
3311	-0.0151862793486
3312	-0.100231345228
3313	0.0128179976094
3314	0.0141223349276
3315	-0.0012434005357
3316	0.0231595312912
3317	-0.0246298566194
3318	-0.0820821438116
3319	0.00141261575803
3320	0.0172714031074
3321	-0.0146292150311
3322	-0.0108605957624
3323	-0.006090032005
3324	0.02263322426
3325	0.00847387203332
3326	-0.0080623688666
3327	0.00957225129579
3328	0.00908232913363
3329	0.00930816618535
3330	-0.019609050669
3331	-0.00747923133862
3332	0.0223131959692
3333	0.0207226412548
3334	-0.0177779343279
3335	-0.0918378146651
3336	-0.0651846088993
3337	0.00909485855137
3338	0.00829248362223
3339	-0.0166294825083
3340	-0.000532104351781
3341	-0.0108216034322
3342	0.0235666568066
3343	0.16743361927
3344	-0.0791203631904
3345	0.0195721572173
3346	-0.0203091273877
3347	-0.0216822768735
3348	0.00875697869827
3349	-0.0255553737568
3350	0.0245315329302
3351	-0.00764986384314
3352	-0.0041420899188
3353	0.00867775128449
3354	0.00199180444886
3355	-0.021170866992
3356	0.0216066496249
3357	-0.140451056194
3358	-0.0504316003896
3359	-0.0258039005659
3360	0.00249439736451
3361	-0.0181963052482
3362	-0.0254987000803
3363	-0.01958078693
3364	-0.0227147809784
3365	-0.00113326666325
3366	-0.0362638502879
3367	-0.013893673166
3368	-0.0143650772029
3369	0.0127365871292
3370	-0.00548090951715
3371	0.0111644104709
3372	0.0180825719966
3373	-0.101774310321
3374	-0.0621328521914
3375	0.0170247957186
3376	0.00646937951882
3377	0.0167089086195
3378	0.0145473493045
3379	0.00209867539214
3380	-0.00683480495638
3381	0.0200430941252
3382	-0.00102006476167
3383	-0.0173803665218
3384	0.0168956072558
3385	-0.0596700276459
3386	0.00279634658024
3387	-0.0187779892949
3388	0.0108469312786
3389	-0.01000179709
3390	-0.00672224867847
3391	0.0740259904919
3392	0.109305097428
3393	0.0664316677229
3394	-0.0122597311939
3395	0.288474294201
3396	0.0114262696954
3397	-0.037371645608
3398	-0.0209337688955
3399	-0.0376609895095
3400	0.189602375678
3401	-0.0264525422353
3402	0.00292294360971
3403	-0.00872203498676
3404	0.00899875178066
3405	-0.0138501715994
3406	-0.00718188805464
3407	-0.0053641037614
3408	-0.000433707578119
3409	0.00844826421727
3410	0.0184458605409
3411	-0.0182630562874
3412	0.0076022176465
3413	-0.014689762336
3414	-0.0111508708551
3415	0.0112198534706
3416	-0.00186691336291
3417	-9.7747880109e-05
3418	-0.0149179080186
3419	0.00262341946125
3420	-0.00425900216302
3421	0.00652877382705
3422	-0.0164289910842
3423	-0.00733892370301
3424	-0.00163655398519
3425	-0.00732084181101
3426	-0.0319696581134
3427	0.00885766551151
3428	-0.000991157820133
3429	0.00478107888207
3430	-0.0863700557224
3431	0.00448403532606
3432	0.000450685025986
3433	-0.021370608706
3434	-0.0383088270611
3435	-0.0127118714916
3436	0.0150378074742
3437	-0.0132361702154
3438	0.0107278865569
3439	-0.00501506284522
3440	-0.0237483913412
3441	-0.0269297413897
3442	-0.0153837864969
3443	0.0112122093108
3444	-0.0707173978365
3445	-0.0664085063212
3446	-0.0272873246576
3447	0.0146807996618
3448	-0.0440488575359
3449	0.00845142461248
3450	-0.00323039534096
3451	0.0109070454418
3452	-0.0182927907902
3453	0.0211027947803
3454	-0.0256691085835
3455	-0.00945197252506
3456	0.0187949016474
3457	-0.0166685558002
3458	0.0228341634477
3459	-0.0248235740328
3460	-0.077830424979
3461	-0.00546061576039
3462	0.0136369557681
3463	-0.0268534546482
3464	0.000588289355689
3465	-0.0104743294941
3466	-0.00416674020509
3467	-0.00155685492455
3468	-0.0104609537026
3469	-0.0165144584434
3470	0.0004417579975
3471	-0.0429904752274
3472	-0.0184572063727
3473	0.00861024176978
3474	-0.0250823934201
3475	-0.00236954369034
3476	-0.0190869683312
3477	-0.0225462642496
3478	-0.0193065595356
3479	-0.0572530355162
3480	-0.0475747325386
3481	0.0106047064063
3482	0.00915669592294
3483	0.00620723208608
3484	0.0136952209258
3485	-0.0740539779984
3486	-0.0228164667099
3487	0.0158554530799
3488	-0.0191215581746
3489	-0.0278228806869
3490	0.011330614733
3491	-0.0961381243565
3492	0.0058023555326
3493	-0.00151967375373
3494	-0.0130800492002
3495	-0.00720837858937
3496	0.0140149174645
3497	-0.0209617890901
3498	-0.027667005393
3499	-0.0266354193664
3500	-0.0440040183926
3501	-0.0178838278757
3502	0.019478959724
3503	-0.0135497098728
3504	-0.0129499392658
3505	0.00701254048973
3506	-0.0312495221626
3507	-0.00361512334691
3508	0.0151699532648
3509	0.0141432130969
3510	-0.024953221727
3511	0.00951787495704
3512	-0.0110180428556
3513	-0.0174467035943
3514	0.0122259524878
3515	0.0053739918574
3516	0.016134040484
3517	0.00594729748033
3518	0.0093282979434
3519	-0.0361277838647
3520	-0.0205716059357
3521	0.00935298463354
3522	-0.00798386353227
3523	0.0438987118562
3524	-0.0135681366447
3525	0.00602767995813
3526	0.00274808394525
3527	0.0113491985036
3528	0.00992911289441
3529	-0.0116158102561
3530	0.00303608665172
3531	-0.00909244866495
3532	-0.0110829680926
3533	-0.0436226378397
3534	-0.00664138252871
3535	-0.0104031088968
3536	-0.0186141185932
3537	0.0196456357124
3538	-0.0038953330547
3539	0.0102217092257
3540	-0.019725676745
3541	-0.0233654979022
3542	-0.0191080912712
3543	-0.018277473996
3544	6.02443593631e-05
3545	-0.0225525609559
3546	-0.0073016876264
3547	-0.0247635430999
3548	0.0186133286664
3549	0.0151714047147
3550	-0.0116054386518
3551	0.0216301758498
3552	0.0197629824269
3553	-0.0007489939857
3554	-0.0131091154783
3555	0.00270577841202
3556	0.00706155690035
3557	-0.00621807644522
3558	-0.0215678799172
3559	-0.0377670032469
3560	-0.00682322140382
3561	-0.00864623899301
3562	0.0866470098385
3563	-0.0695111742513
3564	-0.0120258822109
3565	-0.00843749892571
3566	0.00685248974138
3567	-0.0133249072559
3568	-0.0354530335997
3569	-0.0201863095901
3570	0.0114606870174
3571	-0.0213191825106
3572	0.0127503866327
3573	-0.0172248956976
3574	0.00409216588449
3575	-0.00486553882241
3576	-0.00121891723719
3577	-0.0098336305112
3578	-0.0013494978024
3579	-0.0466096788416
3580	-0.0728348175233
3581	-0.0222442870532
3582	0.00292313419749
3583	0.0127702797988
3584	0.00213628719719
3585	-0.0142972895917
3586	0.0116073157996
3587	-0.00555534698406
3588	0.01044708737
3589	0.015500779508
3590	0.0217287155231
3591	0.00700559539184
3592	0.014286373409
3593	-0.0228277346021
3594	-0.0220029419094
3595	-0.0145242873017
3596	-0.00732926188318
3597	0.0177594255701
3598	-0.0249417406384
3599	0.0120669633674
3600	-0.0232299132134
3601	-0.0161809998187
3602	0.0163730179061
3603	0.0113787348287
3604	0.00330414065026
3605	0.0241835975398
3606	0.0199651203072
3607	0.00858991267109
3608	-0.004361057753
3609	-0.0117456814527
3610	-0.023428916383
3611	-0.00527242394017
3612	-0.0273486618549
3613	0.0172397996692
3614	-0.00130998001003
3615	-0.0319740453633
3616	-0.0120352579018
3617	-0.00372109395966
3618	-0.0211175685675
3619	-0.0201126804478
3620	0.00480222727547
3621	-0.0157646545043
3622	-0.0111054458438
3623	-0.00253565400612
3624	-0.0157562609905
3625	-0.0320855840271
3626	0.00846238043609
3627	0.0189190165181
3628	0.00924543123793
3629	0.00916467324175
3630	0.0602222456134
3631	0.0222166136572
3632	-0.0233589069635
3633	0.0170751148476
3634	-0.00305757654419
3635	-0.00279573928099
3636	0.00837754563775
3637	0.0243038089
3638	0.0221769479925
3639	0.00415816999609
3640	-0.0115299378314
3641	0.0125878839918
3642	0.0233130482294
3643	-0.0119632326995
3644	0.0464833892877
3645	-0.00164887992576
3646	0.0157930799237
3647	0.00781369300412
3648	-0.00969349855957
3649	-0.00213622717334
3650	0.00287885634588
3651	0.0193829410469
3652	-0.00813880125058
3653	-0.00732829841703
3654	0.0056242219917
3655	-0.0201141372425
3656	0.02006731723
3657	-0.0664329898802
3658	0.00921163158175
3659	-0.0265262882155
3660	-0.023568234211
3661	0.022911640032
3662	-0.0121017791703
3663	-0.00520832597641
3664	0.012588993032
3665	-0.0055670890994
3666	-0.0186903403946
3667	-0.0107749691507
3668	-0.000311647043865
3669	-0.0110962798402
3670	0.0071702679296
3671	0.024532958786
3672	-0.0111974534831
3673	-0.0237044043735
3674	0.0202753074102
3675	-0.0127792473642
3676	0.000735631898567
3677	-0.0272817852654
3678	-0.0107309805651
3679	-0.014915953565
3680	0.000430803486767
3681	0.0101418576894
3682	-0.0245939706281
3683	-0.010656997451
3684	0.0153143380987
3685	-0.0137053383355
3686	0.0102913676098
3687	-0.0129548959583
3688	0.0231595509771
3689	-0.0161375829091
3690	-0.06102115406
3691	-0.0417418358766
3692	-0.00300768699786
3693	0.0134770275046
3694	-0.022520977924
3695	-0.00631617581976
3696	0.00248400769776
3697	-0.00481367521531
3698	0.00274266299552
3699	0.000258329961028
3700	-0.00364713899346
3701	0.0055539117217
3702	-0.0108172319029
3703	-0.00741532582478
3704	-0.0667645206268
3705	0.0161006237495
3706	-0.00873608445653
3707	-0.0176106285171
3708	0.000519322848289
3709	-0.00830074057391
3710	-0.0175344341287
3711	-0.0260268275062
3712	-0.00210660262177
3713	-0.00828360271149
3714	-0.00848108577894
3715	0.00740602300007
3716	-0.011712612442
3717	-0.00874094677301
3718	0.00978736765487
3719	-0.020691146865
3720	0.0633760544574
3721	-0.0292972942923
3722	-0.0022956478895
3723	0.00128603271562
3724	0.0196744497412
3725	-0.00864164282581
3726	-0.0129521277285
3727	-0.00135955249565
3728	-0.0103001525745
3729	-0.00743747305621
3730	-0.0102832090882
3731	0.023333527656
3732	-0.0126655605581
3733	-0.023967499052
3734	-0.00218061991249
3735	-0.0730355955071
3736	0.0113560928983
3737	-0.0180102713553
3738	0.0203509819793
3739	0.00121380339213
3740	0.00636242933656
3741	0.00514768997874
3742	-0.00700780231941
3743	-0.0223814570773
3744	-0.00751939358194
3745	-0.0130796109089
3746	0.0223285315063
3747	-0.00828788933942
3748	0.00333195718324
3749	-0.0277455446824
3750	-0.0379104886601
3751	0.0052982850994
3752	-0.0214887073807
3753	-0.0231792661116
3754	0.0607557662066
3755	-0.0257696135149
3756	-0.00172799890324
3757	0.0180790092422
3758	0.00537568187997
3759	0.0195864397875
3760	-0.00322884467385
3761	-0.0495206563509
3762	-0.0172600180438
3763	0.0199493364191
3764	0.00925496870239
3765	0.00436602910526
3766	-0.0250290954015
3767	-0.0195849615449
3768	0.0146606169173
3769	0.0171397327149
3770	-0.00702614763269
3771	9.44124048295e-05
3772	0.0142860390767
3773	-0.0227781244125
3774	-0.00697385467308
3775	-0.0164170556533
3776	-0.0213894820673
3777	-0.0159457673159
3778	0.0230581001892
3779	0.0110734197848
3780	-0.00356005079695
3781	0.017683795735
3782	-0.00993321512646
3783	-0.0241114078584
3784	0.00762430358987
3785	0.0126276197319
3786	0.0113866595572
3787	-0.0424569572775
3788	0.00372832771054
3789	-0.0192809120727
3790	0.016202886231
3791	0.046504867315
3792	-0.00570163629587
3793	-0.00744634918579
3794	-0.0203733396792
3795	0.0139100323529
3796	0.0991611383385
3797	0.0064321218936
3798	0.0140893638152
3799	-0.0230890994264
3800	0.00273129650406
3801	-0.00542948963221
3802	-0.0230584784932
3803	-0.0136386163483
3804	-0.0220585526375
3805	0.000922021809187
3806	-0.0115646744411
3807	-0.0109361502408
3808	0.0868346212479
3809	0.00354521817708
3810	-0.00663187455533
3811	-0.0210502925623
3812	0.00189324213263
3813	-0.0124384923216
3814	-0.0152067144283
3815	-0.0286521945012
3816	0.129087708465
3817	0.0128010707877
3818	0.00450473803675
3819	-0.0157300421327
3820	0.0110737646174
3821	-0.000165553817766
3822	0.00172366085897
3823	0.00929552061392
3824	-0.0148779362615
3825	-0.0166639761606
3826	-0.0163876720998
3827	0.0152119642459
3828	-0.0177897094994
3829	-0.0229183470369
3830	0.0224055697713
3831	-0.0193969608315
3832	-0.0275238277077
3833	0.0167166543321
3834	-0.0105885412408
3835	-0.00444124008191
3836	-0.0227699446514
3837	-0.128423883457
3838	-0.00973157800622
3839	-0.00794325729613
3840	-0.0196673202961
3841	0.0163210491237
3842	-0.000562460128454
3843	-0.0160665092127
3844	0.00862664084032
3845	0.00884516112085
3846	-0.012028388099
3847	-0.00172904539911
3848	-0.00250879529165
3849	-0.0191486233705
3850	-0.0263204484977
3851	0.016816646916
3852	0.00168921248904
3853	0.020157552045
3854	0.0128356346282
3855	-0.030859416679
3856	-0.0520631860258
3857	-0.00314672110783
3858	-0.0562976720195
3859	-0.00861175051686
3860	0.00854080629318
3861	0.000592509277093
3862	0.00550236748001
3863	-0.00398838463498
3864	0.00729473262458
3865	-0.0296675709161
3866	-0.0144938781669
3867	-0.0152095752399
3868	-0.0222862777655
3869	0.0104788281947
3870	-0.0147974084674
3871	0.0166406918261
3872	-0.0252363802131
3873	-0.00907686209434
3874	0.0222336460368
3875	-0.016228461537
3876	-0.0228111742686
3877	0.0894131606108
3878	-0.0145984053232
3879	0.00362831971071
3880	-0.0157095206899
3881	-0.00227552064405
3882	-0.00656457779356
3883	-0.0162925895421
3884	-0.00311792464041
3885	-0.00344353625101
3886	-0.0115634161071
3887	0.0094389488628
3888	0.0234043145207
3889	-0.0163758056707
3890	-0.0320967197529
3891	0.000165647100046
3892	-0.00228120758313
3893	-0.00213477808303
3894	-0.0155356691712
3895	-0.00208300097758
3896	0.000972578893547
3897	-0.024724218928
3898	-0.00598736699844
3899	0.00298858625563
3900	-0.0196945745811
3901	0.00797864399247
3902	0.00849726606258
3903	0.00984894641423
3904	-0.014692457521
3905	-0.0217431564767
3906	-0.0211996939313
3907	0.0577630622027
3908	0.311065699957
3909	0.00473425100298
3910	0.0334881066048
3911	0.0121101443431
3912	0.0134224609185
3913	-0.0110468424178
3914	0.0514965298825
3915	0.0728167006204
3916	0.0167456099975
3917	0.00584621162905
3918	-0.0519891359151
3919	0.0183929929563
3920	-0.00775250543401
3921	0.00399976974674
3922	0.0059468826212
3923	-0.0236913545659
3924	0.012525318799
3925	0.014722876699
3926	-0.0179428881803
3927	0.0201158059378
3928	-0.0831085160679
3929	-0.0730367706047
3930	0.00992795592161
3931	-0.0214646516979
3932	-0.0456393609522
3933	0.0237079861
3934	0.00819382535869
3935	-0.0436039965287
3936	-0.0408116892052
3937	0.0202017105305
3938	0.000959875736848
3939	0.00691025208624
3940	0.0817435359942
3941	0.0101436446956
3942	0.0988083589135
3943	-0.0057794054806
3944	0.0118540409698
3945	-0.0550864246
3946	0.00872692568926
3947	0.0105778070024
3948	0.0147709024612
3949	-0.0243882389926
3950	-0.000208569569334
3951	-0.00811796696231
3952	-0.00703742332671
3953	-0.00190717321803
3954	0.0163844109868
3955	-0.00176797744301
3956	0.00913255685089
3957	0.010674559158
3958	-0.00933896062844
3959	0.0170336163742
3960	-0.00707340267414
3961	-0.000456153889965
3962	0.0734056419249
3963	0.0765789352196
3964	0.119519736365
3965	0.173376412135
3966	-0.0213611350043
3967	0.00343844077258
3968	-0.0140425368351
3969	-0.0028002881193
3970	0.0107396656774
3971	-0.0227076944688
3972	-0.0127388731224
3973	0.0131373869416
3974	-0.0113049872989
3975	0.00686636059059
3976	-0.0237006120366
3977	0.00113414462736
3978	-0.0217745780089
3979	-0.0155133004929
3980	0.0116827640764
3981	0.00409427567192
3982	-0.00162363961914
3983	0.088252714942
3984	-0.00678809125734
3985	0.00443519467243
3986	0.00910231665856
3987	0.0131976664892
3988	0.00429162304164
3989	0.0203017272804
3990	-0.0165722370562
3991	0.0162930938479
3992	-0.0853535939416
3993	0.0208284059211
3994	-0.0176834754265
3995	0.0237422386641
3996	-0.0114626506235
3997	0.0122608594152
3998	0.0214221253992
3999	-0.0029308705244
4000	-0.0071869812645
4001	0.0104592588934
4002	0.00424027578842
4003	-0.0196775000725
4004	0.00301716340789
4005	-0.0250046337379
4006	0.0202540154605
4007	0.0213977218283
4008	-0.0192540482873
4009	-0.0254802569722
4010	-0.00658410939931
4011	-0.022364717918
4012	-0.00589791260448
4013	-0.00358420129006
4014	-0.00279444159146
4015	-0.0405023185474
4016	-0.00975103895989
4017	0.0118359302019
4018	0.00289681920645
4019	0.00251137017663
4020	0.00481750692803
4021	0.0017494074424
4022	-0.0558680886682
4023	-0.0219271067592
4024	-0.0226065709479
4025	-0.00859244045459
4026	-0.000425570718154
4027	-0.0284397632154
4028	-0.0140336040087
4029	-0.00443847076538
4030	0.00181375171033
4031	0.0190306481463
4032	-0.0204675826133
4033	-0.0184367743632
4034	-0.00270470988235
4035	-0.00865492670891
4036	-0.0130357870521
4037	0.00105254591572
4038	0.00300394843858
4039	0.00227937247378
4040	-0.034461941686
4041	0.0141102685857
4042	-0.00909571528917
4043	0.0219449919449
4044	-0.0288879886997
4045	0.0122548704021
4046	0.010857717998
4047	-0.0093424185031
4048	-0.0260724346223
4049	0.00300671363783
4050	-0.0111264882493
4051	0.0115329351524
4052	-0.01556699823
4053	-0.0190277096145
4054	0.0208534764952
4055	-0.00868185559758
4056	-0.0107221310046
4057	0.0233549934395
4058	0.0057889832065
4059	-0.00194743881017
4060	-0.0265298326554
4061	0.0215972906571
4062	-0.0211695701038
4063	0.0175006676162
4064	-0.074272244047
4065	0.00893502651534
4066	-0.022890593118
4067	-0.0158289024258
4068	-0.00275324287626
4069	0.00660559419827
4070	-0.0136815561359
4071	0.0165938050911
4072	-0.00862303817237
4073	0.0210990775453
4074	0.0604858063599
4075	0.0100217000537
4076	0.0181737070082
4077	-0.0168547158007
4078	0.0190705236277
4079	-0.0247288139695
4080	-0.0188474196469
4081	-0.0077490729036
4082	-0.00309516505188
4083	0.045230035093
4084	-0.0196148844847
4085	0.00543810456051
4086	0.01510458734
4087	-0.0284084641163
4088	-0.0175653422091
4089	0.00218050189694
4090	0.0219485240525
4091	-0.0619994500311
4092	-0.0122341534644
4093	-0.0165267117539
4094	-0.00608354473895
4095	0.0146132773251
4096	-0.0252643097431
4097	-0.0313472662441
4098	0.0231214177644
4099	-0.0117145397156
4100	0.0143385117083
4101	0.0218386330331
4102	-0.0111349463885
4103	0.000153957208023
4104	2.25735610645e-05
4105	0.0176464618107
4106	-0.0123275042866
4107	-0.0075427576609
4108	-0.0338791641225
4109	-0.00178437505636
4110	0.0116070882842
4111	0.000684085627147
4112	-0.0173749319991
4113	-0.0163326238535
4114	-0.0126388338478
4115	-0.00134148792343
4116	-0.0162830526017
4117	-0.0211821320822
4118	-0.012764127562
4119	-0.00608484206988
4120	0.00547466549032
4121	0.0225310607843
4122	-0.0160613925995
4123	0.0104206995431
4124	0.000334753970216
4125	-0.00736638255744
4126	0.00963655341299
4127	0.01643642068
4128	0.0222609574768
4129	-0.00265302460402
4130	0.0127621582348
4131	-0.0219976819479
4132	0.0063749157423
4133	-0.00816633858554
4134	0.000208864233719
4135	-0.000673134274474
4136	0.019066540627
4137	-0.00914017984294
4138	0.00163173548967
4139	-0.0138948263333
4140	-0.0190979937352
4141	0.0215397482907
4142	-0.000274565715693
4143	0.0186185214183
4144	-0.00841451422693
4145	-0.0245196829177
4146	-0.0136080985994
4147	0.0172563453101
4148	-0.000110002825336
4149	-0.0251571463631
4150	-0.00640013797304
4151	-0.0181275067926
4152	-0.00592224470385
4153	0.000646303704807
4154	-0.021051363526
4155	-0.0111998144341
4156	-0.013566342165
4157	0.0154830931773
4158	0.0119340662405
4159	-0.00649887116878
4160	-0.00378013245452
4161	0.0123817469779
4162	0.0231474618215
4163	-0.0239027038673
4164	-0.0197878859233
4165	0.00463706972806
4166	-0.0107248009119
4167	0.0193224413778
4168	-0.0115228640717
4169	-0.0116210941564
4170	0.0200601880076
4171	0.0132616867473
4172	-0.0101003197188
4173	-0.0178329734248
4174	-0.0241055823701
4175	-0.00114972200845
4176	0.00263513567874
4177	0.0142238407309
4178	-0.005786664755
4179	-0.0386062798924
4180	-0.0232431732956
4181	-0.0174054454968
4182	0.0182553634909
4183	-0.0145185808593
4184	0.00695414604511
4185	0.0105816613482
4186	-0.000453887251705
4187	-0.0324715414963
4188	-0.0070342594354
4189	0.000594001678661
4190	0.0196814068871
4191	-0.0233822733456
4192	0.0138597140698
4193	0.0241578501877
4194	0.00593454928486
4195	0.0384303563419
4196	0.0409782425494
4197	-0.00772718626373
4198	0.0218894620221
4199	0.129254809038
4200	-0.0352686444058
4201	0.0128282445945
4202	0.0213218525262
4203	-0.0205065772649
4204	0.0181568799526
4205	-0.017261626954
4206	-0.0132995135112
4207	-0.0200387933955
4208	-0.00464618471565
4209	-0.0032606837224
4210	-0.0295226158106
4211	0.00403093127031
4212	-0.0441117927283
4213	-0.00301088299635
4214	-0.0170118096085
4215	0.00434086954426
4216	0.0157852528285
4217	-0.00460145982548
4218	-0.029865936622
4219	0.0023744320583
4220	0.0112045686884
4221	-0.00172669975137
4222	-0.00955008075832
4223	-0.0032323597192
4224	0.010730315123
4225	0.0210542867152
4226	-0.0298644777993
4227	-0.0229245902413
4228	0.0180877545552
4229	0.00935325726027
4230	-0.0121413419111
4231	0.0110144528768
4232	-0.0769726950602
4233	-0.0189188043252
4234	-0.00908541003217
4235	-0.0188828432168
4236	-0.000694677484863
4237	0.00394976133063
4238	-0.0295185542556
4239	0.0127592946683
4240	0.0164679648711
4241	0.0768306621013
4242	0.0175720746162
4243	-0.00885236926657
4244	-0.0184649571741
4245	0.0099685383984
4246	-0.024312583842
4247	-0.0144188032048
4248	-0.0148125050841
4249	-0.00868803327934
4250	-0.02996645717
4251	0.0212679193249
4252	0.00353421347873
4253	0.0163241791699
4254	-0.0435738006897
4255	-0.0193244755942
4256	0.00271510313496
4257	-0.0235333590328
4258	0.0240734716232
4259	-0.00724690740912
4260	-0.00425976465499
4261	0.0147757913854
4262	0.0671934970527
4263	-0.01328998601
4264	-0.0197977334788
4265	-0.0117773095201
4266	-0.00759569538987
4267	-0.00749698862858
4268	0.00739155497069
4269	0.00361962247826
4270	-0.043473525941
4271	-0.00656849909026
4272	-0.0161082808199
4273	0.00882713929902
4274	-0.0243136280653
4275	0.00671154708999
4276	-0.000266403486373
4277	0.0176285304117
4278	-0.00509874116145
4279	-0.0136103263241
4280	-0.0221069506423
4281	-0.0109925788703
4282	0.0207890129768
4283	0.0122340673867
4284	-0.244688452374
4285	-0.239453851488
4286	-0.00336679453539
4287	0.0239121923574
4288	-0.00304649103955
4289	0.00986877644412
4290	-0.0194873037734
4291	0.020094975328
4292	-0.0231673634783
4293	-0.0158515455943
4294	0.00186994305466
4295	0.0784795431332
4296	0.0140647261603
4297	0.00025877705224
4298	0.002555834677
4299	0.0172107910931
4300	-0.0019773610389
4301	0.00900436481805
4302	-0.00287532442329
4303	-0.000334970434798
4304	-0.00727039667154
4305	0.00553411036359
4306	-0.0164673193223
4307	0.0142166578942
4308	-0.0175953477969
4309	-0.0100634061703
4310	0.00477332209172
4311	0.00454351342827
4312	-0.0131867974763
4313	0.0011298586924
4314	0.00637911247537
4315	0.000776330212735
4316	0.00972538600272
4317	-0.00566267193444
4318	0.012813997467
4319	-0.0144098492882
4320	-0.0156560430838
4321	0.0189814341653
4322	-0.0704780002667
4323	0.110979621411
4324	0.0128526520503
4325	0.010930030531
4326	0.0131393985554
4327	-0.0044181469156
4328	0.00776116242107
4329	0.00645183908956
4330	-0.0241379713353
4331	-0.000602480931416
4332	-0.00368231195918
4333	0.00726488245491
4334	-0.0211073473976
4335	-0.0192897950552
4336	0.00879615768558
4337	-0.0229548446887
4338	0.00104121921096
4339	0.00144456554575
4340	0.00502627521351
4341	-0.00359548177684
4342	-0.0150365768339
4343	-0.00882956366225
4344	-0.021587699744
4345	0.0118555829102
4346	0.0180396891764
4347	-0.0493426006766
4348	-0.0321403771373
4349	0.00538172944891
4350	-0.0176440088894
4351	0.0134344955519
4352	0.00339779219312
4353	0.00831445446974
4354	-0.0107280795221
4355	-0.0223988579783
4356	-0.00815710613866
4357	-0.00733541975506
4358	-0.0281474379369
4359	-0.047533274848
4360	-0.0130356194298
4361	0.00640946389647
4362	-0.0245907073496
4363	-0.000210791405374
4364	-0.0151661419345
4365	-0.0156068977687
4366	-0.0115613377649
4367	0.018289041597
4368	0.0793568536107
4369	-0.0095321990152
4370	0.00149958933404
4371	0.00139704400075
4372	0.0184339714616
4373	-0.0156654096142
4374	-0.000118713015862
4375	-0.0137114649396
4376	0.00653597421658
4377	-0.026863072815
4378	0.00466170552544
4379	-0.0186648750189
4380	-0.00567075350807
4381	-0.0152405121138
4382	-0.00500476251325
4383	-0.0246927067304
4384	-0.0114836160018
4385	-0.00610870125078
4386	-0.0184074408967
4387	0.00876042844097
4388	-0.0245016028814
4389	0.0159436101803
4390	0.0161102777812
4391	-0.0130701341264
4392	0.00145920927603
4393	-0.00887532711314
4394	-0.0026594612215
4395	-0.0160105294927
4396	-0.0193344111698
4397	0.00889508003985
4398	-0.0199633132233
4399	-0.00227268912449
4400	0.0134386774772
4401	0.0108848590481
4402	0.0147674547682
4403	-0.0175400649417
4404	0.0267882926347
4405	-0.00399103756813
4406	-0.0155084487894
4407	-0.00475206948777
4408	-0.00243061413964
4409	-0.00717146670462
4410	0.000653094733325
4411	0.017432145018
4412	0.024231395063
4413	0.00131254613751
4414	-0.00472598584133
4415	-0.00821061738156
4416	0.0239808414969
4417	0.00843690683787
4418	-0.000471613227954
4419	0.00606739769785
4420	-0.0210209761756
4421	-0.010277664488
4422	-0.0202848065327
4423	0.179435487226
4424	-0.022043901289
4425	0.0240744175168
4426	-0.00559637347683
4427	0.0246197408547
4428	0.0075018246101
4429	0.0125097812679
4430	-0.00448189501991
4431	0.0199840047519
4432	0.00904639374668
4433	-0.0120860847573
4434	-0.0215677320594
4435	0.000573399420604
4436	0.0808254915803
4437	0.0852234589673
4438	-0.0147736119802
4439	0.000943995483589
4440	-0.0192910936311
4441	-0.00488982193397
4442	-0.0201696100129
4443	0.0133937287062
4444	0.00116612880865
4445	0.0131158432599
4446	-0.00499516992959
4447	-0.0248047613981
4448	0.00758551270484
4449	0.00866267040492
4450	-0.00565779009021
4451	0.0221528533312
4452	-0.0139463577927
4453	-0.0401018466055
4454	-0.00511906783938
4455	0.252282234879
4456	0.0831859082712
4457	0.0289210215646
4458	0.000956746538674
4459	0.00658075261851
4460	-0.0126908717032
4461	0.00763101979826
4462	-0.00150352695441
4463	-0.00922327197011
4464	0.0161513845791
4465	-0.0621830879401
4466	0.0177609337366
4467	0.0033920067659
4468	0.0118264450363
4469	-0.00978526922941
4470	0.015493435644
4471	0.00106568691517
4472	0.0211986480775
4473	-0.00239645957571
4474	0.019071832248
4475	-0.0290525472084
4476	-0.000443147505036
4477	0.019579645067
4478	0.00563827632055
4479	-0.00403353892207
4480	-0.0179032205594
4481	0.0122050559227
4482	0.00368810081103
4483	-0.0283108734527
4484	-0.0136477915008
4485	0.0209479022198
4486	-0.019250740261
4487	-0.00399614247115
4488	0.0207239927092
4489	0.00773524999306
4490	-0.00120877006645
4491	-0.0122697549142
4492	-0.00276284439388
4493	-0.0124180726777
4494	0.00537825395004
4495	0.00558358115534
4496	-0.0276210465031
4497	-0.020631590893
4498	0.0184073940503
4499	0.00593176670224
4500	-0.00335853242252
4501	-0.0227642569482
4502	0.004127487691
4503	0.00298488604065
4504	-0.00124323131915
4505	-0.016690735335
4506	0.0107631855443
4507	-0.00278408865995
4508	0.00225248929669
4509	0.00985348324528
4510	-0.0240634138791
4511	0.0189590259684
4512	-0.00116220346709
4513	-0.00164284628903
4514	0.00469061008621
4515	0.00704859695218
4516	-0.0258089324496
4517	0.0135311013385
4518	-0.00590493354564
4519	0.0202686089926
4520	0.00606738285575
4521	0.0111545242514
4522	0.0211372571761
4523	-0.00483453471878
4524	0.001812240507
4525	-0.00827995214082
4526	0.497150973328
4527	-0.0280634404124
4528	-0.0242094376127
4529	0.021795301276
4530	0.010421890964
4531	0.0170116332608
4532	-0.027563653458
4533	0.0140813770207
4534	0.0782564341984
4535	-0.0157546921019
4536	-0.0227312712507
4537	0.000166829661224
4538	-0.00992691042663
4539	-0.0290083807037
4540	0.0218702656918
4541	0.00744725703121
4542	-0.0185122005291
4543	-0.00808617522662
4544	0.0874855087094
4545	-0.00053723467598
4546	-0.00511273277601
4547	0.00390829585791
4548	0.0145137381482
4549	-0.00661982428452
4550	-0.0213203637751
4551	0.0193412852729
4552	-0.00659506731435
4553	0.00993450959229
4554	0.01018780672
4555	0.0139898822404
4556	0.0229873336264
4557	-0.00802503565929
4558	0.0211257493895
4559	-0.0149077454288
4560	-0.0400401895883
4561	-0.00445104922752
4562	0.00375278048114
4563	0.00813152621151
4564	0.011968143625
4565	-0.0273474611449
4566	-0.0135049965472
4567	-0.00143220224917
4568	-0.0244200906821
4569	-0.00164042510035
4570	0.0113837658214
4571	-0.0212926217746
4572	0.0236459500682
4573	-0.00903321683759
4574	0.0130333384925
4575	0.0159295585614
4576	0.00415009415824
4577	0.00525993205066
4578	-0.0101630196381
4579	0.000412119033141
4580	0.00936599351327
4581	-0.0616909749705
4582	0.0061080444114
4583	-0.00353920104692
4584	0.0680797163884
4585	-0.00312446517993
4586	-0.0252078973603
4587	-0.000883421894466
4588	0.00825044101277
4589	0.00185881532489
4590	-0.00460454645945
4591	-0.015681430859
4592	0.00395322203396
4593	0.00550560688306
4594	0.00828662670761
4595	-0.0209172788628
4596	0.0200194198621
4597	-0.00188395574753
4598	0.0105199156216
4599	-0.0370607914428
4600	0.0175657445108
4601	-0.0314229589657
4602	0.0159009833804
4603	-0.0146405762959
4604	0.0214251399779
4605	0.00182056667684
4606	0.00898765435845
4607	-0.00599545829012
4608	0.0156509168766
4609	-0.011425318112
4610	-0.0154361053509
4611	-0.00729904017512
4612	0.00772536355631
4613	-0.00991100482213
4614	0.00645964145714
4615	-0.010632062723
4616	-0.0138295197746
4617	0.00240331780425
4618	-0.0272725872701
4619	0.00517552350272
4620	0.0126091782509
4621	0.00802203007917
4622	0.00193179644216
4623	0.00509491469718
4624	0.0234675578908
4625	0.0228939130094
4626	-0.00738695844451
4627	0.00656353355098
4628	0.00273937212321
4629	0.00160319980206
4630	-0.00102282556892
4631	-0.0367437901732
4632	-0.0112615826811
4633	-0.00738664709121
4634	0.0152553148802
4635	-0.0198334559078
4636	0.0213018652423
4637	-0.0215714391053
4638	-0.00356659792231
4639	-0.0139163911463
4640	-0.0151202754236
4641	-0.000435572601548
4642	0.018880031612
4643	-0.0142649074876
4644	0.099781549113
4645	0.00490921960301
4646	0.0175082591863
4647	-0.024388590957
4648	0.0156322938203
4649	-0.00474265279185
4650	0.00286173186069
4651	0.00318554286573
4652	0.0161757002478
4653	-0.025788588602
4654	0.0015651478352
4655	-0.012588312937
4656	-0.00460773755865
4657	-0.0167805512991
4658	0.0120099435604
4659	-0.0172890364549
4660	-0.0160429863748
4661	-0.00912995133258
4662	-0.00396022692899
4663	-0.0120332300431
4664	0.0229003368383
4665	0.00139487928017
4666	0.00192485151794
4667	-0.00948485955262
4668	0.0104890910696
4669	0.00521170378714
4670	0.0220613317245
4671	0.0176439245764
4672	-0.029084320977
4673	-0.000201631432631
4674	0.0205366403506
