0	-0.525056581275
27	-0.502258417357
28	-0.547105846917
29	-0.0197941429702
30	-0.423773247823
31	0.0127762139382
32	-0.550560704384
33	-0.66617375921
34	-0.653842934423
35	-0.49505221066
36	-0.520305745335
37	-0.776751376297
38	-0.665591256299
39	-0.495053525348
40	-0.525056581275
41	-0.882976889313
42	-0.550577276325
43	-0.139411686753
44	-0.181688909661
45	0.0774916056258
46	-0.230604928191
47	-0.277816441859
48	-0.215305670202
49	0.00792559432958
50	-0.490555282329
51	0.112938706837
52	-0.549652256201
53	-0.15591513794
54	-0.188053137713
55	-0.384979194821
56	-0.376055701503
57	-0.529045196203
58	-0.382412009541
59	-0.443650503363
60	-0.522809685948
61	-0.0131625643495
62	0.249211650226
63	-0.130426961478
64	-0.00295141779664
65	0.00751532666357
66	0.0271629549881
67	-0.291080341912
68	-0.234964721305
69	-0.718453742437
70	-0.711286042898
71	0.0107038486752
72	-0.391538894395
73	-0.291611809947
74	-0.00173467920333
75	-0.0291824144539
76	0.275590052026
77	-0.0195292655445
78	-0.355136062563
79	-0.0632518124632
80	-0.0152987153388
81	-0.278325135071
82	0.0094617121143
83	0.00966240867594
84	-0.0124800724784
85	-0.325572070251
86	0.07964999254
87	-0.458416494343
88	-0.540550381098
89	-0.452251513896
90	-0.06286039553
91	-0.0748504609198
92	-0.302265239019
93	-0.185754527012
94	-0.192521081076
95	-0.251391774558
96	0.00886737233561
97	0.0416568195266
98	0.00961853692649
99	-0.171856375064
100	-0.0500522607537
101	-0.158951137304
102	-0.0183913995383
103	-0.582036935844
104	-0.0680748180121
105	-0.0161885174116
106	-0.00356627752483
107	-0.455971334824
108	-0.0744966597561
109	0.00403674647437
110	-0.0328110169824
111	-0.0123901807575
112	0.0125248047413
113	-0.641469064771
114	-0.593020769986
115	-0.64168926102
116	-0.0049057942078
117	-0.488982593898
118	-0.0457319889061
119	-0.0991287061248
120	-0.0909757907329
121	0.059494160989
122	-0.0054550002535
123	-0.196193583322
124	-0.202236373821
125	0.000408634475961
126	-0.0100008237538
127	-0.547991065591
128	0.151425224818
129	-0.00650243316025
130	-0.147333452025
131	0.141617935704
132	-0.0276395934425
133	-0.607355695439
134	-0.597128314823
135	-0.606767488881
136	-0.00609932682192
137	-0.203042543758
138	-0.20149805496
139	-0.299540475566
140	-0.177104932407
141	0.0152931365074
142	-0.196450407782
143	-0.00926452166576
144	-0.0452263051931
145	-0.548702250497
146	0.17928652961
147	-0.0451109115557
148	-0.0010173969311
149	-0.220591472463
150	-0.0577221483382
151	-0.0678931747558
152	-0.0569703760339
153	-0.00490015806337
154	-0.0214954651518
155	0.0156985914728
156	-0.0551069818087
157	0.0143050959513
158	-0.332653285585
159	-0.32826575951
160	-0.0496709097441
161	0.0108533706776
162	0.172089208456
163	0.011356833541
164	0.00835215071825
165	-0.0771309833254
166	-0.0480502855899
167	-0.123240088633
168	0.0189896834347
169	0.0155512218726
170	-0.260666114389
171	-0.130466903122
172	0.111673463521
173	0.117404305693
174	-0.116596374951
175	-0.246842065356
176	0.0166769918291
177	0.00901292944157
178	-0.00583961476004
179	-0.279452449385
180	-0.707555698453
181	-0.711230426191
182	-0.713335271539
183	0.00422335540581
184	-0.261668036763
185	-0.13201327373
186	-0.12299796604
187	-0.00917254808845
188	-0.208834081679
189	-0.000423388006951
190	0.00261741242634
191	-0.396334992157
192	0.00187927243138
193	0.0385181090601
194	0.00988973909716
195	-0.410317581038
196	0.197679697618
197	-0.05954221794
198	-0.0156462065317
199	-0.239089607267
200	-0.163549072814
201	-0.131420905811
202	-0.0146019732821
203	-0.534495413204
204	-0.487727315702
205	-0.00470361041196
206	-0.0828154236041
207	0.0191422576188
208	-0.0208062818557
209	-0.581850569764
210	0.109613455554
211	-0.0125990129377
212	-0.00449833924201
213	-0.212299323296
214	-0.209537681635
215	0.0329737254191
216	0.0892364266981
217	-0.0362535712517
218	-0.0025088693943
219	0.0204311262245
220	0.120175089871
221	0.0876244069664
222	0.0610821440625
223	0.0135781245193
224	0.00924114712384
225	-0.0282777074979
226	-0.0120902121824
227	0.214961877741
228	-0.197907209297
229	-0.200864586098
230	-0.0139042848765
231	-0.306776305913
232	-0.0198831063593
233	-0.0788708994016
234	-0.11768440714
235	-0.0832085169445
236	-0.0228984691489
237	-0.161429679841
238	0.00566753178016
239	-0.0215033925004
240	-0.149722261416
241	-0.00643192579851
242	0.0853407439416
243	0.0143087562672
244	-0.0265715583146
245	-0.158273545081
246	0.0138643535623
247	0.212477256479
248	0.0431216169906
249	0.0127289030734
250	-0.0352795295632
251	-0.0117824411202
252	-0.0108510601608
253	-0.196797488449
254	-0.178387708836
255	-0.0408216614552
256	-0.0028921667838
257	0.00569235024012
258	-0.567257543181
259	-0.197642688864
260	0.108779332404
261	0.107578081861
262	0.376036492965
263	0.0151271133782
264	-0.0869574992578
265	-0.133290304077
266	0.0177049857242
267	0.164986988562
268	-0.106444345995
269	-0.104071032507
270	0.848157528708
271	-0.0109183674151
272	-0.329636932728
273	-0.306540358385
274	-0.186923939071
275	-0.195412283348
276	0.00857392592633
277	0.0103587469437
278	-0.0301352267921
279	0.013121206963
280	0.111411805424
281	-0.112252616301
282	-0.175849531859
283	-0.180693699858
284	-0.0199675032263
285	-0.1931687763
286	-0.112926878047
287	-0.0761872854289
288	-0.0207520245746
289	-0.109046595698
290	-0.0267275864679
291	0.0474323912784
292	0.0118940875231
293	-0.112566920374
294	-0.00857675090927
295	0.0552496928228
296	-0.351203164463
297	-0.012602248431
298	0.049648887406
299	-0.0246757661601
300	-0.165604760602
301	0.0679074910795
302	0.139246555926
303	-0.0184301094812
304	0.115035191187
305	-0.0451989691532
306	-0.0610027161871
307	-0.245503556488
308	-0.0161401577405
309	-0.882049558359
310	0.0687251073153
311	-0.00727358159272
312	0.00905520968976
313	-0.00432659845352
314	-0.101360635262
315	-0.426529831288
316	-0.244409937619
317	0.0148710664707
318	-0.0347278198364
319	-0.0066803849556
320	0.0815262079218
321	-0.0515397204875
322	-0.0123237646068
323	-0.0229271290375
324	0.0211529190437
325	-0.354888933117
326	0.0957273463076
327	-0.267445692142
328	0.0673000563098
329	-0.0125898567982
330	-0.0437075910628
331	-0.238934612522
332	-0.0131471413469
333	-0.336473133035
334	-0.225541352391
335	0.00333441452224
336	-0.0368603462634
337	-0.00647443269504
338	-0.0196306109185
339	-0.350752547655
340	-0.108779094872
341	0.0832527273138
342	0.00459832618166
343	-0.00439491990445
344	-0.0423663401111
345	-0.0965068647291
346	-0.0208286563653
347	-0.0139567703733
348	0.0212963988809
349	-0.296434982131
350	-0.0262836685882
351	-0.016538056643
352	-0.0237731392661
353	-0.423921005515
354	-0.146820379196
355	0.0149955545311
356	-0.437309652867
357	0.0172979064494
358	0.00748393309175
359	-0.00840854209954
360	0.00345060087734
361	0.0231454565471
362	-0.0180353163647
363	0.0496272389228
364	0.116709929511
365	0.0133792152297
366	-0.0609970879999
367	-0.0558948784455
368	0.0034252862401
369	-0.111189431044
370	-0.441246542087
371	-0.277929879027
372	0.0461404361231
373	-0.0782528654928
374	-0.1086939073
375	-0.0319314638007
376	-0.0823011581789
377	0.0226971069368
378	-0.0202884475751
379	0.010592830356
380	-0.126889735006
381	-0.0045309945483
382	-0.250904477339
383	-0.0160344971832
384	0.0179746090818
385	-0.000260125268265
386	-0.0257592125087
387	0.0248643924282
388	-0.0248748062917
389	-0.0933733958075
390	-0.120007480385
391	-0.114424346594
392	0.071392461434
393	0.289096483888
394	-0.00849109226216
395	-0.0371808727099
396	0.255015884651
397	-0.0189513380693
398	-0.0058908012894
399	-0.0267639937491
400	-0.0238976825321
401	-0.00209131128754
402	-0.0422787051339
403	-0.0216816910863
404	-0.139372818448
405	-0.110563266204
406	0.0112388371837
407	-0.0286622972414
408	-0.222209082303
409	-0.219250669371
410	1.1195994765
411	-0.00531794667534
412	0.122247112708
413	0.0950371166821
414	-0.0120844800097
415	0.00379833849858
416	-0.00439648713462
417	-0.0892390382964
418	-0.016273609885
419	0.162487471469
420	0.121750831381
421	-0.00781296677043
422	0.187981097373
423	-0.0100530720099
424	0.0371696265951
425	-0.113589858878
426	1.05191022175
427	-0.178835453158
428	-0.0273393564294
429	-0.432984026052
430	-0.0252732479551
431	0.0277041991424
432	-0.00317809213282
433	-0.00399327410399
434	0.0146545191437
435	-0.222120414819
436	-0.242906548763
437	-0.273868346331
438	-0.02383430461
439	-0.017069560754
440	-0.060628529788
441	-0.00329051659939
442	-0.0439415446199
443	-0.0161698857067
444	-0.337131242954
445	-0.307476198494
446	-0.00507495950754
447	0.00075251780462
448	0.065706943365
449	-0.0200742096645
450	-0.461181276856
451	-0.0392321242827
452	-0.0592480028646
453	-0.0204077724256
454	-0.108144951003
455	-0.186482112047
456	-0.096245551269
457	-0.000262360432947
458	-0.00778492204526
459	0.00457167474395
460	-0.0243669877572
461	0.0105457530738
462	0.000943238694249
463	-0.0206051474718
464	0.0178811157999
465	0.0175918218724
466	-0.00407184019177
467	-0.00601806652078
468	0.00272248192175
469	0.0126220121987
470	0.00960494911172
471	-0.0332021701789
472	0.0542850602115
473	-0.00807789897807
474	-0.0136355312483
475	0.0143586672032
476	0.00429167832197
477	-0.0173409179222
478	-0.0983825666147
479	0.0399506841546
480	-0.0288411752669
481	0.02134699283
482	-0.0235915873222
483	-0.0230521311344
484	-0.00819186190435
485	-0.41405664388
486	-0.0771859174229
487	-0.786538224421
488	0.013502410815
489	-0.00678939314205
490	-0.157586658883
491	0.0224515295569
492	0.0350185281335
493	0.0110918864592
494	-0.328502930727
495	0.00149869838886
496	-0.090818468655
497	-0.0676669547726
498	-0.00433736004717
499	-0.150764606896
500	-0.0737640604581
501	-0.026970279489
502	-0.0203019604194
503	-0.062202533649
504	-0.00783735900202
505	-0.432235047677
506	-0.210053543555
507	-0.198843745147
508	-0.414447160609
509	-0.0192362287805
510	-0.191479942913
511	-0.201097638056
512	0.00719608749261
513	-0.0433969353541
514	0.0108967497282
515	0.0172396900537
516	-0.0263501476457
517	0.00999350803135
518	-0.00594432749786
519	0.0174546560479
520	-0.0205561982293
521	0.0215425708691
522	-0.368403443624
523	-0.021222104743
524	-0.00272237394205
525	0.0171318484894
526	-0.102097070212
527	-0.0111161402728
528	-0.0281689816885
529	-0.0263356378085
530	-0.199749877711
531	-0.0907683284591
532	0.000320149769355
533	0.0180562092775
534	-0.000716285038165
535	0.042800445998
536	-0.295390463468
537	0.0165689157966
538	0.0143005341371
539	-0.121789163343
540	-0.0255700497679
541	0.501803840157
542	0.00526045947707
543	-0.0526581386515
544	0.0788378222934
545	0.0430820050087
546	0.00629125662218
547	-0.441869660367
548	-0.274299595522
549	0.0679366193187
550	0.0706171576552
551	-0.0119175361247
552	0.0112089182022
553	0.0168521844127
554	-0.242462527662
555	-0.0598725934436
556	-0.0338702881503
557	0.00495398657646
558	0.183511290491
559	-0.0165735997351
560	-0.0147965853275
561	-0.0566380258715
562	-0.0298089786638
563	0.00116776826761
564	-0.0695229750754
565	-0.0427300323507
566	0.0154049211137
567	-0.0257526072532
568	-0.0183114070085
569	0.0234034822294
570	-0.201873046681
571	-0.339031429847
572	-0.201093480308
573	-0.00352106996018
574	-0.414143584541
575	-0.432302024071
576	-0.00366287858052
577	0.0331050431024
578	-0.00489784096552
579	-0.00853328656697
580	-0.00498231703999
581	0.00753694353762
582	-0.117128806228
583	-0.0707972942847
584	-0.0243937484494
585	-0.0898456352609
586	-0.0663844772982
587	-0.0140878228545
588	-0.295450468256
589	0.0210757485376
590	-0.48435992998
591	-0.102726889364
592	0.0138378853888
593	0.0283232013027
594	0.0128639389901
595	-0.00111079822263
596	0.00354548600872
597	-0.302483034183
598	-0.275282831386
599	-0.00215299625803
600	-0.0398254554076
601	-0.268050584417
602	-0.00594969309161
603	-0.00248133357347
604	-0.0227160084792
605	0.0383444253998
606	-0.00548168107964
607	-0.239383393098
608	-0.0163919181889
609	0.222753847369
610	0.00320116752245
611	-0.0506068163064
612	-0.0240499479616
613	0.0922260562796
614	-0.200999323906
615	-0.00235315594254
616	0.759348469976
617	-0.00625806609761
618	-0.00078919029508
619	-0.208933336938
620	-0.0884023682845
621	1.47765703102
622	-0.0015566261263
623	-0.0297921976871
624	0.133451856405
625	0.074918409114
626	-0.00215607981477
627	-0.0672252791914
628	-0.0737717034129
629	-0.567857556152
630	0.0231528591297
631	0.00521359176306
632	-0.0176666854559
633	0.00459050689013
634	-0.0995382497727
635	-0.00630309409251
636	-0.205220829759
637	0.0370168270845
638	0.0841216310055
639	-0.0144626369837
640	0.0628274022528
641	0.0537181344613
642	0.00918994398533
643	-0.120799553665
644	-0.119799912283
645	0.00897457190808
646	-0.000672979778883
647	0.00875444758333
648	0.0140248080191
649	-0.058024549674
650	0.148158874408
651	0.147693686511
652	-0.00133701403101
653	0.016160140324
654	-0.0166001432785
655	0.433704479138
656	0.00475509330252
657	-0.307613498975
658	0.0830195538233
659	0.0653245853712
660	-0.0220052427928
661	0.00845692456821
662	-0.000635545080367
663	0.0168781478218
664	-0.0210168281666
665	0.0169480978137
666	-0.057258930324
667	0.00313141663162
668	0.0114451476958
669	-0.151510136414
670	-0.35506393491
671	-0.0140274421865
672	-0.10089901822
673	0.0432725766119
674	-0.00794684246646
675	0.0112219579867
676	-0.0982794823374
677	-0.0608573573367
678	0.0104316303413
679	-0.0125139318843
680	0.0249495241798
681	0.00907253514062
682	0.00703965424499
683	0.000465593644555
684	-0.166627083439
685	-0.0338857554445
686	0.0183917932099
687	0.101063168516
688	0.114452430264
689	0.0148474754801
690	-0.270100965205
691	-0.260266606754
692	-0.0188762849861
693	0.187512535185
694	-0.0226322629416
695	-0.29793770806
696	-0.0787448333064
697	-0.0246297117006
698	0.230544230682
699	-0.00664710608862
700	-0.0494992280249
701	-0.0331459616413
702	-0.0221080715505
703	-0.190904703926
704	0.80166036531
705	-0.0180584191382
706	0.195992894193
707	-0.0316622515228
708	0.00894881867202
709	-0.00446040368979
710	-0.241766969012
711	0.0964975962489
712	0.0344649171346
713	-0.00452368127079
714	-0.0120654599303
715	-0.00496594270271
716	-0.00238840661589
717	-0.150737801492
718	-0.194799338505
719	-0.0970953969767
720	0.00330580190059
721	0.256414668306
722	0.26850319605
723	-0.231980723813
724	-0.223805707174
725	0.0237618855606
726	-0.0848560387831
727	-0.0820906242246
728	0.0232520284586
729	-0.0206179062519
730	-0.106045952998
731	-0.0987665943927
732	-0.00244173858841
733	0.0177640954386
734	-0.0121290874107
735	-0.0186597523949
736	-0.00419650905725
737	-0.0180822615395
738	-0.0304715546057
739	-0.0335976975255
740	0.0119244047991
741	-0.0157492208242
742	0.018337373865
743	0.0582303138668
744	0.0196997635247
745	0.00856775068888
746	-0.096587295109
747	-0.069789798387
748	0.010114224287
749	1.57414366237
750	0.00103433413237
751	0.107690612483
752	-0.197190001884
753	-0.199977265141
754	0.0200811711216
755	0.0112114791101
756	-0.0628255904558
757	0.0221592058702
758	-0.0232530144994
759	0.00641279886273
760	0.0139633086035
761	0.0166849758876
762	-0.084014479687
763	0.010326929665
764	-0.0180869102396
765	-0.0112972962939
766	0.00687962136564
767	-0.211183055361
768	-0.141310612125
769	-0.0386254466369
770	-0.0386129218976
771	0.0744109545327
772	0.0611930889276
773	0.0841224681013
774	0.00334278801617
775	0.228962723977
776	-0.0139760800491
777	-0.0233385281115
778	-0.0267553819476
779	0.00100858621068
780	-0.00608658174399
781	-0.025099204956
782	0.0180841157152
783	-0.10988159602
784	-0.00319166072765
785	-0.0176549846359
786	0.0148988730054
787	0.0106206368678
788	-0.0065729442438
789	-0.0133807917524
790	-0.146743589418
791	-0.00323389402277
792	-0.0213339658765
793	0.0304580146411
794	-0.00407028262817
795	-0.0170937983038
796	-0.106424373853
797	-0.0167223875262
798	0.103192793353
799	0.444996774522
800	-0.00634972872758
801	0.00562025021598
802	0.0595377746736
803	-0.0158828279913
804	0.0191781711365
805	0.0824252871219
806	-0.0167549518065
807	-0.0184276607818
808	-0.157365160192
809	0.321902486626
810	0.0605795328125
811	-0.0229548393028
812	0.0130338470641
813	-0.350502319819
814	-0.156485000133
815	0.00228055447104
816	-0.000636753625279
817	-0.121228294003
818	0.00326030311557
819	-0.292202135522
820	0.00488909965919
821	0.014296675089
822	0.063879318762
823	-0.0736929465708
824	-0.0731104173714
825	-0.0231733745843
826	0.0144122657218
827	-0.0218475872245
828	0.111736205173
829	0.316616467196
830	0.13583145459
831	0.0232428080608
832	-0.0161036805388
833	-0.00967573880377
834	-0.0790113451281
835	-0.132765135827
836	0.0163985944908
837	-0.0222330825323
838	-0.0217993004234
839	0.00927992901454
840	-0.172250015948
841	-0.0370439977912
842	-0.000451286839114
843	0.00924271623014
844	-0.189361080578
845	-0.104717150027
846	-0.0143149305706
847	0.00300539085024
848	0.00351322007227
849	0.0159896536222
850	0.0162906669712
851	-0.0495377081168
852	-0.042657051683
853	-0.0202693072048
854	-0.0129319024217
855	0.0115418508164
856	-0.00771371741898
857	0.00989765546577
858	0.180342857672
859	-0.0127919093371
860	-0.030154003103
861	-0.0160467978748
862	-0.00831906836508
863	-0.145425812215
864	-0.0349554789917
865	0.0119773105724
866	-0.0263554956892
867	-0.0181494353803
868	0.000344014081721
869	-0.247429718561
870	-0.207784160763
871	-0.00655136839341
872	-0.028012466511
873	-0.00250852308848
874	-0.203082890167
875	-0.0875276450184
876	-0.000848709528151
877	0.00858568933384
878	0.00927892577588
879	0.0180763090978
880	-0.0790604630772
881	-0.0236831252662
882	-0.300927193042
883	-0.211329221153
884	-0.00400480331869
885	-0.128306406839
886	-0.361854408201
887	0.00189101896491
888	0.0204633121224
889	-0.108045560299
890	0.0139901267412
891	-0.0175495158789
892	-0.0473425084393
893	-0.0142425993376
894	0.228866218499
895	-0.0229452392693
896	-0.160021436085
897	-0.104882750721
898	0.0396553503013
899	-0.0304978243244
900	0.0164469425786
901	-0.0094496328338
902	-0.208616831747
903	-0.091626045841
904	0.00498447792045
905	-0.0302062804062
906	-0.0126854411198
907	-0.0898542269766
908	-0.0138194258632
909	0.0514851850959
910	-0.0146587980313
911	-0.0703951360183
912	0.0161220423329
913	-0.198872113566
914	0.0156971695083
915	-0.0549147761972
916	-0.0610265255634
917	-0.00920148865254
918	0.00545465022177
919	-0.0136490887984
920	0.024251941162
921	-0.0197800973796
922	0.020097242757
923	-0.123048744698
924	-0.00788656596379
925	-0.0113677117399
926	0.0423681249479
927	0.0542857638013
928	-0.00966297562088
929	-0.110537542665
930	-0.144527219804
931	0.354904458044
932	0.0100813068549
933	-0.0472124108868
934	-0.0212149267746
935	0.0182078378146
936	-0.0239414858765
937	-0.0148218554079
938	-0.0245306120857
939	0.294765026001
940	0.325757866846
941	0.0185202255259
942	-0.0267219830451
943	0.00747725069978
944	0.001124217954
945	-0.0304787617049
946	-0.00928299645251
947	-0.0580374299924
948	0.00776033811331
949	0.00894910444268
950	0.0179622525307
951	-0.157458906779
952	-0.0839246982761
953	-0.00185049532406
954	-0.00946616459985
955	-0.275886483369
956	-0.208769892253
957	-0.00069696758042
958	-0.116189500413
959	-0.140466378457
960	0.0209590825445
961	-0.160935661887
962	-0.0890001436654
963	-0.0735573703206
964	0.0074191202007
965	-0.0351171982937
966	0.00236804553163
967	-0.00367412034269
968	-0.0249139664787
969	0.0707556618175
970	-0.00647435383621
971	0.00805844161263
972	-0.0502512710755
973	0.0118625333463
974	-0.0120139446669
975	-0.0203414944497
976	-0.0251477858168
977	0.0115173276798
978	-0.0299197823957
979	0.00749449906496
980	-0.0246187578075
981	0.00519338465655
982	-0.00423679334974
983	-0.0148247953158
984	-0.0867668675192
985	0.00691043766217
986	0.0141184389825
987	-0.0129523457842
988	-0.00502591821001
989	-0.0118192587103
990	0.0169840525226
991	-0.0372211050066
992	0.0124910748728
993	0.00163098886064
994	-0.0221516609538
995	0.0121594215559
996	-0.043486668596
997	-0.0504251729749
998	-0.0124560062625
999	-0.0219277891112
1000	0.00445394388558
1001	-0.102362984811
1002	-0.224993230064
1003	-0.190839469207
1004	-0.0191905482537
1005	0.00718457788621
1006	-0.0340477177971
1007	-0.0117054005518
1008	0.0345569379212
1009	-0.0712586496808
1010	-0.00507937839608
1011	-0.0129744700778
1012	0.0180039535129
1013	-0.183941149921
1014	-0.200109848449
1015	0.00867273391025
1016	0.0934150586523
1017	0.148479199491
1018	0.0175573394869
1019	-0.178324186529
1020	0.00404482384296
1021	-0.0847324006443
1022	-0.00416287418706
1023	-0.000907027710535
1024	0.0782470394967
1025	-0.0900808202288
1026	-0.114945490205
1027	-0.00229273776305
1028	0.00740355781795
1029	-0.0235834238512
1030	0.0101439989336
1031	-0.0196721407456
1032	-0.0206511409348
1033	0.759774864747
1034	-0.0233292058553
1035	-0.00548073243407
1036	-0.204903255361
1037	0.00705839933864
1038	0.0101643770528
1039	-0.0206428416226
1040	0.249447726177
1041	-0.0100309254276
1042	-0.155693077706
1043	-0.0662515053532
1044	-0.00451848002969
1045	0.104664325447
1046	0.00170771488479
1047	-0.00488565321706
1048	-0.0251942995184
1049	0.00489021919622
1050	0.0151315245241
1051	0.00697943037925
1052	0.00863709278042
1053	-0.0222741364026
1054	0.0981410049417
1055	0.0207592266956
1056	-0.0123591984115
1057	-0.0112319189344
1058	-0.0281482187741
1059	0.00428552431455
1060	-0.0877303633943
1061	0.000977998744114
1062	-0.531020785505
1063	-0.366484303257
1064	-0.263537246671
1065	-0.0152813180334
1066	0.209386636322
1067	-0.00457594979372
1068	-0.00591710148514
1069	0.0273431071202
1070	0.0875939344495
1071	-0.00997685378771
1072	-0.108445412237
1073	-0.210950890422
1074	-0.0113756885667
1075	-0.0246963743115
1076	-0.0843385828809
1077	0.00774754485135
1078	-0.206591768303
1079	-0.019227598948
1080	0.0174223656989
1081	-0.00313365337628
1082	-0.0140647548548
1083	-0.00255281535961
1084	-0.259784892168
1085	-0.0414569040377
1086	-0.00762306813026
1087	-0.00147574834592
1088	0.058864248991
1089	0.0107760761699
1090	0.0132685502698
1091	-0.0451367301194
1092	-0.058472903465
1093	-0.0327203666524
1094	0.0129204816314
1095	0.0595925765432
1096	-0.0442901227353
1097	0.00046538919221
1098	-0.00864503735239
1099	-0.0190473532822
1100	0.0020305122124
1101	-0.000271227911502
1102	0.0128890919034
1103	0.184027010061
1104	-0.008079424541
1105	-0.022359929406
1106	-0.00976972800067
1107	-0.0156444678159
1108	-0.0190136693161
1109	-0.0167840891415
1110	0.0109311377435
1111	-0.0332434408158
1112	0.0243274263083
1113	-0.0219836702997
1114	-0.018256976488
1115	0.0949678920139
1116	-0.0239682478134
1117	-0.0271243233462
1118	-0.00336868462244
1119	0.0229633414011
1120	0.0535410542118
1121	0.120900769116
1122	0.0116299472737
1123	0.0589263202399
1124	-0.020386944071
1125	-0.0199205546187
1126	-0.0192453749529
1127	0.0119262667004
1128	0.0779986901138
1129	0.0749020850832
1130	-0.0391880406567
1131	-0.159664903948
1132	-0.0258194631326
1133	-0.0833539766615
1134	0.0223159453599
1135	-0.0157382966699
1136	-0.00328863252964
1137	-0.127461125304
1138	0.000867477414288
1139	-0.0109830881527
1140	-0.00421346536208
1141	-0.0261528476591
1142	-0.139979209472
1143	-0.025707399481
1144	-0.0217460121057
1145	0.00475049493959
1146	-0.00518153929571
1147	-0.0696717974933
1148	-0.0104723629415
1149	-0.0278063478718
1150	-0.055241709261
1151	0.0172260697315
1152	-0.004793004624
1153	0.00124699200852
1154	-0.122877995843
1155	-0.00513233065326
1156	-0.0268427667881
1157	-0.17349736793
1158	0.0125120332205
1159	-0.0452594626732
1160	-0.0223600025269
1161	0.00947159992963
1162	0.0730854030569
1163	0.0137159111644
1164	0.00629882989126
1165	0.0850245280948
1166	-0.00908702853933
1167	0.0784575042808
1168	0.0904630515923
1169	-0.0109303151991
1170	0.00438508073014
1171	0.0704203644049
1172	-0.0250352789646
1173	-0.0387274206728
1174	-0.0878221861504
1175	-0.0250202543022
1176	-0.105188420696
1177	-0.189330637871
1178	0.0124492333254
1179	-0.0119793146526
1180	0.487105299765
1181	0.180605335316
1182	0.0228683147205
1183	-0.242585327992
1184	0.00715508716419
1185	-0.0103091779684
1186	0.006643149742
1187	0.00826076031389
1188	-0.082666292486
1189	-0.00914119739619
1190	0.0168058930004
1191	-0.00431274492884
1192	-0.0378018680491
1193	0.0164425861616
1194	0.0132236614275
1195	0.0102509301545
1196	0.072411736575
1197	0.0908403591121
1198	0.0162674329924
1199	-0.00381426445567
1200	0.00276619180956
1201	-0.0335750041298
1202	-0.00397301129161
1203	-0.000799998960808
1204	-0.0279650223635
1205	-0.0275655422899
1206	-0.0246931064667
1207	0.0195085992619
1208	-0.0199615613767
1209	0.00854392430846
1210	-0.0127155508434
1211	0.00138611756803
1212	0.0176316635803
1213	0.000597865332369
1214	0.0726857136399
1215	0.0729007388176
1216	-0.0040095079358
1217	-0.255465930297
1218	-0.0782881242408
1219	0.0207485641275
1220	0.00424391296208
1221	0.189054053486
1222	-0.233004249904
1223	-0.00929521813927
1224	0.0141884297642
1225	0.00281461822618
1226	0.0467814186895
1227	0.00447323426751
1228	-0.0134659842377
1229	-0.0184199064098
1230	-0.00410662059954
1231	-0.0131373141555
1232	-0.0191776198342
1233	-0.0114756675844
1234	0.0241115264462
1235	-0.0226080608912
1236	0.00321613354784
1237	0.0149691377414
1238	5.44988665459e-05
1239	-0.0200892306114
1240	0.00992306331616
1241	-0.116640507803
1242	0.00313081685434
1243	-0.0181585240661
1244	0.0152724853934
1245	-0.119226691732
1246	-0.0133607400748
1247	0.0049498246334
1248	0.0612395400605
1249	0.0906630330388
1250	-0.0190572382178
1251	-0.0161284770218
1252	-0.00405413098772
1253	-0.0162566422662
1254	-0.00423607484883
1255	0.0338293774584
1256	0.00973016584203
1257	-0.0198470850812
1258	-0.226842578819
1259	-0.106169710297
1260	0.0145246059031
1261	0.00682760496492
1262	0.010421916358
1263	0.0688603293961
1264	-0.00799605226968
1265	-0.0407676701056
1266	-0.0395590459415
1267	-0.00724323353095
1268	0.00259249050094
1269	-0.0355808870246
1270	0.00685466899573
1271	-0.0111026456499
1272	-0.0488610766675
1273	0.00491173230553
1274	0.0141752993834
1275	0.0957307446654
1276	0.0256446268671
1277	-0.00735479087497
1278	-0.169476878349
1279	-0.0621160461618
1280	0.00656283931465
1281	-0.00694280572438
1282	-0.0144265455301
1283	0.0228702288752
1284	0.0243037458532
1285	0.0145361395584
1286	0.0167799241962
1287	0.0218789298551
1288	-0.085780577703
1289	0.0023956029996
1290	-0.0247955713192
1291	-0.015008919717
1292	0.00402550179738
1293	-0.073344435217
1294	-0.0571984867616
1295	-0.0246974898008
1296	-0.104228298211
1297	-0.126907832686
1298	-0.0114439715191
1299	0.00288477652758
1300	0.0113905489522
1301	0.0774456255175
1302	0.00879661169461
1303	-0.00398351063696
1304	-0.0339793749887
1305	-0.0534416654318
1306	-0.0559606657635
1307	-0.0159391143107
1308	0.0173893220979
1309	-0.00167967212989
1310	0.0106210617076
1311	-0.0230796733169
1312	-0.00129057334571
1313	-0.0245576985134
1314	-0.0405712013742
1315	-0.0346660121232
1316	-0.0495556597397
1317	-0.0403874814748
1318	0.024640608265
1319	0.00163421787071
1320	-0.103450799218
1321	-0.0122973474252
1322	-0.0233368214792
1323	-0.117063727257
1324	-0.00433131258757
1325	-0.0123937314767
1326	0.00405895706444
1327	-0.0184865346293
1328	0.00510241969624
1329	0.0190923339042
1330	-0.00930623272982
1331	0.17120041702
1332	0.00520321418084
1333	-0.0234184663426
1334	-0.00980640292065
1335	0.0102598749887
1336	-0.00343187600758
1337	-0.00510978488341
1338	0.0540791897823
1339	-0.0136208084643
1340	-0.0253465161747
1341	-0.0113480663376
1342	0.00198633626039
1343	-0.0188786157249
1344	-0.0241017302007
1345	0.00832056172382
1346	-0.013796100202
1347	-0.117518029583
1348	0.0760299096639
1349	-0.0606859018421
1350	0.0143195232834
1351	-0.159851373662
1352	-0.00565402659884
1353	-0.0265990028198
1354	0.00352923657194
1355	0.280525008956
1356	-0.265998086339
1357	0.0159545077997
1358	-0.0208736915556
1359	0.00148418886137
1360	0.00770682749458
1361	-0.021750234158
1362	-0.00668897615676
1363	-0.0222547063521
1364	0.00852368897101
1365	0.00142685313544
1366	-0.171780634697
1367	-0.112801539214
1368	-0.00689972662422
1369	-0.00440436576494
1370	0.0180194575292
1371	0.081811956361
1372	-0.036402181406
1373	-0.0182983202915
1374	0.0228610243353
1375	0.138247415405
1376	0.077094614907
1377	0.00345068466454
1378	0.0049236616219
1379	0.0163642310113
1380	0.0098871071182
1381	-0.0300160814672
1382	-0.0079881106671
1383	-0.505704790825
1384	0.00179802856482
1385	-0.0228013621737
1386	-0.181495314134
1387	0.0175671988596
1388	0.0210762882562
1389	-0.0590519836585
1390	-0.00309577591835
1391	-0.021834241111
1392	-0.00925361515836
1393	0.0434012712563
1394	0.353484815279
1395	0.416174793893
1396	-0.00723256423908
1397	-0.000873392052054
1398	-0.0223790452616
1399	0.0291648112563
1400	-0.0590491868012
1401	-0.073788337877
1402	-0.0231694449166
1403	-0.019157861818
1404	-0.0135966044402
1405	0.00820865216829
1406	-0.00544941118842
1407	0.0022576456689
1408	-0.0121886449523
1409	-0.199505596552
1410	-0.00399428947736
1411	-0.0129208460818
1412	0.0127813227431
1413	0.0189278388133
1414	-0.00563873375835
1415	-0.0229350944941
1416	-0.0326039706967
1417	0.00593332604172
1418	0.0102211488531
1419	-0.0370427265708
1420	0.0131070466664
1421	0.00161863852457
1422	0.332370488286
1423	-0.0242685332094
1424	-0.0179050132292
1425	-0.0190704817525
1426	0.0201127574379
1427	-0.0349784841641
1428	0.00900658020716
1429	-0.268113098163
1430	0.0203867904631
1431	0.0387612051271
1432	-0.00475039375636
1433	0.0225593573564
1434	-0.0386101251762
1435	-0.0278294303689
1436	-0.00392018336762
1437	-0.0529624513274
1438	-0.0286091711321
1439	-0.0270051086547
1440	0.0126280813285
1441	-0.0830165763451
1442	-0.00242892428915
1443	0.150196552108
1444	0.0156835669326
1445	-0.0107855396341
1446	0.264673554816
1447	0.210386167016
1448	-0.0121567825535
1449	0.012590545539
1450	-0.0285556388985
1451	-0.00908638187689
1452	-0.00989608074497
1453	-0.0928618697903
1454	-0.051709553496
1455	0.0241964144961
1456	0.0125825395317
1457	-0.0192103319386
1458	-0.0500386711897
1459	0.00142405079855
1460	-0.0198248758028
1461	-0.0772074134448
1462	-0.020218388581
1463	-0.00954705286844
1464	-0.0001252674253
1465	-0.0210098634121
1466	-0.00224107269321
1467	-0.0115635236224
1468	0.0106900095564
1469	-0.212265668278
1470	0.00958669801422
1471	0.000544979836242
1472	0.0223910204697
1473	0.013451058475
1474	-0.137926540209
1475	-0.0242886487513
1476	-0.0230409977912
1477	0.197368394815
1478	0.0165841659405
1479	0.248035234044
1480	0.122241308928
1481	-0.00407293850155
1482	0.00998917954
1483	0.0306117156583
1484	-0.0216916897539
1485	0.00514192262155
1486	-0.175110619085
1487	-0.221250952195
1488	0.0125875624036
1489	-0.0721289080943
1490	-0.0370597187478
1491	0.0173304208921
1492	-0.0290964702933
1493	-0.0148890595343
1494	-0.022729586262
1495	-0.0290254804185
1496	-0.0055861773628
1497	-0.0334453058973
1498	0.0221085408002
1499	-0.0211332324453
1500	-0.00879121304563
1501	-0.0114463859689
1502	-0.15259730484
1503	0.0152802330575
1504	-0.0221133841699
1505	-0.0106414746135
1506	-0.0191349575118
1507	-0.00729878814492
1508	-0.0175417002196
1509	-0.0295351268347
1510	0.008269597879
1511	-0.0174096275869
1512	-0.0177888404222
1513	-0.000382407295979
1514	-0.114819567797
1515	-0.0464818675975
1516	0.0088006715358
1517	-0.0200559831482
1518	0.0173497618075
1519	-0.0136626546143
1520	0.0867040118202
1521	-0.00509228471455
1522	0.0238001626022
1523	0.0149384022134
1524	-0.00783968014408
1525	-0.0220001951979
1526	-0.119139019783
1527	0.0161971229126
1528	0.0154285578584
1529	-0.0977486079514
1530	-0.0873288328755
1531	-0.0137692031897
1532	0.0212783613298
1533	0.0674324332757
1534	-0.0125600531974
1535	-0.0072165901197
1536	-0.0196106247183
1537	0.0094103103784
1538	0.0748539124959
1539	0.0199943415727
1540	-0.00649528173988
1541	-0.0152986928086
1542	0.484110818147
1543	0.158605017307
1544	-0.0083818193585
1545	-0.00674681027675
1546	0.0214979268611
1547	-0.0150500763843
1548	0.000359707650704
1549	-0.00268246775479
1550	-0.180756877394
1551	0.000390488679306
1552	0.00277887256983
1553	0.00843875020311
1554	0.0034532065764
1555	-0.0132207502796
1556	0.10829802719
1557	0.0135633856056
1558	-0.1063413962
1559	-0.011522615688
1560	-0.0074153973919
1561	0.012658627577
1562	-0.00170740488306
1563	0.0114081772132
1564	0.0197861145261
1565	-0.00962238267917
1566	0.0221398362817
1567	-0.0117611174415
1568	-0.0168708710468
1569	-0.0137463205948
1570	-0.0281312618294
1571	0.00447174214432
1572	0.013692366066
1573	0.024235241841
1574	-0.00386583494028
1575	0.0152839682764
1576	0.00812354117055
1577	-0.00315164680974
1578	-0.0109516093474
1579	-0.00541457213216
1580	0.252852781078
1581	-0.0106618341856
1582	-0.0136118622039
1583	-0.181929973244
1584	-0.174899115065
1585	-0.129824866765
1586	-0.323635652348
1587	-0.0245316638836
1588	0.0139727472502
1589	-0.0229875594756
1590	-0.0224230978729
1591	-0.0114709769411
1592	-0.0513117950893
1593	-0.0224859867007
1594	-0.00622958328742
1595	0.022492196176
1596	-0.0278789063912
1597	-0.00499916920639
1598	-0.00571353145297
1599	-0.00715489705767
1600	0.00484296958804
1601	0.00749884031552
1602	0.143891236047
1603	0.0178181523583
1604	0.00730549689257
1605	0.00900947967452
1606	0.067303940539
1607	0.0541913700536
1608	0.0234141420026
1609	-0.000377689998861
1610	-0.00187117749647
1611	-0.00962448164749
1612	-0.00829643120138
1613	-0.00817060567515
1614	0.0153652155352
1615	-0.0242599404051
1616	0.0157912685384
1617	-0.00920965359234
1618	-0.00793667198703
1619	-0.0107391493938
1620	-0.0267713973305
1621	-0.0176963052993
1622	0.0102612997133
1623	-0.110777982641
1624	-0.0190112684629
1625	0.0164650631846
1626	-0.0564972216919
1627	-0.0112729985466
1628	-0.00903788646699
1629	-0.00156696648997
1630	-0.0417536012186
1631	0.0205621429241
1632	0.0225461702887
1633	0.0533374758822
1634	0.0304224251842
1635	0.000940308453513
1636	-0.0121315693372
1637	-0.0253474813452
1638	-0.0304622190364
1639	0.0225677533105
1640	-0.0051192018598
1641	-0.0168414004259
1642	-0.0551569218399
1643	-0.0165112735775
1644	-0.0242927504102
1645	0.00265611937928
1646	-0.0223744710809
1647	0.00292561365937
1648	0.0167394523259
1649	0.00292471963731
1650	0.0112952075816
1651	0.0050075366996
1652	-0.0108259021407
1653	0.0024994546702
1654	-0.0225463168911
1655	0.0926178263911
1656	-0.0174953714869
1657	-0.0230483095438
1658	-0.00827810962316
1659	0.00282726645713
1660	-0.000112772984877
1661	-0.220251570787
1662	0.0157838440914
1663	0.00875447865491
1664	0.0100067300665
1665	0.0143138571013
1666	-0.0084374966986
1667	0.0136360653322
1668	-0.074430834836
1669	0.0240441756048
1670	-0.0907314083933
1671	0.595517501344
1672	0.593488818865
1673	-0.0599384249651
1674	-0.0737103239515
1675	0.0209478085581
1676	0.0175335876823
1677	0.021039409254
1678	0.00455539564222
1679	-0.0169966203598
1680	0.00536311280125
1681	-0.101377098723
1682	-0.0714985646284
1683	-0.0214578527282
1684	-0.098563621415
1685	-0.182381970764
1686	-0.00479627394234
1687	0.000709006321368
1688	0.00904598762082
1689	-2.7471220568e-05
1690	0.0184802564011
1691	-0.0284564319372
1692	-0.0158319844347
1693	0.0108574746424
1694	0.018709374393
1695	0.0218063225941
1696	-0.0183638878709
1697	-0.0426609017144
1698	-0.027863460523
1699	0.0018362033203
1700	-0.0113089409326
1701	0.00765988394855
1702	-0.00556679620762
1703	0.00687216168854
1704	0.00651614260862
1705	0.119713340245
1706	-0.102589899142
1707	0.008618428492
1708	0.00306726880204
1709	-0.0497009992453
1710	-0.0120820150974
1711	-0.0170606131472
1712	0.00409569162832
1713	0.00824308712382
1714	0.00762087310422
1715	0.0779150732478
1716	-0.0182537745658
1717	0.0137846366989
1718	-0.025932770838
1719	0.0178885556363
1720	0.0104228701134
1721	-0.0302096450514
1722	0.011336192725
1723	-0.0220031423667
1724	0.00276059689428
1725	-0.00667389895472
1726	-0.0169455221138
1727	-0.0229888991502
1728	0.00807061724631
1729	-0.0252731026241
1730	0.132299331826
1731	-0.00904424618288
1732	-0.0550501808124
1733	-0.00736631687372
1734	0.0715882860978
1735	0.0830193081388
1736	0.0202097708614
1737	0.388186966731
1738	-0.0218951820956
1739	-0.0847240707932
1740	0.0158253907965
1741	0.0137922007971
1742	0.00681000048155
1743	-0.128608622001
1744	-0.0843162554662
1745	-2.85922077818e-05
1746	-0.0242651746672
1747	0.0464071125404
1748	-0.041854371015
1749	-0.0105499134741
1750	0.00336526720876
1751	-0.185287356838
1752	0.0216675603192
1753	0.0240370193919
1754	-0.0342003411398
1755	0.00513463186159
1756	-0.00803576030581
1757	-0.00753846948546
1758	-0.0463860942393
1759	-0.0190203986832
1760	-0.0123175792925
1761	-0.000933062734552
1762	0.01018626633
1763	-0.0139616599907
1764	-0.0056848203518
1765	0.00645803225527
1766	0.00422510362177
1767	-0.049973066158
1768	-0.0199194448358
1769	0.0183559404275
1770	-0.003013696569
1771	0.0133389850686
1772	-0.0247811376481
1773	-0.0129797325482
1774	-0.0140784476308
1775	-0.00730524874082
1776	-0.126613843595
1777	0.0216825453323
1778	-0.160915034988
1779	-0.142637099486
1780	0.0986595908497
1781	-0.0196448337732
1782	-0.0569663737407
1783	-0.0044601509324
1784	0.00148236989728
1785	-0.134558333651
1786	0.0113759668564
1787	0.164213917961
1788	0.00678787929123
1789	-0.0602865606673
1790	0.00227952291877
1791	0.0216825910095
1792	-0.0245424385034
1793	-0.00202912348464
1794	0.0151738771332
1795	-0.00275519633536
1796	0.00200467737096
1797	0.0150823906091
1798	-0.12726617356
1799	-0.014055631046
1800	-0.024199634173
1801	0.00595841293506
1802	-0.0254871124448
1803	-0.035185696534
1804	0.000636289520775
1805	0.196015198465
1806	-0.0252647345236
1807	-0.0219665584897
1808	-0.0992768472068
1809	-0.017745049915
1810	-0.0201416174972
1811	0.0245929324012
1812	0.00786290949285
1813	0.0100741594758
1814	0.0129840015683
1815	-0.0243046857462
1816	-0.0964692115869
1817	-0.0229604033373
1818	-0.203783742874
1819	0.0161144688202
1820	0.00767507406105
1821	-0.000537814477627
1822	0.0218858821231
1823	-0.237585313417
1824	-0.217921066351
1825	-0.00176949665928
1826	-0.0660622951775
1827	-0.0149681262515
1828	0.0236354277437
1829	-0.135255186174
1830	-0.0159800337899
1831	-0.0208821139782
1832	-0.0149101908826
1833	-0.0234450469383
1834	0.00903203127515
1835	-0.13826553591
1836	-0.00722435963767
1837	0.00681374410735
1838	-0.00551132767145
1839	0.00495153894854
1840	-0.0437602305206
1841	-0.0495322741892
1842	0.0184608104265
1843	0.0213912753199
1844	-0.0205861570262
1845	-0.0188232814226
1846	-0.00486253265614
1847	-0.0236265629562
1848	0.295021044397
1849	0.021689082166
1850	0.00654311588125
1851	-0.00198261718204
1852	0.0842084206008
1853	-0.0129465239773
1854	0.000903945282682
1855	0.0203639940048
1856	-0.0260984845426
1857	-0.0138584588562
1858	0.00478536867429
1859	-0.00251746248579
1860	0.0118298923216
1861	-0.186679571006
1862	-0.178935056685
1863	0.0107805798894
1864	0.0176693342233
1865	-0.0186119411497
1866	-0.00343953231843
1867	-0.0189573589848
1868	-0.000625779121454
1869	-0.0267421262438
1870	-0.0154714448902
1871	0.00990351339991
1872	-0.005446211169
1873	-0.017351090618
1874	-0.0794391964712
1875	-0.00573827663338
1876	0.112594702977
1877	-0.0163352466987
1878	-0.00224563295247
1879	0.16344971304
1880	-0.00377123394665
1881	-0.0741996953094
1882	-0.00253613748697
1883	-0.0169369140446
1884	-0.029212597601
1885	0.0109335973543
1886	-0.0159680050956
1887	0.0480262637643
1888	0.108760484851
1889	-0.0119324858532
1890	-0.0121187163337
1891	0.0149494107311
1892	0.0129287839099
1893	0.0201096683846
1894	-0.0115370064348
1895	0.0560144157414
1896	0.0428686837582
1897	-0.0258961873026
1898	-0.0184675059666
1899	-0.0798178438819
1900	0.00473393300803
1901	-0.0184968366335
1902	0.0156904326593
1903	0.0919829694198
1904	-0.0141423868776
1905	-0.00997680742674
1906	-0.00465290163089
1907	0.00546385165063
1908	0.00824349690271
1909	-0.0187321781976
1910	-0.00139409556381
1911	-0.0165139333393
1912	0.00909520108418
1913	0.0154954162204
1914	-0.024975411476
1915	0.104191920014
1916	-0.0193250479003
1917	0.00239159282767
1918	0.0205978882793
1919	-0.0768553925077
1920	-0.0359399192678
1921	-0.0108077599402
1922	-0.00507414214405
1923	-0.0820399835846
1924	-0.009779675884
1925	-0.0138055684512
1926	-0.0215701601565
1927	-0.035723336613
1928	-0.0569663381503
1929	0.0101104360098
1930	-0.0253111356778
1931	0.0162055271811
1932	-0.125016137322
1933	0.0137961831373
1934	-0.107291228452
1935	0.0108143170214
1936	-0.0250712729002
1937	-0.360737317565
1938	-0.0877979934895
1939	-0.059140311509
1940	0.00155028522071
1941	-0.0589514085969
1942	-0.0691741521536
1943	0.0965786389627
1944	-0.0714119586903
1945	0.0101169587945
1946	-0.00090641054785
1947	-0.110651757328
1948	-0.115503636953
1949	0.0238553694543
1950	0.0141732519182
1951	-0.108434936817
1952	-0.00564368066787
1953	0.00017163458419
1954	0.00977521693561
1955	-0.053926692201
1956	0.00285959710896
1957	-0.0489467139111
1958	0.00470656903204
1959	-0.00620702639944
1960	-0.00386511946533
1961	0.0108289331507
1962	-0.00105872241526
1963	-0.0132745260944
1964	-0.0194244536489
1965	0.00426941281988
1966	0.0757951550717
1967	0.0143618092422
1968	-0.00714072280813
1969	-0.00301520017695
1970	-0.00707628581606
1971	-0.0252355725741
1972	-0.00167619403785
1973	-0.00479414503167
1974	-0.0124357071732
1975	-0.0095590128887
1976	-0.0264477240461
1977	0.00726668304781
1978	-0.0227382831804
1979	0.000912852182421
1980	0.108196736412
1981	0.0218486393372
1982	-0.00830953718437
1983	-0.0874681086933
1984	-0.019888369258
1985	0.0179813286068
1986	0.294638979437
1987	0.304592269853
1988	0.0133630423576
1989	-0.00688309904698
1990	-0.0246679188108
1991	0.0164546659856
1992	-0.0993160475031
1993	0.000731503514718
1994	0.0728585507561
1995	0.072928123907
1996	0.00596117280719
1997	-0.021952751006
1998	-0.15740228194
1999	0.0191198579029
2000	0.0237502590824
2001	-0.0161021624424
2002	0.0185269868496
2003	0.0208559927038
2004	0.322787377765
2005	-0.00418680837703
2006	-0.0170278842149
2007	-0.0114520300822
2008	0.104687201854
2009	-0.0506910176465
2010	-0.00193501371246
2011	-0.0267920700315
2012	-0.0306134612633
2013	-0.0113329384057
2014	0.0225828703152
2015	-0.0202433284774
2016	-0.0795525014126
2017	0.00425739353635
2018	0.0149874985077
2019	-0.0217207776056
2020	-0.0176795086873
2021	-0.0544460388728
2022	-0.00885431593853
2023	-0.00573658072685
2024	-0.0102167147207
2025	0.00327173492404
2026	-0.00259542089462
2027	-0.0219668561952
2028	-0.00709158118515
2029	0.00331045567342
2030	-0.00404904187327
2031	-0.0308218107401
2032	0.00735066543256
2033	0.00884281477862
2034	-0.154254953157
2035	-0.0111582171051
2036	0.000608621917559
2037	0.00553777541264
2038	-0.0182645054759
2039	-0.0426015710332
2040	0.0185508155222
2041	0.0184148318374
2042	-0.000665360808889
2043	-0.00314690854371
2044	0.00335200372602
2045	-0.066079347623
2046	0.00710835793752
2047	-0.027248347224
2048	-0.0183092909366
2049	-0.0221697178884
2050	-0.0267701430468
2051	-0.0321193621885
2052	0.0155558915183
2053	0.00244135340812
2054	-0.013605338169
2055	-0.0935782240366
2056	0.00773872505224
2057	0.0159744963148
2058	0.0101816907585
2059	-0.003954303182
2060	-0.0403474192806
2061	-0.011529061823
2062	0.0224367082954
2063	-0.0737016064251
2064	-0.00333957548217
2065	-5.93838043352e-05
2066	-0.0113912276271
2067	-0.0168114476443
2068	-0.0165132890861
2069	-0.00285225999214
2070	-0.0256126894428
2071	-0.00637396262836
2072	0.0823116693853
2073	-0.00189108756774
2074	0.00530433132404
2075	0.0210455356973
2076	-0.01796238193
2077	-0.0200202142155
2078	-0.0304062508521
2079	0.00555578310904
2080	0.222578435944
2081	-0.00596428952886
2082	0.0217676450808
2083	-0.0342103599008
2084	-0.0259592200633
2085	-0.00624476833862
2086	0.00124392071113
2087	-0.0266273598983
2088	-0.0224278593245
2089	-0.0219468467537
2090	0.013035373863
2091	0.0185558675268
2092	-0.233268278969
2093	0.000682836663738
2094	0.0105836750944
2095	-0.0618563962217
2096	0.0176356768614
2097	-0.12330319574
2098	-0.0239263881571
2099	-0.021844416944
2100	-0.0161398252828
2101	0.00249165216581
2102	0.0151977748
2103	-0.022550446766
2104	0.0187013802005
2105	0.00743750628595
2106	-0.00917331029865
2107	-0.0050899761748
2108	-0.0193295021949
2109	-0.0146599793431
2110	-0.182000483744
2111	-0.0243955835958
2112	0.041360394957
2113	0.00794177892338
2114	0.00529345653466
2115	-0.0120926823179
2116	0.0242152249409
2117	-0.134546761221
2118	-0.026384310096
2119	-0.000354484175485
2120	0.0167830952767
2121	0.00400852308748
2122	0.324168874911
2123	0.315936868024
2124	0.0910922714859
2125	0.0765508383132
2126	0.0798338101623
2127	0.00213030069741
2128	-0.0311947231027
2129	-0.00464912480692
2130	-0.0258860069193
2131	-0.0132384921871
2132	-0.00266921301995
2133	0.0221315648676
2134	-0.0473606115874
2135	-0.0360371519819
2136	-0.00717664209306
2137	0.00348011564313
2138	-0.0891111228434
2139	-0.0141225737103
2140	-0.181812974027
2141	0.020067879107
2142	0.00499817729666
2143	-0.00638666630269
2144	-0.0175725046226
2145	-0.0140415957894
2146	0.0069933651033
2147	0.00910530444959
2148	-0.185960197486
2149	0.00563636710652
2150	-0.0728790534687
2151	0.00918745094643
2152	-0.0666591802668
2153	0.00333951678494
2154	-0.00438841905574
2155	-0.0248152211633
2156	-0.0147227328452
2157	-0.00891792001022
2158	-0.0172537880285
2159	0.0174418264062
2160	-0.14412604446
2161	-0.0522302562174
2162	-0.465837056365
2163	-0.465852377651
2164	0.0124230326537
2165	0.0158128746844
2166	-0.00479360263126
2167	0.00395573830541
2168	-0.00915008261817
2169	0.334103862125
2170	-0.00693420890024
2171	0.0906217158521
2172	-0.171280217724
2173	-0.0695428214553
2174	0.0119535794882
2175	-0.00610538698228
2176	0.0253522867213
2177	0.0678763231329
2178	0.0118108279193
2179	-0.017095364715
2180	0.111320699038
2181	-0.000802538888258
2182	-0.00541011550434
2183	-0.00172638169736
2184	-0.0138285084241
2185	0.00348381315461
2186	-0.00549247867538
2187	-0.127958383295
2188	0.000555473059606
2189	-0.0106038820386
2190	0.178689994494
2191	0.00985132282383
2192	0.0208194832
2193	-0.0511150149152
2194	-0.0166767342238
2195	-0.0227799469984
2196	-0.00175130222078
2197	-0.0255358053535
2198	-0.00114793338873
2199	-0.0158902451847
2200	-0.0839646894911
2201	-0.0168956525454
2202	0.0195550071273
2203	-0.000905647607649
2204	-0.00115120260828
2205	-0.000307773181379
2206	0.0192985776289
2207	-0.0149369345281
2208	-0.0159203830291
2209	-0.0163453447386
2210	-0.11455961026
2211	-0.0175706407018
2212	-0.0177721384784
2213	-0.203432552806
2214	-0.0218165390642
2215	0.00855196927283
2216	0.0167175415909
2217	-0.141971091205
2218	-0.0120307105631
2219	0.0110582459193
2220	-0.0545595780731
2221	0.0137794977118
2222	-0.00871795841934
2223	0.0145903741813
2224	-0.177893221692
2225	5.66906511664e-05
2226	0.0202441715598
2227	0.00325988075609
2228	0.225868296273
2229	-0.00105197058333
2230	0.0214425684849
2231	-0.0138447879299
2232	-0.0254248946692
2233	0.00165987729912
2234	-0.0192804789762
2235	-0.0393620685547
2236	-0.0120518812699
2237	-0.0189344873697
2238	-0.0390031301801
2239	-0.0375008314163
2240	-0.65216902732
2241	-0.653258421523
2242	-0.0047762299582
2243	-0.0220808723873
2244	0.0112832576703
2245	-0.00284879309837
2246	-0.0247231153758
2247	-0.0898450098575
2248	0.00304226503427
2249	-0.0170788196936
2250	0.0197850257647
2251	-0.0233784254269
2252	-0.0129927805476
2253	-0.0154369977142
2254	-0.00595524607822
2255	-0.0240423037816
2256	-0.0196662653638
2257	-0.0149351449519
2258	-0.0149936491578
2259	0.00310353285652
2260	0.0189174728749
2261	0.00191056834466
2262	-0.0109757927396
2263	0.0132425483775
2264	-0.231568062958
2265	-0.00379182920161
2266	-0.0457401500758
2267	-0.0136186132018
2268	0.0192840752129
2269	0.00166049601902
2270	-0.0151468083888
2271	0.0106266003822
2272	-0.234862162155
2273	-0.101187398488
2274	-0.0181903166408
2275	0.00115563783828
2276	-0.0170714324296
2277	0.0159890241873
2278	-0.060668715035
2279	-0.00471021497239
2280	-0.0807325614648
2281	0.0243198197304
2282	0.000532679259538
2283	0.08765810654
2284	0.0180258076461
2285	-0.0917121657149
2286	-0.271259510599
2287	-0.0212971920004
2288	-0.00204072133795
2289	0.00620488070425
2290	-0.0185079578311
2291	-0.0150044251249
2292	0.0202220416808
2293	0.0104022944062
2294	-0.0134303358029
2295	0.00136985229963
2296	0.0120774923431
2297	0.0236909904563
2298	0.00109246155259
2299	-0.0179091423947
2300	0.0121025989722
2301	0.00739655002005
2302	0.00582498589424
2303	0.176126638544
2304	-0.0127430304031
2305	-0.00742360863107
2306	-0.0186779851968
2307	-0.0311757552225
2308	0.0134883160984
2309	-0.00908291791562
2310	0.00796444365234
2311	-0.0500474636459
2312	-0.0235150823428
2313	-0.0120856054486
2314	-0.00451111495989
2315	0.00946476881764
2316	-0.0305114684624
2317	-0.0131996526797
2318	-0.0264349592751
2319	-0.0354579715854
2320	-0.0200778384421
2321	0.0038605471772
2322	-0.0192009417708
2323	0.0177950873576
2324	-0.0219082037635
2325	-0.0294341157931
2326	0.0204708146221
2327	0.00370804540988
2328	0.145058470663
2329	0.0183365979772
2330	-0.00738547613682
2331	-0.0682793908188
2332	-0.0154845452161
2333	0.106188480048
2334	0.358391674874
2335	-0.0133806909522
2336	-0.00403894829567
2337	0.0155859064358
2338	-0.00179761443762
2339	-0.0682671857656
2340	-0.048125310059
2341	0.00863425681102
2342	-0.0234232331869
2343	-0.000256551433085
2344	0.0130270069111
2345	0.0200248331856
2346	-0.0213009392119
2347	-0.00182958753089
2348	-0.00838770718813
2349	0.00232541080488
2350	-0.00840831359855
2351	0.00304768955848
2352	0.00260394703101
2353	-0.0252257933966
2354	-0.00328525539874
2355	0.0107696669861
2356	0.109824850474
2357	-0.0664378612533
2358	0.0120995911968
2359	-0.0119281504245
2360	0.00716482355351
2361	-1.01738356831
2362	-0.701296581783
2363	0.0195452082264
2364	0.0240336205991
2365	-0.019654179964
2366	0.0140309189224
2367	-0.0595832159653
2368	0.0094346977223
2369	-0.00511973859706
2370	-0.0244484143899
2371	-0.0952578965489
2372	-0.0750584618473
2373	-0.0087094506609
2374	0.00399994775488
2375	-0.151685209431
2376	-0.0237065336582
2377	-0.0176420102327
2378	0.0244027620946
2379	-0.00209140262834
2380	-0.00262270324144
2381	0.00826119547331
2382	-0.0105535764462
2383	-0.0257028441127
2384	-0.0116655611671
2385	-0.641721381508
2386	-0.00480619925277
2387	0.0458017368679
2388	-0.0771732317847
2389	-0.0318568968398
2390	0.00208511999984
2391	-0.029641994832
2392	-0.0704050463755
2393	-0.0207571324625
2394	-0.000767429203535
2395	-0.0184009384375
2396	-0.0304672486284
2397	-0.015698425321
2398	-0.0103493531725
2399	0.000494676592615
2400	-0.0167820122984
2401	0.0399067684315
2402	-0.0202403056443
2403	-0.0819933695697
2404	-0.0158367512599
2405	0.00879544296207
2406	0.0110403293732
2407	-0.202759323279
2408	-0.0098405146881
2409	-0.0203726286673
2410	0.00169103395972
2411	0.00490120132139
2412	-0.0181258539302
2413	0.000217026673379
2414	-0.0226807345391
2415	-0.0152058958512
2416	-0.032474325616
2417	0.0228702438564
2418	0.0163366638121
2419	0.096423013432
2420	0.00849818580175
2421	-0.0179339760647
2422	-0.0174219735619
2423	0.00673901975083
2424	-0.00750737746877
2425	0.00277900642314
2426	-0.00494198235933
2427	-0.0118374748021
2428	0.348941618999
2429	-0.0184235052855
2430	0.0189718093741
2431	-0.0496440205668
2432	-0.0190061763884
2433	-0.00804678957537
2434	-0.0100158650617
2435	0.0196928372525
2436	-0.0234456499369
2437	0.187120747609
2438	0.0395186190661
2439	0.0163838453153
2440	-0.123228875302
2441	-0.0219357982002
2442	-0.0197789308924
2443	-0.0251419382966
2444	0.00298625141308
2445	-0.024756999072
2446	0.00728398777301
2447	-0.0149487950718
2448	-0.0034725646613
2449	-0.00746879510147
2450	-0.0215259568944
2451	-0.0953111049612
2452	-0.00561221646539
2453	0.0122126236295
2454	-0.0727048819012
2455	0.00203671909433
2456	0.0237696177868
2457	-0.00201910557576
2458	-0.00730748338439
2459	0.233150330284
2460	-0.0161319315508
2461	0.00570721889518
2462	-0.0276075711634
2463	-0.0137297333642
2464	-0.0137502973822
2465	-0.00824539441702
2466	0.00619354823936
2467	-0.0397701782525
2468	0.0663601972169
2469	-0.0158335922732
2470	0.2265953925
2471	-0.00290780442665
2472	0.0121559054234
2473	-0.000577081835983
2474	-0.00101636084489
2475	0.0017547351656
2476	0.0112609880926
2477	-0.0144849573414
2478	-0.0157839247738
2479	-0.00404596863977
2480	0.00540110227947
2481	-0.0178855144795
2482	-0.0110967148923
2483	-0.00106759462594
2484	0.0140770769925
2485	0.00413161282413
2486	-0.0169082107619
2487	0.00694181856963
2488	-0.0188172194786
2489	-0.0915844491336
2490	0.0166310993114
2491	-0.0193407686127
2492	0.0165038240227
2493	0.0142954852206
2494	0.00492135649059
2495	0.0188670977364
2496	0.0841468049729
2497	0.107238150711
2498	-0.06953128497
2499	0.0170187817549
2500	-0.0059497730966
2501	-0.00805518070283
2502	0.0066243103315
2503	-0.0220298598576
2504	-0.0544107442776
2505	-0.0588674210892
2506	0.00665650236016
2507	0.0024224852377
2508	-0.12116987629
2509	0.0229335459384
2510	0.139845796731
2511	0.00855817813159
2512	0.00188262895593
2513	-0.0105711340342
2514	-0.00222557228341
2515	-0.0173821550898
2516	-0.000298305378586
2517	-0.00237832183286
2518	-0.0122874865434
2519	0.00425812763841
2520	-0.0183088412982
2521	-0.0206145174051
2522	-0.0128176017907
2523	-0.00612763833738
2524	-0.022776662337
2525	0.00309622707388
2526	-0.0125392424174
2527	-0.0223892867471
2528	-0.115349344937
2529	0.012076466515
2530	-0.00789831429671
2531	0.00651434841703
2532	0.0104416798303
2533	-0.0449364367154
2534	-0.127509043728
2535	0.0236016884603
2536	-0.293401869568
2537	-0.655307632858
2538	-0.0176332566487
2539	0.0737275788243
2540	-0.012456467168
2541	-0.0109790732291
2542	-0.0868575069601
2543	-0.0140686160952
2544	-0.0094376942891
2545	0.00627258044101
2546	-0.0212180301085
2547	-0.0153716841897
2548	0.00437821722805
2549	0.0224536744057
2550	0.0376784486408
2551	-0.00230413198158
2552	-0.0135246434142
2553	-0.014342417368
2554	0.0976250050665
2555	-0.26255733014
2556	-0.268466929354
2557	0.0186451079406
2558	-0.0157030909088
2559	0.0158226735435
2560	-0.0264143261298
2561	-0.00531007544348
2562	0.0791678519565
2563	-0.0290600878415
2564	-0.0156723769409
2565	-0.00450113809045
2566	0.0152226863559
2567	0.263193547394
2568	0.101682416362
2569	-0.016387062333
2570	0.00801751310688
2571	-0.264445840279
2572	-0.017326271579
2573	-0.0380583020194
2574	7.88773899029e-08
2575	-0.0208081405969
2576	0.002526735845
2577	-0.00238571636861
2578	0.0184053139762
2579	0.0126057440673
2580	0.128351549971
2581	-0.0236357763355
2582	-0.0174790473208
2583	0.0140484382406
2584	-0.0502875590119
2585	-0.0196226629177
2586	-0.00777089488005
2587	-0.0158373887415
2588	-0.00305394030884
2589	-0.0404924669326
2590	-0.0800235784684
2591	-0.0235051402089
2592	0.0663411625417
2593	0.0785234591602
2594	0.00328025900714
2595	-0.00868754227981
2596	-0.00496585548494
2597	-0.00463632736815
2598	-0.0245352487667
2599	-0.0196053533799
2600	-0.0451142310625
2601	-0.0227469403839
2602	0.000540371380859
2603	-0.00586122590073
2604	0.0203708509169
2605	0.0124580066217
2606	0.00579711996436
2607	0.0226360274413
2608	-0.000144831659616
2609	-0.00140603003661
2610	0.015659678261
2611	-0.103844212366
2612	0.0209060281792
2613	-0.0128739478925
2614	-0.0105604538357
2615	-0.0227025459419
2616	0.00547358777976
2617	-0.01466992478
2618	-0.0106632161886
2619	-0.0257434461682
2620	0.0145631727972
2621	0.00266239063735
2622	0.000144083619575
2623	-0.00325971346764
2624	0.0190945535177
2625	0.00848091664303
2626	-0.00577671856965
2627	-0.0227851467442
2628	0.0114364866891
2629	0.00600474595718
2630	0.0133729558894
2631	0.0151688665152
2632	-0.0743341280456
2633	-0.0268127626833
2634	0.00821090037638
2635	-0.0152633159444
2636	0.0107841890544
2637	-0.0213991115502
2638	0.0210319999724
2639	0.00661572101781
2640	0.024020691996
2641	-0.0190057931434
2642	0.0319799892642
2643	-0.0251001682169
2644	0.00461527936948
2645	0.0117289509408
2646	-0.0115607437444
2647	0.00962203589934
2648	-0.0418205230369
2649	0.0016088922551
2650	-0.00180550845338
2651	-0.0122813823315
2652	-0.016957491864
2653	-0.0194298422733
2654	-0.0970962127446
2655	0.201506084494
2656	-0.00602028779035
2657	-0.0180310528027
2658	0.145211345139
2659	0.0659920343227
2660	0.0104187169863
2661	0.0679032176007
2662	0.000102946564909
2663	-0.0195449119231
2664	-0.0274247910843
2665	-0.0211754042086
2666	-0.227178757801
2667	-0.01868693243
2668	0.0077240902055
2669	-0.013397444831
2670	0.0193728053079
2671	-0.0178063761105
2672	-0.104436256869
2673	-0.00353070723808
2674	0.0133228519533
2675	-0.0495907795823
2676	0.0017953078659
2677	0.0269158375734
2678	0.0469560649204
2679	0.0566651855248
2680	-0.0205737200499
2681	-0.0362868849091
2682	0.00612719619878
2683	0.00115840254206
2684	0.0216356991991
2685	-0.0311573995776
2686	-0.0226595064883
2687	-0.00194732247017
2688	-0.0103193468323
2689	-0.0185898978072
2690	0.00397192739052
2691	-0.0528250878452
2692	-0.0319114041523
2693	2.64209358754e-05
2694	0.0708694184089
2695	0.359301537409
2696	0.394253249554
2697	-0.0242723148951
2698	-0.0251362594534
2699	-0.00102592425374
2700	0.0408708099031
2701	0.133547242265
2702	-0.0168221773622
2703	0.016142774395
2704	0.00272825329606
2705	-0.016400457361
2706	0.0214784688693
2707	-0.0244811877851
2708	-0.0170380134844
2709	-0.00842843889734
2710	-0.0503167641085
2711	-0.0323074037056
2712	0.0147934277233
2713	-0.0195735639918
2714	-0.0157549877091
2715	0.00713299295332
2716	-0.0260270533514
2717	-0.19950301912
2718	0.0192958178239
2719	0.0830407793092
2720	0.0204622187662
2721	0.0189264298086
2722	-0.0195328071688
2723	0.0233129982826
2724	-0.0186019061456
2725	-0.0157518629139
2726	-0.0176413956082
2727	0.0165399050311
2728	-0.00786377621939
2729	-0.0215284700821
2730	-0.0112839146937
2731	0.0190019019017
2732	-0.0131932443211
2733	0.0191174178254
2734	-0.0189872043065
2735	-0.0200438886596
2736	-0.0128910698188
2737	0.0104485141429
2738	0.0029961872967
2739	0.0664943769415
2740	0.0018121932944
2741	0.0841195369949
2742	-0.0618899131053
2743	-0.00331178887078
2744	0.0228164038881
2745	-0.0190038883835
2746	0.024425135496
2747	0.0658458207836
2748	0.0817499493554
2749	-0.0196002844895
2750	0.0925780846779
2751	-0.00117407278914
2752	0.0611788128604
2753	-0.0161867311182
2754	0.0133735784208
2755	0.00845180290275
2756	-0.0297916797403
2757	0.0609391618373
2758	-0.0139379732385
2759	0.0212833488001
2760	0.0190572658298
2761	-0.1532509699
2762	0.00604025981836
2763	-0.0458299068284
2764	-0.0727466590109
2765	0.0052030108229
2766	-0.00213912189388
2767	0.00398215810923
2768	0.0228125789469
2769	-0.04147767126
2770	0.0700639133802
2771	-0.00717833582118
2772	-0.0371969741176
2773	0.000776230384777
2774	-0.0208125622896
2775	-0.0231164059702
2776	0.352226923423
2777	-0.0149724229453
2778	-0.0485604504575
2779	-0.0315812500355
2780	0.0241923858996
2781	-0.00951912935059
2782	-0.906451774115
2783	-0.681632384436
2784	-0.00978442565788
2785	0.0117213313495
2786	0.0102781488782
2787	0.0227465186406
2788	0.0726336745885
2789	0.0833216690949
2790	0.0173665408228
2791	-0.0131372705371
2792	0.0903847054677
2793	0.0216491414526
2794	0.0117442006554
2795	-0.208532374511
2796	-0.0142019511879
2797	-0.0997250368385
2798	-0.102924037959
2799	-0.0235496005863
2800	0.00947629676099
2801	-0.0223446001899
2802	0.0307960815318
2803	0.0213956112765
2804	-0.0174952463651
2805	-0.0135469100877
2806	-0.0218344998282
2807	-0.00195338654751
2808	0.192575253497
2809	-0.127300200856
2810	-0.0137665727024
2811	-0.00240121173974
2812	-0.0284738969627
2813	-0.00245957844179
2814	-0.0922326818001
2815	-0.0650174315245
2816	0.00179904951188
2817	-0.0105957226631
2818	0.0168723661276
2819	-0.0162196506143
2820	0.0378767488547
2821	0.00613423038811
2822	0.0667360227023
2823	0.182307901631
2824	-0.0042816752316
2825	0.00825916088536
2826	0.101913062252
2827	0.0102861625884
2828	0.00866169414486
2829	-0.0256059688484
2830	-0.0109666761501
2831	0.0306708165393
2832	0.00689425470343
2833	0.0129033827114
2834	-0.0101866636078
2835	-0.0311164257878
2836	-0.0307537149998
2837	-0.0334848263448
2838	0.00690818096394
2839	-0.0693350598056
2840	-0.0734346281845
2841	-0.00525709928352
2842	0.00379302477215
2843	0.0220076432509
2844	-0.00290314730902
2845	0.011816309721
2846	0.0207483138062
2847	-0.00783282584524
2848	0.0159295886433
2849	0.00888971841789
2850	-0.0121255209106
2851	0.003758684218
2852	0.0604816694477
2853	0.0102338280662
2854	-0.00168648500366
2855	-0.0174146482552
2856	-0.020558899252
2857	0.0127566573426
2858	0.0191234179096
2859	-0.0492359656974
2860	-0.036036301048
2861	-0.0048524418312
2862	-0.0104318108396
2863	-0.108294802538
2864	-0.116705742856
2865	0.0192013198991
2866	0.00486058761208
2867	0.00458268129329
2868	0.0826207402348
2869	0.0637428589705
2870	-0.00743748526759
2871	0.00850046101693
2872	-0.00957794219552
2873	-0.0068465618266
2874	0.0168942277926
2875	0.00596017041112
2876	0.0109820691722
2877	0.000678299698499
2878	0.0649123760171
2879	-0.0247142320223
2880	-0.0381324149149
2881	-0.0126321001727
2882	-0.101912451322
2883	-0.00549057706712
2884	0.01329751781
2885	-0.0192987245307
2886	0.00671930510483
2887	-0.0108033518653
2888	0.0574995141398
2889	-0.0251496569099
2890	-0.0142340745054
2891	-0.0233687995839
2892	-0.0116336891641
2893	-0.0433577456448
2894	0.0420755098582
2895	0.00731356311239
2896	0.0109862103107
2897	-0.00975239492748
2898	-0.0126528153585
2899	-0.0188250997638
2900	0.00167293241504
2901	-0.140578236708
2902	-0.00679176325238
2903	-0.00648214030996
2904	0.0159220548884
2905	-0.00310558175855
2906	0.0586882195797
2907	0.0476637158635
2908	0.0224759920694
2909	0.0177788632087
2910	-0.0786477187426
2911	0.0174893493685
2912	0.0124908960387
2913	-0.0049442425132
2914	-0.0769167824699
2915	0.0557384776435
2916	-0.00944148830872
2917	-0.0216933883097
2918	-0.0161520791326
2919	0.0094135154355
2920	0.0969421960989
2921	0.0100682301563
2922	-0.00462660083721
2923	-0.0236767384115
2924	-0.0115833280202
2925	-0.0237702580938
2926	-0.244082635434
2927	-0.0741514931803
2928	0.0122774186856
2929	-0.0140398441451
2930	0.0180827183689
2931	0.0130660088797
2932	0.150370405602
2933	-0.0225300236995
2934	0.0115973914345
2935	-0.00960588751354
2936	0.0855698776566
2937	0.00381725763609
2938	0.00338333597142
2939	-0.00266211342914
2940	-0.0201084602921
2941	-0.0306969098088
2942	-0.0141505598294
2943	-0.0554013136892
2944	-0.0359662182371
2945	0.0162201264891
2946	0.0444658920319
2947	-0.0040902238466
2948	-0.0128961609873
2949	-0.0253357180432
2950	-0.0122442003981
2951	0.0162413386549
2952	0.000971560478576
2953	0.0100241960451
2954	0.113228232958
2955	-0.00171234082336
2956	0.0217474163081
2957	0.13499452998
2958	-0.0202523706386
2959	-0.0107550391413
2960	-0.0187556590632
2961	-0.0548977088316
2962	0.00936705088422
2963	-0.0287310222335
2964	-0.0189527524375
2965	-0.070290168449
2966	0.0113193843464
2967	0.0150433229348
2968	-0.00793305620364
2969	0.00453426954131
2970	-0.0100979440347
2971	-0.022733233429
2972	0.010616095711
2973	0.0170651765243
2974	0.00571538445991
2975	0.0183666767569
2976	-0.017062353528
2977	0.015060886401
2978	-0.0486817008914
2979	-0.0427046002569
2980	0.0136205273033
2981	0.0227867583643
2982	-0.0240116312397
2983	0.0181570594251
2984	-0.0100464243827
2985	-0.00820554530178
2986	-0.143242632613
2987	-0.0220043063735
2988	0.167755235917
2989	0.164672250409
2990	0.00414931316411
2991	0.000921455978386
2992	0.0190649124925
2993	0.00488157129038
2994	0.022733573707
2995	0.00201307416238
2996	0.00184799636899
2997	-0.0171600516499
2998	0.00427239331493
2999	0.0493411205002
3000	-0.0127774684241
3001	-0.0318358442092
3002	-0.168172384388
3003	0.0106943735018
3004	0.392080436946
3005	0.437812558336
3006	0.0107499038913
3007	0.10761483839
3008	-0.00665484439661
3009	-0.253715184717
3010	-0.00187838352721
3011	-0.00723708178206
3012	-0.0175939062717
3013	-0.121684270149
3014	-0.00817049996746
3015	0.00605137355851
3016	0.0207531265356
3017	0.0112239313688
3018	-0.0189688223985
3019	-0.0205246989635
3020	-0.020341116529
3021	0.00279039402358
3022	0.000980197349296
3023	-0.00957444414962
3024	-0.0187163112407
3025	0.0142588399148
3026	0.00131327545775
3027	-0.0159356682089
3028	-0.0180976490348
3029	-0.000430493694018
3030	-0.00740648327213
3031	0.0172773623569
3032	-0.0184758526033
3033	-0.0191153907118
3034	0.00124842086322
3035	0.0226393691702
3036	-0.0222549245065
3037	-0.0189908700603
3038	-0.00975021988159
3039	-0.00510019524517
3040	0.00196380573391
3041	0.0226528091676
3042	-0.0137512121234
3043	-0.0765375068021
3044	-0.0727878478321
3045	0.01449769705
3046	0.090460075572
3047	0.0904360791795
3048	0.0183536935211
3049	0.0154298758293
3050	-0.261310751029
3051	-0.0472327363101
3052	-0.0324235259016
3053	0.00854575604429
3054	-0.0882276255818
3055	0.00252533786793
3056	-0.00951808391758
3057	0.00985685276003
3058	0.0197823880494
3059	-0.00310775766258
3060	0.00416656448979
3061	-0.0246594491814
3062	0.000464275692049
3063	-0.0117204030758
3064	0.00325492286146
3065	0.00670615313978
3066	0.0202361270758
3067	0.0234699665767
3068	0.00077641731232
3069	-0.00380119143415
3070	0.0207312465721
3071	-0.00535058076738
3072	-0.028123533697
3073	-0.0167938623495
3074	-0.0149582825961
3075	-0.166961930852
3076	-0.0213978121364
3077	0.108829482646
3078	0.111466377702
3079	-0.015070377038
3080	-0.0618858818195
3081	-0.00732074197835
3082	0.0136266322258
3083	-0.0250989429317
3084	0.0176228299469
3085	-0.00667688779986
3086	0.00755022575428
3087	-0.00454080356673
3088	0.0919168099736
3089	-0.0245929504889
3090	-0.0212811140283
3091	-0.00114779345595
3092	-0.00349866727395
3093	-0.0125534387843
3094	-0.0134812386797
3095	-0.0152500701128
3096	0.0211995600972
3097	-0.012154145748
3098	-0.0173264020294
3099	-0.0208471637452
3100	-0.00582019120587
3101	-0.00956169173434
3102	0.00918622809072
3103	-1.88782430112e-05
3104	0.0109146285972
3105	-0.00837322403339
3106	-0.0140479250024
3107	0.0237454820285
3108	-0.0188004002934
3109	0.0215291728833
3110	-0.036452117649
3111	-0.0140190168194
3112	0.00860028270602
3113	0.267191325096
3114	-0.00179725775284
3115	-0.188941835528
3116	-0.00142308920136
3117	0.0943399774135
3118	0.00475927197126
3119	-0.00425578532134
3120	-0.0235756947772
3121	0.00464084193024
3122	-0.097951009226
3123	-0.0271376574885
3124	-0.0215964889048
3125	0.0120891293531
3126	-0.00867547883326
3127	-0.0034363406792
3128	0.0129124836262
3129	0.0107195410416
3130	-0.0237832251946
3131	-0.0411545743861
3132	-0.0135152665606
3133	-0.132088526925
3134	-0.017237133474
3135	0.0725683662855
3136	-0.0189280657876
3137	0.0076793742876
3138	0.0130003872578
3139	0.0222206753517
3140	-0.0818543224398
3141	-0.00244238337301
3142	-0.0199272398171
3143	-0.0107508116126
3144	-0.0250145658212
3145	-0.0251336328482
3146	-0.00831963308708
3147	-0.0108182379881
3148	0.0233993595382
3149	-0.0205857725521
3150	-0.00342845126682
3151	0.0123287360272
3152	-0.0528916099256
3153	-0.0496026547512
3154	-0.0612572264014
3155	0.0164908203521
3156	0.00453746700134
3157	-0.00126248096909
3158	-0.0666358480571
3159	-0.0470993573195
3160	0.0112830968117
3161	-0.0169476288784
3162	0.0217556339087
3163	-0.145802990072
3164	-0.156768730497
3165	0.0130628937576
3166	-0.0149065077287
3167	-0.0407028829422
3168	0.00897370888703
3169	0.0237709441038
3170	0.0136264843959
3171	0.0925968273122
3172	0.0885933389305
3173	-0.0217433601214
3174	-0.0149427320184
3175	0.0239706373136
3176	0.000484806709313
3177	-0.0134815293744
3178	0.021086755496
3179	-0.039060931823
3180	-0.0223363826128
3181	0.0204889480313
3182	-0.00536771111987
3183	-0.000519112535099
3184	0.0872936962538
3185	0.0108983531807
3186	-0.0145511818963
3187	0.000320559531378
3188	-0.00838939943351
3189	0.018924559063
3190	0.0224664641922
3191	0.0174685950117
3192	-0.0105966281207
3193	0.00636573311293
3194	0.0192250143926
3195	0.0069657021244
3196	0.0615389295335
3197	-0.0445132102724
3198	-0.0189484750238
3199	-0.017655327726
3200	-0.0184171371706
3201	-0.0212132153143
3202	0.0235422123611
3203	-0.00954564231154
3204	-0.019819642386
3205	0.0911271520789
3206	0.091621553825
3207	0.0604644265206
3208	-0.0179113831728
3209	0.0183840028327
3210	-0.0198106465266
3211	0.00805745310986
3212	0.0948806842799
3213	-0.0204768169491
3214	0.0229468240008
3215	0.016944475881
3216	-0.0117377579977
3217	0.0758430638198
3218	0.080567273734
3219	0.00944172444984
3220	0.0211857136182
3221	0.0222767090195
3222	-0.00787209308874
3223	0.0229425231865
3224	-0.00162775200183
3225	-0.00343049164078
3226	-0.000241451052193
3227	0.00754320683064
3228	0.00582447931962
3229	-0.00899199057036
3230	-0.100836620105
3231	-0.0709274407569
3232	0.00856835584497
3233	-0.0115730648848
3234	0.0138788847726
3235	0.00701341348919
3236	0.00491298456287
3237	-0.0343350943148
3238	-0.0507321715038
3239	0.0179646765928
3240	-0.00928748056089
3241	0.0218238071198
3242	-0.0552283969173
3243	-0.00894588514178
3244	-0.00511685274827
3245	-0.0197817252971
3246	0.00527925504689
3247	-0.0129969784877
3248	-0.00568263273477
3249	-0.0162721922723
3250	-0.0292806624229
3251	-0.0146678251487
3252	-0.0538556505383
3253	0.0156625245587
3254	-0.0113147461756
3255	-0.0064524231119
3256	0.000985176182339
3257	0.00580444900384
3258	0.0243103325436
3259	0.0663623150356
3260	0.0179481200131
3261	0.00859880249174
3262	0.0126900203481
3263	0.0180100659395
3264	-0.0435616522802
3265	0.00690994250487
3266	0.0201126829593
3267	-0.00724601741055
3268	-0.011380053439
3269	-0.0334613824372
3270	-0.00545234298082
3271	0.00576913566573
3272	0.0126995262359
3273	-0.0144745636233
3274	-0.00596028675109
3275	0.0118202419677
3276	0.0147279375429
3277	-0.0144689727956
3278	-0.0150027640553
3279	0.190437807583
3280	0.214708010823
3281	-0.00149954497589
3282	0.0100568900376
3283	-0.0023547050676
3284	0.00794231062871
3285	-0.0137630215425
3286	-0.0125877238647
3287	0.00568837200717
3288	-0.0241167597887
3289	0.00541392683676
3290	-0.0105943983167
3291	-0.0173871546608
3292	-0.000535584006698
3293	-0.0228899339468
3294	0.00120094622226
3295	-0.0140927201935
3296	-0.0184374575966
3297	-0.000145533175102
3298	0.0137216847108
3299	0.0842716088854
3300	0.00955600843857
3301	-0.0122224188561
3302	-0.00388792596978
3303	0.00565572896867
3304	0.0241672656067
3305	0.0158010239495
3306	-0.0119368376977
3307	-0.0220935351712
3308	0.0101108197737
3309	-0.0368324006749
3310	0.00526447137193
3311	-0.0124716257667
3312	0.0096032018421
3313	0.0132861427603
3314	0.0175049282576
3315	-0.0023440684597
3316	0.0229079487359
3317	-0.0230996033633
3318	0.00491903623714
3319	0.00069916032163
3320	0.0194778981124
3321	-0.0181592381213
3322	-0.0148519269877
3323	-3.22905176055e-05
3324	-0.00982215501786
3325	-0.00223512728319
3326	-0.00746912223735
3327	0.00959353928272
3328	0.00911714342951
3329	0.00889951046538
3330	-0.0195503525288
3331	-0.00755625028908
3332	0.022432059222
3333	0.0194878998257
3334	0.0378872149287
3335	-0.0108856589088
3336	-0.0158678958272
3337	0.00978928298864
3338	0.00405046675039
3339	0.00394170928557
3340	-0.0130399051431
3341	-0.0107534049992
3342	0.0237573291494
3343	-0.0238003167009
3344	-0.00544317064201
3345	0.0198262355081
3346	-0.0099826286772
3347	-0.0157511171528
3348	0.0851669088343
3349	0.0564415741273
3350	0.023793363502
3351	-0.00803282051804
3352	-0.000245354483077
3353	0.163488785396
3354	0.00191758063886
3355	-0.0132478489884
3356	0.0216374774051
3357	-0.000558872533253
3358	0.0128017909612
3359	-0.0250082537801
3360	0.00579015115989
3361	-0.0712091014269
3362	-0.0555027457545
3363	-0.00220688184659
3364	-0.00539668974667
3365	-0.00169834003691
3366	-0.024228036953
3367	-0.0260958147785
3368	-0.0146622960282
3369	-0.000675750271958
3370	-0.00601567626361
3371	0.0108537665093
3372	0.0181700442481
3373	-0.0161358178209
3374	-0.0524894003904
3375	0.0169997970318
3376	-0.248543082701
3377	-0.0178310707839
3378	0.0147144829818
3379	0.00203879001134
3380	0.00404748571894
3381	0.0247453796986
3382	-0.000715645036132
3383	-0.0172056312254
3384	0.0158588859596
3385	-0.0764127975417
3386	-0.00309445172681
3387	-0.0180656117737
3388	0.0191083438168
3389	0.139081451532
3390	0.155162584202
3391	-0.0244898196723
3392	0.199279957737
3393	-0.0269807221619
3394	-0.0121404376584
3395	0.0241685023764
3396	0.0110778331405
3397	-0.0308246909123
3398	-0.0154706191665
3399	0.0242066835508
3400	-0.00730613891709
3401	0.0648093783343
3402	0.0827312123373
3403	-0.00793248828778
3404	0.0017967019354
3405	-0.0140333849237
3406	-0.00674354997695
3407	-0.00741306941215
3408	0.0123295046881
3409	0.00847869828985
3410	0.0818761094774
3411	-0.0183150096579
3412	-0.0734665458208
3413	-0.0151358392683
3414	-0.0442012598156
3415	-0.0427648479985
3416	0.0130986990532
3417	-0.000824044944009
3418	-0.303154509193
3419	0.00328900423436
3420	-0.00975607658934
3421	-0.043933239337
3422	-0.0169840362306
3423	-0.00738885228594
3424	-0.00694042343758
3425	-0.00814165488897
3426	-0.0245598767446
3427	-0.286841994298
3428	-0.296877306004
3429	0.00446185601509
3430	-0.0280978362805
3431	0.00686772095557
3432	0.00372967790263
3433	-0.0211177308534
3434	0.0112882531713
3435	0.0172464186491
3436	0.0147737632745
3437	-0.00818896203296
3438	0.0105732877516
3439	0.00423226819488
3440	-0.014704594733
3441	-0.0177501779537
3442	-0.0155427346725
3443	0.0137335682251
3444	-0.00383580171925
3445	0.0165764643999
3446	0.242099159843
3447	0.308682812139
3448	-0.0256867592994
3449	0.00822827819927
3450	0.019100721034
3451	0.0110326657164
3452	-0.0187863824267
3453	0.0196271544339
3454	-0.0254318748533
3455	-0.00964005817987
3456	0.0184022813471
3457	-0.0145497659145
3458	-0.0165291467652
3459	-0.0250806047653
3460	-0.0121521096212
3461	-0.00537388621959
3462	0.0216274900514
3463	0.0279549729719
3464	-0.0620705907653
3465	-0.00942370901842
3466	-0.00410374539295
3467	-0.0377831472026
3468	-0.010565756538
3469	-0.0167403477741
3470	0.000206250519954
3471	-0.00090694154638
3472	-0.0190394636591
3473	0.0146154600601
3474	-0.0465188109701
3475	0.083673692896
3476	-0.0189843877681
3477	-0.0218942895269
3478	-0.071772549269
3479	-0.0683485965247
3480	-0.00268177440126
3481	0.00750131791365
3482	0.00893688486841
3483	-0.049968075768
3484	-0.0426641388407
3485	0.0199617203616
3486	-0.0224531758172
3487	0.0159172892921
3488	-0.114974276583
3489	-0.0209137184824
3490	0.0112836873422
3491	-0.0148110216009
3492	-0.00986522141064
3493	-0.0184009525322
3494	-0.0133144094932
3495	-0.00772522754417
3496	0.0134452125644
3497	-0.0645619617372
3498	-0.0233339279635
3499	-0.020699992627
3500	-0.0199347377636
3501	-0.0130681559808
3502	0.117810781523
3503	1.00957861815
3504	-0.0163568065791
3505	0.00750865947756
3506	-0.0187517932414
3507	0.0130536415483
3508	0.015035207655
3509	0.014792052189
3510	-0.0200942619739
3511	0.0130276226869
3512	0.0206877807709
3513	-0.016129332383
3514	-0.0515570286372
3515	-0.0514734007284
3516	0.00947348293003
3517	0.0043920201172
3518	0.0186128657586
3519	-0.00781997080974
3520	-0.018583219618
3521	0.0090452103774
3522	-0.346743137396
3523	0.00573329688015
3524	0.0202428976521
3525	0.00616659328942
3526	0.0033322471113
3527	0.0115334088979
3528	0.0099250774975
3529	-0.00776033305098
3530	0.00315531277691
3531	-0.00800044075921
3532	-0.0111742437174
3533	0.0166077989197
3534	-0.00724059869493
3535	-0.0102638595117
3536	-0.0189074745006
3537	-0.0714199745959
3538	-0.00327289453364
3539	0.0102011523126
3540	-0.0196042940266
3541	-0.0229978517615
3542	-0.0192045803188
3543	-0.0247815040954
3544	0.0145829281886
3545	-0.088529997563
3546	-0.00760663813489
3547	-0.024647115006
3548	0.01925680165
3549	0.0153594821733
3550	0.00887433497978
3551	0.0232521184729
3552	-0.170380210647
3553	-0.00122436812524
3554	-0.00566027792113
3555	0.00306792308862
3556	0.0070335637362
3557	0.0040677523408
3558	-0.0484504366307
3559	-0.364499058824
3560	-0.00342859862877
3561	-0.00921852401706
3562	-0.0251390402167
3563	-0.00804452313996
3564	-0.0112866682441
3565	-0.0116682735124
3566	0.00767589746851
3567	-0.0231921807975
3568	-0.02659110903
3569	-0.041930875772
3570	0.0115992204692
3571	-0.0216217497405
3572	0.0125371629812
3573	-0.0120359924369
3574	0.00579154274176
3575	-0.00508501748218
3576	-0.00202237636868
3577	-0.00961613858977
3578	0.00677349206911
3579	0.0552828906325
3580	0.0075011831045
3581	-0.0169189633679
3582	0.00246500315946
3583	0.0146154260523
3584	0.00176198298265
3585	-0.0139313365048
3586	0.0115558006669
3587	0.259003059842
3588	0.00965846080559
3589	-0.0677029794691
3590	0.115834668383
3591	-0.130393307484
3592	0.0146768078185
3593	-0.0226805231112
3594	-0.0233050630855
3595	-0.0147875159213
3596	-0.00780045995745
3597	0.0208389987084
3598	-0.0250536445639
3599	0.018799070912
3600	-0.0254236355979
3601	-0.0163679971839
3602	0.0215408594571
3603	-0.0467723562179
3604	-0.00107202981088
3605	0.0240397923466
3606	0.0199966122678
3607	0.00793097409388
3608	-0.00475695825764
3609	-0.0104838162739
3610	-0.0217769038812
3611	-0.103259590173
3612	-0.019992845539
3613	0.0172391755135
3614	-0.00678575240544
3615	-0.0162685457371
3616	0.0235852406834
3617	-0.00352247525218
3618	-0.0216949060813
3619	-0.0345916975497
3620	0.0100931886854
3621	0.115241067383
3622	-0.0108157688206
3623	-0.00397330602058
3624	-0.0338433348534
3625	-0.0268764249282
3626	0.00736195817386
3627	0.023324832382
3628	0.00864782646244
3629	0.0103961347541
3630	0.00741990658327
3631	0.022319380867
3632	-0.0238147096915
3633	0.0170880671618
3634	-0.00325082822189
3635	-0.00270721515497
3636	-0.0852632200053
3637	0.0236001385274
3638	0.0211344619302
3639	0.00427477671425
3640	-0.0119927538683
3641	0.00351637044801
3642	0.0201294109301
3643	-0.0116071909554
3644	-0.00248236673967
3645	0.0152850742829
3646	0.0157475284884
3647	0.0092208477554
3648	-0.000670440667304
3649	-0.00204062293503
3650	-0.0508720824827
3651	0.0203091686507
3652	-0.00855902740886
3653	-0.0074534958644
3654	0.0110560664468
3655	-0.0178473324153
3656	0.11280495829
3657	-0.00726411836457
3658	0.00931551413409
3659	-0.0209891002313
3660	-0.0254565648342
3661	0.0226792845112
3662	-0.0123395868714
3663	-0.00717759351588
3664	0.0218477115765
3665	-0.0426406923956
3666	-0.0182120198734
3667	-0.0106398693738
3668	-0.000896198896341
3669	-0.011178885201
3670	0.00724437105553
3671	0.0229704251736
3672	-0.0354813275503
3673	-0.0230624531304
3674	0.0199000400206
3675	-0.0127912617452
3676	0.0200952146618
3677	-0.0218405882595
3678	-0.0282001138041
3679	-0.0313846980296
3680	-0.000984595868975
3681	0.0100927183639
3682	-0.0179395438685
3683	-0.00895287807389
3684	0.0151297172815
3685	0.0180023942201
3686	0.00946344113296
3687	0.00822616163938
3688	0.0223632467278
3689	-0.00950724021707
3690	-0.0177406500711
3691	-0.0110689002456
3692	0.00580205955657
3693	0.0141913580541
3694	-0.00286471221713
3695	-0.00645394434615
3696	0.00197862106435
3697	0.00203975052384
3698	0.00141260293909
3699	-0.000118513501031
3700	-0.00432234575088
3701	0.00542912396999
3702	-0.0107543123668
3703	-0.0365334555399
3704	0.00375437352374
3705	0.0163286707301
3706	-0.00966993713472
3707	-0.0366394243416
3708	-0.015997608883
3709	-0.00853359163163
3710	-0.0106478777759
3711	-0.0241657149955
3712	-0.00326447226507
3713	-0.00727403915552
3714	0.0956469490616
3715	0.0100769149116
3716	-0.0122344980842
3717	-0.00929549592698
3718	0.00993281085818
3719	-0.0197142531839
3720	-0.00754888478937
3721	-0.0228055050919
3722	-0.00234372036282
3723	0.00158089844517
3724	0.0185602819385
3725	-0.0381282241797
3726	-0.0131593657426
3727	-0.00128966314983
3728	-0.0107434854823
3729	-0.00480192075597
3730	-0.0104954978181
3731	0.0225887177237
3732	-0.0127364966428
3733	-0.0241669509999
3734	-0.00219293005703
3735	-0.0228842851763
3736	0.0105151082962
3737	-0.0187710712234
3738	0.0197646436903
3739	0.106856193345
3740	-0.0487778771007
3741	0.00525151283537
3742	0.00707373060342
3743	-0.0387360232799
3744	-0.00666534249911
3745	-0.0131529453622
3746	0.0241498501131
3747	-0.0398603975915
3748	0.00344077835575
3749	-0.0322676443438
3750	-0.0239492048889
3751	0.142797151502
3752	0.133667131886
3753	-0.0233376487893
3754	-0.00789663728027
3755	0.0842597739451
3756	0.0860944715339
3757	0.0208606459216
3758	0.00483221953111
3759	0.0196451014721
3760	-0.0033800899544
3761	-0.0313357663135
3762	-0.0175117517113
3763	0.0202572957705
3764	0.00930447419577
3765	0.0043772364499
3766	-0.0821626940798
3767	-0.0284774427885
3768	0.0138671629057
3769	0.0325167872881
3770	-0.00689749890455
3771	0.00809555545524
3772	0.0145776460797
3773	-0.0232534777435
3774	-0.00667343923274
3775	-0.0159858469287
3776	-0.021945608426
3777	-0.0157940635392
3778	-0.0142978997096
3779	0.0108510644051
3780	7.3767880879e-05
3781	0.0175396123518
3782	-0.0253626373613
3783	-0.0243031070469
3784	0.00760760512027
3785	0.0143632612416
3786	0.013638081112
3787	-0.0252654390407
3788	0.0215096985845
3789	-0.0239637099823
3790	0.0161794061246
3791	-0.0578616094139
3792	-0.00665869005886
3793	-0.00762111915125
3794	-0.0204854563329
3795	0.0130919869226
3796	0.000411142402214
3797	0.00641118697667
3798	0.0132051837272
3799	-0.0171939969165
3800	0.00436305911658
3801	0.0365899642579
3802	-0.0227616574307
3803	0.158631338972
3804	-0.0225532254042
3805	0.020799393142
3806	-0.0110700830458
3807	-0.0223924464395
3808	-0.186257237894
3809	0.00903452810458
3810	-0.00639933583396
3811	-0.0211622117747
3812	0.00128672376055
3813	-0.0126508386657
3814	-0.0161041274069
3815	-0.0328550587356
3816	-0.00526215247869
3817	0.0109502913803
3818	0.00421283563934
3819	-0.0190021317611
3820	0.00947924933743
3821	0.000678619271684
3822	0.00234189087867
3823	-0.076051293323
3824	-0.0149626805608
3825	0.0105416614835
3826	-0.018827204322
3827	0.0137379485096
3828	-0.0175454707341
3829	-0.0232535683639
3830	0.0207937259031
3831	-0.106428189001
3832	-0.0227245122166
3833	0.0208516698643
3834	0.00355978612382
3835	0.00157520007841
3836	-0.0226693312135
3837	0.0189552518206
3838	-0.0117336671806
3839	-0.00902574099921
3840	-0.024113132303
3841	-0.0268476203332
3842	-0.000419811434294
3843	-0.015642788768
3844	0.00885299943887
3845	0.0177257380341
3846	-0.0120860502693
3847	-0.000905206503801
3848	-0.00440654494031
3849	-0.0201249999543
3850	-0.0189343493031
3851	0.0164987028118
3852	0.0102527084793
3853	0.0198480150934
3854	0.0136838989091
3855	0.0219214701103
3856	-0.0196473242127
3857	-0.00113173278401
3858	-0.0177255777907
3859	-0.00895243480498
3860	0.00820847205098
3861	2.85489353448e-05
3862	0.00549141112783
3863	0.00250788799185
3864	-0.102577266327
3865	-0.0150499980187
3866	-0.0136227813592
3867	-0.0156467248596
3868	-0.0138805809634
3869	0.0123186533069
3870	-0.0106209967516
3871	0.0166873812732
3872	-0.0163182441028
3873	-0.00720931624741
3874	0.0215560875045
3875	-0.0156974070887
3876	-0.0244448447032
3877	0.00692883186592
3878	-0.0147413287566
3879	0.00298225868621
3880	-0.0221546212977
3881	-0.00253828002581
3882	0.0157385239266
3883	-0.00192732022668
3884	-0.00276163514904
3885	-0.00320665237696
3886	-0.00710132739331
3887	0.0107891418841
3888	0.0222839358975
3889	-0.0161688647432
3890	-0.018590551154
3891	0.00257134087213
3892	0.00702010888818
3893	-0.00229224857912
3894	0.0362516397797
3895	-0.159362108831
3896	-0.00343275874606
3897	-0.0251525721725
3898	-0.0061127070157
3899	0.00285744160541
3900	-0.0381153292737
3901	-0.00190810183626
3902	0.0133748726575
3903	0.0119995756813
3904	0.00696306390611
3905	-0.0527569987239
3906	-0.0213409071933
3907	-0.0245182643681
3908	-0.0107257521338
3909	0.00474950695684
3910	-0.0191027350038
3911	0.0115618129031
3912	-0.110069811176
3913	-0.0122191545611
3914	0.000459174238359
3915	-0.0204080677459
3916	0.0158559589061
3917	0.0116416191244
3918	0.0325029253595
3919	-0.00412112670616
3920	-0.00778834719053
3921	0.0118290140987
3922	-0.0860932167827
3923	-0.0189593614393
3924	0.0105832368941
3925	0.0149488077682
3926	-0.00444361881591
3927	0.0198745607027
3928	-0.0201559577287
3929	-0.0108899797647
3930	0.00971419360056
3931	-0.0213298486005
3932	0.00488881775859
3933	0.00889074330891
3934	-0.0169608612232
3935	-0.00791671245855
3936	-0.0209517127011
3937	0.0229795895458
3938	0.000273266781847
3939	0.00678030153777
3940	-0.022414281711
3941	-0.0154105814251
3942	-0.00126178267508
3943	-0.00175615541795
3944	0.0125935293657
3945	-0.0261629326731
3946	0.00868654524395
3947	0.0102682591288
3948	0.0164407974957
3949	0.0327417236274
3950	-6.66714947177e-05
3951	-0.00760565830438
3952	0.0818174231872
3953	-0.00176751900847
3954	0.00435034243799
3955	-0.000141866070778
3956	0.00832616796294
3957	0.00701003121186
3958	-0.00309431842286
3959	0.0167418366463
3960	-0.00658654713065
3961	-0.0026304930641
3962	-0.0242277048132
3963	-0.0386020953895
3964	-0.0372158301572
3965	-0.00242125238741
3966	-0.0201464694393
3967	0.0750054650441
3968	-0.0142624945725
3969	-0.00322918644849
3970	0.0104615264603
3971	-0.0260693369893
3972	-0.0282864723941
3973	0.0127769149364
3974	-0.00771349525058
3975	0.00030619526221
3976	-0.00354736323917
3977	0.0152247592231
3978	-0.022018108174
3979	-0.0208429546641
3980	0.00934398700685
3981	0.00352287585854
3982	0.00330655573898
3983	-0.0119457544002
3984	-0.00687568062652
3985	0.00587789787705
3986	-0.083675347277
3987	0.0221852378843
3988	0.023265011467
3989	0.0202058920735
3990	-0.016309583613
3991	0.0161557140249
3992	-0.00538719350155
3993	0.0208479119726
3994	-0.0179133849208
3995	0.0238331398959
3996	-0.00658285129595
3997	0.017838072792
3998	0.0211255866039
3999	-0.0125420728903
4000	-0.0109982975685
4001	0.0106769273893
4002	0.00632865174455
4003	-0.0140440919782
4004	-0.0247660800419
4005	-0.0249872756749
4006	0.1936737557
4007	0.164388279339
4008	-0.0194906300301
4009	-0.0239087125858
4010	-0.00727031415049
4011	-0.0206470378181
4012	-0.00613598128819
4013	0.0117877880666
4014	0.00398294162771
4015	0.00186039514909
4016	-0.00969426935573
4017	0.0142983691286
4018	0.00273274878583
4019	0.00386611530993
4020	0.0064147754828
4021	0.00225735899728
4022	-0.0105731380531
4023	-0.0217309591214
4024	-0.0064379023666
4025	-0.00886142476369
4026	0.00905251892552
4027	0.259255238139
4028	0.167449653052
4029	-0.00387721506244
4030	0.00214979342801
4031	0.0188278804374
4032	-0.0161436227408
4033	-0.0184205431573
4034	0.00177147429361
4035	-0.00633703459567
4036	-0.0119721316361
4037	-0.0403868638514
4038	-0.0197047239854
4039	0.0178545033099
4040	-0.0159729985398
4041	0.0141380685303
4042	-0.00926406353405
4043	0.0223267667676
4044	0.0129966630478
4045	0.0225968280321
4046	0.0106831536
4047	-0.0136949590259
4048	-0.0244132815952
4049	0.00337190947055
4050	-0.00597323912884
4051	0.0119536027635
4052	-0.0155623965482
4053	-0.0191607807679
4054	0.0207466157406
4055	-0.00985721836694
4056	-0.0114455012341
4057	0.0229896753251
4058	0.00561567559256
4059	-0.00312997152614
4060	-0.0227044734412
4061	0.0217201296057
4062	-0.0212802368586
4063	0.0176933645487
4064	-0.0232899310687
4065	0.0088120462341
4066	0.000485312934222
4067	-0.0158770946931
4068	-0.00298531376162
4069	0.00672752324633
4070	-0.0102205292046
4071	-0.031655366965
4072	-0.0371877681807
4073	0.0206688145378
4074	-0.0246061938037
4075	0.00952851827943
4076	0.0178045049842
4077	-0.0191242070945
4078	0.018528375049
4079	-0.0249269227383
4080	-0.0314067047736
4081	-0.00864200741839
4082	-0.00179305380067
4083	0.018386349246
4084	-0.019992563804
4085	0.000311155802477
4086	0.0148018457531
4087	-0.0314157139016
4088	-0.0175929301914
4089	0.00322601250622
4090	0.0216529322471
4091	-0.000661842559361
4092	-0.0120979328527
4093	0.108323647428
4094	-0.00614913804223
4095	0.0142760298371
4096	-0.0502891038409
4097	-0.0246655054231
4098	-0.00249876728671
4099	-0.0138212243804
4100	0.0145612956971
4101	0.0244033192773
4102	-0.0116983323993
4103	0.00251418161436
4104	-0.000566920769332
4105	0.010580136531
4106	-0.0189296741193
4107	-0.00751909218161
4108	-0.112742843735
4109	0.00281779914421
4110	0.0180965136684
4111	0.000679955826178
4112	0.0106735442582
4113	-0.0212426954134
4114	-0.0134204952571
4115	-0.00116817642508
4116	-0.0169429432049
4117	-0.0216780622971
4118	-0.0127234221074
4119	0.00103193767807
4120	0.00771961646584
4121	0.0221221714936
4122	-0.0466784323144
4123	-0.00407927834511
4124	0.0125247912876
4125	-0.00766359973327
4126	0.00975320701557
4127	0.0239617064893
4128	0.0223933864042
4129	-0.0164709865617
4130	0.0170231337806
4131	-0.0250263618187
4132	0.00723389641879
4133	-0.00720877810779
4134	-0.00235983921349
4135	0.0555609663297
4136	0.0184338876792
4137	-0.00801375486184
4138	-0.00552920398745
4139	-0.01444750636
4140	-0.0190283968551
4141	0.0208256340912
4142	-0.00777705048912
4143	-0.0233775173541
4144	-0.00870569071308
4145	-0.0204469045172
4146	-0.0133174674478
4147	0.016111640747
4148	0.00071811962308
4149	-0.0250018158882
4150	0.422305992656
4151	-0.0572420171223
4152	-0.0446196113001
4153	-0.000530420403773
4154	-0.0495124418597
4155	-0.0102461525618
4156	-0.00445105910802
4157	0.018749709515
4158	0.0115458689611
4159	0.0140685546186
4160	-0.00325842753993
4161	0.0092188217433
4162	0.0203933251663
4163	-0.0238816990763
4164	-0.0194702794628
4165	0.0105196791483
4166	-0.000374316745347
4167	0.0227449853924
4168	-0.0135076977252
4169	0.0878467553654
4170	0.0233649769474
4171	0.0127659804543
4172	-0.0102407922009
4173	0.19144544805
4174	-0.0210814880709
4175	-0.0171298840549
4176	0.00244193564738
4177	0.0210173968524
4178	-0.00553904034561
4179	-0.0242703706953
4180	-0.0170357017907
4181	-0.50645661784
4182	-0.251183783047
4183	-0.0142038598141
4184	0.00696855551772
4185	0.0117825696764
4186	-0.000740880643354
4187	0.0481125929435
4188	-0.00137645464124
4189	-0.000712561221475
4190	0.0168617405152
4191	-0.0532198230499
4192	0.0130463825744
4193	0.0237580557608
4194	0.00603652430292
4195	0.00568312287013
4196	-0.00525974016368
4197	-0.00866101392408
4198	0.0217853356534
4199	-0.0235831482463
4200	-0.00892392606389
4201	0.0228098525449
4202	0.0203012346442
4203	-0.00179073839807
4204	0.0212242052402
4205	-0.0178007841916
4206	0.0378531462816
4207	-0.0201551409114
4208	-0.003573003872
4209	0.0109671123627
4210	-0.0143663415426
4211	0.00180658226238
4212	-0.0228029854728
4213	-0.00359824996177
4214	-0.0983431475051
4215	0.00401161049393
4216	0.0159745769792
4217	-0.00349204929393
4218	-0.0201993433139
4219	0.00195454436266
4220	0.010886673158
4221	3.41049743095e-05
4222	-0.00950204688117
4223	0.00570985197248
4224	0.0104721992737
4225	0.084596167843
4226	-0.012123344105
4227	-0.0227857056411
4228	0.0171142953814
4229	0.0110709686328
4230	-0.0165795990315
4231	0.0108187495236
4232	-0.000394451633301
4233	-0.0704737129782
4234	-0.00625942039391
4235	-0.00983393345801
4236	0.00504069704081
4237	0.00556892792591
4238	-0.0186297111886
4239	0.0125635578562
4240	0.0161008823405
4241	-0.0133874276375
4242	0.0172933728406
4243	-0.00780162653845
4244	-0.0178935717091
4245	-0.0367262130591
4246	-0.0246503776153
4247	-0.0136731314554
4248	-0.00295126811656
4249	-0.025421807161
4250	-0.0340520397986
4251	0.0240899460169
4252	0.00304466845715
4253	0.0160648490938
4254	-0.0179417312855
4255	-0.0190635013946
4256	0.00186430874988
4257	-0.0238006160415
4258	0.0955381941557
4259	0.0643548344427
4260	-0.00467871539254
4261	-0.00559103765696
4262	-0.0158863465769
4263	-0.014008962071
4264	-0.0196266885564
4265	-0.0114749896696
4266	-0.00773856999666
4267	-0.00789087250222
4268	0.0136019361742
4269	0.00397822834454
4270	-0.0206016197281
4271	0.0159471645645
4272	-0.0161088284962
4273	0.00240975943336
4274	-0.026392713908
4275	0.00810823774745
4276	0.000208184545114
4277	0.0170459152701
4278	0.000319753827741
4279	0.162281575714
4280	0.153060374865
4281	-0.011471185138
4282	0.0188941544934
4283	0.0893548917776
4284	-0.0134576973548
4285	-0.0126572846972
4286	1.37507541363e-05
4287	0.0238117255616
4288	-0.0271956263917
4289	-0.0232776917949
4290	-0.0194402269888
4291	0.0197096801307
4292	-0.00719084234854
4293	-0.0147260229383
4294	0.00193416616939
4295	-0.0141462661568
4296	0.0134835200117
4297	0.000779954533858
4298	0.00193017014524
4299	0.00520346310631
4300	-0.0200248599653
4301	0.00890645768475
4302	-0.00318185832712
4303	-0.000635133888936
4304	-0.0073692763653
4305	0.00535960889655
4306	-0.0442458238303
4307	0.0136310871685
4308	-0.0127111770313
4309	-0.0221681158374
4310	0.00440721873843
4311	0.0108015694988
4312	-0.0132304447864
4313	-0.00288878043737
4314	-0.00153287737961
4315	0.00089223190455
4316	-0.0142488786259
4317	-0.00514545928349
4318	0.0218551898525
4319	-0.0151935062751
4320	-0.0165513095829
4321	0.0182888279403
4322	-0.0187908238795
4323	0.0120270404325
4324	0.014588231032
4325	0.0136356385538
4326	0.00336789998924
4327	-0.0105178782511
4328	0.00902555986271
4329	0.00577525068716
4330	-0.0243334414587
4331	0.000474663353607
4332	-0.00421111272106
4333	0.00805184224818
4334	-0.0220448024704
4335	-0.019966109859
4336	0.0147988072816
4337	-0.0218201203191
4338	0.00089224847372
4339	0.00145504082036
4340	0.00290637544189
4341	-0.00381307812755
4342	-0.0354229333144
4343	-0.00887806475782
4344	-0.0208621581889
4345	0.0119441837194
4346	-0.0224260182414
4347	0.00604260499172
4348	-0.00296381668388
4349	0.0067589835955
4350	-0.11786860326
4351	0.00368493124962
4352	0.00330333815453
4353	0.0107088130428
4354	-0.0112180906637
4355	0.0268406081758
4356	-0.00814815074355
4357	-0.00502978608963
4358	-0.0237668787498
4359	-0.013025074637
4360	0.00186474955084
4361	-0.0239928122712
4362	0.0237046263159
4363	-0.014615701735
4364	-0.0294908296469
4365	-0.0164991615444
4366	-0.0103452057444
4367	-0.00343014340971
4368	-0.0296023258002
4369	-0.0223931560221
4370	0.00190555399102
4371	-0.0567864366015
4372	-0.000119580014622
4373	-0.0156091207116
4374	-8.96504882249e-05
4375	-0.0124952623771
4376	0.00645170123337
4377	0.00472258370718
4378	0.0048390421732
4379	-0.0172731854341
4380	-0.000911270323799
4381	-0.0166153383097
4382	-0.000917953419117
4383	-0.0252832006213
4384	-0.0115867543301
4385	-0.00619074821977
4386	-0.0178806035643
4387	0.00883145352599
4388	-0.0241985444752
4389	0.0245177937267
4390	0.0154141446868
4391	-0.0433792693945
4392	0.00124987853575
4393	-0.00904611450136
4394	-0.0038789292262
4395	-0.0287876477733
4396	-0.0299456377431
4397	0.0100036655551
4398	-0.0194244550099
4399	-0.0020845921387
4400	0.014339029685
4401	0.0114694172861
4402	0.0155328431373
4403	-0.0176085546217
4404	0.0117653198572
4405	0.00338479152983
4406	-0.0177901930924
4407	-0.0694537404614
4408	-0.0015364161862
4409	-0.0350713262339
4410	-0.0121648350489
4411	0.0183066052621
4412	0.115034887396
4413	0.00130349711148
4414	-0.0046989292447
4415	-0.00864848824689
4416	0.0240097404192
4417	-0.0409179170679
4418	-0.0255282119011
4419	0.00770770691197
4420	-0.0211457556324
4421	-0.0106044560027
4422	-0.0202074824208
4423	0.0115231355348
4424	0.00962320147769
4425	0.0233935828236
4426	-0.00623540224636
4427	0.02483506247
4428	0.00890635142758
4429	0.0104368551929
4430	-0.004599904965
4431	-0.00148742428129
4432	0.00928298178893
4433	-0.0285702603483
4434	-0.0200880809616
4435	0.00144425813492
4436	0.104026432908
4437	-0.00635128400785
4438	-0.0149291637782
4439	-0.00591730553648
4440	0.0549713514309
4441	-0.0051651754137
4442	-0.0526262276114
4443	0.0142159851693
4444	-0.00154436959383
4445	0.0135804866328
4446	0.177243895933
4447	0.0595404300356
4448	0.00735197877272
4449	0.00825865987254
4450	-0.00727095024541
4451	0.0211870641018
4452	-0.0138237537248
4453	0.0600955818696
4454	-0.00498105600669
4455	-0.0114800282564
4456	0.0122160918108
4457	0.000585364120401
4458	0.00415486137529
4459	0.00626489798051
4460	-0.0106137389225
4461	0.0174402420858
4462	-0.00203794485405
4463	-0.0314542697643
4464	0.0146811938548
4465	-0.00449430227261
4466	0.0174838936822
4467	0.00412334144943
4468	0.0119679110853
4469	-0.0100478864921
4470	0.016409774877
4471	-0.00640604973015
4472	0.0209129076804
4473	-0.00274299492322
4474	-0.0119432009032
4475	-0.0236575366791
4476	5.76560406213e-05
4477	0.0193072906319
4478	0.0108814614489
4479	0.174238848954
4480	-0.0175213011524
4481	0.0917747434484
4482	0.00489611213421
4483	0.0095840518016
4484	-0.0135828764071
4485	0.0218637057618
4486	-0.0189658691858
4487	-0.0181422516771
4488	0.00675220717303
4489	0.00798596093906
4490	7.23077059014e-05
4491	-0.0124308591634
4492	-0.00239236571924
4493	-0.00181838125743
4494	0.00430515016638
4495	0.00490392756596
4496	-0.0230789895916
4497	-0.0211137247694
4498	0.0178478607838
4499	0.00677971860943
4500	-0.00425429760237
4501	-0.0325990072992
4502	-0.00835938084751
4503	0.00141192803708
4504	-0.00144620306219
4505	-0.0121834355751
4506	0.0156895841969
4507	-0.000367535029842
4508	0.00441859893422
4509	0.00988141611207
4510	-0.0329101397231
4511	0.00997271063975
4512	-0.000665749281015
4513	-0.00197136813861
4514	0.00472663331376
4515	0.00650100301259
4516	-0.0255713431987
4517	0.0136265438014
4518	-0.0205997359946
4519	0.018306970405
4520	0.00661005984248
4521	0.0104822492562
4522	0.0217733293257
4523	-0.00499012405011
4524	0.00655515045938
4525	-0.00811268312844
4526	0.00267325906245
4527	-0.0194733041725
4528	-0.0243007275706
4529	0.0217329653416
4530	0.0183706554866
4531	0.0163665841792
4532	-0.0182421806072
4533	0.0139681248493
4534	-0.0181329926241
4535	-0.0157911798868
4536	-0.0234603018626
4537	0.000157073706577
4538	-0.000144582138325
4539	0.019500405398
4540	0.0218838638592
4541	0.00985263107851
4542	-0.0397940202545
4543	-0.00837934121755
4544	-0.053008302869
4545	-0.000728682642199
4546	0.0306319389125
4547	0.00390605231519
4548	0.0166259916384
4549	-0.00597624104998
4550	-0.0203282690587
4551	0.0171389150522
4552	-0.00610263219453
4553	0.00434463150031
4554	0.00832101450072
4555	0.0139753424901
4556	0.0237790445052
4557	-0.0077535365181
4558	0.0213891178081
4559	0.0165462849049
4560	0.00417662094391
4561	-0.00386073433855
4562	0.00382750019174
4563	0.00663739033227
4564	-0.00596355918708
4565	0.183873072154
4566	0.00747843596442
4567	-0.00239053059384
4568	-0.0115138174926
4569	-0.000935178006757
4570	0.00910603290686
4571	-0.0221534911402
4572	0.0239468022969
4573	-0.00918765417098
4574	0.0689384172082
4575	-0.154183506299
4576	0.00483269277731
4577	0.00509002400728
4578	-0.00814352965347
4579	0.000321912880388
4580	0.00924632325971
4581	0.0167262226261
4582	0.00592708134816
4583	-0.00339857462972
4584	0.00883413022325
4585	-0.020724006092
4586	-0.0416348545352
4587	-0.00162665259587
4588	0.00274405766099
4589	-0.026778394425
4590	-0.0049510378671
4591	-0.016218597642
4592	0.00454554209544
4593	0.00741146578346
4594	0.00763934159695
4595	-0.0200767981321
4596	0.0171535941907
4597	0.0241805757956
4598	0.0117369736324
4599	-0.00333357932075
4600	0.0224620765508
4601	-0.0187014537738
4602	0.0191998794967
4603	-0.0565345920657
4604	0.0115642685623
4605	0.00148614911698
4606	0.0144729235196
4607	-0.00242079517456
4608	0.0160128080037
4609	-0.011136078006
4610	-0.0153296081102
4611	-0.00636389610945
4612	0.00698891195543
4613	-0.0101860606683
4614	0.00632157907429
4615	-0.0108718052745
4616	-0.0109505302018
4617	-0.00812526969568
4618	-0.0139522052721
4619	0.0106452354448
4620	0.0147315074618
4621	0.00900696376909
4622	0.00135122279274
4623	0.0046896204114
4624	0.0234581561579
4625	0.00386719890556
4626	-0.00662072920264
4627	0.0058085689408
4628	6.50277861055e-05
4629	0.00180666081736
4630	-0.0010310032436
4631	-0.0251496224252
4632	-0.0122211024206
4633	-0.00739210718445
4634	0.0149002137005
4635	-0.0198041369715
4636	0.0208141149341
4637	-0.0231621423121
4638	-0.047587984129
4639	-0.0148424737881
4640	-0.0153185607111
4641	-0.000342825897956
4642	0.0190931594788
4643	-0.0140895782146
4644	0.00910705704179
4645	0.00598517649692
4646	0.0174637255628
4647	-0.0137860699016
4648	0.0195108396918
4649	-0.00418559237735
4650	-0.000951776626292
4651	0.102193970594
4652	0.0195758537208
4653	-0.0285878464008
4654	0.00223025930834
4655	-0.0125163509049
4656	-0.0046598656907
4657	-0.0201347876219
4658	-0.0159619727929
4659	-0.0171086064246
4660	-0.012795524042
4661	0.210780134009
4662	-0.00179878770314
4663	-0.0118318554699
4664	0.022779176953
4665	0.00219692748521
4666	0.00151263065115
4667	-0.0100054874143
4668	0.0102625618645
4669	0.0107683500998
4670	0.0219401101226
4671	0.0171659629225
4672	-0.0184422232696
4673	0.00417900588606
4674	-0.00262268999974
4675	-0.00311307860026
4676	0.00525146613024
4677	0.0149648506079
4678	0.0218683988026
4679	-0.00758046262456
4680	0.0185070699561
4681	0.0228577062998
4682	-0.0247576519731
4683	-0.00122712602498
4684	-0.00573554694843
